{"type": "alphazero_linear", "value_weights": [0.0, 0.0, 0.0, 0.0, 0.0, 0.0, 0.0, 0.0, 0.0, 0.0, 0.0, 0.0, 0.0, 0.0, 0.0, 0.0, 0.0, 0.0, 0.0, 0.0, 0.0, 0.0, 0.0, 0.0, 0.0, 0.0, 0.0, 0.0, 0.0, 0.0, 0.0, 0.0, 0.0, 0.0, 0.0, 0.0, 0.0, 0.0, 0.0, 0.0, 0.0, 0.0, 0.0, 0.0, 0.0, 0.0, 0.0, 0.0, 0.0, 0.0, 0.0, 0.0, 0.0, 0.0, 0.0, 0.0, 0.0, 0.0, 0.0, 0.0, 0.0, 0.0, 0.0, 0.0, 0.0, 0.0, 0.0, 0.0, 0.0, 0.0], "policy_weights": [-7.558123955291685e-16, -1.3161216907975292e-15, -3.205465406996844e-16, -2.050250160617891e-15, -2.82422721474208e-15, -2.203778514259273e-15, -6.532158635272823e-17, -2.1276669094716905e-16, -4.6480458642129265e-17, -1.500808627925882e-16, -1.5809922815357419e-15, -6.360623833190336e-16, -1.7642137750684219e-15, -2.402592014227874e-16, -1.7353306291934018e-15, -1.9362473948535337e-15, -1.69071354139128e-15, -1.5009407293976352e-15, -2.086248885944044e-15, -2.1612901307980267e-15, -2.2421850928654137e-15, -4.643724640929216e-16, -1.883649486389415e-15, -3.739803605684618e-15, -2.791360892429047e-15, -2.780588259643221e-16, -1.2644399416394962e-16, -2.8609753455199964e-15, -3.634228334936666e-15, -3.739803605684618e-15, -9.554701898650935e-17, -5.45293355228477e-17, -2.2711064799618662e-15, -9.655514235373848e-16, -2.038300084272749e-17, -4.79518768442543e-16, -2.8485163685375977e-15, -2.8203658922984362e-15, -2.245973304123444e-15, -2.179141577503725e-15, -2.8007110519645507e-17, -1.9949319973733284e-16, -5.100087019371818e-17, -6.64135209103178e-16, -8.11516683490753e-16, -7.026226539447802e-16, -1.134098937465867e-15, -2.3348889354847268e-15, -8.679097976701808e-16, -5.573899065989037e-16, -1.5105610161276274e-15, -1.2244156342461683e-15, 0.0, -1.9904425533462903e-16, -2.230922576258431e-17, -2.3522740219962317e-16, -3.1035937708701085e-16, -4.952635523913784e-18, -7.667477763817487e-18, -3.7065836511196474e-16, -9.987358704811873e-17, -7.100511178375136e-17, -1.9509581125100313e-16, -1.4986102636616186e-15, -1.121305072987949e-16, -2.0718516522365516e-16, -2.737046700396201e-16, -2.031928363630336e-15, -3.175187003040133e-15, -2.866340249854693e-16, 0.16127672756034214, 0.08803785972016276, -0.008897050903475642, 0.13268270461984905, 0.3869030929383716, 0.7996094570712728, -0.22388606617550552, -0.2934898876880035, -0.26098065225748907, -0.7812561848855385, 0.40493661859291963, 0.20960112001404674, 0.04446831795034299, 0.24370311923138419, 0.3338299039163648], "policy_bias": -3.747575166856983e-15, "policy_temperature": 1.0, "benchmark_win_rate": 0.8, "benchmark_epoch": 6}