{"type": "alphazero_linear", "value_weights": [0.5374028502301985, 0.4026311728801582, -0.40784232970716944, -0.015080459006805122, 0.10447516161457424, -0.047775870759735065, 0.0029925294015886272, -0.009226590813027577, 0.002318099079126978, -0.007491512511304183, 0.24142187161169879, 0.2714570762401297, -0.4434113406836231, -0.07879667880307524, 0.4755194847194927, -0.05351741561435275, 0.24315479277801713, 0.029850932058214093, -0.011338298310549434, -0.015042552382434404, -0.005403800361070838, 0.01851834350399957, -0.02199084679604798, -0.04668853476720314, -0.00413804759492431, -0.03757718789498446, -0.011438624564624595, -0.04668853476720314, -0.04668853476720314, -0.04668853476720314, -0.013807844292042341, -0.02708937121341898, 0.04402664631468732, 0.10109415762745322, -0.0543823268365634, -0.7637002898270041, -0.031548039807906256, -0.0387634712167589, -0.017853466240314215, -0.04030975135719072, -0.06602633549683036, -0.09530272865444916, -0.061507339408862154, 0.03221295222972447, -0.03085450252732201, -0.12373514216407465, 0.023865339613197926, 0.00263670554687598, -0.03391661905153487, -0.029805236090215445, 0.060214935319727596, -0.09008888692056502, 0.0, 0.02387403229125485, 0.00023044569702757107, 0.000850603443330705, 0.020801200422281858, -0.0021583917850618393, 0.013009233347169693, -0.13840225757014726, 0.011590964336810769, -0.03496621399355746, -0.017814365815281917, -0.19691641668613663, -0.09614446390449627, 0.20711757864748367, -0.1182058248834753, 0.5079815649015902, 0.0872051449596324, 0.04679885094692398]}