{"type": "alphazero_linear", "value_weights": [0.0, 0.0, 0.0, 0.0, 0.0, 0.0, 0.0, 0.0, 0.0, 0.0, 0.0, 0.0, 0.0, 0.0, 0.0, 0.0, 0.0, 0.0, 0.0, 0.0, 0.0, 0.0, 0.0, 0.0, 0.0, 0.0, 0.0, 0.0, 0.0, 0.0, 0.0, 0.0, 0.0, 0.0, 0.0, 0.0, 0.0, 0.0, 0.0, 0.0, 0.0, 0.0, 0.0, 0.0, 0.0, 0.0, 0.0, 0.0, 0.0, 0.0, 0.0, 0.0, 0.0, 0.0, 0.0, 0.0, 0.0, 0.0, 0.0, 0.0, 0.0, 0.0, 0.0, 0.0, 0.0, 0.0, 0.0, 0.0, 0.0, 0.0], "policy_weights": [-1.3807507300920331e-15, -2.9401914930504718e-15, -1.0208413975254514e-15, -4.522895729816524e-15, -6.3748310996423274e-15, -5.082869942705607e-15, -1.4829782642672768e-16, -4.255381946958377e-16, -1.0903886470223613e-16, -3.228333390583166e-16, -3.749500709915285e-15, -1.4041589072033695e-15, -4.952063065166724e-15, -8.276192231537771e-16, -2.834572854215626e-15, -4.633127654189324e-15, -4.622361521322574e-15, -3.2632252959718652e-15, -4.808065463580598e-15, -4.692676007572065e-15, -4.941187554604644e-15, -1.157832510423335e-15, -4.690085125824693e-15, -8.614255142536068e-15, -6.623972204078384e-15, -5.816007397907422e-16, -2.445786628779705e-16, -6.270747809899975e-15, -8.235252757504577e-15, -8.614255142536068e-15, -2.4666884531844947e-16, -2.085623786249967e-16, -5.2381840184856264e-15, -2.3738780038917693e-15, -1.0548853457414968e-16, -3.069153004658922e-15, -6.46694818301771e-15, -6.512505908286181e-15, -5.0994619132256584e-15, -5.23918937800419e-15, -5.666907915147233e-17, -6.113512474037427e-16, -8.791578576250462e-17, -1.3014633133251645e-15, -1.5979681812369774e-15, -1.8277298172226624e-15, -2.65550313424803e-15, -5.400386341025509e-15, -2.1462739518021588e-15, -1.9578840329628368e-15, -3.894832214735019e-15, -3.16690079422775e-15, 0.0, -3.8593229850010723e-16, -2.230922576258431e-17, -2.3522740219962317e-16, -7.612920710497954e-16, -1.55344487273723e-17, -6.470518565393493e-18, -1.0015946405594853e-15, -3.070583880476064e-16, -7.100511178375136e-17, -7.401405063920565e-16, -3.9009767638376296e-15, -3.9165612327722027e-16, -4.087664806741644e-16, -8.852293897909629e-16, -4.629034095362372e-15, -7.338354565599376e-15, -7.82762438911799e-16, -0.2529039029471427, 0.19149724569978852, 0.021599130969009783, 0.16236439875032788, 0.4740406531918482, 0.9835674481078244, -0.2521715997064672, -0.2830906647370959, -0.22544648576692025, -0.8194562235611792, 0.2848968703979431, 0.18814479614054602, -0.08332431686459514, 0.332757489851409, 0.33899924419896305], "policy_bias": -8.585649552417288e-15, "policy_temperature": 1.0}