{"type": "alphazero_linear", "value_weights": [0.0, 0.0, 0.0, 0.0, 0.0, 0.0, 0.0, 0.0, 0.0, 0.0, 0.0, 0.0, 0.0, 0.0, 0.0, 0.0, 0.0, 0.0, 0.0, 0.0, 0.0, 0.0, 0.0, 0.0, 0.0, 0.0, 0.0, 0.0, 0.0, 0.0, 0.0, 0.0, 0.0, 0.0, 0.0, 0.0, 0.0, 0.0, 0.0, 0.0, 0.0, 0.0, 0.0, 0.0, 0.0, 0.0, 0.0, 0.0, 0.0, 0.0, 0.0, 0.0, 0.0, 0.0, 0.0, 0.0, 0.0, 0.0, 0.0, 0.0, 0.0, 0.0, 0.0, 0.0, 0.0, 0.0, 0.0, 0.0, 0.0, 0.0], "policy_weights": [-1.354485847760277e-15, -2.871574505958211e-15, -9.900413822094814e-16, -4.450552339857452e-15, -6.227131626818663e-15, -4.954210381402187e-15, -1.4558515259116895e-16, -4.1554949513787056e-16, -1.0399487243979626e-16, -3.144429356146763e-16, -3.651072499888368e-15, -1.355369809441522e-15, -4.7831356930761014e-15, -8.067158052682565e-16, -2.8255696393753045e-15, -4.518224178999839e-15, -4.4928123721366196e-15, -3.189042031866719e-15, -4.694628507354681e-15, -4.589892032257844e-15, -4.832932271611582e-15, -1.1300335667208041e-15, -4.5663473002832676e-15, -8.4154211377196e-15, -6.412648190234894e-15, -5.893723009631186e-16, -2.411786048650558e-16, -6.1539662254972174e-15, -8.03419830663886e-15, -8.4154211377196e-15, -2.4395549385653334e-16, -2.077744346961429e-16, -5.091387381139774e-15, -2.3058334755465856e-15, -9.86190296092815e-17, -2.8885617855967e-15, -6.308727815600155e-15, -6.365124411630913e-15, -4.9818263163241754e-15, -5.1207508616313345e-15, -5.484761950169671e-17, -5.896325094845135e-16, -8.874845303097351e-17, -1.2788971528235243e-15, -1.5633715440228503e-15, -1.788711227566732e-15, -2.611439336837375e-15, -5.264861238871417e-15, -2.095172919962433e-15, -1.8992178025876603e-15, -3.804097452502063e-15, -3.080632758598197e-15, 0.0, -3.78849836746805e-16, -2.230922576258431e-17, -2.3522740219962317e-16, -7.382029015845439e-16, -1.538699723191427e-17, -4.562322741819005e-18, -9.693634783758366e-16, -2.9903014201089423e-16, -7.100511178375136e-17, -7.160126712455636e-16, -3.800362802230972e-15, -3.866378935218714e-16, -3.9875908286388557e-16, -8.667372375370504e-16, -4.537960570772519e-15, -7.151447055730785e-15, -7.655648833441399e-16, -0.2972108357729067, 0.1936033754104468, 0.032369847537554126, 0.15043394674354113, 0.4784932808604857, 0.9690183743844645, -0.2465365914033439, -0.2798237262080164, -0.2157112961225611, -0.7846363754296736, 0.2296635693991502, 0.20679513431483712, -0.08397972147347596, 0.3337939954466486, 0.2872224853681345], "policy_bias": -8.38570532457617e-15, "policy_temperature": 1.0, "benchmark_win_rate": 0.6666666666666666, "benchmark_epoch": 6}