{"type": "alphazero_linear", "value_weights": [1.069643741733924, 0.796228316165218, -0.8535377924314219, -0.0011818182689737407, 0.10346881416161696, -0.13662692711811372, 0.0050246797986226, -0.010719535036981365, 0.013270562988030232, -0.016183682427394395, 0.39854219100065497, 0.44592139044448387, -0.3120919483823835, -0.18821260452095745, 0.4137475461572779, 0.027291313765007416, 0.18299355530727654, 0.13980603076772266, 0.04144200001957606, -0.044046118793696014, -0.005323300640345261, 0.049302873644465076, -0.0702563375374706, -0.0865570067460605, 0.0001173755595379019, -0.09072463559331223, -0.016507453302495912, -0.0865570067460605, -0.0865570067460605, -0.0865570067460605, -0.028536850263639533, -0.02102296553289072, 0.05142783415211044, 0.3427944317137715, -0.12336162813604215, -0.9755138745009011, -0.07077430769408893, -0.052422828057162696, -0.016351677713642546, -0.08940680360326174, -0.14054385508337064, -0.19173242537888754, -0.13029994991425964, 0.052946972562854015, -0.1042686771899004, -0.13093083592819527, 0.08722163657894769, -0.09636892232152709, -0.052283307263968126, -0.06164678782131162, 0.13644553823371225, -0.1414046636428625, 0.0, 0.037646254401425425, -0.0005294006682159607, -0.0020305852525431497, 0.0443916671284288, -0.002781327033558621, 0.053795250216454475, -0.23149154798156313, 0.03186169558300838, -0.07891898577499301, -0.0772305645093173, -0.11984072628984078, -0.17466578731200877, 0.44458548820563437, -0.15787573845307645, 0.8002719311197655, 0.12173538470050083, 0.157740391356275]}