{"type": "alphazero_linear", "value_weights": [0.5377858365133673, 0.41514436320674614, -0.39628502259405324, -0.015209970983430906, 0.09905696852196612, -0.04707105910700456, -0.004643767760116519, 0.002845325920707138, -0.00523870766176054, -0.004958368636439423, 0.28038085065566315, 0.24666673168794245, -0.3891592152375798, -0.14016017436529749, 0.4875033727733539, -0.03280014138195303, 0.2580403203803209, 0.030600438910870578, -0.014309098096407194, -0.01949085220434998, 0.00984889911966837, 0.02408220436279601, -0.010271917709506414, -0.04181601682952159, 0.007103062848704137, -0.038785866400059, -0.007985002058296019, -0.04181601682952159, -0.04181601682952159, -0.04181601682952159, -0.024140708696956076, -0.019472181771131702, 0.04601209887200374, 0.12416199640690789, -0.056214285368225196, -0.7491975334874841, -0.04946514612300134, -0.011250768678021801, 0.03704692522907717, -0.08051539013485619, -0.05503456952986334, -0.11488172968896539, -0.08673722327856595, 0.04171341330740246, -0.04107282546176241, -0.09587309365918244, 0.011492644335667884, -0.010253822363378894, -0.04127229088757084, -0.0319938031101048, 0.09739117517032772, -0.13241756182523487, 0.0, 0.0451505889535251, 0.0003601487724393344, 0.001614858618652713, 0.022939289737561503, -0.0010502264474280697, 0.004225410308914405, -0.15547515559967548, 0.015227904515170514, -0.027459273770813836, -0.04392322253224635, -0.21130016288713915, -0.09340799568191441, 0.21101052145314397, -0.16288573644790982, 0.49293468733614076, 0.12759271812038, 0.06688664524179218]}