{"type": "alphazero_linear", "value_weights": [0.0, 0.0, 0.0, 0.0, 0.0, 0.0, 0.0, 0.0, 0.0, 0.0, 0.0, 0.0, 0.0, 0.0, 0.0, 0.0, 0.0, 0.0, 0.0, 0.0, 0.0, 0.0, 0.0, 0.0, 0.0, 0.0, 0.0, 0.0, 0.0, 0.0, 0.0, 0.0, 0.0, 0.0, 0.0, 0.0, 0.0, 0.0, 0.0, 0.0, 0.0, 0.0, 0.0, 0.0, 0.0, 0.0, 0.0, 0.0, 0.0, 0.0, 0.0, 0.0, 0.0, 0.0, 0.0, 0.0, 0.0, 0.0, 0.0, 0.0, 0.0, 0.0, 0.0, 0.0, 0.0, 0.0, 0.0, 0.0, 0.0, 0.0], "policy_weights": [-1.0154775124674932e-15, -2.124533188263563e-15, -7.400547188951557e-16, -3.2200186527580905e-15, -4.546129640040226e-15, -3.596064830169522e-15, -1.112305296307301e-16, -3.168108051841313e-16, -7.530833138216948e-17, -2.461524778706943e-16, -2.640518012575454e-15, -1.0153119664457763e-15, -3.405383613985828e-15, -4.965819422331196e-16, -2.231687057374649e-15, -3.277542884726438e-15, -3.2209998557242423e-15, -2.3603813605284868e-15, -3.4252965523393395e-15, -3.390728282357853e-15, -3.565085065826365e-15, -8.440513912799649e-16, -3.336567133693824e-15, -6.133652613593514e-15, -4.639604672673786e-15, -4.207918735676941e-16, -2.0072485340527676e-16, -4.5896446365656516e-15, -5.874935954386323e-15, -6.133652613593514e-15, -1.582927463829014e-16, -1.2491038731238018e-16, -3.698842447608089e-15, -1.6529095800410625e-15, -6.6491950834191e-17, -1.77925382760514e-15, -4.6134160542107595e-15, -4.6173410661536e-15, -3.644828098819643e-15, -3.724422090046268e-15, -4.2830322621867326e-17, -3.9666187001685513e-16, -6.390721285498563e-17, -1.008981886373169e-15, -1.2311767629336152e-15, -1.2724539344608904e-15, -1.8954898124274283e-15, -3.812601992394613e-15, -1.5035788833424087e-15, -1.232892007795081e-15, -2.7052976094948234e-15, -2.2626406239317308e-15, 0.0, -2.8714409523543664e-16, -2.230922576258431e-17, -2.3522740219962317e-16, -5.688331750075516e-16, -1.6410484082740597e-17, -6.132247487578016e-18, -6.644337857686372e-16, -1.8858680350848622e-16, -7.100511178375136e-17, -4.3198531232170605e-16, -2.8209379276944747e-15, -2.439686105587668e-16, -3.12404175535263e-16, -5.046310591616516e-16, -3.3371285132499035e-15, -5.272343527406685e-15, -5.779632283871058e-16, -0.12288076331005601, 0.18527586830103734, 0.021621674145612276, 0.13793959793313917, 0.43385053373078614, 0.9492791315133079, -0.27262647799691864, -0.31810824774788043, -0.2548401619752278, -0.759511154593807, 0.29027995774425996, 0.18402511610848124, -0.04140070318853548, 0.2910839460955991, 0.29067866213402765], "policy_bias": -6.1024102437912226e-15, "policy_temperature": 1.0, "benchmark_win_rate": 0.9333333333333333, "benchmark_epoch": 6}