{"type": "alphazero_linear", "value_weights": [0.5848937000693768, 0.4402823351479549, -0.43724763786399445, -0.017928537697018448, 0.12027983958777828, -0.06109357656281551, -0.011725245243016182, 0.008584809868228115, -0.0011100426814781958, -0.001214966275012701, 0.2605419565844489, 0.26700030587716844, -0.4316798267286024, -0.06893461707125495, 0.46247938167603964, -0.05058368213593324, 0.21770675162215022, 0.04315204129763095, 0.009559853825405605, -0.008424776073626482, -0.0007173094817022457, 0.011861227186279074, -0.07630488606987491, -0.038135062123820396, 0.013737272095935655, -0.05150257830766672, -0.011472265644077355, -0.038135062123820396, -0.038135062123820396, -0.038135062123820396, -0.019543374708166094, -0.022687038565004997, 0.05573634601808778, 0.10271231722424716, -0.0526010964503186, -0.7705984753607984, -0.02463239465034827, -0.03321649849872773, -0.02282247223825728, -0.02366438943222424, -0.060711596733675405, -0.1038031716615508, -0.0853658525474224, 0.04374274400175336, -0.037251489155985924, -0.11353009490403214, 0.022449673779743173, 0.002424360910336468, -0.07701878392867025, 0.004622661671215926, 0.06823876878840111, -0.08955704022895113, 0.0, 0.02692746812288445, 0.0008437660042573439, 0.0009005325415128076, 0.006337669728495381, -0.0023770132854646076, 0.035627316659110536, -0.13091392403064536, 0.006411284917308005, -0.03421546309294742, 0.014469364529302267, -0.17645020898777303, -0.11142111175983047, 0.22530609936666135, -0.1422094553304244, 0.5258779076255649, 0.10672060529579865, 0.06891802972703553]}