{"type": "alphazero_linear", "value_weights": [0.0, 0.0, 0.0, 0.0, 0.0, 0.0, 0.0, 0.0, 0.0, 0.0, 0.0, 0.0, 0.0, 0.0, 0.0, 0.0, 0.0, 0.0, 0.0, 0.0, 0.0, 0.0, 0.0, 0.0, 0.0, 0.0, 0.0, 0.0, 0.0, 0.0, 0.0, 0.0, 0.0, 0.0, 0.0, 0.0, 0.0, 0.0, 0.0, 0.0, 0.0, 0.0, 0.0, 0.0, 0.0, 0.0, 0.0, 0.0, 0.0, 0.0, 0.0, 0.0, 0.0, 0.0, 0.0, 0.0, 0.0, 0.0, 0.0, 0.0, 0.0, 0.0, 0.0, 0.0, 0.0, 0.0, 0.0, 0.0, 0.0, 0.0], "policy_type": "neural", "policy_hidden_size": 32, "policy_W1": [0.07428005659351061, -0.021230541714318738, 0.09873606460839636, 0.23452744102295808, -0.03615958391247495, -0.03591422651998493, 0.24381695751667987, 0.11628900354648702, -0.07156794124547618, 0.0832045674113772, -0.07017036820743315, -0.07008657270333955, 0.03799853938149702, -0.293096917847517, -0.26989985858589993, -0.08630292910767669, -0.15536466496050214, 0.04794323351605677, -0.13931124192779984, -0.21669022997345685, 0.224296862703267, -0.0372853427922143, 0.0103530827376913, -0.21805732475648845, -0.07924137025750046, 0.01678158314747526, -0.17634426700008152, 0.05649043386053046, -0.09131605633148643, -0.04481038911601859, -0.09242342551463889, 0.2828369739022145, -0.006757786985502666, -0.16233208052866657, 0.12714161711770763, -0.1855560407947934, 0.0315602050169817, -0.30059976986897285, -0.20245085266999643, 0.02864709592967116, 0.11393578615847484, 0.026256178158925635, -0.018108527224586137, -0.04457664367725055, -0.22491077444171803, -0.1092162440011286, -0.07483356055929465, 0.16209382393200705, 0.05271805658878011, -0.27098698266307686, 0.047334301202083956, -0.05947107342734036, -0.10387332912073557, 0.0904671822680833, 0.15815352939002805, 0.14467322447240877, -0.12508606314906526, -0.04765648589936539, 0.05082749409316629, 0.1470964258275789, -0.07200900674206681, -0.02844964590321301, -0.1650119212629316, -0.1869306883544881, 0.12275742100353593, 0.2079808339573882, -0.009158438762549391, 0.15428975759604552, 0.055357569767085384, -0.09895806279952764, 0.05435786507903805, 0.23650869312783318, -0.005487488039896176, 0.24000538080629966, -0.4035729389471457, 0.12560424697629174, 0.01392236903122104, -0.04519376253716397, 0.01756735101712527, -0.3048779358091419, -0.033681517570491086, 0.054576056493346, 0.22404907389539533, -0.07985842052273324, -0.12326333007170989, -0.07635668422342087, 0.1404223138901453, 0.05156528562442711, -0.08399484872972307, 0.07881333638774665, 0.014597727107182197, 0.147680600876516, -0.10735933232520645, -0.05012380935491338, -0.05507088295206735, -0.22607075317305161, 0.03815872741262262, 0.039473871292974694, 0.009872001914966544, -0.03677016415880254, -0.21747518722746795, -0.06452797178121326, -0.05267988168992292, -0.12842672557166274, -0.02315361563298506, 0.061968595340938834, 0.27782090072827553, 0.027903890090014073, 0.04130583796885922, -0.01101808423832266, -0.2729304009031944, -0.004136481096929822, 0.009320976441201195, 0.3769785505467138, -0.026013490420911792, 0.04622981432695751, -0.004319186727233749, -0.18237775117279215, 0.1755062643911175, 0.12466993232988868, 0.11278108484975558, -0.1371897095991855, 0.21330873426797378, -0.21890634207972628, 0.091865097653458, 0.3359924809027357, -0.1367924998581418, -0.10245357913816792, 0.0017537317676959124, -0.07803927238564878, -0.2251515066625275, 0.011922508782170022, -0.1638429240832097, 0.0726428793947051, -0.13885518988928727, 0.2519224378404086, -0.11823890204706437, -0.04939999705647004, 0.1094164273244789, -0.18085457302395821, 0.036157647902722106, 0.20120102518366048, -0.2301451322083444, 0.0282626123400922, 0.039934416074998355, 0.11845395503064386, -0.19505478228379358, -0.20285359208377574, 0.0811750072986661, 0.04034016374291982, 0.03847731943153026, 0.060408703784112665, -0.09935891570236119, 0.03752132383358561, 0.0438146442491388, -0.11328188187601462, 0.2890924772729162, 0.07456635669059414, -0.1598597898214982, 0.08601231317039314, -0.16361401962980027, 0.12012501996233357, 0.18828582862320134, -0.12505642421621033, 0.1468581411365709, 0.06331790981624955, 0.1313167712409756, 0.3016765484126899, -0.034897440487013535, -0.11566351956799423, -0.14263906484591551, -0.1159881837494479, -0.00936889865572148, 0.05266345458841881, 0.05407370550189084, 0.12671710158603003, 0.0020033397775596987, 0.2216360621509645, -0.03675909853973593, 0.41719701878723425, 0.09654080599700136, -0.13951410089040867, -0.16421440248782068, 0.08342655518124037, -0.01890142545979253, 0.11002782255685305, 0.07236026889078494, -0.015432500023717686, -0.12624886315140282, -0.23052744713908108, -0.0524070551627914, 0.11350614032708375, 0.03262436848989186, -0.19110574195428198, 0.026889937085620617, 0.05900369743283001, -0.1356078263746494, 0.023579940827446546, 0.008939978501354718, -0.17574605640831448, 0.05495759266385526, 0.08602041960235816, 0.16592276279182902, 0.16166010697717925, -0.2111024819732362, -0.14381069430193671, 0.08003432007269846, 0.07879679075399332, 0.07900505313269246, 0.5909504681048654, 0.08896510842423686, 0.1741800403733709, 0.1463217162794006, 0.09960898548550796, -0.04835021382435452, 0.11706548919178209, -0.11881590498872424, -0.03615364324694806, -0.07451469369599394, 0.012318392825341308, 0.3551360151962406, -0.2864401428566691, 0.10567210281141964, -0.24843736153689172, -0.07276100399282623, 0.16698339333064283, 0.010642814494470994, -0.1653569614054238, -0.10973378154198893, 0.10424544525039575, -0.11212156529618515, 0.03259030961352958, 0.007093874022690904, -0.0999484527027056, 0.3276308192854879, 0.09690116175633792, -0.31054572105248174, 0.02870938373534149, -0.09905989096137854, 0.1307417058038283, -0.1215637074758564, -0.017667071121962426, 0.07800652873391065, 0.1328131347953021, -0.18397145850430124, -0.05146386614168195, -0.07283389803989884, -0.09937517249238, 0.2687601022709429, 0.06256424285866816, -0.19367198445284806, 0.1404513206246278, 0.325731187976738, 0.15834223200536823, -0.23184690220265444, -0.0753678221289702, 0.19411561429380214, -0.10856722031923075, 0.06837092083954946, 0.11877332809597753, -0.14221511397829625, -0.009131025221017126, -0.49708740203207435, -0.15776030118231654, -0.03864665505743633, -0.1914146712941319, 0.2502155108814502, -0.2193203496142796, -0.06741048221700643, 0.020046363856394654, 0.221851724234459, -0.22022899331563506, 0.1784219272511856, 0.0015252793062375343, -0.15003233027498517, 0.07087325891966287, 0.030545073197599137, -0.09217912005670893, 0.010719898571419039, -0.05860039307530721, 0.017431485504311707, 0.10159367121941162, 0.2431879602887712, -0.19001309524916565, 0.32740233427081616, -0.29944783410309406, -0.023063982818636034, 0.08924737015785132, 0.04299431808023442, -0.09557345070921668, -0.03133437709116007, -0.07545536162362775, -0.09046437853045834, 0.1303222916893024, 0.054822780265401, -0.10685047919456786, 0.1380999344913366, 0.047122923917530764, 0.12385059323023882, 0.09679830264252147, -0.1271306071763824, -0.08593719209057586, 0.11520234410360781, 0.09362901900409662, -0.0031941682575852516, 0.017920340516564534, 0.19554072944385303, -0.09080091666285806, 0.08395259878868802, -0.031474354531270746, -0.03337979531520906, 0.168925178506069, 0.12553943478398066, 0.12515364062142745, 0.20008865717387195, 0.0030557118342646097, 0.10471342772457563, -0.04759391863972416, 0.0502106015237882, -0.021337947848523917, 0.004465918245846896, 0.09079244772867116, -0.1143788453127325, 0.32152144846959757, -0.15479967860418528, -0.1862501188153245, 0.17969447491863993, 0.13100961374740924, 0.0972622004518247, 0.0963978586841271, -0.013065766069521794, -0.13393718883405792, 0.013671389908759171, -0.10356108150732443, 0.16169129741963637, -0.02268640125932318, -0.1265722707571213, -0.050459049216228666, 0.06391817484922094, -0.08675734857917558, -0.12544460648027245, 0.034132096813534255, 0.037647960109997526, -0.07099017906730465, -0.06440991908386985, 0.03715141524355367, -0.22284859715348315, -0.2188317355304129, -0.10715880762515086, -0.03139960323854482, 0.06271389437678478, 0.20985114276610958, 0.12548757099880598, -0.024695230673087785, 0.004426691867460817, -0.1534306057745703, -0.002994931451996088, -0.044277877846307385, 0.05123749105608285, -0.11117159582462512, 0.08039002860388714, 0.23511141666339055, -0.01751427291880318, 0.0666420698885962, 0.10591233456743074, -0.06162213802674812, 0.03587779389654838, 0.0018330853669689898, 0.014982829566831876, -0.1187998519463003, 0.006813906929347384, 0.07637438975897708, 0.22265937078067916, 0.14651612715201304, 0.33025878665321723, -0.11663096324576802, 0.14473363314914486, 0.02779123976776362, 0.336020791631104, -0.1247666237088038, -0.12776258435147242, -0.09034454918707184, -0.3200641791810772, -0.08827615462581948, -0.11682013185332837, 0.022524556960915338, 0.05831828019774822, 0.2885406846782384, 0.14450703467014486, -0.08850270181243533, -0.1409015299203438, 0.08072307100632195, -0.20285997337478048, 0.28095282126111687, 0.16096449969812443, -0.07130017353539507, -0.27141853485669765, 0.20851317757930068, -0.01692376977654703, 0.1901103988151374, -0.24446477986037038, -0.09444250794994127, -0.024017029033431357, 0.006355627688204608, -0.06712309286444576, 0.0966056241628326, -0.16360706446465167, -0.01664877808158634, -0.013568920060062365, 0.08234992168090915, 0.10689526861946079, -0.1745524340526217, -0.23391590347698574, 0.19788102899551877, 0.07224632211119433, -0.12611852890335, 0.22135642650357898, 0.017562189771468895, 0.18192534710750108, 0.010415011986077994, 0.31610430184487104, 0.2692557354367905, -0.03154229195609474, 0.14688359137159226, 0.10228279608186076, 0.2099384974517914, -0.14881495024998834, 0.09479167981225818, 0.1714595296273908, -0.26912894365866846, -0.16020882081189944, -0.313259898728765, -0.04132512195503513, 0.11006595764281346, 0.2588736065145728, 0.011969085876678298, 0.249818220749148, -0.21285581893077718, -0.2613008513240342, 0.002781222665581358, 0.08811438416953406, -0.005144277440313111, -0.317318315171354, -0.017994445640862784, -0.19695934556137407, 0.10233781723172092, 0.060013900062163894, -0.15155560574494456, -0.0790179294325633, -0.1628333469745431, 0.001582564704603878, 0.14675245797907677, -0.1512034732268606, 0.07732284709034767, -0.08085539890531424, -0.12022758339684705, -0.015863008057990746, -0.15889969156505232, -0.08291030799909854, -0.16609628926851677, 0.30323763863567876, 0.004783570735586818, -0.09896078378414293, 0.03286670840904765, -0.017230336275674836, -0.03361167323220518, 0.0941441219468138, 0.11610269676762808, -0.08170480464742687, -0.09754771865380629, -0.04215650695510403, -0.35421598291855766, -0.23068989704708928, 0.2094383080797053, 0.252581201462997, -0.0383788768686338, 0.08849072124066844, 0.047941274131206815, 0.4734805319314886, 0.16164217497262687, -0.028093267372650988, -0.14717954747064205, -0.23789848589698243, 0.03193961564306218, -0.11664652834938145, -0.21816573233684688, -0.09453069882197064, -0.15715797820567876, 0.26052722399056183, 0.13519462376014424, -0.010714400078845993, 0.23118281157642184, 0.011898705992431882, -0.13217243635752005, 0.2425298198149432, 0.0825956800630454, -0.15904609016100274, -0.03102373293512498, -0.1361963497549213, -0.2125781619767251, 0.14220336355543783, 0.28705175625052193, -0.21447515557991612, 0.09474259331197586, -0.09263030951199681, -0.07310614213879695, -0.09140585819902815, -0.13636912756399286, 0.010500057746201722, -0.1258949578016135, 0.058814567745678246, -0.022501385536788942, -0.04954175132367436, -0.14019949070174467, -0.07120767168784572, 0.11594175896324671, 0.07618246867337293, -0.14995053189465485, 0.02704880084088233, 0.12247559184605245, -0.25346627981934794, 0.08328726306934535, -0.11030761486478821, 0.08976163106674974, -0.11312963841237332, -0.2770138651189253, -0.2309394840730452, 0.007191013337242754, 0.03990930837427687, -0.14090253495171773, 0.1008071849022219, -0.25487493683409657, -0.010610875637409381, -0.19461185268242434, -0.09993725786024683, 0.02051260452878757, -0.12571952573083117, -0.05744014027970952, 0.15436302926408985, -0.09508106104957861, 0.13245263454109368, -0.17155842767562596, 0.10301376372012828, 0.19867434166877815, -0.3853959317566752, -0.12255874729674665, 0.09536866755177888, -0.030692245699343704, 0.05632436871909101, -0.09264939614515225, 0.013448407897400391, -0.020085386337662464, 0.18040174887815413, 0.03900167882742219, 0.04473215184242755, -0.058381921437760206, -0.07404373719210988, -0.06583803488752105, 0.07135801724549318, -0.06462212406292318, 0.044494903135558254, 0.31772253447879356, 0.1331120645854814, -0.050149357804891444, 0.1850778486093215, -0.06509167642193026, -0.31256474658593253, -0.14997730300416068, -0.2889192249849845, -0.05305998745693455, 0.001983278093814977, 0.2550345179317039, 0.051535348573225614, -0.032865822124907726, 0.13657219465946263, -0.3493456243026956, 0.02738577698477681, 0.11768846576325837, -0.2169221301540215, 0.1760477784604102, 0.051260090065125934, -0.06370498799376288, 0.09863341279326168, 0.35179887987216735, 0.029588003023099944, 0.03803298595971706, -0.0817189079466833, -0.12586974832829104, 0.12833396731076813, -0.13090240310907517, 0.025821183061106676, -0.07339854467944999, 0.07352463465346194, 0.04997151424394586, 0.15848297733760316, -0.07845277910034272, -0.04054762549404891, -0.15461311844959288, -0.06807295885736966, 0.06512056124120892, 0.11486242974862317, -0.13960919846002087, 0.13210206067231403, 0.20470360695217815, 0.06570065611550453, 0.2888842120309771, -0.104018896467693, -0.2045731019870405, -0.28170869068364873, 0.22892512063612946, 0.10959358169514213, -0.007769924004235648, 0.04228636645733057, -0.17264462281168913, 0.3769941348593842, 0.024050498966514077, 0.018455899058065363, 0.11129863119795766, 0.06394031193773306, 0.0389503613906144, -0.12022976116013527, 0.07279810245836911, 0.3033094436500432, 0.20630448635148038, 0.24443851642582176, -0.07952540282772409, -0.1515487877231949, -0.019502547092795707, 0.009384692600684339, 0.16322984719139255, -0.25952813497009486, 0.24178730021500844, -0.02379462433376037, -0.06401792938926246, -0.15628217904688557, -0.2569440281996551, 0.12854333078779676, 0.012236251801431558, -0.1836951933497237, -0.2123646472387852, -0.06140534457887146, 0.25542051548572264, -0.02991024857594139, -0.22993012462269422, -0.038455717304068646, -0.04183615094892249, -0.41060518273971686, -0.006304414729141909, -0.03322118920474373, 0.10670768283669355, 0.2746086542182637, 0.17909682518921022, -0.03996574036358365, -0.16925683347355325, 0.40969593776486396, 0.008979852210146657, 0.0021653596801923312, -0.004949162048338167, 0.03272843444374005, -0.02233000871458239, -0.08715354865235914, -0.08994411227548295, -0.004909166334706785, -0.0746745155203991, -0.10586605701965694, 0.017655119451388635, -0.04006347863776304, 0.22693251797276115, -0.40371897737706464, 0.1684378013298224, 0.2050661487494988, -0.3345826051357082, -0.0525647090261577, -0.057176671153883286, -0.21570052060670497, -0.1181080204822147, -0.17060929860853477, 0.26878244339307145, 0.14372639746681212, 0.18424834886192415, 0.11054141995242066, -0.17318366810506117, -0.08411881806316403, 0.07602539130420695, -0.18778557323009962, 0.10947552304197003, -0.03369578002891883, -0.057390729153698646, 0.1091226903457286, 0.06744065586682028, -0.062480537431367986, 0.17777269487301042, -0.16594952969799473, 0.09111956064629355, 0.09112601274558962, -0.04547554063540176, 0.048706759388746294, -0.19011053801200264, 0.14185865422730293, -0.029226705844104015, -0.07923451915934945, 0.16090285080896385, -0.10274699864675665, -0.217988522804255, -0.2386874787408726, 0.09242271834013739, -0.17864711400380237, 0.2690095342449905, -0.31935339301971033, 0.2602193044274037, 0.03317621091784444, 0.006396473728341998, -0.08357230259709962, 0.061239599185206293, -0.0227639542972213, 0.16902833095370529, 0.013503529153692104, 0.022787477437655936, -0.058232549913665686, -0.008598324526076227, 0.04728433129613119, -0.2641878160983461, -0.21420805317108216, 0.11354312203884424, 0.027753722525083152, -0.023752935507268248, 0.0029003817351475536, 0.058478920124933075, -0.10085109677879411, -0.11492120211798465, 0.0277155767175706, -0.1504185185474558, 0.06419884633299565, -0.2591286854606892, 0.17122492070805698, 0.06590420031317173, 0.022124903726048348, 0.1496542203932293, 0.2735939404278943, 0.15664494430262854, -0.28365854388132095, -0.1962834848835294, -0.0918043330537702, 0.00851326688826955, 0.08290116917154955, -0.11140491654803511, 0.009908528425521661, -0.10799638485973798, -0.09147105746586767, -0.21490955973649073, -0.11130471572582905, -0.20751318305585434, -0.14958286526857967, 0.15940221342209143, -0.14209471221912456, 0.4034478934526461, 0.07725566737244909, 0.019038221409034606, -0.13148705457336948, 0.12279832560459236, -0.08938900362892413, 0.021794292584947823, 0.3905050700039948, -0.021277675979184486, 0.18088501078083072, -0.10615557139463117, 0.020886761232060735, 0.24284507798429739, -0.1061951511337227, 0.2779943662889109, 0.12070072827353527, -0.08487848171366795, 0.09593970629592624, 0.14917880475469406, 0.09962479157110442, -0.23098103212998994, -0.11018675111373473, -0.03797566983802508, -0.02628376324016348, 0.10200881539457368, 0.028753230240244045, -0.20315672362658596, 0.07645218063591079, 0.09345067939309946, 0.085926382253197, 0.16412101493028494, 0.13133143151136487, 0.07011053545670935, -0.009877899568844857, -0.2580218647186854, 0.06602392542430141, 0.04349225164432084, 0.0412676250636121, -0.19267334230584338, -0.1668574453636038, 0.15579395065636695, -0.003066598810465512, 0.10558350083703813, 0.024097964613154905, -0.018264750602527212, 0.14365484425879133, -0.07928876954092723, 0.015107549268900915, -0.07095789524908952, -0.0666486788453701, -0.047425493332378534, 0.035037695643322576, -0.07395035108964172, 0.19328841598849933, -0.13729934902271765, -0.029237901460764566, -0.0668650277262074, 0.22165783765371821, 0.030119485966947572, 0.15863327689634604, -0.22778703957639043, 0.0409719173613884, 0.13637129321733812, 0.011828650531827238, 0.1634304192686384, -0.07924211361009972, 0.2139159359097437, 0.3526066274492793, -0.05609155896287899, -0.06751879289698293, 0.2228918551336144, 0.24201871297978686, -0.0802489993178278, -0.06418713551090675, -0.043303952334282365, -0.20442640809294546, -0.13988721996772946, -0.15402816239463796, -0.11793727770144387, -0.004163598469298584, 0.03561464844903418, 0.2378180630406811, -0.15314051914419083, 0.15071372635997826, -0.03359774193808, -0.007646210373674917, 0.1035125848567095, -0.17289520095216007, 0.05769404560644149, 0.02543171329197642, 0.07553857564157672, 0.046854421129045774, 0.37662584888474127, -0.09782484798176655, -0.08157606530771383, -0.09543443803144439, -0.08525867402894349, -0.09782565817797283, 0.18251804056343526, 0.21791620772885212, -0.08744132735528216, -0.1274278041428312, 0.07248386219370781, -0.08487688067733513, 0.09663323050196497, 0.031291187447026046, -0.2322989958677309, 0.2377332745224376, 0.2740696558884541, -0.10016775481831504, -0.060260288122677114, 0.06458102803317763, 0.051418743588980076, 0.09964964518686041, 0.30834572494225276, -0.022208059624958486, -0.10961535027290621, -0.20884831070474508, -0.11221640282062788, -0.026032394404204337, 0.2669565382112886, -0.07501028361968391, 0.03571827085068345, 0.016856233452668887, 0.18223704197785034, 0.38761373996564424, -0.08344766121674703, -0.06568068726775417, 0.15979263583581577, 0.10547958222846457, 0.2826810142818931, 0.08975547595743448, -0.04444201490703867, 0.08987116426586793, 0.17317950900452442, 0.12310930066537228, 0.07036026734554923, 0.16502603141102481, 0.18168233627853445, 0.23427210239772175, 0.07686144414269426, -0.04278300805976094, 0.021554023427216136, 0.2035047387910321, -0.12375397112229573, 0.055312579642160166, -0.060340396983626594, 0.008219883241056524, 0.2034297409955753, 0.03282127039711451, 0.007042143891962284, -0.22678408637197997, 0.12103066344710538, 0.10100739692352488, 0.33272915057620644, -0.02018558193775256, 0.0333972841744798, 0.03836296928784882, 0.24008805409172665, -0.013192441238103142, 0.042493627795346656, 0.09436388711959678, 0.020890079229155284, -0.06828935132389694, 0.04441538632879789, 0.16507524186392655, -0.15599509807630715, 0.01834166483312901, -0.11342184281936904, 0.18742799268521196, -0.23194997287572575, -0.05861754819764338, 0.029814632899402834, 0.2229921591859222, -0.011169325165318475, -0.0670418970763334, 0.28960400133861336, -0.22339652001749935, -0.33728677527850176, 0.07153359719659623, -0.07250052003479927, -0.153154063040864, 0.10857602150480636, 0.018657136882379056, -0.07865164454857293, -0.1940582382451022, 0.1346912477655922, 0.1300491073758867, -0.015387112413012424, 0.2833704430644297, -0.16636257050901532, -0.23046844972312022, -0.1064749357673337, -0.005408420002152771, 0.02801222190656936, -0.036824903597294754, 0.06937852648671712, -0.19306757593606225, 0.22454222205145322, -0.014795387388266674, 0.16484259700765527, 0.057166198297833544, 0.07176951394310734, 0.11365206182259621, 0.03989201818018655, 0.09743119654790296, 0.20384431221895766, 0.030095516809599817, 0.10885741021728004, -0.013832773093965441, 0.22090384552685033, -0.10344662432232894, 0.2746336012780288, -0.006092248964521955, -0.21949480062567078, 0.018699674292899822, -0.10322052017289213, 0.12875723105005868, -0.10020948814338543, -0.06675546329032762, -0.289902202645945, -0.06937327428738001, -0.3719264152930348, -0.24332753671564428, 0.11664553173295061, 0.1204497626853652, 0.06382619030834243, -0.1483127583078451, -0.006383851769383532, -0.000809008019247996, -0.17758146232270455, 0.23053659568599957, 0.13405658347957608, -0.03352936846592682, 0.0040792963379749645, 0.032754060912245656, -0.31529271178538065, -0.03950154619457734, -0.1046840253976657, -0.15297885580697265, -0.04300228245156394, 0.2757052512185966, 0.09830046987859645, -0.08626532876299953, 0.08724453281495242, 0.2150290941796056, 0.14182815979825564, 0.008452623581056572, -0.1006428063303084, 0.10787784207968439, 0.06048996905688734, 0.13942232718405173, 0.09747705999698668, 0.16099403731992426, -0.08221444405783404, 0.20538330350595965, 0.030347960743174255, 0.3183721806821667, -0.10595639955445912, 0.26631972186493696, 0.03239039412521853, -0.09858440369040848, -0.07399353301352252, -0.049327819263013085, 0.06430347979254389, 0.08063581727876744, -0.08804912961710945, -0.002874568263356844, 0.32586323386593613, 0.24924719623703684, 0.06636310079511336, 0.013699491908526866, 0.019922428107642484, 0.09316655284709031, -0.15688928195724472, -0.03492816443305613, -0.24633750945847357, 0.06397246737280668, 0.09926035090685394, -0.08239839941066981, 0.2536934336005155, -0.18505926618616902, -0.2241067075950835, 0.046651910424651485, 0.16035615157525598, 0.25831801678489824, -0.07169437474577843, 0.16367731331717014, -0.006060480968292823, -0.025842294290578858, 0.12767838496787717, 0.10007833849045196, -0.23458682387350036, 0.24380228313654678, 0.21170951347995653, -0.09596795127391866, 0.05586068387525985, 0.0785775659653361, 0.04187140918157205, -0.06712364736737815, -0.12192857323015466, -0.004106238346482932, 0.17971859442738242, 0.08398650114628356, -0.05535290531749186, 0.11768970311669254, -0.4369481136054679, 0.17675243885854597, -0.2671601486706821, -0.055648418610102106, -0.1717395862111673, -0.20242089123876825, 0.18053744748515674, -0.07387336743011184, 0.05323661219725396, -0.014983316912862971, 0.07324438828064943, 0.011806060009088017, -0.1978250112223166, 0.1428260924515829, -0.07619410685930526, -0.23901669889240093, -0.06784145766594558, 0.23024129382647315, 0.13121309999078132, -0.05861937211160778, -0.05304918964935671, -0.049653020740868976, 0.31684110113358543, 0.059335596304127575, 0.06648691838987707, 0.162744238724036, 0.032784941514190855, -0.03964671469469701, -0.030118691962728646, -0.010983131825593047, -0.005695890131523729, 0.11133631282699917, 0.007968151675359357, 0.11120619437846033, -0.013150565086359025, 0.011941657276622846, -0.30650999314539523, 0.1397051718974525, 0.052320266754945846, 0.15246495330861462, -0.44331502533830536, 0.32029918865092827, -0.02140066427044609, 0.1699874843359874, -0.15951428756002944, 0.09049760726468155, -0.1615988024172082, -0.09486750026996914, 0.29370120537786465, -0.029242772505711355, 0.03342621412253531, 0.1291619728595831, 0.07597804025286571, 0.022981115151262773, 0.05647317188153651, 0.368667121505574, -0.008838320004852544, 0.03140569739266293, 0.16005667778088933, 0.16894491490749844, 0.1819815221416812, 0.08709642888814131, -0.17277028262500932, 0.2491427471276324, -0.1758417107570197, 0.0467654311510649, -0.10259641842788503, -0.00992084302066034, 0.0504298516703687, 0.04037126664705907, 0.07577509939704015, 0.23739107870069215, 0.07025007484601037, -0.06621795186770499, 0.1479643444270971, 0.18245644405447267, -0.19069606326897073, 0.051282525466408505, 0.10671018770406594, -0.04514169657324007, 0.20755055052384555, -0.023064510149406074, 0.015482170571776168, -0.03694257881621844, 0.0017141756393114326, -0.16777111891929689, -0.22299399530698188, 0.24417033698746685, -0.1271497551715327, -0.13493712599401225, -0.32929761450193573, -0.11096273519324153, -0.20377042414144883, 0.2654597979395527, 0.1557859267176025, -0.10652330387866986, 0.34550395896995684, 0.15353159808596845, -0.04565575648737794, -0.3808083995776401, 0.3513594868297159, -0.2273786788053711, -0.2462349999093133, 0.1585440143388995, 0.37490352865648385, 0.23477964930148779, 0.08637520474488422, 0.0913132025053393, 0.1292477684272919, 0.11840084449349556, 0.04286569365634467, 0.017184751759428685, -0.016539290928970937, -0.11552232272296727, -0.031787154019676155, -0.2601268335806804, -0.01281151692384623, -0.1532539287629626, -0.1741065336353491, 0.03101576067109783, 0.21485291062460116, 0.1609253730208905, -0.2621218034708058, -0.16491225622153516, 0.14347915515647347, -0.13742010503636967, -0.03350082762879707, 0.08333430103706117, -0.1485409810038578, 0.02019690887303162, -0.20179585336133252, -0.08942686332854735, 0.048949828185410535, -0.2571589348757042, 0.07563460742509881, -0.0013841910605601052, 0.0854118772330644, 0.05583686261378748, 0.20909327617954737, 0.019243637675618267, -0.06760559613554842, 0.022067852593225856, 0.08302442311119958, 0.008647502632886326, -0.0016729177963827162, -0.10754160134991336, -0.08984489852902494, -0.21136441934770672, 0.2700060619133534, -0.19218854489066275, -0.11138474869424626, -0.10645509554347243, 0.13857895051087235, -0.025939977987815915, 0.16913812841250137, -0.11348493615330921, 0.042151401317039025, -0.11743124842546232, 0.32964952070184983, -0.18292960954396814, 0.047521103643944546, 0.0996399383606919, 0.06578278394352077, -0.026329821599924627, -0.019962464600640512, -0.004396403054396333, -0.017991531706855676, 0.14927396610146856, 0.3395808174959194, -0.06737673537784652, -0.2102239771811346, -0.01347629297402669, 0.3943850654602621, -0.12096925947995678, 0.2512389842896516, 0.2582790779317513, -0.09045523860787959, 0.08738345614806733, 0.25900224592235793, -0.05904036968499283, -0.02937578930509841, -0.09053768621400736, -0.15958619070470387, -0.096864652894706, -0.18675734881147413, 0.020674962542272, -0.1353225507887173, 0.02486085764130139, -0.23937718671897865, 0.06188702433892495, 0.12814080787246146, -0.30652428201515725, 0.05737410419129472, 0.1917013368138961, -0.18193511810062404, 0.2588312754855334, 0.0641953593557863, -0.12078248260654736, -0.0037998978146398326, 0.08758183314141472, 0.012237446794282493, 0.09955279647960065, -0.14128055070549492, 0.025997611356564004, -0.2181966638569495, -0.01649575498302528, -0.1387698255808933, -0.11183317132317723, 0.18427072455576265, 0.1674826436390981, 0.10293534537782635, -0.16808847523309953, -0.04704223599980696, 0.1847902456112994, 0.01814329467187913, 0.35829181703862384, 0.06137083411133023, 0.046050097030985476, -0.06422984863252929, 0.02049613282957298, -0.023413300087120805, 0.10916393941251924, 0.14706214048038374, -0.12065053370597015, -0.20420219695814107, -0.28190220184986436, 0.07805357149853098, -0.16926200035282804, -0.330238341922682, 0.06017230814119971, 0.38237854262273835, -0.0008595229687611496, 0.1286100818283926, 0.013392917961214074, -0.015130511210400542, 0.14097989690491888, -0.0445822562333661, 0.042471141317222384, 0.04934619086826983, -0.10261726607482136, 0.15178113130060303, -0.02683564576875404, -0.11561779957731574, 0.08145288631020504, -0.1376911999697918, 0.004192478863679269, -0.001326045972667087, 0.16663071051813874, 0.0728122229976004, -0.0035653021222607907, 0.1248160626584116, 0.2128277611191167, 0.08556419507802086, 0.0013993708540798793, -0.2020765148305115, -0.16374957144556465, -0.04682171533491548, -0.09723951404498099, -0.030395271751064316, 0.008569271507247424, 0.0812511594875486, -0.018552660827664463, 0.07408894463644473, 0.007434327084666454, -0.3019317015527055, -0.1426590831200872, -0.022118298135697934, -0.18551913978874018, 0.09202731929824366, 0.2286401490257494, 0.18693730271394435, -0.03125604891591109, 0.2313576788946904, 0.022857091144248467, -0.052078077489278056, -0.11006465594100374, -0.046119490442221356, -0.06075302139867595, 0.026619127463161828, 0.02347231403112263, 0.00046751024697366914, 0.06793411849392156, 0.18006520146282357, 0.1337884254413733, -0.227954439910933, -0.39072420216657694, 0.14331813206070115, -0.20966962113717835, -0.034476961743309296, -0.17412285297318245, -0.2785503052200659, 0.08538360427954206, 0.11644908581098866, -0.08867412589646244, -0.40541104981703324, -0.08049736132975574, 0.05980769302891911, -0.21924148429208604, 0.028050794709301264, -0.0023484236600442923, 0.08885925970618505, 0.02688667685159732, -0.14877237735925214, 0.1835456896858376, -0.025146366089904584, -0.004188325168143495, -0.13704861288242767, -0.06700251540175121, -0.13576648627767524, -0.026466653755812232, 0.25956012080641516, -0.20902949902116197, -0.2479031197066113, 0.22677907637030684, -0.034630672389095785, -0.10785649350799352, 0.15936302762728669, -0.08737436082753203, 0.2806681014780908, 0.10351059614069692, -0.07484329419431633, 0.3329883293289571, -0.08561054015026832, 0.11524854346188622, 0.04590054868496887, 0.1964387724232122, 0.2419902076064929, 0.006446303016659615, -0.11543731115924703, 0.07602192427831905, -0.10393755332078138, 0.30883950556893885, 0.02048749450534987, -0.04753475015495653, 0.028297413638671005, -0.20667704124092184, -0.14976487157123675, 0.18414613313589528, -0.09622225276439109, -0.15531117893585952, 0.08268086624780202, 0.18166513125162043, 0.10852150919638251, 0.154389433149997, -0.11538651108779631, -0.21350808112292802, 0.21971359487821646, -0.053999612124028255, -0.03868380844588823, 0.20715030824991743, 0.08605216435398491, 0.06953600454838026, 0.332093731065395, -0.09797367918391935, 0.14632074765569772, 0.009531613125696193, 0.04119428320989775, 0.23092019593251584, 0.08261424783005633, 0.08258720811281145, 0.16450171308775743, -0.05116549897214352, -0.12865486384137, -0.16026641436799444, -0.30209869440947756, 0.31757640473314397, -0.1692285095562948, -0.03354188252043833, -0.04395984462773805, 0.04716758247600062, 0.12827341320041025, 0.13387700397396146, -0.08905804100088602, -0.025898406227923894, 0.04222610429325105, -0.03679967733507599, 0.2468448678120592, 0.08041933270970697, 0.10539041910506625, 0.0985325068649916, 0.17978680022152363, 0.032325320209808696, -0.1990845212267755, 0.06098854645149612, -0.09991519657689885, -0.07937078912320192, 0.08168891814490463, 0.19129596197888424, 0.003214399452051085, 0.044793749527479915, 0.26069784308687893, 0.03775121263271169, 0.3992074193481953, 0.09843828244675495, -0.27022383329882965, 0.11558990430733741, 0.05781358596867085, 0.20477893555685556, 0.10325047063453177, -0.020774086529461364, -0.19116668413146867, -0.031959391381534356, -0.1236030535084303, -0.09395483009697442, 0.09122840728811862, 0.25532830494792225, 0.058264801531722185, -0.18202485145471486, 0.06806775192490497, 0.18615626285080744, -0.10556047289077555, -0.02294848438122412, 0.001923290136624227, -0.11433525103757247, 0.09941272857325709, -0.01878083765100313, 0.0643486977060344, -0.13730519551030984, -0.07149992816850875, 0.11131924470931856, -0.05721457437326222, 0.2544637095273247, -0.06266006693755133, 0.034298327114835686, 0.14346382932843504, -0.2029956101719858, -0.2700650552545404, -0.2339427640733027, 0.19300796809578, -0.08531207007398536, 0.39221315063188494, -0.08575757494009788, 0.028107134313755916, 0.23663829872162304, 0.31210543452867195, 0.30233454361979445, 0.1871914536810888, 0.15553152506328896, 0.08923886324163449, 0.11987567919950805, -0.08465124323416558, -0.1173520330262042, -0.008315449960674376, -0.035577063627258834, -0.07021174479935953, 0.1153743136824947, 0.14750420371447412, 0.012962065223730843, 0.22664050687963166, -0.17412946363002393, -0.02442944704546945, -0.1087916067498809, -0.2863084491464625, -0.025279580400248244, -0.013365756837839459, 0.2326785507072286, 0.09745791800406807, -0.14338490563884354, 0.2842869142669006, 0.18736823413069836, 0.08809026284911232, -0.043668105553839924, -0.14744001115938526, -0.05604155074824722, 0.16173863068065755, 0.28914941741195993, 0.2418067961313204, -0.07497474221634154, -0.16996141604584564, 0.020535195939217144, -0.27391277633050015, 0.0514572126857667, -0.021531517088684067, -0.05285914100358807, -0.25319380773449174, 0.07365609933712906, -0.0820267641522264, -0.17456747415981813, -0.4398908638367887, -0.00465169872445653, 0.271849481409817, 0.2552675962305642, -0.06515867385209415, -0.09170315183790306, 0.07190435372248023, -0.15906848901172937, 0.04935115361232497, 0.11766909809218004, 0.1883840994623251, -0.00941670794347195, -0.031236714366852537, -0.13464387992442886, -0.127415781963637, -0.03735079875987926, 0.05627264633728821, 0.1405996878117815, -0.12531204402010393, 0.2289752530973947, -0.03899098426244548, -0.0022128019428456474, -0.11401916036826149, -0.37225608096097407, 0.1342511394117208, 0.11394774747025273, -0.042492918207606076, 0.01886763425073229, 0.0738841553190731, -0.24356937714337754, -0.08157980915927664, 0.12492691637908342, -0.19165219339373796, 0.04429196383705139, -0.20809021239187292, 0.0737038439112993, -0.007839513209933379, -0.24695532786243696, 0.17867451664626338, -0.11433037560074856, -0.1187411557806468, 0.02942185977792686, 0.17633474540647592, -0.14577268477738167, 0.009239942570936075, 0.06579704296547233, 0.10546383934085779, 0.02879830760079138, -0.05659483054958284, -0.12642193792747, 0.007929821832140636, -0.16440441057920024, -0.4440480916964879, 0.07276096640298381, 0.13797862223850893, -0.3623611535159533, -0.15644422546034883, 0.09667054095158986, 0.3159327606146957, 0.008489656819090403, -0.12088591287972651, -0.03630022071850778, 0.21037465693557003, -0.08913373543824443, -0.12292987527997479, -0.07468383847913927, -0.1462373176561439, 0.021768362326270666, 0.24558067516850807, 0.051723604643859215, -0.038804119547394544, -0.05304003853099587, -0.2375319735632498, 0.13711226453280995, -0.011589521602533957, -0.009355482487245569, 0.4896578344944254, 0.04588016076363685, -0.11650570570555209, -0.05790863219831549, 0.1760329188492963, 0.018132676173378805, -0.22600674654906777, 0.14113964779229884, -0.09210839710191329, 0.2841739225514777, 0.16754807098901622, -0.0700804489352368, 0.19241324780137012, 0.013085933955770224, 0.13135630384885405, 0.0852915306530264, -0.14819160316577043, -0.10602652059515028, 0.15759764383439295, -0.043626735625649525, -0.062236286805241285, -0.14673214126062514, 0.06497250172283112, 0.31829289656313825, -0.15783508711383315, 0.0051218625234319085, 0.21654686301768508, -0.022018223822580535, 0.07051994240873752, -0.16034375827218258, 0.06619023281788121, -0.01657159109701932, 0.151260188458278, 0.18213670595917653, 0.39656362448654564, 0.08749606827793273, 0.05005240639757436, 0.03041391001343432, -0.05589093374238144, 0.051898213195621275, -0.03924708548491818, 0.01865565740568385, 0.20281493297881378, -0.15558898564602736, 0.17361844534192242, 0.20298758459063548, -0.017518580596570788, -0.31195868943201904, -0.10211889543025704, 0.1989498815876683, -0.00350780062920462, -0.15328596508944373, -0.07742893836604642, 0.12894522585058815, 0.08386510100761078, -0.036650510954992686, -0.05626829618327902, -0.060092956882452274, -0.141491263373319, 0.24778731953164876, -0.0494417030147909, 0.18670359427008176, 0.23335922975920573, 0.15313390137285177, -0.06620753366601931, 0.06192936884647311, -0.0037114365971528764, -0.13862153750724615, 0.04975444257763007, -0.1808564480554968, 0.18218170178513501, -0.07126904004815149, 0.030856482644610616, 0.04345437584819645, -0.039714210053895284, 0.0899947209810611, -0.07284689554101398, 0.13365090440540786, -0.20646385808984696, 0.019385742563469824, 0.29741813162771613, -0.15400766582626213, -0.10399067150003315, 0.07966963503153829, 0.027696298690826654, 0.05374186031670632, 0.07503798546982052, 0.09736220101413254, 0.17220893615031924, 0.06289097415175003, -0.03700553571209891, 0.10253141775842049, 0.2922630591390866, -0.02045890784801472, -0.1494091014231654, 0.17006382043400528, -0.018459356789958015, -0.33327229482553533, 0.1299527862389319, -0.08305026509853815, -0.013960138937432353, 0.05101832184163082, 0.02897167244734586, 0.10883481671757678, -0.0667615083325992, 0.0798604070254976, -0.03983618068363082, 0.11330597395042165, 0.09441285099221726, -0.14335603677070927, 0.1667697689736653, -0.08068576993433917, 0.12367062839712885, 0.05633930204532798, 0.28196450463451794, -0.034278116935518854, -0.053582750527798505, -0.0029788315626210343, -0.04650565575204765, 0.12270548638030575, -0.24793072955469087, -0.16162750496985076, -0.1637934911680351, 0.145770530335917, 0.2623961132448918, -0.016021778746141677, -0.025896070208724073, 0.010745511300167068, 0.17822399588037852, -0.14224947724440953, 0.036564132836948704, 0.14958848785001266, 0.07686433689187916, 0.02908049249206434, 0.15355346104429224, -0.4146569050904023, 0.10398132737678606, -0.10033062980303217, -0.2808062678642284, 0.07841489920868473, 0.21070960215420062, -0.021083639697703067, 0.14616428329368905, 0.24731219523142386, 0.20169866984566703, 0.25155907539588274, 0.11383716058265618, 0.011570992003775338, -0.24573033821111612, -0.03774426269286845, -0.12934812311445323, 0.33300741142279816, -0.02697965203411555, 0.018898754652281097, 0.08459399505687303, 0.006688309959153408, 0.26000896046393923, -0.09551005215569726, 0.029851420947129403, -0.11388978889588085, -0.20248221011933332, -0.09384109479666765, -0.00568118532703553, -0.06585195516780633, -0.10621252982132746, -0.21571925156818608, -0.012747812916864243, -0.23081356897741975, 0.1165872627429147, 0.012645680837998259, -0.22357819390631772, -0.04743050726621085, -0.11537552584505198, 0.04895913496480233, 0.20561571227691877, -0.2876383264537489, 0.01764419510209111, -0.024563249553173322, 0.10283678823269131, 0.03244823688444257, -0.114571594821603, -0.049159836631237276, -0.1221070899008914, 0.16543241306264744, -0.003986661068524053, 0.29146157245694476, -0.009304944078160607, -0.110888430351149, -0.23135506265201755, -0.2768913423466, -0.24288409319614818, 0.042509172097706875, 0.07808852486322929, -0.24247717230102311, 0.1368199080309031, -0.07884359922720761, 0.022479159796406654, 0.24729822907419033, 0.1352785762186237, -0.041084778119849195, -0.13507001580306488, -0.33033544014308264, -0.10894007216331107, -0.032261995929052885, -0.15195262400599416, -0.019528810233677547, 0.011783831304892937, -0.031006019518723747, -0.1009837543333254, 0.025870445720803645, 0.06778890803807995, -0.1675093004732202, 0.2164321478365512, -0.015122729155576378, 0.0028913773085129965, 0.10863513344690245, 0.03566663555176375, 0.14620448555985846, 0.044042836432365534, -0.09394319583236627, 0.055205917492635745, -0.17543959156842734, 0.016671560620046662, -0.005087338024404652, -0.0319171937278279, -0.019716754205445657, -0.28868412619216843, -0.08422824364298225, 0.014241757713646053, 0.02452085118109341, -0.1576689860685084, 0.19415639844650237, -0.13280552938139492, 0.14870794619799835, 0.06564503034009518, -0.09912865422488683, 0.2723127883022013, -0.18307080538792406, 0.14099181410236178, 0.15352883985691304, -0.10286677460829641, 0.21317365343623984, -0.038355384456141936, 0.044283581232186495, 0.03993154723397926, -0.020602020480812614, 0.1243722249668677, 0.12171561354176846, -0.2682125610707784, 0.2001146779638417, -0.25501462981252476, 0.1583863563399042, 0.17285074040688178, -0.16724755832899366, -0.06295658048448591, -0.1691839507613871, -0.03295976122212198, -0.04725030226702496, 0.11959446628733783, 0.201223386531724, 0.21408812367539484, -0.08623263884699515, -0.032144557805165466, -0.2582276308643957, -0.12358737430879117, 0.14871199514633843, 0.24781909244893457, -0.18934047375102975, -0.09088378699844422, -0.003990340789999991, 0.04297476000990922, -0.12407794948474679, 0.06502659112786528, -0.07310398025474028, -0.002237534838939146, 0.08379780581374464, -0.00031752249889249273, -0.06731262084639049, -0.016817823365400077, -0.021613160739233736, -0.05921224839171389, -0.03981793415957892, 0.24522128185940612, 0.0717012220710545, -0.04569042173161947, 0.10385023278010153, -0.050114535193866196, 0.18182777407107054, 0.056621248346836565, -0.016419834334270137, 0.06867503921056975, -0.24898009734018664, -0.17285047113018, -0.18092788622315925, 0.02964457411027728, 0.26584478566098363, 0.34144473855941837, 0.06333035669872653, 0.07777623185443851, -0.2792857532609938, -0.0827133693386669, -0.12337056523790951, -0.09522236946402035, -0.02485376493289655, -0.07507863623179754, -0.3036207653321707, 0.11472342403781659, -0.16517776489657007, 0.038072425744150866, 0.3176082595428837, -0.14102729061858876, -0.3887694819966548, -0.045524949128803706, 0.16884635605398252, 0.30039678667711484, -0.19036496959434873, 0.07770170724078371, -0.07136839322170081, -0.015933670428109403, 0.4057898786968695, -0.23053450663209976, 0.03893444341464454, 0.07173830723545654, 0.16455707292012642, 0.015011473541887749, 0.04738925218364882, -0.06041636834125366, 0.04129039844753617, -0.052237713119866774, 0.09120388315893788, -0.05673416924516768, 0.05757402363050155, -0.004980282953562687, 0.17271476995937107, -0.00788084401217216, -0.2714969281454739, 0.1931118656820036, -0.13893299280596036, -0.10028317852611567, -0.09137027154857544, 0.21082917936003143, -0.3275974699411574, 0.48130865382487803, 0.1619917197575068, 0.034243286257074006, -0.008420355314091528, 0.04380199556770481, 0.07993653149401476, 0.09897155293646702, 0.08522583461437683, 0.013741049239974353, -0.030270331866033215, -0.023204262462044142, -0.02989756541339083, 0.17391239393982608, 0.0910474449768846, -0.4510350272784449, 0.10061058635122595, 0.029871168682132902, -0.0028697922357751766, -0.05959601020806299, 0.17243101994945204, 0.14534392449092923, -0.11855402237654322, 0.06243897057095314, -0.14904533931418595, -0.21162376607419436, -0.09613403383361953, 0.13228511998561754, 0.14108750685842644, 0.078690781043279, 0.11124879635577793, 0.07920918181232817, -0.09839878490519299, 0.0662522231037328, 0.12338973798564588, 0.11563828144831945, 0.18299030424982402, 0.10864885045382269, 0.05355908977494677, 0.16279887306987642, 0.000238934341859898, -0.13470817421461023, -0.015005982060429834, -0.11452386043120576, -0.10356761962714267, -0.02216815213471279, -0.1057821329569958, -0.046962776383487226, -0.29046723038428546, 0.03251334767176283, 0.00017128682303410713, -0.12061149399960741, 0.12881951714745069, 0.14372734157684264, -0.2466441481231261, -0.11780881585107475, -0.11610303993029825, -0.1442039178589497, 0.1295822984652506, -0.03271067087181124, -0.04099712492768142, -0.3079232519863512, 0.10422503951149063, -0.18885530741007311, 0.008268683315150646, 0.04253963354259001, 0.20640632997253242, -0.21224613527273012, -0.4631681166109517, 0.028201232808322343, 0.2606999661565994, 0.19203272717317937, 0.02959351947322113, -0.07503572880779011, 0.13588716777499568, -0.14909631480006683, 0.07309933798158084, 0.07649888464902806, 0.14991581970910492, 0.42331252619319376, 0.06125661807196559, -0.07792878364987446, -0.00372416926497444, -0.26480905356348633, -0.1304137367665138, -0.0593622518567032, -0.08220574711889339, 0.021906747667138782, -0.12497365764212016, 0.17193896463634312, 0.010188675905770226, -0.011592828455477301, -0.054914282033287486, 0.023677128059038786, 0.12766608685927525, -0.13282970713435194, -0.10104998496511915, -0.04659016991545245, -0.20344130926448523, -0.12642120322859426, -0.0720570288177553, 0.1341251776467197, 0.04006915104639514, 0.026739117843959354, 0.13271811384496707, -0.020739400361010955, 0.06577878654599995, -0.01576473741380658, 0.040704726269559614, -0.08950830557488806, -0.3664088283138466, -0.020451705950488317, 0.21839850897987526, 0.14142503471918372, 0.14813670126415693, 0.1944235746146444, 0.017900636485580764, 0.030608996708369605, -0.09500061888774775, -0.049917226038931464, 0.095333678799665, 0.1845388490989151, -0.01972439248791752, -0.07412581147720225, -0.0016448272345965355, 0.09214774102328645, -0.21693396934336648, -0.3521897805509021, -0.08463051933347192, -0.1872496255650372, -0.07744149316127964, -0.012052876048869407, -0.06922002860672873, 0.2227983492753046, 0.04725241796997159, 0.04772511415007661, 0.09518992816039956, -0.17470793869357418, 0.1596313741007831, -0.011594871240557868, 0.10284703182495693, -0.16450971867072792, -0.2371467675938275, 0.12536966295353544, 0.057838180388473166, -0.13642782320839766, -0.1334303249867939, 0.17327788141598963, -0.18094412869709858, 0.2520155863844563, -0.13838030988164657, 0.09743398494926127, -0.050021588608767285, 0.09336595459640533, -0.08009288122586425, -0.028453554004690598, 0.0004915520610780555, -0.154447178189036, 0.11836526511718941, -0.07917351282493405, -0.03518875837256799, -0.15252575435353144, -0.3836770027786644, -0.03559734345855661, 0.37278800667009915, 0.12035280378346139, -0.0022365091824879083, -0.04976175622098607, 0.008424370228625862, 0.08419964927429119, -0.1673343733796176, 0.17100188616091658, 0.10973637947161413, 0.11007208065218908, 0.0827650009402524, 0.0030275297307676666, 0.10340389587387046, 0.08792643116361522, -0.05422580086728523, -0.078156437317654, 0.01689742244505747, 0.23771686758240787, -0.19021876966959805, -0.22911182387213513, 0.02669210853014541, 0.0076574702389208375, 0.02796082287614376, 0.02761809973657975, -0.04289050047657702, 0.2280066224816766, -0.23140708781035044, -0.12662773769602778, -0.016479220703622077, -0.2520559689501411, -0.025131241412079453, 0.2567941776340518, 0.004887207904374813, 0.03532796526386556, -0.20235423529579832, -0.08461651303117863, -0.055587110433791345, -0.048682204110351804, 0.2133026294813685, 0.08541832177699439, -0.1704352386849755, 0.036851163225675734, 0.0772513604095148, 0.17488270941901, 0.2433111220325712, -0.16132668481182152, -0.12427894561982161, -0.18601739403440243, -0.03647952090598487, 0.0729505431296889, 0.1503508095686915, -0.014691889997948071, -0.04675566062297236, 0.024287826716170777, -0.11441438505393954, 0.3060647627766219, -0.2526292595437434, 0.027562371206232724, 0.3240197421577772, 0.0026653605143327126, -0.029822379539294345, -0.05483468308189825, -0.02850522179582047, 0.21788325197662972, -0.33855941397900974, 0.235209646997857, -0.236038091848707, -0.023651489892126443, -0.06756148561837191, 0.09052640002657836, -0.23098354317077355, 0.07064267046199474, 0.3105149215295651, -0.21122244227924655, 0.01411573573081661, -0.10210577901295463, 0.06643118272868709, -0.0045545396031604745, -0.09831272492169113, 0.0791383333826907, 0.2812949325481855, -0.027257599340794764, 0.10876690779638515, -0.20060545190066273, -0.14357271037143585, 0.07457969227735857, 0.2522406853454292, 0.036484846627297236, -0.0495896048406482, -0.0001660439710718478, -0.19000676406077505, 0.09215443626096848, 0.13514259592860567, -0.06934834314754403, -0.07294864479334902, 0.03873966972701123, -0.0667959226322934, -0.01015262152367822, 0.32111055668901145, -0.03711307213565921, -0.05612275354623905, -0.09941979820625743, 0.11816598165535884, -0.027870956265348155, -0.0995640002917968, 0.2024709812071131, 0.21908210367317366, -0.09219042771417536, -0.2857607833555367, 0.15428007361398854, -0.10492460856314458, 0.1234420599399082, -0.30702828604031873, 0.13718882442384964, -0.18633535160521755, 0.11227650614248678, 0.0029292169548515144, -0.14627053869844703, -0.06026220981650731, 0.09946984152150587, 0.016243467610504804, 0.08465132647794138, 0.2890430844419229, -0.21770919907238273, 0.24670330013019592, 0.016007856294570133, -0.13298146280738796, -0.1889043158456804, -0.029153453087130538, 0.13444438469403022, -0.0046493001609188775, 0.2541341919168637, -0.22088180394729498, -0.01574618602485464, -0.16310999519777936, 0.04579698405256492, 0.1308264749360029, -0.0630287505771341, -0.39970477996052906, 0.03926161204712868, 0.07290615121193017, 0.06920476233050823, 0.19007790459099816, -0.15518974865209656, 0.07861796106397122, 0.17539578563087704, -0.2727381907022053, 0.048758084407791336, -0.06897842186723979, -0.015153059939767451, 0.08023835951765457, -0.07435805570687594, -0.10364888787965275, 0.013805179989771203, -0.13392535885172893, -0.2001261441179444, 0.10403488967170403, -0.17621696087267688, 0.07372468189136613, 0.04296886093926552, -0.26472666769991937, -0.09176096861604255, 0.18882717048573014, -0.1801334194896396, -0.074349362698716, 0.09491807210275734, 0.06938203163629976, -0.020787934199473234, -0.08249903913771041, 0.2161127171229509, 0.2374251509229864, 0.1351931521931003, 0.0016700783045348205, -0.1402240094552334, -0.12746889172781103, 0.06450405994286772, 0.06303053940712625, 0.22970769740776736, 0.09775256429316093, -0.23060250455007233, 0.14635746600338587, -0.1491012973437152, -0.08407737295268332, 0.042788600243312144, 0.30602153217663036, 0.4800704739972279, 0.1025349903679488, -0.0413127827386924, 0.08191122928637616, 0.13615789866394676, -0.05854130676157191, 0.26239077327877114, 0.035271794075328745, 0.08117325631961697, 0.09524456046349672, 0.04933671073402517, 0.12697219201787596, -0.08528751581064169, -0.10484301652553095, -0.16157807829466742, 0.07091917611045606, 0.119139087340332, 0.06690761879106043, 0.2515776747364476, -0.00463765311508708, 0.09914614799807132, -0.16753145575968384, -0.0642551083112558, 0.10855633154225959, 0.13609645177517482, -0.046654947901401934, -0.010352747990725646, -0.23907347107000745, -0.05307384398931646, 0.11752439160826107, 0.08623493101390238, 0.07819219564285486, -0.00838846022198281, -0.035189685205207565, -0.042898142594266366, 0.10673608213295517, 0.06457973691720395, 0.11421215497699619, -0.049973417038316974, -0.330337922502509, 0.14926525692337483, -0.06972860849295603, -0.08911908047994307, 0.12208135876952532, -0.08590623986623808, 0.2130912720232435, 0.06859684027536254, 0.08988796426075994, -0.20223136305931907, 0.23667496274386277, 0.0687284115611346, -0.03835867730847911, 0.024928102277533164, -0.27251919652506185, 0.08451406552784256, -0.16015852854933046, -0.22422087598558332, -0.23139492376138526, 0.15726890414754616, -0.07605074468387082, 0.22735495317569365, -0.01870262740205911, -0.26179897617761533, -0.171267030926608, 0.17064899122835142, -0.0759416150821221, -0.012819888501569144, 0.0246487208749423, 0.07697214629597478, 0.2302892224726673, 0.2887787941791471, -0.05517308668822431, -0.2276474317036802, -0.06347320623876947, 0.1173864336601609, -0.15547653346888227, -0.19853853021339674, 0.11388616954060819, -0.0421920381031624, -0.013928232940026167, -0.1140414390330157, -0.03227266586679678, -0.10891761786804187, 0.1601009723845087, 0.1921810326359481, -0.2831898695461245, -0.1033610839028491, -0.22955710868798523, -0.12618459392685663, -0.003136037383889025, -0.22255682164215962, -0.11327679377955695, -0.16140163759578494, 0.09842789691988732, -0.006176655854385555, -0.110709486909207, 0.012498743178995499, -0.10994212895990937, 0.01276037552140182, 0.25669583275448526, 0.2056207834879333, -0.1565740038273118, 0.17722708679152435, 0.12417513538835254, -0.19445444525791392, 0.1262165537048283, 0.2897072686434264, -0.15041040927189098, -0.17397734379693022, 0.22705317132886557, 0.01572440850028966, 0.07031923150531746, 0.057914186711714055, 0.07184494678175553, -0.1778983256779928, 0.17836683741003442, 0.18103519112287783, -0.03519705106405731, -0.013142908952154227, -0.23486116972435495, 0.058477828014833214, 0.09737636597728835, -0.010229175197571855, 0.1933775713224845, -0.05757503480931976, 0.15806885313497535, -0.09985311764011291, -0.0036127350265183255, -0.03170484807856622, 0.024553697533901103, -0.04074006198621608, -0.020039576468190413, 0.12670987695363228, -0.05726379586280299, -0.23726201161797553, 0.26817626397494015, 0.20680217228290088, -0.19682108871639317, 0.12168355816035974, -0.07977596710081503, 0.030451014947856594, 0.04778900513989619, -0.04266427399221164, -0.12424448698273606, -0.10234146586893411, -0.13602892690432367, -0.11933074177143592, -0.0056882523380519644, -0.11355218099503055, 0.10479062299454499, 0.23333530130729677, -0.08911555415680579, 0.03481373074901275, 0.0786168290511181, 0.07000126227047303, 0.016510729827864924, 0.11165261376857194, 0.08645945510617838, -0.18968401086941428, 0.13133276155387208, 0.14920396261026614, -0.08618655299845815, -0.042928144436361275, 0.10407525696402076, -0.03210833502084668, 0.12755550699295695, 0.3164336830035912, -0.12055138894332673, -0.19568043266378343, 0.041062440055292124, 0.0650060944759409, -0.04529262253907527, 0.2550076247605425, -0.21042003276698035, 0.12926994276890805, -0.08006313830288549, 0.2581500495616871, 0.2725949993046629, -0.14069675496354248, -0.09967293076471372, 0.12224948784698499, -0.059466731031253856, -0.022134239257696944, 0.009139906533709915, -0.28078349061083857, -0.008140270096113181, -0.10537342248265782, -0.09401145332109032, 0.22808497258782806, -0.22400433546163467, 0.1071202906340589, -0.0422913110115328, -0.029357570502430787, 0.15236971868343366, 0.007320456491945423, 0.08948018560352018, 0.1485004212908811, -0.07768855913153565, -0.11676392165948765, -0.16681857143284745, -0.11248350555011251, 0.4188261181536881, 0.12223704140369544, -0.20178726049956194, -0.17766372282415882, 0.015304665526612138, 0.10261530283780806, 0.09548988351419599, -0.04517593324513526, -0.016236991126367527, 0.026275938788943125, 0.0009298045401613697, -0.3468715098536419, -0.035662916788304126, -0.15066563629518956, 0.04433184217243569, 0.4710987929984737, 0.05166207464776295, -0.04721334611506234, 0.12784945238971415, 0.08009857806953856, 0.01802270105818397, 0.07926454926956188, 0.29850746814058005, -0.1532894345683533, 0.1249490996243674, -0.22296594859206492, 0.08456995500013392, -0.14092127979995234, -0.11326570304918751, -0.10235315123470584, 0.15419558799166402, 0.16714078223902598, -0.19010633611515246, -0.03707957735466583, -0.1262026487141542, -0.14830981974525703, -0.08355305228152761, -0.01073027866961923, 0.392961729416929, 0.057895947855568626, -0.21515019231704813, -0.1237136297988185, 0.13099169021154095, 0.3053938538191411, -0.24306746917075098, -0.2861141972011418, 0.2906067574381838, 0.08846582212967213, -0.14454205987490096, 0.09053558680636017, -0.4292787054200023, 0.010396222913071608, -0.04252135577094627, 0.10163827858202756, -0.15552453954848805, 0.010536315566768702, -0.14270585768916202, 0.05313229703319834, -0.138827651297048, -0.06259942490818368, -0.15556897947610684, 0.10850433656653881, 0.13153668081601144, -0.03954596973820337, 0.028302110663990437, -0.20714338954462294, -0.04550680463518384, -0.014987136961462389, 0.4170352565984977, -0.17563232611176963, 0.22187438824099207, 0.15386338188584403, 0.029448957704476298, 0.2744026983897644, 0.05997097188793254, 0.05903297393445117, -0.007666930346552527, 0.19270822309332475, 0.14119205431455323, -0.09860505841730566, -0.20166253196761888, -0.0321134776626155, -0.11851633662663132, -0.011328998262886074, 0.21388295012097427, -0.06715045248105996, -0.0061507328894625365, -0.009138291244010426, 0.08254885846963839, -0.2769919047104153, -0.09313267120653858, 0.03241279832071227, 0.23732986208097548, -0.019880493561548234, -0.2878505011630694, 0.0722651749803838, -0.0960843359005751, -0.11519722526854963, -0.0958165398502076, -0.07231880517263085, -0.03373692104829784, -0.3706102034246381, 0.11977995922716818, 0.19938796886715518, 0.11818437599775361, -0.14293923893098578, -0.008978643800742687, 0.023016170205635702, 0.09183421426867475, 0.13635359562529017, -0.11316270375819532, -0.010861106290007175, 0.07748181493730466, 0.2189166367987277, 0.13415439591092482, 0.11338602836256557, 0.07976368131450334, 0.20567997561445683, 0.062194123616003766, -0.13655515509553928, 0.20700244624171243, 0.12588036058988025, -0.06808743771643026, -0.07355378456924294, 0.0588313800601809, 0.08979096483517245, 0.029963784264364572, 0.04165256304755964, 0.2529766093540954, 0.1784756171306641, 0.02776689868161522, 0.13034514739693914, -0.1376287114503037, 0.05216221696950228, 0.2728248274498638, -0.03372617529635366, -0.14525382106813542, -0.09266318591137253, -0.16060664505552277, -0.11343039071251013, -0.056823618227819776, -0.210239323079794, 0.0013467011582863019, 0.13141879255822014, -0.13555237965759903, 0.23212658761148863, 0.08576241973014331, 0.15691902900885898, -0.07153298779064511, 0.12750024145676672, -0.167265818568419, 0.1256909437290375, 0.004525917536694469, 0.12470368369701536, -0.18031838179628146, -0.1372960873300077, 0.11990266246401822, -0.11573549417235199, 0.07083579536229345, -0.22288115053783905, 0.1302531932554344, -0.1541533452492433, 0.0931778946692849, 0.07306657150239332, -0.06927788238228172, 0.07092679238915464, 0.02964276261985154, -0.07825777136591631, -0.14141408258625499, -0.2821257150468351, 0.06646660245856616, -0.23759431095542927, 0.014708066884733011, -0.03295044061978028, 0.10145432347674216, -0.058689546956822415, -0.04585803884937081, 0.10780983279277005, 0.06597199326690738, 0.04370001307446983, 0.11866480800663631, -0.2218647145875606, 0.11618603573254213, 0.09711196613247083, -0.1425296811320191, -0.04484452656914198, -0.006964827589934425, -0.020635290650435234, 0.03417595205934733, 0.21275201866586382, 0.16567278340618574, -0.1978558987807651, 0.10581844760155504, 0.1864934895274716, 0.06102986409352633, 0.1729936404341106, 0.29507421383572596, 0.16165797987992736, 0.04091503686415038, 0.15930043631877, 0.008602010840512087, -0.0018666395220643434, -0.05709921863631002, 0.23516915180995412, -0.1251941661034703, 0.23111627428559084, 0.055530640597637765, -0.2098769855438371, 0.05408244659719812, -0.32253426477236996, 0.09249260406258557, 0.13694469450925795, -0.09345713366813788, 0.01680043528074003], "policy_b1": [-0.01714826473847903, -0.0010836955152072922, 0.018121822683329725, 0.0010476791818813576, -0.0012813270207833731, -5.338079169990801e-06, 0.0040384616410288204, 0.004511082481475887, 0.003495900199381361, -8.089743577588843e-05, -0.018740185461322716, 0.007874067597834065, 0.0023314915244697135, 0.0008624027547548541, 0.030312799535564792, -0.00017422936151584553, 0.00010925844866172732, -0.0022190603347988455, 0.003536429417814658, -0.000341082747358734, 0.0015841557029853022, -0.009314345700611421, 0.00017901848737806474, 0.01537569383446801, -0.001090191832808179, 0.003078841359197979, -0.0021939718643357517, -0.006542759994985378, 0.0045945300053761035, 0.0017067684162505431, 0.026253750676818427, -0.02878333996792386], "policy_W2": [0.48243189997955876, -0.0770891939622679, -0.24176141552112496, 0.35031289100189344, 0.4903965824164033, -0.0008825703168971715, 0.3170417644500876, 0.3281334413714776, -0.18996288955238638, -0.1362479869579843, 0.25929460979142593, 0.3962891558834821, 0.1506056980865078, -0.2654164953973349, 0.5235188635153413, -0.19652356266536108, -0.08535174516626896, -0.010150108316335484, 0.3797191743566837, 0.1177978706538867, 0.13060002332318715, 0.15214096355018994, 0.01529975752864015, 0.15636933684812862, -0.6313712167901072, -0.16390853195062058, 0.07282273310723164, -0.2816927247251188, 0.18424143166444568, -0.04071503487892173, 0.49894283657878236, 0.32913832600374976], "policy_b2": -3.0394478464688263e-16, "policy_temperature": 0.3, "benchmark_win_rate": 0.9, "benchmark_epoch": 10}