{"type": "alphazero_linear", "value_weights": [0.0, 0.0, 0.0, 0.0, 0.0, 0.0, 0.0, 0.0, 0.0, 0.0, 0.0, 0.0, 0.0, 0.0, 0.0, 0.0, 0.0, 0.0, 0.0, 0.0, 0.0, 0.0, 0.0, 0.0, 0.0, 0.0, 0.0, 0.0, 0.0, 0.0, 0.0, 0.0, 0.0, 0.0, 0.0, 0.0, 0.0, 0.0, 0.0, 0.0, 0.0, 0.0, 0.0, 0.0, 0.0, 0.0, 0.0, 0.0, 0.0, 0.0, 0.0, 0.0, 0.0, 0.0, 0.0, 0.0, 0.0, 0.0, 0.0, 0.0, 0.0, 0.0, 0.0, 0.0, 0.0, 0.0, 0.0, 0.0, 0.0, 0.0], "policy_weights": [-4.71495028621111e-16, -6.44718653464158e-16, 0.0, -1.1188586949290057e-15, -1.6518901250670481e-15, -1.1423713639272196e-15, -3.0070550541792813e-17, -1.2013488196182006e-16, -1.441487445900947e-17, -8.065202931233705e-17, -8.374984733494658e-16, -3.944631080110562e-16, -7.590456041484115e-16, -2.161465451067104e-17, -1.2170819907453309e-15, -9.976466962252972e-16, -5.967448757360219e-16, -8.801199345871997e-16, -1.1525483800852002e-15, -1.2717331324845784e-15, -1.2643189514533147e-15, -2.8022723030929286e-16, -1.0261236305098013e-15, -1.9977422494044222e-15, -1.5429324484728088e-15, -1.385003223219885e-16, -8.309325449928908e-17, -1.5730645952505256e-15, -1.9352575097997377e-15, -1.9977422494044222e-15, -1.164281514351872e-17, -2.9892131521783126e-18, -1.2634923489407364e-15, -4.536648834374557e-16, -1.5421691701433828e-17, -1.031293106468212e-17, -1.536093385872068e-15, -1.5155657287426033e-15, -1.214984872693201e-15, -1.1631618384395616e-15, -1.718243602955028e-17, -9.112502419306163e-17, 0.0, -3.407299636393803e-16, -4.956641650941143e-16, -2.1831675574944126e-16, -6.386607797045159e-16, -1.3876475414965944e-15, -4.587241773500854e-16, -2.6262098981491443e-16, -5.876848758069187e-16, -4.830245700485935e-16, 0.0, -1.398677977230243e-16, -2.230922576258431e-17, -2.3522740219962317e-16, -1.9071116214020018e-16, -2.6931581964539915e-18, -9.020562075079401e-19, -1.8988283168042122e-16, -5.555858507630407e-17, -7.100511178375136e-17, -2.1475876632592892e-17, -6.910444438901223e-16, -6.8894271797875876e-18, -1.4688667694813987e-16, -5.3377441355806354e-17, -1.03626905233884e-15, -1.7541075285131866e-15, -9.235906649391604e-17, 0.33645422315984197, -0.0019801375172188635, 0.01857133088661904, 0.019813043172964, 0.4224755975187523, 0.41085939554526923, -0.1475205505387576, -0.2233869558660375, -0.18757860430127468, -0.6477073420601644, 0.42803927293895777, 0.2570504867009374, 0.16043804348726395, 0.16102948410199183, 0.37676946469806377], "policy_bias": -2.0158354152588443e-15, "policy_temperature": 1.0}