{"type": "alphazero_linear", "value_weights": [0.0, 0.0, 0.0, 0.0, 0.0, 0.0, 0.0, 0.0, 0.0, 0.0, 0.0, 0.0, 0.0, 0.0, 0.0, 0.0, 0.0, 0.0, 0.0, 0.0, 0.0, 0.0, 0.0, 0.0, 0.0, 0.0, 0.0, 0.0, 0.0, 0.0, 0.0, 0.0, 0.0, 0.0, 0.0, 0.0, 0.0, 0.0, 0.0, 0.0, 0.0, 0.0, 0.0, 0.0, 0.0, 0.0, 0.0, 0.0, 0.0, 0.0, 0.0, 0.0, 0.0, 0.0, 0.0, 0.0, 0.0, 0.0, 0.0, 0.0, 0.0, 0.0, 0.0, 0.0, 0.0, 0.0, 0.0, 0.0, 0.0, 0.0], "policy_type": "neural", "policy_hidden_size": 32, "policy_W1": [0.07618761783280101, -0.02120898572487446, 0.09934920852260401, 0.2336217366597838, -0.03591750358099513, -0.03591496821615701, 0.2422431365482778, 0.11771153609614046, -0.07201339897573773, 0.0832248972417202, -0.07109173459102248, -0.07144257218792475, 0.03711897053458861, -0.2934845575169538, -0.2645961415985622, -0.08625092096501696, -0.15536120178231222, 0.04820195910101581, -0.1392787287495771, -0.21663874870014196, 0.2248198105468262, -0.03463512591140192, 0.010358452015606015, -0.21854352043683675, -0.08349498291665296, 0.01701499739741747, -0.17655417733803763, 0.0576239028872216, -0.09213268332144121, -0.04474384221314208, -0.09229889119276338, 0.2841110418827664, -0.0020823225215964762, -0.1622462785744118, 0.1261781397477364, -0.18727171970482492, 0.032038167722980106, -0.3005996750486384, -0.20373253783436512, 0.0301650809175055, 0.11327751260100101, 0.02628668258483376, -0.01777923308626327, -0.04621308945587993, -0.22678609508860126, -0.11042051304718076, -0.0706731878379585, 0.16215501983424457, 0.05270863952532551, -0.27044233837744475, 0.04972478872951282, -0.059072382728241384, -0.10383342655004361, 0.09382525442822878, 0.15814841736984422, 0.1428649438821433, -0.12872751680071035, -0.047429299020547905, 0.050811925541063285, 0.14962666028456628, -0.07349886057072248, -0.028478399940210817, -0.16969396731500605, -0.18353584495369799, 0.12463111160263467, 0.2080372103946829, -0.011037821602442922, 0.15393263520056727, 0.05547241198529928, -0.09895685543498055, 0.05543303411908897, 0.2359033518133977, -0.00549458008252882, 0.2400053904876022, -0.40188009306574407, 0.12605253177626916, 0.01335575749826382, -0.04586593801395166, 0.01406977126363145, -0.30487935466873367, -0.03369612940107563, 0.0547763160571464, 0.22670246568155816, -0.07950060449587132, -0.12401491739946023, -0.07696368871736074, 0.14041643751734198, 0.05043690050906082, -0.0812732035855897, 0.07873297121920285, 0.014889184183011725, 0.1485765412521464, -0.10768854528916853, -0.0502605966165518, -0.06013460892604083, -0.2245158777962886, 0.04540503826759149, 0.040041828174747635, 0.0008174400302952869, -0.03599538912943973, -0.21710957869330824, -0.06452406353639782, -0.05257273177251165, -0.12314057737986563, -0.02473693415884009, 0.06197842412772126, 0.28918685823866097, 0.026678307849848815, 0.039523359368472205, -0.011423522727802369, -0.29432224714123273, -0.004066981025018132, 0.009238837499539054, 0.37783545272515984, -0.02948097117828713, 0.04625072122251018, -0.005318624597114699, -0.17926184751248941, 0.1753016080426968, 0.11538723773531466, 0.12131174622575312, -0.1394863677126367, 0.21516939195525, -0.21506224966908075, 0.09002484783360055, 0.3360009718948154, -0.15189788691240463, -0.08703176243022921, 0.015254788719667763, -0.07723322929244578, -0.23780585416780498, 0.010506054446290528, -0.16295130578943062, 0.07264573504517802, -0.1410334593100108, 0.23767359272234043, -0.12014064875218324, -0.04940213567102362, 0.12459728146009552, -0.18891867164493945, 0.03492267163783725, 0.20049847697259496, -0.24665622429088582, 0.028321133017076686, 0.039864163572563616, 0.11990873623499224, -0.18971631974802924, -0.2025568716887679, 0.0800673401791663, 0.04557266464636126, 0.03842447007079004, 0.0531951760649952, -0.10430705975843761, 0.03563417052374164, 0.0449464721324324, -0.10960482166418921, 0.28620237094214024, 0.07268749282567713, -0.18268383820934975, 0.10056151367218728, -0.1495432353418202, 0.1207303977418273, 0.17776923117333274, -0.1258959576824156, 0.1477733295431598, 0.0633176935573001, 0.1261025202113113, 0.2908897600910417, -0.037633879959685666, -0.11561796364080497, -0.13658836908682767, -0.12521285116061276, -0.011796431756917459, 0.05232087138264433, 0.04235681148603666, 0.1268842918356726, 0.0019943991718267347, 0.2229461184428428, -0.040562056895119276, 0.41724961671774125, 0.09597617837401554, -0.13148084720115136, -0.16426685569228427, 0.07406076584915816, -0.03424452783196283, 0.10952551036659429, 0.07258537076284347, -0.011201710005938418, -0.12988317541282754, -0.23236233064584108, -0.06846239669001489, 0.1312277844227635, 0.03283944608522392, -0.19108764547246235, 0.02656579968605094, 0.059104580437421124, -0.13557760033028773, 0.023580355166137906, 0.008929051681566871, -0.17532690635415024, 0.054882409948971145, 0.0860204243663056, 0.16612814630707062, 0.16164189895838235, -0.21132423704121472, -0.14385596648476998, 0.0790044577648509, 0.07881120037977475, 0.07900470326730051, 0.590981714799118, 0.08757271177633834, 0.17418763080128188, 0.14633742489038326, 0.09991836454120964, -0.048360098588945605, 0.11642256578719241, -0.11854559479730152, -0.03632605525377335, -0.0744518132376266, 0.012557152439557781, 0.35505278823041175, -0.28642541838876223, 0.10526840105559147, -0.2473881250299731, -0.07239205886987148, 0.16703728116485964, 0.009863435520449737, -0.16531950242210766, -0.1097225902727084, 0.1042455342500018, -0.11203388288651484, 0.0331956270283272, 0.006990496554653214, -0.09995093722596897, 0.32885361740640356, 0.09722840075236304, -0.3106416877191655, 0.028600708025372235, -0.10151088967103823, 0.13075726296958004, -0.12156713186266922, -0.0176005041592651, 0.0774654939796535, 0.13279995709299428, -0.18411644584269046, -0.051309150767275755, -0.07285327193092973, -0.10021139707270137, 0.27080052074040856, 0.06212239304653725, -0.19341176798544973, 0.14079062006118184, 0.3255240128597726, 0.15837293750376535, -0.23305659580539695, -0.07429111443905827, 0.1943349562483498, -0.10855161312187385, 0.06807964652893495, 0.11882307567539972, -0.14218473001092535, -0.009130772950557621, -0.4971878989995035, -0.15713549882581204, -0.038742180521289964, -0.1914012191547303, 0.2503975246338865, -0.21937581472141854, -0.06749935915428508, 0.020054540549216997, 0.22108267288788783, -0.22025116503948683, 0.17842117483983885, 0.0015694855681481666, -0.15055597502552895, 0.0708834214465944, 0.03053441444112256, -0.09206944066878853, 0.010707160446252249, -0.059103053687000584, 0.01741239163943597, 0.10156624440738726, 0.24328363528182542, -0.18987327809541793, 0.32719243687658717, -0.2994365896741317, -0.023281588879341453, 0.09023800848306586, 0.04310177079006974, -0.09551791985254163, -0.031922485158896216, -0.07562367995521775, -0.09040447804039882, 0.13032301124902976, 0.05476337261068589, -0.10629398286697192, 0.13799237440336914, 0.047137609122144805, 0.12467791285619252, 0.09657411027279497, -0.12716126024295038, -0.08592803845531002, 0.11463008671754095, 0.0936265572036352, -0.0032061688151528165, 0.0179965285378531, 0.19598567668704328, -0.09074343335041148, 0.0839213383870585, -0.031014282300592146, -0.033390748453423824, 0.1685475052336808, 0.1266093860427451, 0.1247874494070422, 0.20025050065069766, 0.003219866721713728, 0.1046069699239268, -0.04759273423249826, 0.049728119154523236, -0.01997487827251048, 0.014852662573781735, 0.09129054702976115, -0.12547241853164104, 0.32095082199470326, -0.15431702589597646, -0.18624805392825605, 0.1776472999565136, 0.12137206581194568, 0.09574049605556495, 0.09638383034494236, -0.0020106983498305686, -0.13770096051862413, 0.01165087513829991, -0.10387925639826762, 0.14952809871951578, -0.02255756473223617, -0.12662548966630086, -0.04931232419793621, 0.06336353968242368, -0.08647650287714395, -0.1261195641681312, 0.03738962411312936, 0.03757666333699775, -0.07771969448941947, -0.0722454205228376, 0.03560022791051116, -0.22213252394370367, -0.2159118760808747, -0.11019727123109889, -0.032738046481055244, 0.04772850067616536, 0.2261893191604313, 0.13154573459210198, -0.024534178254823253, -0.0028857114653540543, -0.15378256811996857, -0.0028401684725522748, -0.044278220136749334, 0.04950465756377489, -0.12688731981487766, 0.07966637088435355, 0.23511141666339055, -0.01671872625047832, 0.0616126555179932, 0.10587554452728885, -0.06154955711797144, 0.03431744658157735, 0.0019317610834914717, 0.014982829566831876, -0.11857964823327055, 0.003769412539475015, 0.07638793683482784, 0.2225953861881553, 0.147148890927187, 0.330283244503699, -0.11769608765768438, 0.13383397010158474, 0.02812334250472324, 0.3358997131390655, -0.12399227723790758, -0.12880519741885, -0.09193905237659854, -0.32578663256559487, -0.08065632435718934, -0.11644905052256632, 0.023067828745953308, 0.05242095939825377, 0.2877763425456461, 0.14578587768779153, -0.08849301089438688, -0.13781743888070222, 0.07534743676205109, -0.20251548092388022, 0.2809329503855807, 0.18068454844872825, -0.07204827018412559, -0.26277677152522294, 0.20767444513377245, -0.01768523250931704, 0.18987221336982124, -0.24457409693260523, -0.09196374822818142, 0.0007679075022867955, 0.007200086101341265, -0.06902844436365958, 0.09555795275867343, -0.16376476457499395, -0.021796543665243584, 0.018379622589469076, 0.07892109127498863, 0.1091427487954272, -0.1725237810213439, -0.23531771231244003, 0.19599081435591992, 0.05105575136905802, -0.11491821040331028, 0.23789726861210625, 0.017741653038420013, 0.18089979793120758, 0.010356340350391203, 0.31610422468882643, 0.269256984590462, -0.038178816282367814, 0.14901804402371652, 0.09900626646623674, 0.2099384974517914, -0.14802203382924053, 0.10519369555953453, 0.16238260100099564, -0.26978373878265866, -0.1814804306230533, -0.3128037881058686, -0.04132512195503513, 0.11006587817952376, 0.23051458612825979, 0.011366142983892122, 0.249818220749148, -0.2116986709082165, -0.2612869342498169, -0.008496640347889209, 0.058976776635933564, -0.005015082664601102, -0.31713162704714687, -0.013694712537803543, -0.20009005034019905, 0.10272276726494096, 0.05621417671004315, -0.14427272235455876, -0.0788240687744731, -0.1624771484877131, -0.009547956085116757, 0.14651160242273192, -0.1512034732268606, 0.07731721701099985, -0.08134216997404622, -0.12162380860636453, -0.016418558780681616, -0.15879909617412444, -0.08493336158186116, -0.18377666568187356, 0.30138020729369835, 0.005403815748012751, -0.10729780637729239, 0.03282268978742921, -0.017230336275674836, -0.033894628075766625, 0.09422845180728281, 0.11619305063355723, -0.08137527895385542, -0.08833239386564137, -0.042190880795967306, -0.3530839479076161, -0.23241849504895815, 0.2096695411012576, 0.25232673634165215, -0.03821099152961332, 0.08843999186549552, 0.04774444267601918, 0.47228809315314485, 0.17168143724771764, -0.019644796041482847, -0.14657591452608684, -0.2463919262155738, 0.031204789762692843, -0.116020825381093, -0.21816377199053671, -0.09917669808293851, -0.16598811085091703, 0.25879967134128407, 0.13523727881103467, -0.001400729534927657, 0.22693369173595043, 0.01188908186274207, -0.13212072005673123, 0.23355420561213988, 0.0826648863029628, -0.15910631056551067, -0.029215581082333044, -0.13429837664233069, -0.21211910260496916, 0.14207106253405924, 0.2928940189683867, -0.214529878662201, 0.08640314235383931, -0.09979036759046747, -0.07471539524736139, -0.09087604968356641, -0.13255520253533046, 0.007449821594725116, -0.12745806696682402, 0.04153234265200386, -0.00784211746443793, -0.03668111046384344, -0.13921807853292759, -0.08840911913443107, 0.11586864522122818, 0.07683431310573742, -0.14995013096335014, 0.015246240583425162, 0.11513388339977766, -0.2560670116841098, 0.08334770118117651, -0.10186280341967821, 0.08742546194579491, -0.11704579905406953, -0.2768656578495982, -0.24974766982074884, 0.007375219726591699, 0.0398396131272455, -0.1387388448987692, 0.09799518217512085, -0.254874756566638, -0.01013563437428648, -0.18576740423494567, -0.09998636896270761, 0.007335909479273275, -0.1319752148679076, -0.058980878975946865, 0.15435147715647798, -0.08852426672170798, 0.12819744062504657, -0.17328449324400766, 0.08132807443893443, 0.22095793957004287, -0.3791476950329846, -0.12223977185333042, 0.0885437423389906, -0.031152889413447387, 0.05693034695510951, -0.09264710979033987, 0.013281293511585083, -0.023916308610718206, 0.17913228190981548, 0.03902625442962187, 0.051700816606413715, -0.06323119834677798, -0.07478127661153644, -0.06635516681843805, 0.060482332678069795, -0.06457614697839392, 0.04444940525031359, 0.31834489344917244, 0.13363805200920223, -0.050012816206423394, 0.1842614029470937, -0.06258922785366906, -0.31263373465301997, -0.15460656016735774, -0.28697205601754483, -0.053916447238211034, 0.0028199409496245838, 0.25713771930060675, 0.0501518448811085, -0.0336066432077777, 0.12724959359694202, -0.3392602344158761, 0.03612012239189232, 0.11824297528045838, -0.22676703171452323, 0.17543581842448455, 0.051921729258267685, -0.06370227330581606, 0.09706396611185478, 0.3482415601101965, 0.027900845202497082, 0.03807520160939363, -0.07060290400110307, -0.1304459136380692, 0.1273885263683132, -0.13132287819646268, 0.010944536486929494, -0.07326948632932552, 0.07347212203055284, 0.0511685926892777, 0.15917333836649808, -0.07823809016876476, -0.04139239667581572, -0.15012776056132038, -0.06815103520357955, 0.05791812781431275, 0.11611112841301018, -0.1414472107568007, 0.13338363675510403, 0.20792186474841232, 0.06342350487558752, 0.2878900145698519, -0.11865368262615321, -0.19105468245316798, -0.2728650904658374, 0.22948026089727916, 0.1004112604941636, -0.008534612785460154, 0.04294397132928755, -0.17264215446851522, 0.37516079232465344, 0.019760195044574727, 0.016784494345772803, 0.11132741870892267, 0.07365367428080205, 0.034263764254213354, -0.12123278307427136, 0.07231427312574693, 0.2886536579472881, 0.20637784515103108, 0.24438364251718864, -0.07842890831440172, -0.15177694631643418, -0.01929984807713837, 0.008551968090746532, 0.167848151894944, -0.2596117854682673, 0.23466319406019107, -0.024239133215589525, -0.06547520157191469, -0.15525670715265702, -0.25386650250888193, 0.12627397346607913, 0.011249132347910243, -0.19783448250379948, -0.19878343710436366, -0.051531369745311785, 0.25601352838275243, -0.0397804912775574, -0.2305814632724705, -0.03769686146205927, -0.04183389293024316, -0.41368326701601893, -0.008398192336375563, -0.035418957794436705, 0.10679305427813414, 0.2834812709176731, 0.1727278035064681, -0.04122344910271577, -0.169739589835509, 0.39469671288969455, 0.009083528819378309, 0.0021366558433329103, -0.0037139213792387973, 0.030410349067175723, -0.022149204861539613, -0.08799097271060351, -0.08388088168981243, -0.005023629617719693, -0.08331147002770269, -0.10934178888368827, 0.01633095633709337, -0.039119099732339284, 0.23067563846415362, -0.40663351037893414, 0.16743219670770698, 0.19117684141611074, -0.31818937688720955, -0.052566261946225094, -0.05697679287257187, -0.21590714704605843, -0.11931400360915104, -0.17035462965800774, 0.26878600789288587, 0.1435277752039474, 0.19499627075378156, 0.11069934785936003, -0.17318863582394523, -0.08051473263929254, 0.07504460816281529, -0.18746520182656873, 0.10936884484662292, -0.036876724344306236, -0.057494904529730884, 0.10905628081682354, 0.06814300968157766, -0.05537445864223496, 0.17783269346994882, -0.1658272281143601, 0.09447928315310514, 0.09097787439498785, -0.047466220620772055, 0.050025590369248064, -0.1919061477970113, 0.1417378624844124, -0.028365975833380734, -0.08018054349828105, 0.16091067537817175, -0.10802335691438364, -0.21607764224955386, -0.2387767979608529, 0.092956959754071, -0.19635641628217373, 0.2691731400430138, -0.31935339301971033, 0.26022451456244206, 0.03236122272976524, -0.01487975887433453, -0.08358713512512152, 0.061224723823733895, -0.005945725519345858, 0.16916341914286878, 0.01753278181862031, 0.023049715492205997, -0.05586102708983351, -0.008735652708341502, 0.04721463604909982, -0.26234743695902996, -0.20679807934918226, 0.11400960470842121, 0.02621352745481459, -0.028207736427950218, 0.002828156135594299, 0.05335610125542378, -0.08284366853124159, -0.11937488649521666, 0.030030712934457807, -0.15008001800390786, 0.0626302782475072, -0.26115956003643215, 0.15792158952295318, 0.07239686234516536, 0.039230687823427805, 0.15073315393204859, 0.25554054966238515, 0.1555810749780059, -0.2823797780197183, -0.19627817489115768, -0.09584353740913398, 0.0038758600866048735, 0.07941358128413496, -0.11132419203264336, 0.02839844001411066, -0.11602284217454958, -0.09376365410276946, -0.2157828422935829, -0.141674810862903, -0.20733927649989264, -0.14969218234081452, 0.1615979388370011, -0.14558446620925122, 0.4037797628389266, 0.0756798415668069, 0.028363022815601328, -0.13166521145035767, 0.10750473201840456, -0.08830666651486166, 0.018725889976291685, 0.39268477318282347, -0.014781404505826155, 0.1763017677913791, -0.10785766745619796, -0.005295971640540101, 0.2713675421498131, -0.09620357557686396, 0.27801691761410946, 0.10862249026123608, -0.0862923816220768, 0.09700487794250574, 0.14918302440360237, 0.09538104330239319, -0.24095346069769397, -0.11153360981717478, -0.03796769887002733, -0.011611589406818711, 0.09511180652434686, 0.02728786806731601, -0.2048410637679164, 0.0582690198228154, 0.0936603697591715, 0.0858678763072858, 0.16576803126860676, 0.12795276502795794, 0.07043110810834245, -0.010756704784664142, -0.2547789951760228, 0.06590096122643062, 0.03191405743342096, 0.04165363542311914, -0.1958347978399458, -0.1658371860885331, 0.16151008476798828, -0.006060273663997648, 0.10454095715780146, 0.004394337989865709, 0.004379343604392643, 0.14392181815598867, -0.07915832316465425, 0.014745828400654352, -0.07091023410852207, -0.0666486788453701, -0.047424838845608566, 0.034071912399013346, -0.07344248391421541, 0.19262511496996568, -0.13722659547532373, -0.0286741505621368, -0.06746111879913406, 0.22195611332596704, 0.030150083191484437, 0.15827588679543253, -0.22787496793791684, 0.040963640836820685, 0.13646220755657879, 0.0126208311405388, 0.16343647107673906, -0.07934863710384604, 0.21618481390281155, 0.3526350070441725, -0.055653194155593486, -0.06833493714667864, 0.22293903715057775, 0.24229513347485107, -0.0802041037213348, -0.06445291271004147, -0.04322361263236448, -0.20622523754697736, -0.14092421712425435, -0.15402778027631175, -0.11777529716920039, -0.0053203575204449445, 0.03592661814011909, 0.23783569243039931, -0.15314051914419083, 0.15098832744026255, -0.03282897348671643, -0.00758740041645855, 0.1035125848567095, -0.17222223652243307, 0.058654224675425644, 0.025532829987806364, 0.07553840986749175, 0.04435470868294342, 0.37662584888474127, -0.09782484798176655, -0.0814518606538831, -0.09558607697636586, -0.0852070491602458, -0.09777076730714009, 0.182387947351037, 0.21789544879575842, -0.08754610385580895, -0.1276782338584567, 0.07231178165562407, -0.08470748104580729, 0.09708634712881063, 0.031127196759895906, -0.2325045539475281, 0.23737826549418983, 0.27546713960606906, -0.09401813101767555, -0.059474917974842216, 0.043916605030653366, 0.05129316450938536, 0.10101379546699944, 0.30835126875635577, -0.027137863595253865, -0.12254501304630894, -0.21156932885364207, -0.1121197229068366, -0.005313791472572489, 0.2751101438966846, -0.07935442282330082, 0.034315931281071174, -0.0025668370785640695, 0.18229133865896427, 0.38761373996564424, -0.08145220554891405, -0.07500679386911821, 0.16016359370545988, 0.10460173420476171, 0.2832888471550768, 0.08957133446189423, -0.055037872634452804, 0.09059700517936334, 0.17007801308529857, 0.12584143357683059, 0.07776606130056767, 0.1636274056669406, 0.1793664910352927, 0.2120724816491874, 0.09927493251413975, -0.025676958023963147, 0.022500364020895162, 0.1851274441063941, -0.12532666947804838, 0.056549342886424644, -0.06033544029948089, 0.0044085137047364924, 0.1959781333125077, 0.029321571226492243, 0.0071228684073540134, -0.20884190514512124, 0.11434595606180883, 0.09905098255094337, 0.3318166504399808, -0.04729583970763704, 0.0336158029169802, 0.038253652215614026, 0.24194777017573615, -0.014596745434391541, 0.042790767601063, 0.0932542692429871, 0.028632591816425884, -0.0684787912410601, 0.029847065649628947, 0.1646833973234578, -0.15745119135767713, 0.020383624836774465, -0.10743754651193492, 0.18332292180298246, -0.23364156843694975, -0.08565696474898413, 0.0576103527213025, 0.24009794328330175, -0.010090391626499101, -0.08509528784184182, 0.2885401320139894, -0.2221177541558973, -0.3372814652861284, 0.06749439284123245, -0.07713792683646394, -0.15664165092827861, 0.1086567460201981, 0.03714704847096799, -0.08667810186338455, -0.19635083488200422, 0.1338179652085, 0.09967901223881359, -0.015213205857050455, 0.28326112599219483, -0.16416684509410565, -0.23395820371324688, -0.10614306638105384, -0.006984245807795059, 0.037337023313136014, -0.03700306047428281, 0.05408493290052933, -0.19198523882199958, 0.22147381944279698, -0.012615684209437837, 0.17133886848101335, 0.05258295530838175, 0.07006741788154054, 0.08746932894999537, 0.06841448234570248, 0.09858482455888176, 0.2038826005627262, 0.03014641358669432, 0.10875485970336539, -0.013765374862798024, 0.2209038975707844, -0.10375371671036364, 0.27624580554380324, -0.006159368222236995, -0.21947086719602993, 0.019643444851617457, -0.10447284693010733, 0.1289492462483327, -0.10010828535472205, -0.06844020723501963, -0.2898422007949054, -0.06938062221969267, -0.3718069078336959, -0.2429582465086296, 0.11664139531451569, 0.12053659933970226, 0.06526120015751109, -0.1483273436353831, -0.007316106934669579, -0.0005524106209576887, -0.17768514896999726, 0.23061065065821867, 0.1345777437790417, -0.03389392757174497, 0.004124150485244554, 0.031966098577771725, -0.3131958591971996, -0.037919046384957765, -0.10461191210891443, -0.1536391679125687, -0.04311947336931386, 0.27575249331763635, 0.0983008086344351, -0.08761346554911015, 0.08782441590915364, 0.2146524347549502, 0.14183233246061897, 0.009138656273912598, -0.09924581102866968, 0.1071056976589799, 0.06035726382444251, 0.13731864721937578, 0.09743087783183405, 0.16099403731992426, -0.08210190822997368, 0.2020866237340845, 0.030310363095665552, 0.31833059562975424, -0.10571747011938118, 0.26628472103703954, 0.030362673113372214, -0.09992179833886898, -0.07422410114647278, -0.049139654512193806, 0.06505970589561676, 0.0802003225666243, -0.08800157808562516, -0.0037358665142438693, 0.328587541215204, 0.26495601221707005, 0.06692603356939875, 0.005869319837012018, 0.018401619019162735, 0.09410735342648363, -0.1568892352922752, -0.03947553985863922, -0.2560173743891869, 0.06124523151528458, 0.09927530113818148, -0.07426737138933301, 0.24137136598512376, -0.18799128830381087, -0.2246345925953796, 0.03432965241325977, 0.16061771209036813, 0.25830270196385924, -0.07040612770852334, 0.16548657919984197, -0.005913262747276932, -0.026476250158018, 0.1355534448004021, 0.100062289315916, -0.2417611798808114, 0.22652889171004037, 0.2116993503518532, -0.09596240980612447, 0.060684634585928626, 0.07578761215294964, 0.0399902267464857, -0.08438108069202264, -0.10314321842068129, -0.003921764796920368, 0.17988794023680013, 0.08338097411339165, -0.05685399317792176, 0.1183725343588888, -0.43694649606314356, 0.17621398288739462, -0.2668973692501859, -0.05559637540892221, -0.1717495216489354, -0.19866487599013824, 0.17804587431644975, -0.0717392527570257, 0.053151686810707276, -0.007237451950168819, 0.0731746814009813, 0.011783925508159262, -0.19680995509037982, 0.15280763639974984, -0.07574179035816161, -0.23876699962629824, -0.06566814328559686, 0.2302063414413456, 0.13042879257346782, -0.053490915290427196, -0.053570913349340284, -0.04933986994227846, 0.31854993436056145, 0.05858780526944274, 0.0659664245034196, 0.15806013904681068, 0.03659245011967837, -0.03973456136141239, -0.030118691962728646, -0.010983131825593047, -0.005713551594773812, 0.11161333015871672, 0.007968135145772439, 0.11238143142990686, -0.012381373885129087, 0.012062087572758255, -0.30650999314539523, 0.14055622887611433, 0.05314624133602227, 0.1530871435715128, -0.44426582755189403, 0.32034343382027386, -0.021412071520248287, 0.1699874843359874, -0.15951428756002944, 0.09398810571635187, -0.16158657113222594, -0.09567840283855654, 0.29359968203485576, -0.029249321697299484, 0.033352353981315114, 0.13345130137614805, 0.07603412665084949, 0.023072575384385532, 0.05598265526618595, 0.368667121505574, -0.008838320004852544, 0.03085036633912014, 0.1611596560745514, 0.16957659737157518, 0.1820820264178803, 0.09793519214371146, -0.17534358614452467, 0.25055403479727273, -0.1758413578266401, 0.04642301649905914, -0.11577254337525973, -0.009839131803596503, 0.0504298516703687, 0.04910448006237928, 0.06470218515080027, 0.24753917911257822, 0.0695687082966829, -0.037689612318067, 0.14788422085483457, 0.18245644405447267, -0.18833152363297878, 0.09156956163917247, 0.10754900395601327, -0.045639873575938766, 0.21103179967306543, -0.023016857173880127, 0.019280501789485694, -0.026563647569472337, 0.0023921355773896657, -0.16816690113142468, -0.22090214790900203, 0.24458665892234285, -0.12991191407473784, -0.152022852285146, -0.33030153379562105, -0.09804423526388792, -0.20295630717017765, 0.25192550177653095, 0.15488668780943202, -0.10555934853671504, 0.3455078588212233, 0.15059537565683775, -0.049920675230647076, -0.3833851511064662, 0.3514144148380207, -0.21333973094586065, -0.25250754964452493, 0.15688464765433854, 0.3742327269777168, 0.21229205733180084, 0.08649946505503005, 0.09123110701802603, 0.13089037803572534, 0.11644842416858388, 0.04312574837151678, 0.015989935949776133, -0.009592793036559955, -0.1156522434933174, -0.04299232277357996, -0.2596927959653555, -0.015076731951507943, -0.15165355563266145, -0.16931753606438754, 0.027602804650089543, 0.21352702950577096, 0.14091689653355274, -0.24109748719402238, -0.1518353365880196, 0.14430406762195294, -0.1506556669969144, -0.03446992346774903, 0.08437194602703607, -0.1485372691923486, 0.016164588692415816, -0.20472492823758684, -0.09223908407786449, 0.049052149857562635, -0.24454102979389955, 0.06745562904695065, -0.002982240660355107, 0.08473966903775669, 0.03429822697173116, 0.2092493221189312, 0.019208561855353943, -0.06588612844850085, 0.018795687608764426, 0.08333104440049081, 0.007501070235072725, 0.006231693592297457, -0.10767993379360363, -0.10162199581862513, -0.21514440485558267, 0.2683800525048946, -0.19081010899769743, -0.10632258383649419, -0.11018938149144301, 0.1372786568422226, -0.045193496205158654, 0.1911961381392529, -0.1033338489262963, 0.042792921649621986, -0.1280961643072306, 0.32904127946519207, -0.1821708099818818, 0.047524311006536445, 0.09721651739957855, 0.06339821210036688, -0.028416884950055465, -0.019913685903326463, 0.006572166986602595, -0.022639451093775468, 0.14787529326989537, 0.3390723564095869, -0.08554809651761702, -0.21011837795988203, -0.013541883219973886, 0.3956955001059597, -0.12325003967406735, 0.25142364695175573, 0.25735250101596147, -0.08491046796572395, 0.0872785278596654, 0.24983345149822694, -0.05816072114243239, -0.031221586256881567, -0.08923429296345406, -0.15568422956954936, -0.09958791069768459, -0.18774115331857655, 0.005270390215078671, -0.11826411310564938, 0.03583622856480702, -0.2386665000184393, 0.050797875905977306, 0.12784781864215633, -0.30582632268642784, 0.05737764913158275, 0.1883166428661956, -0.18563197789094688, 0.25656636529527116, 0.06427444530728871, -0.10830944192750737, -0.008650850974610744, 0.08566863509762705, 0.011652072312849107, 0.08259943399316666, -0.14122508816725168, 0.025978764503602408, -0.21686770522120805, -0.017031938577257905, -0.1386590401303751, -0.1128199376503463, 0.18961546449845695, 0.16739986331228374, 0.09349030129927331, -0.1675588440440467, -0.04852856613972401, 0.18607196040567406, 0.021709336251920175, 0.35577493978407504, 0.06033511019283038, 0.029502882487673552, -0.04757333184691008, 0.020484084453416727, -0.023387878452601294, 0.10862036294527198, 0.1467515155424759, -0.12056539762120588, -0.20420181347573865, -0.2816611618189368, 0.07792214013342816, -0.16924873015056643, -0.330238341922682, 0.059603960957004445, 0.3824086647979254, -0.000931325269471023, 0.1286185064337608, 0.012553158323063227, -0.015168983994406087, 0.14097989690491888, -0.044526185750060426, 0.04101823979350182, 0.04934619086826983, -0.10248036253590409, 0.15217219450224784, -0.02683757533843625, -0.11592456732690724, 0.08229630771246854, -0.13781867264133726, 0.004322541433781837, -0.0013994787720284171, 0.16656890354142495, 0.0728153849773279, -0.0038384893672681773, 0.12543616354132606, 0.21324863723311852, 0.08556419507802086, 0.001588224487631176, -0.2012367515203407, -0.16338092454975098, -0.0468193385149609, -0.09350270716114076, -0.028685870676947816, 0.008689417429092496, 0.0812511594875486, -0.01082790350367676, 0.07461748811748488, 0.009888028995510507, -0.3030222701190026, -0.14408272764302105, -0.022102140130748175, -0.18555876161394363, 0.09202486634215122, 0.23478801023896725, 0.1869495339989266, -0.0327341231302985, 0.22867535309548406, 0.022804677404836785, -0.051706863227206724, -0.09413298614913912, -0.04639653855745771, -0.059546865125705256, 0.026139626652389454, 0.024629576909146852, 0.00046723816259847887, 0.06703317854988926, 0.18262123201538882, 0.145641574802556, -0.22777497664398186, -0.39174967431960506, 0.14331813206070115, -0.20966962113717835, -0.03447743845332337, -0.17948078654181712, -0.27642071692210085, 0.08306369312479676, 0.11644908581098866, -0.08843726031850091, -0.39747863879407747, -0.08377856378547194, 0.06009655992002144, -0.22685467897021938, 0.028126008187457273, -0.0023484236600442923, 0.08885925970618505, 0.01836904438492798, -0.14926122498027533, 0.1835456896858376, -0.024318660785278556, -0.004188324535502002, -0.14314887908308654, -0.0679960402653686, -0.135722543992119, -0.026528922718866012, 0.2625478679298453, -0.2104383901683162, -0.24750926600477485, 0.22566146299587403, -0.032146620998583904, -0.10264460898175547, 0.15951324514787338, -0.09288373365008885, 0.28009361679644634, 0.1039880815246482, -0.07484219647264646, 0.330917257017484, -0.09292497097571362, 0.11383534564874946, 0.045909352905818455, 0.1996300656928114, 0.23951172275692623, 0.004916771435704099, -0.11557258970429626, 0.07052323700574178, -0.10395664655939328, 0.30883950556893885, 0.020938670754445988, -0.05603036225508947, 0.02832698679341861, -0.2066383675811334, -0.14903701575779335, 0.1841352931661126, -0.10074955258006585, -0.16057893834273618, 0.08231893579875763, 0.1818764884761722, 0.11027063585352387, 0.15279009523399856, -0.11608533950783222, -0.2180853211469351, 0.23024801392455094, -0.04950778488508393, -0.03847718437233577, 0.20374200832387196, 0.08531863894721688, 0.0699292257604429, 0.3320961959410808, -0.09871185862826441, 0.1423035661298113, 0.008747258791466478, 0.0412001278108683, 0.23440949893641969, 0.07788288085583304, 0.08257679066181095, 0.1645132433506794, -0.05600290828287515, -0.1287290972754326, -0.16026641436799444, -0.30162981493484997, 0.3154089175004543, -0.1692270615329426, -0.033936859036240025, -0.042458415682027684, 0.04715421843753661, 0.12514067726062722, 0.13199173976531325, -0.08943917946014866, -0.025637511664272, 0.04333650104602851, -0.03814561203577342, 0.24655639622029865, 0.07532609151121901, 0.11267644396323248, 0.10167151559916769, 0.18000161989210103, 0.02777833559002343, -0.19892921493246352, 0.061308289811631486, -0.09991358610247439, -0.08108631950227992, 0.08989952680959029, 0.18994692691368495, 0.003262900258876039, 0.047321888964196944, 0.2610767224503362, 0.03693584306664126, 0.3990775844209719, 0.08676347738940599, -0.27008864524367926, 0.11555731361749187, 0.05846175500877349, 0.19785964903625555, 0.10326042193404533, -0.021235439703698993, -0.18780489482826213, -0.032062461539789415, -0.13043818599118734, -0.08905880782336593, 0.09028567715277341, 0.25614706679664495, 0.06052469133726401, -0.18343487049798424, 0.06819877074070546, 0.18357001835200087, -0.09363113475345113, -0.02056351061336559, 0.0022515699146094547, -0.12038335197243437, 0.09943685304702635, -0.018553112559702132, 0.06435332424090498, -0.13613903877808214, -0.06714860824594951, 0.11080931976347577, -0.057190063120910455, 0.264821489231989, -0.061360730794471297, 0.03447133688706467, 0.14305186856599333, -0.21754276208428763, -0.27009618638511274, -0.23402504362257592, 0.19366611978746698, -0.08464454001417934, 0.3924074270836577, -0.08654771669486812, 0.028316923286357844, 0.23654913033516628, 0.30774119721083404, 0.31618902304226804, 0.18536048802297933, 0.15707774150947088, 0.09087884821276183, 0.1193966436052689, -0.08454799425196724, -0.12547336892424046, -0.0006094215896087635, -0.026125908243505813, -0.06952493531401364, 0.10686290979129129, 0.14652855817673188, 0.013560157162739027, 0.22664274383620922, -0.1751284115518178, -0.029779122431214614, -0.10995247797542419, -0.2863137773689173, -0.012835886159916682, -0.018778670302209283, 0.23217787345828275, 0.09675660922245147, -0.15715016093246134, 0.28440443488217965, 0.18729798162826367, 0.08927592418173744, -0.03472163838026237, -0.14717781518647124, -0.05708968745021117, 0.1670200703595097, 0.28908285232424535, 0.2367672641355803, -0.07499209172623178, -0.17173345340562388, 0.021603465447176375, -0.27128685999146124, 0.04957557017130514, -0.022638124174188264, -0.07143923879214116, -0.24474331540262023, 0.07877206282150384, -0.08171408425027439, -0.17943673438214583, -0.44058913202235206, -0.004221108534539291, 0.27185097485707466, 0.25482513617950553, -0.07014364656966639, -0.09237339922114265, 0.07190663920191821, -0.15321568918017442, 0.04624961437302474, 0.11752306133330637, 0.18820010220678024, -0.015392756962377815, -0.031242392442080196, -0.13467639772157936, -0.12684423988127033, -0.03473383148958874, 0.056348416129076664, 0.1401393261197999, -0.12319481247785904, 0.22896816320490979, -0.041568730868844876, -0.0032766234090411666, -0.1146139170058101, -0.37186472537054766, 0.13559650868103754, 0.1130285633769554, -0.043151891347155566, 0.01029761925584401, 0.07908556938428406, -0.23969620948960668, -0.08115442781358537, 0.12184599343122085, -0.1924077049840323, 0.045028080079964485, -0.20809014893401895, 0.07154757230259308, -0.005497462235907592, -0.24774732154834994, 0.17866284246991862, -0.11273482905248453, -0.12431631724668464, 0.03077382681855572, 0.17619020528395182, -0.15584547900295098, 0.009461164817908088, 0.06577744847872126, 0.10630971048623465, 0.027075049854862747, -0.05630159961249862, -0.12694411606888428, 0.013211309774377065, -0.1644584059760997, -0.4480957564345472, 0.06697932057679883, 0.13865835465243048, -0.3624606148774283, -0.1548985691675, 0.09497854010562079, 0.31560605463432395, 0.0032041917526501474, -0.11174057874250339, -0.028077031659100665, 0.21089415443784612, -0.09905349244681488, -0.122598842495076, -0.07405096533133285, -0.14623394306530485, 0.018816444061523354, 0.24914124673751245, 0.04956296977638893, -0.038709323425730684, -0.04488334121999326, -0.23985791095664355, 0.135480732969938, -0.011945307139429689, -0.027693804373640534, 0.4898002074080804, 0.04582657908217289, -0.11533099544866274, -0.06536782467262034, 0.1761596217680917, 0.017379635341993285, -0.22062276267347955, 0.14100377125887206, -0.10244226774855708, 0.28734101319595107, 0.1656767774390713, -0.06862441156041367, 0.1964724532949439, 0.010416110494669475, 0.13081108087890073, 0.07438909721128152, -0.12997984730531098, -0.09873079370425192, 0.1579869433135275, -0.05132289506190799, -0.061921322462452195, -0.14650925315795624, 0.06497712134677626, 0.31637768400878413, -0.16380708088170434, 0.0037188626075596153, 0.21662466634916902, -0.012337367675639503, 0.06932492668346715, -0.16294644602065464, 0.06569505245803185, -0.028730716910029465, 0.15120403631070375, 0.18213670595917653, 0.3972134797094127, 0.08893277640387119, 0.049971182479464624, 0.029820591069267825, -0.05416409092258438, 0.051921455326263716, -0.045276130054879904, 0.02582695468529977, 0.2021132585923903, -0.15440286917009344, 0.17483019115991288, 0.20203870200527518, -0.018108938726807855, -0.3254470107154273, -0.09333023292705063, 0.1989498815876683, -0.00350780062920462, -0.15328596508944373, -0.07742893836604642, 0.12894522585058815, 0.08386510100761078, -0.036650510954992686, -0.05626829618327902, -0.060092956882452274, -0.141491263373319, 0.24778731953164876, -0.0494417030147909, 0.18670359427008176, 0.23335922975920573, 0.15313390137285177, -0.06620753366601931, 0.06192936884647311, -0.0037114365971528764, -0.13862153750724615, 0.04975444257763007, -0.1808564480554968, 0.18218170178513501, -0.07126904004815149, 0.030856482644610616, 0.04345437584819645, -0.039714210053895284, 0.0899947209810611, -0.07284689554101398, 0.13365090440540786, -0.20646385808984696, 0.019385742563469824, 0.29741813162771613, -0.15344574705383626, -0.1039614724114376, 0.07883403955111985, 0.027545896978667703, 0.05378416026118135, 0.07503787863447321, 0.09736169208612352, 0.17021957206767252, 0.06286352679059024, -0.037007255644488826, 0.10315830478319027, 0.29142328315954147, -0.020343333581189053, -0.1494866436519085, 0.16981033773478307, -0.01846563318706079, -0.33327229482553533, 0.1299877895238748, -0.08211562663501733, -0.013887844006758677, 0.05092372887689841, 0.02922222427629173, 0.108824987518581, -0.06679831870810313, 0.07870917447408872, -0.0398124040137809, 0.1133281175266093, 0.0943918607421201, -0.1434894773089421, 0.16658250293488386, -0.0822111103405356, 0.12394583557145636, 0.05633930204532798, 0.28196450463451794, -0.034278116935518854, -0.053582750527798505, -0.0029788315626210343, -0.04650565575204765, 0.12270548638030575, -0.24793072955469087, -0.16162750496985076, -0.1637934911680351, 0.145770530335917, 0.2623961132448918, -0.016021778746141677, -0.025896070208724073, 0.010745511300167068, 0.17822399588037852, -0.14224947724440953, 0.036564132836948704, 0.14958848785001266, 0.07686433689187916, 0.02908049249206434, 0.15355346104429224, -0.4146569050904023, 0.10398132737678606, -0.10033062980303217, -0.2808062678642284, 0.07841489920868473, 0.21070960215420062, -0.021083639697703067, 0.14616428329368905, 0.24731219523142386, 0.20169866984566703, 0.25155907539588274, 0.11383716058265618, 0.011570992003775338, -0.24573033821111612, -0.03774426269286845, -0.12934812311445323, 0.33300741142279816, -0.02697965203411555, 0.018898754652281097, 0.08459399505687303, 0.006688309959153408, 0.26000896046393923, -0.09551005215569726, 0.029851420947129403, -0.11388978889588085, -0.20248221011933332, -0.09384109479666765, -0.00568118532703553, -0.06585195516780633, -0.10621252982132746, -0.21571925156818608, -0.012747812916864243, -0.23081356897741975, 0.1165872627429147, 0.012645680837998259, -0.22357819390631772, -0.04743050726621085, -0.11537552584505198, 0.04895913496480233, 0.20561571227691877, -0.2876383264537489, 0.01764419510209111, -0.024563393976088158, 0.10297867951233204, 0.03269776462851771, -0.11534843209662815, -0.048940599748304274, -0.12210479756566361, 0.16505299137614865, 0.003231060832307871, 0.2916293203807429, -0.009304944078160607, -0.10870588891482205, -0.23221084321623697, -0.2765887792904533, -0.24299543731796203, 0.0409639921764695, 0.07803481771788888, -0.24254358182992822, 0.1372898076468913, -0.07410390321966404, 0.02251669950134802, 0.24730358209530587, 0.13756778123741906, -0.041190512626407404, -0.13669083057308712, -0.3300737749759518, -0.11030828795398184, -0.032387074169130364, -0.15142873370758006, -0.020132812404945983, 0.01178852969115607, -0.03447752160710354, -0.09972688339207976, 0.025870445720803645, 0.0677906010736403, -0.1672598363761262, 0.21642714737929838, -0.015122729155576378, 0.002891399972305755, 0.10863517677243784, 0.03577331033151044, 0.14620448555985846, 0.044042836432365534, -0.09394436751460182, 0.0554518374338087, -0.17543959156842734, 0.016652277803398265, -0.005097736109114841, -0.03192367809076635, -0.019716754205445657, -0.2886624893272734, -0.08417083054777287, 0.014241757713646053, 0.02452085118109341, -0.15763806964708155, 0.1941507242442913, -0.13286498328786048, 0.14870794619799835, 0.06552877944942528, -0.09912670817504048, 0.27232024607391636, -0.18309552151497838, 0.14099181410236178, 0.15348255487294457, -0.10286841763328514, 0.21359397079277215, -0.038355384456141936, 0.04428356197637017, 0.03993154723397926, -0.020602020480812614, 0.12437231232548997, 0.12171568225096925, -0.268212650426211, 0.20007697701153823, -0.25501462981252476, 0.15838495382933784, 0.1728286785402485, -0.16734664124685897, -0.0630159991743009, -0.16960594484821495, -0.0329673731572483, -0.04725030226702496, 0.11959446628733783, 0.2009931780471273, 0.21408812367539484, -0.08623263884699515, -0.032093242080532214, -0.2582276308643957, -0.12361448943564143, 0.14800451252327163, 0.24781909244893457, -0.18934047375102975, -0.09088016464688661, -0.004050215900684041, 0.04297476000990922, -0.12418752464393557, 0.06504674640552044, -0.07268310414073839, -0.0022169829126100263, 0.08379847656095625, 0.000974844086923733, -0.06693838326072513, -0.016813392009710822, -0.013564242541956765, -0.05676307416461579, -0.03969786340103481, 0.24522128185940612, 0.0860246024070912, -0.045350157994141646, 0.10690590695494574, -0.05120510376016318, 0.17995968656233102, 0.0567004059460123, -0.01645945615947356, 0.06867657465774275, -0.24098299865669862, -0.17283823984519775, -0.18313219858409627, 0.021944003897690006, 0.2657556703783135, 0.34226677341966055, 0.09779492017143049, 0.07682766460884666, -0.27627691592418474, -0.08324258306231266, -0.12084240829885644, -0.0952336296916807, -0.025771638591327865, -0.07243801971003587, -0.30361101647704364, 0.11472418992111491, -0.16455097046224812, 0.036697476574750844, 0.3181494568131544, -0.14102716073275806, -0.38812767502463685, -0.043870237268455646, 0.16887940798289533, 0.30039678667711484, -0.18861006993137439, 0.07618708606667343, -0.0713755127287223, -0.01625113700164723, 0.4056249386018595, -0.23054518556639725, 0.038921876653981426, 0.07174082447587783, 0.16655475416994298, 0.015029969538730594, 0.04725364228547754, -0.060074258982087014, 0.04128221602022115, -0.052642624128711506, 0.09533833929661402, -0.05669549665618138, 0.05784392666205987, -0.004491753881838934, 0.1727281803659875, -0.007883422473761165, -0.27196919128721025, 0.1935660387386985, -0.13893299280596036, -0.10028317852611567, -0.09137027154857544, 0.21082917936003143, -0.3275974699411574, 0.48130865382487803, 0.1619917197575068, 0.034243286257074006, -0.008420355314091528, 0.04380199556770481, 0.07993653149401476, 0.09897155293646702, 0.08522583461437683, 0.013741049239974353, -0.030270331866033215, -0.023204262462044142, -0.02989756541339083, 0.17391239393982608, 0.0910474449768846, -0.4510350272784449, 0.10061058635122595, 0.029871168682132902, -0.0028697922357751766, -0.05959601020806299, 0.17243101994945204, 0.14534392449092923, -0.11855402237654322, 0.06243897057095314, -0.14904533931418595, -0.21162376607419436, -0.09613403383361953, 0.13228511998561754, 0.14617959303656322, 0.07870365586748239, 0.1112245560869138, 0.07917803046048463, -0.0983988157676113, 0.06625388400622892, 0.1227786391783559, 0.11570194253427427, 0.18237302656430823, 0.10864885045382269, 0.05390813923552675, 0.16414614748903644, -0.00405736560206172, -0.13527490749076793, -0.024992934863680885, -0.1142625220675637, -0.10356761962714267, -0.022168199812688503, -0.12152702475430259, -0.04723878891634152, -0.29046723038428546, 0.03271863944682856, 0.00018491656949314928, -0.12532335101232625, 0.10118477287030993, 0.14381676538574437, -0.24658850826718387, -0.11700264422094246, -0.11797640863524313, -0.14417464665123805, 0.12722389988710023, -0.029779651219503142, -0.04057591273320057, -0.3073799802013126, 0.09748408472242862, -0.1901084349228303, 0.00919168859003795, 0.04254766553187291, 0.2087086401037969, -0.20084961208462482, -0.46317209654602476, 0.028201232808322343, 0.27603441401183687, 0.19000328927349616, 0.03216255524767388, -0.07541264675354342, 0.12378627981629392, -0.14933530974035822, 0.0730699462523302, 0.07752741771292983, 0.16262110432708307, 0.42331252619319376, 0.060201075611418936, -0.0780617699175185, -0.003922432868437598, -0.27132392275583683, -0.10662949200346694, -0.06277395877026688, -0.08040214604355764, 0.02336055142676139, -0.12614930393287335, 0.17195822983330877, 7.81656445116315e-05, -0.0015343926402238812, -0.05030666331587222, 0.023804415146887466, 0.12656776422965565, -0.13301261501207956, -0.10095047291947197, -0.04658944638145825, -0.20644497966338773, -0.1256810436893081, -0.07304608514599747, 0.1341251776467197, 0.04026312688685863, 0.029676948828914994, 0.13053001216917198, -0.021073066786999207, 0.05990011489731319, -0.01583353250285083, 0.040704726269559614, -0.08939212245719388, -0.37408066552593716, -0.020597414803860025, 0.21823967849138023, 0.14207373437725224, 0.14808529085327923, 0.18962430624323334, 0.013606823062965132, 0.030267261191928612, -0.0947444326843963, -0.048492642839951194, 0.09445719148759293, 0.18466737836502323, -0.021392998060689873, -0.06909737825626508, 7.729270709802358e-05, 0.09222052984986938, -0.2214636154146182, -0.35222055792238266, -0.0844485354010793, -0.1872487389789559, -0.07794459889791032, -0.02265746400109774, -0.06952422188195362, 0.22279832685344308, 0.05009430053045556, 0.046086276054863456, 0.09544530499668386, -0.17469073083584094, 0.15936221081594382, -0.011621707491788704, 0.10284703182495693, -0.16441728935399705, -0.23833558416705541, 0.1254577292473641, 0.057739333703665824, -0.1383631680967899, -0.13340019526217853, 0.1726340958282071, -0.18244362269350042, 0.2519744204379255, -0.1381498016142377, 0.09792062236205341, -0.05040713246665049, 0.09252653311884125, -0.08345883801935813, -0.024968869366267812, 0.006262255736636571, -0.15373140775547828, 0.1136513671102154, -0.07872808599652521, -0.03506562630385344, -0.15252623086349876, -0.39303665325409654, -0.02933779781610518, 0.370086515842843, 0.12035280378346139, -0.0029802691380987063, -0.04037025714367066, 0.003462799503938536, 0.08391978563047031, -0.18111377636139547, 0.17092910628239422, 0.1097344845238022, 0.11016356170162211, 0.06730245679034602, 0.003008986526698679, 0.1032127987809974, 0.09077329000949844, -0.054307071477643055, -0.08795740133591992, 0.01562560916297778, 0.2376086073096243, -0.1900723747090919, -0.225126248966593, 0.025277613091544915, 0.007805399374100749, 0.026592545417974008, 0.037329468738652075, -0.034259144202707606, 0.2285323027010391, -0.24550107088367396, -0.12709370736197034, -0.015839837772820872, -0.25205366976595933, -0.026977313476466657, 0.254794048706748, 0.0032083676553780393, 0.03538775848957453, -0.19342624879997208, -0.09462740149551126, -0.05753020356017784, -0.048743185760195075, 0.19657612572046507, 0.0855456867120171, -0.17048989722109295, 0.03780078302225202, 0.07645062492015973, 0.17488531053782413, 0.24244806740453692, -0.15570389737324533, -0.12437942297926463, -0.1928592470259657, -0.035901081802750034, 0.07154156073882471, 0.15144298239007264, -0.011674641946074428, -0.04905663145448614, 0.023281339066063014, -0.12806576417809737, 0.3203829168185051, -0.24663205865567203, 0.02833543152061647, 0.31046394347908784, 0.0010322864222124658, -0.029153150628269404, -0.05482964008985896, -0.027674098077091352, 0.21047919505062068, -0.3392827023098078, 0.2352179151914088, -0.21865155979069623, -0.04100549828015288, -0.06581841672833325, 0.09027296970077933, -0.24521835980991286, 0.07089381084515776, 0.3105149215295651, -0.20912419727581913, 0.029100710987057483, -0.10155233442523348, 0.0653334873807938, 0.0029497876884885957, -0.09839901599158543, 0.07489467633953162, 0.27678459344724604, -0.02927371539777143, 0.11039562143196953, -0.19839906237304847, -0.1467037894413874, 0.07246866452844802, 0.2277211024949886, 0.05438094457155789, -0.04802576570746203, -0.00010905976680270854, -0.19179804171425216, 0.0927266052614817, 0.13534271979920448, -0.06934749314660303, -0.07210278957345981, 0.04077125232639157, -0.06698856748156538, -0.010144245063799623, 0.3220637756240904, -0.03790967883055738, -0.05496546384139237, -0.09933014860607893, 0.11415898254356792, -0.027798045265856542, -0.09960928234347691, 0.20267701891578102, 0.21776001341973816, -0.09210190608120032, -0.28631243558144753, 0.15454374480091188, -0.10501732690835544, 0.12128655709033254, -0.30221042640170703, 0.13691848071076113, -0.18578687518756115, 0.11208934031247969, 0.0021926149033631805, -0.1463274032605497, -0.062431177333139104, 0.10523951906801238, 0.016243467610504804, 0.08962602512659652, 0.3031338105784502, -0.23988980648916788, 0.248071209944257, 0.016007470091729578, -0.13784762829575756, -0.204029454209889, -0.029010016238780023, 0.1413566020696319, -0.019517917534559635, 0.23186337299197882, -0.22259811007764507, -0.001887156367073309, -0.19203429547345185, 0.05575876203641156, 0.13602980998227798, -0.06452917254700527, -0.39946581756209887, 0.030549059722913753, 0.06700654486298899, 0.06203215819505576, 0.18956148888650937, -0.16427147372546216, 0.10427915203335558, 0.18291175671817642, -0.27282271786635304, 0.04903288847284622, -0.07732362684168984, -0.012512631463242265, 0.053392162109970755, -0.07472775988806439, -0.10364888787965275, 0.005247244824105568, -0.16673629491916447, -0.16657791541051606, 0.10421070633645663, -0.17621696087267688, 0.1021846213540635, 0.07094279596983949, -0.26472666769991937, -0.1039257186972874, 0.18318255928705232, -0.1505480561906616, -0.07124011659879224, 0.07089134174731067, 0.12012863353989116, -0.03857557820515618, -0.09164837530878302, 0.2181766236075921, 0.2667019570749972, 0.15013597027004316, 0.013081557234659237, -0.1239987231327512, -0.12738443105137287, 0.08014150431882947, 0.06417702019282791, 0.21500143707076638, 0.09977460419834845, -0.23056085563684345, 0.16135505793771526, -0.1530937539374623, -0.0588538250022886, 0.03841261497511869, 0.30611913487975173, 0.4770412130205136, 0.09306948189038014, -0.028105637739919136, 0.08198894101825556, 0.13616012415695253, -0.04918853154821572, 0.27536831945499163, 0.035291038110577405, 0.07635172729504033, 0.102139099448982, 0.06466259196720338, 0.12868688453549876, -0.09467977391830124, -0.08566310899512346, -0.16875434114159255, 0.06741739927535748, 0.11948268286450624, 0.07021391117080557, 0.25685290903865626, -0.0008579007467105252, 0.10258092238269916, -0.1674592686338253, -0.05937938799847033, 0.10669384634228872, 0.13024795785270052, -0.04509280650956864, -0.010982016216140825, -0.23283198851416287, -0.054765135068863706, 0.13656272237743067, 0.08821968530781477, 0.07682477890724436, 0.007509227428926217, 0.0008627603922225165, -0.10092390520976283, 0.10720010137416684, 0.06457433967842859, 0.07569651738578251, -0.08051702213635038, -0.3303077257047226, 0.16817469036474775, -0.07342098155411404, -0.13210271324781003, 0.10645546410612917, -0.06032861396400488, 0.16282410489285537, 0.09451219143101629, 0.10477114747777064, -0.20945347428761485, 0.18613389195593455, 0.04028668630791059, -0.05654275805097477, 0.022048817792077187, -0.27246170464803454, 0.06279299437904462, -0.15790212396306452, -0.20754971482333026, -0.23349385462691347, 0.17061479462619014, -0.096428503376458, 0.23521212728225976, -0.08192422370947881, -0.26184594242052356, -0.171267030926608, 0.18947524333158766, -0.024099312014452267, -0.0838468711872642, 0.024545744112929667, 0.07696996759020043, 0.17158068420750958, 0.22241583787162322, -0.05518576545310737, -0.20349240884574132, -0.06340950356187577, 0.040204600490975476, -0.14783272697447297, -0.14697430969162578, 0.052825454277817374, -0.0075562000697107865, 0.004971348930692746, -0.11632084696124968, -0.03532361322577924, -0.1416227236594807, 0.13662378559355748, 0.15887908191430533, -0.2831922216489848, -0.14251954960774202, -0.22955710868798523, -0.09976047386194077, -0.012764485123230007, -0.22236756057736046, -0.14133837146586714, -0.1540296631411116, 0.03186456349067668, 0.010775389105652731, -0.110709486909207, 0.027053170690701796, -0.08390840198653408, -0.04146505972957822, 0.25669583275448526, 0.20561735555136193, -0.1992268917655703, 0.12745824862932537, 0.12446102406240568, -0.1762024318604153, 0.12560131617870682, 0.23609870931512722, -0.1721246152320254, -0.14085834706995412, 0.15627233710962687, 0.041572156797943384, 0.08454619885686443, 0.052289524479933444, 0.059955225676302654, -0.203356643154234, 0.16070837990086378, 0.1794203384162149, -0.035186651704130587, -0.006661429455850925, -0.23486116972435495, 0.07884187388091343, 0.08778299574499365, -0.009548311946875745, 0.17252138839758785, -0.05127192196137218, 0.08684124372805277, -0.1562214160869834, -0.0036127350265183255, -0.0268310158080564, 0.03439357779587885, -0.056429173005195794, -0.020166526725381398, 0.12670985566080767, -0.06683246106518567, -0.2463748384174774, 0.2683732770194328, 0.21182214158979432, -0.1982132426216029, 0.10607524786509463, -0.0771503471413338, 0.04026605155895238, 0.045182690343364224, -0.03604778550347304, -0.120281749118182, -0.10587698939147892, -0.14052250354925874, -0.12745461919823758, -0.010234092978134376, -0.10976062690328446, 0.10462330445845765, 0.2282229168733722, -0.0889760418502482, 0.036679759850206876, 0.07668643488394641, 0.07240047900614181, 0.011717503612127674, 0.11388719998350444, 0.07418260398734945, -0.1898421323150233, 0.13331348524892994, 0.1361739925353332, -0.11696989088127023, 0.00561428420220277, 0.10481654693420839, -0.03210727899411821, 0.16445176975178058, 0.3624152230579329, -0.12056476493688872, -0.21177576966043654, 0.04655853989375025, 0.11046662364809591, -0.035437378590361245, 0.22304158804236465, -0.20535330724495374, 0.10636210956860423, -0.09288848924178318, 0.263694018186355, 0.3054915531241084, -0.11771621321340008, -0.08435052508084238, 0.13181110476403773, -0.05938367852399563, -0.007013811107654192, 0.0039054415036943106, -0.29443679078337576, -0.0021486010797250304, -0.1057966777962042, -0.07569496733171402, 0.22147130288109063, -0.19280924968375887, 0.12462150664196471, -0.04279373528288565, -0.04269336090581333, 0.1216661631234772, 0.051511238249788566, 0.08752433061937173, 0.14851265966405514, -0.051219838750216025, -0.09432509252814979, -0.1664538865738201, -0.12639947306981683, 0.4520483691130647, 0.19018879581762566, -0.20729290645046716, -0.2024854206270235, 0.07340003260739221, 0.08418022872736663, 0.08434217951811607, -0.03922998077309796, -0.019295434660954944, 0.04991988793207415, 0.012997636379574917, -0.3404857831599777, -0.03525151171255324, -0.13073915587030793, 0.02691809069931844, 0.45804843818163954, 0.056282471784601315, -0.048085974439803426, 0.14122826676871164, 0.0741302450905927, 0.06398031897325882, 0.09273602515989021, 0.31540476684674346, -0.17338444259385632, 0.07279996480965235, -0.14237050303135945, 0.08520775544299608, -0.14092007832370174, -0.06417071073536525, -0.04544904369737624, 0.14969359060373585, 0.1409704339972915, -0.19108002392196857, 0.008223591697778128, -0.10888180166642107, -0.19291128873805788, -0.03337241777078477, -0.04722676190964854, 0.37230077493573943, 0.06635637704568334, -0.21132480162492165, -0.08678272541304294, 0.15659956761575547, 0.32028838886534733, -0.2432785363265632, -0.28837569718632416, 0.2869962076074409, 0.05981450148811767, -0.1332229339778361, 0.08202532563532844, -0.4043623727740198, 0.0005526011098387168, 0.05001691661400381, 0.14157032718012824, -0.15552453954848805, 0.01312278165232641, -0.14197784780328745, 0.0392377812180297, -0.1373377883791993, -0.06259981111102422, -0.15273200214485427, 0.09991891368199225, 0.13168011766436197, -0.0360094710469126, 0.005930990573070508, -0.22214938203856704, -0.04596611453481593, -0.007737909333763609, 0.4020914632322996, -0.17059024029919076, 0.22458047669862488, 0.1529257083881301, 0.04304170533926622, 0.2697958296024796, 0.05709476526284711, 0.05970660741492304, -0.008147207090102226, 0.1877102033414166, 0.168124522204265, -0.09598377813717571, -0.20236131107711655, -0.031134162093663233, -0.12270439771851066, -0.009753326480978682, 0.18991031964426658, -0.07011458730923469, -0.006560957926446564, 0.00880260452118462, 0.12995091719508306, -0.34437598951899506, -0.09306211660536472, 0.032409457899524735, 0.1842718928794433, -0.07525127202539014, -0.28784989463354754, 0.09496560306297798, -0.09744312210237327, -0.18222820283081118, -0.09574569662949568, -0.02846698730659506, -0.09263512658042043, -0.3384204752100995, 0.13753878840635606, 0.195597146556, 0.10001783551859579, -0.17435012165384708, -0.030827706220527485, -0.0009311988958301745, 0.09185100941945559, 0.1025916850579575, -0.11261802679455483, 0.012524750562903135, 0.07017455103475886, 0.22329206833630372, 0.10814092456487526, 0.1210006456283484, 0.012982483009170341, 0.21646443099500504, 0.06284915582429311, -0.1320775848847445, 0.21529991930829268, 0.10702815678381618, -0.0679600312745483, -0.0735508864092813, 0.04547646305079799, 0.07102656879538373, 0.03026273911914616, 0.04776002686296041, 0.26066398664372425, 0.16431169659754466, 0.029237407460388252, 0.14440032998076316, -0.1584468939685694, 0.06104800788019397, 0.27754008298556726, -0.03346199558526594, -0.1300794074125349, -0.10004322050243704, -0.1671454201077967, -0.12036048287623415, -0.05683331265485312, -0.21560584349575773, 0.002393188496839044, 0.1384070832255964, -0.139245165081027, 0.2330469180047947, 0.0783460042339546, 0.1580900468377016, -0.10089307444031513, 0.1310419852091546, -0.16748969701768496, 0.1364810907364289, 0.026243001206544103, 0.08508745137161193, -0.18032727567198384, -0.1372974379675327, 0.09175040111426756, -0.14536065423552633, 0.07105188848710596, -0.209782935465505, 0.13009110835795681, -0.1888711491253676, 0.08475524617911528, 0.09583883718635257, -0.10677894054609327, 0.0891984106664395, 0.039899100183931, -0.08261255492293892, -0.15465084540624463, -0.30092705957967925, 0.05369729254768293, -0.23999615819501627, 0.014625742899137385, -0.040352102619314024, 0.10417076049185886, -0.046370467464794764, -0.05050791173047876, 0.11224524372441544, 0.051454148908216674, 0.048466358084869925, 0.07217992160327909, -0.23548995627991487, 0.11608410979670758, 0.09399582262614138, -0.15584698251042353, -0.037580921580970324, -0.006028787664414341, -0.020630892594674998, 0.05110753267575178, 0.2194676542489099, 0.16593524773421614, -0.2012393366120497, 0.09538527724309702, 0.20367323024873774, 0.05932181613027134, 0.1674273326683835, 0.30857524953437765, 0.1570803424644013, 0.03827396870912087, 0.1602858437374745, 0.02219824337099236, 0.0035857344873255637, -0.05394294733044325, 0.2398097442431297, -0.12554062247534653, 0.23503383979838108, 0.076621631488847, -0.21461195276534273, 0.05636918291283177, -0.32212576262173126, 0.09591183891661866, 0.1358068487376682, -0.09091508691433219, 0.018871046203165147], "policy_b1": [-4.2480641099567524e-05, -4.761976387943714e-06, 6.843191782102804e-05, -1.6190142741471745e-05, -2.5611591809201686e-06, -2.808679778438139e-08, -7.427143347493067e-07, -0.0001263243201887904, 8.312311966628223e-06, -1.7292038419695544e-07, -0.00025027387273370526, -0.00015238971697758267, 3.889488756815571e-05, -1.0879802337537252e-05, -5.729560150872693e-05, -3.228055539054435e-07, -5.862357308889487e-08, -2.3334919889904074e-05, 4.667542768820517e-05, -9.213361078981168e-06, 8.329897343024842e-06, 1.0455705955296723e-05, 8.616103899294913e-07, 8.210024828047846e-05, -7.854718745881337e-06, 1.043875054181002e-05, -1.4268685506861524e-05, -4.648852162703286e-05, 1.1287015924339381e-05, 4.672354684052649e-06, 7.101780421760992e-05, -0.0002608758024079907], "policy_W2": [0.4885170326130066, -0.12610599048999294, -0.2646950169320631, 0.3699781070434238, 0.4906460410690421, 0.0009211655326573209, 0.25307220422342447, 0.33520179055954036, -0.18562863943757926, -0.12097503611587854, 0.30736338784836226, 0.42068990905523607, 0.14080397581691884, -0.21984808208383252, 0.4967872869406995, -0.13311475955459692, -0.08391048467131838, 0.0852190623960641, 0.3885167317320794, 0.21299892102107257, 0.10380154232282156, 0.1159318714702002, 0.010889876019537972, 0.13985372526517656, -0.6323799406125418, -0.07498174116859894, 0.060265810800412364, -0.28771449796597787, 0.09658632589457732, -0.051121310951083465, 0.43892733990222904, 0.39291252280114164], "policy_b2": -3.8809446335903116e-19, "policy_temperature": 0.3}