{"type": "alphazero_linear", "value_weights": [0.0, 0.0, 0.0, 0.0, 0.0, 0.0, 0.0, 0.0, 0.0, 0.0, 0.0, 0.0, 0.0, 0.0, 0.0, 0.0, 0.0, 0.0, 0.0, 0.0, 0.0, 0.0, 0.0, 0.0, 0.0, 0.0, 0.0, 0.0, 0.0, 0.0, 0.0, 0.0, 0.0, 0.0, 0.0, 0.0, 0.0, 0.0, 0.0, 0.0, 0.0, 0.0, 0.0, 0.0, 0.0, 0.0, 0.0, 0.0, 0.0, 0.0, 0.0, 0.0, 0.0, 0.0, 0.0, 0.0, 0.0, 0.0, 0.0, 0.0, 0.0, 0.0, 0.0, 0.0, 0.0, 0.0, 0.0, 0.0, 0.0, 0.0], "policy_weights": [-1.6530328633538852e-15, -3.631500482270661e-15, -1.344597176655697e-15, -5.554573728055969e-15, -7.922053224715483e-15, -6.399912231261853e-15, -1.8294003057234774e-16, -5.048346790662038e-16, -1.3823160958980087e-16, -3.97363111636689e-16, -4.7076535378276215e-15, -1.7472178218125468e-15, -6.33075189493407e-15, -1.0888859258706462e-15, -3.2667618610205023e-15, -5.840240465250925e-15, -6.066831065298945e-15, -4.023461209051235e-15, -5.981173321705536e-15, -5.7576266892362385e-15, -6.078890022104613e-15, -1.5194659766515359e-15, -5.931713453755103e-15, -1.0686399681825039e-14, -8.095052406176258e-15, -7.411432578763301e-16, -2.786486319461547e-16, -7.814079244772221e-15, -1.0198144412276578e-14, -1.0686399681825039e-14, -3.1941345784399923e-16, -2.8804827226786e-16, -6.5516103826822895e-15, -3.0026588854203686e-15, -1.145437911187485e-16, -4.332749437008213e-15, -8.055884835270105e-15, -8.122182316835531e-15, -6.34026958904999e-15, -6.518911552664331e-15, -9.004515882926625e-17, -7.815623148665883e-16, -1.1254885912137536e-16, -1.5852448018778246e-15, -1.8946840820639906e-15, -2.2932693042520668e-15, -3.249474222721352e-15, -6.753496120450562e-15, -2.6865881103402267e-15, -2.5232861154643795e-15, -4.930562069192952e-15, -3.983635943647188e-15, 0.0, -4.610538739404891e-16, -2.230922576258431e-17, -2.3522740219962317e-16, -9.904533790350227e-16, -1.4966326788989902e-17, -1.7321213907628418e-17, -1.2627746071025531e-15, -3.882951496144214e-16, -7.100511178375136e-17, -9.706782090352544e-16, -4.928609603771565e-15, -5.347268659760024e-16, -4.948183302021729e-16, -1.0984789466927916e-15, -5.7530810195592135e-15, -9.190571879043545e-15, -9.142996718337452e-16, -0.2733187712588645, 0.16820426841514685, 0.01843081644682689, 0.12981957491023546, 0.46202177892136287, 0.996131292111007, -0.2326827468879165, -0.2556708193578264, -0.24536350243283486, -0.7675718908671364, 0.27210328606848727, 0.21303257456820143, -0.15949672838279552, 0.34287149870469263, 0.3763224939608789], "policy_bias": -1.0703850999993538e-14, "policy_temperature": 1.0}