{"type": "alphazero_linear", "value_weights": [0.0, 0.0, 0.0, 0.0, 0.0, 0.0, 0.0, 0.0, 0.0, 0.0, 0.0, 0.0, 0.0, 0.0, 0.0, 0.0, 0.0, 0.0, 0.0, 0.0, 0.0, 0.0, 0.0, 0.0, 0.0, 0.0, 0.0, 0.0, 0.0, 0.0, 0.0, 0.0, 0.0, 0.0, 0.0, 0.0, 0.0, 0.0, 0.0, 0.0, 0.0, 0.0, 0.0, 0.0, 0.0, 0.0, 0.0, 0.0, 0.0, 0.0, 0.0, 0.0, 0.0, 0.0, 0.0, 0.0, 0.0, 0.0, 0.0, 0.0, 0.0, 0.0, 0.0, 0.0, 0.0, 0.0, 0.0, 0.0, 0.0, 0.0], "policy_type": "neural", "policy_hidden_size": 32, "policy_W1": [-0.2879357905660831, -0.34400384630311076, 0.0859791801669768, -0.08778053233839582, 0.3793228891231981, 0.23996161241821728, 0.15398555027184116, 0.0015450584844871032, 0.3958758208872334, 0.07992984667576485, -0.24691499793706284, 0.04154580223523777, 0.01119200472938934, -0.1107628774160664, 0.1683556080488283, -0.04730692526845178, 0.050953390297026266, -0.10280935259531822, 0.07930399385281342, -0.12290173083955978, -0.03170198239185178, -0.1876164316554521, -0.004530378434898459, 0.029088209544413546, 0.03785041656444333, 0.1333092564244122, 0.2454893267807602, -0.04902039937300247, -0.012849086462884123, 0.06376573777324095, -0.02401323359867201, -0.03328685871602117, 0.3203231568686039, -0.11126279536120909, -0.05541166893860718, -0.10656965566908555, -0.28352842448069765, 0.02703111245426851, -0.20407086937077756, 0.07900262850810562, -0.14203199697736704, -0.043667016406844915, 0.08940776825664898, -0.325382132098049, 0.18274504243448078, 0.3813903368619825, 0.04567048161507252, -0.27798624970311187, -0.0020726289943949435, 0.16432849035450303, -0.023863474389111416, -0.06966127964055452, 0.024552424481685813, -0.09309397801042808, -0.004341398372527094, -0.046664445138496685, 0.1077190033794095, 0.046221119524288264, -0.05906705641890738, 0.10774313380787975, 0.25004073738494587, -0.1477784854776981, 0.2512115987060985, 0.05495201104568036, -0.01888916113255655, 0.036464027689818594, 0.2966415905581239, -0.10223684162222549, -0.40325021749184187, -0.14764449087557976, 0.013531789653597017, 0.07445194052500007, 0.050150298869252014, 0.09455050261950602, 0.03849520287493937, -0.255965169724641, 0.24325367273631732, -0.05342680160465789, -0.23278811395101695, -0.36669403905593795, -0.025061036180289875, 0.06017782740796231, -0.19930852532119836, -0.20292689159682306, 0.07708640355932109, 0.03392400146731939, -0.15768248373401225, 0.2017326398003961, 0.0408456118012626, -0.1579715828643957, 0.002167563717297493, -0.06209201940511578, -0.06392108341526383, -0.05290082672570952, 0.12278658391007198, -0.15356703928037221, 0.01301932138613736, -0.11166896967633301, 0.19848734716230834, 0.140410980715626, -0.06375113519364468, -0.08238140473937891, 0.11674693750052574, -0.15919541271623924, 0.13659982089828943, 0.1507594865671425, 0.10931291021824568, 0.0466846414901117, 0.19371404555496236, -0.29637811260467767, 0.1839967604653797, 0.060509905858887575, 0.011588962687750268, 0.08775927012429222, -0.0056015131939420254, 0.03798152489350416, 0.06382089028183024, -0.3237249828035062, 0.03334036652767265, -0.24053618676390445, 0.10104572192725593, 0.15966472993937267, -0.08126696709957748, -0.06197324464629314, -0.011381654015565146, -0.2711949784071134, 0.15016227624029196, 0.31705421515552834, 0.12322678717814786, 0.06636741097180023, -0.10331226857869182, 0.07791175284410304, -0.09618962124256959, -0.15962340129683172, -0.05128980620805262, 0.11650834294490515, 0.3053424728532976, -0.030331992641565476, 0.3256096540767411, 0.19841804592679987, 0.002693338587090392, 0.03592382853457442, -0.22829202101601836, 0.03533222419369162, 0.05895359616034938, 0.0007156342255689205, 0.08126798333110484, 0.022178413249554038, -0.018739762369100268, -0.08926623776360927, 0.2964134886609118, 0.19295219674348105, 0.011716291869188376, -0.18262953484096944, -0.09792192511758838, -0.010418807090290179, -0.2071415852914227, 0.32077502935483965, -0.24387360370779257, -0.06529698934693431, 0.08380151516959261, 0.22597662606274638, -0.13754561123573789, -0.0913623615127553, 0.04371459892957391, -0.14146045819106523, 0.042901708135463804, 0.04627642676314244, 0.3149342564252769, -0.278331677888671, 0.012922008170260336, 0.056171123595051504, 0.10792253066207197, 0.05128931920572113, 0.0609021139567109, -0.31165129923854495, 0.11340498272298671, 0.03724702952167618, -0.06522696911656832, -0.04749351586843496, -0.2367187589843525, 0.12623830592470237, 0.22291515946498058, 0.07203423541697088, -0.13929275558857596, 0.08145763023347058, 0.19826315182194318, -0.023036000359355116, 0.131451218493323, -0.09512852888362644, -0.1248714270652466, -0.1152090773697745, -0.08487256286261965, -0.3680990126009415, 0.3235033215987938, -0.03601697112390514, 0.06097317328778529, -0.24060436740013752, -0.10087070868980043, -0.09673104253691127, 0.0492711297287004, -0.0017276071519856226, 0.00734074181714568, -0.14776580283889082, 0.08521393686303737, -0.13040382218948024, 0.34499539650120425, -0.10545087138907887, -0.13449911465119685, 0.17224468550014466, -0.0361148368662516, -0.1274339336212644, 0.1646502620966573, -0.047333604570901765, 0.01229152331793261, 0.287476903089431, -0.1420287490289222, -0.1568688328973935, 0.07197299458954828, 0.1013812240092243, -0.15830605928485833, 0.27886374382143925, 0.0031428129105543125, 0.09934724134955629, 0.041430763073899216, -0.37540953403567306, -0.04908424339881533, 0.14734185569383731, -0.15174148306768798, 0.19039703796538576, -0.054344778818790435, -0.14644001394127387, 0.22027212258330975, -0.38747613686583127, -0.03696085795294252, 0.09932527835777118, -0.16303595885443808, -0.036142690894857395, -0.025454784998859947, -0.1446902576231503, -0.18860225160236968, 0.14658990238576947, 0.10819844834135327, -0.20416440573637268, -0.10923671655631682, 0.0603434646731099, 0.02113649659068965, 0.18328064453557286, 0.035909337168094406, -0.18302355677380808, 0.04820213978997709, -0.17031009152958113, 0.11421047910466602, 0.16763226266192846, 0.2925507689548973, 0.1767092751294125, 0.13293842440011655, -0.10455941995810179, 0.40493942496157903, -0.03216061805997294, -0.039035567609317694, 0.26202627305945675, -0.028727300074170514, -0.00461897418307829, 0.19187775361478762, 0.44098078484906666, -0.10871270842471081, 0.24725531765657865, 0.1712765469532857, 0.049689813517737595, 0.18760103993241642, -0.06949354605201873, -0.2639229723106525, 0.05405030777115087, 0.012285727838431907, 0.18426458700843487, 0.2349671149830205, 0.0992772329655548, -0.010389258258250876, -0.008121774427373739, 0.10399015286372147, -0.05552046558228088, 0.19216780547093437, -0.10504227946374546, 0.17222505014624687, -0.029926769410085527, 0.12691077417387808, 0.1623952222182507, -0.048472383157079, -0.22197300854849977, 0.18014240122199904, 0.08507235394348242, 0.18211250204896712, 0.1874024247872248, 0.006514483098097508, 0.15871367005034825, 0.2893340862245942, -0.1093400072744306, -0.18789353799551697, 0.04883928209919881, -0.18829222780728413, -0.01855040203560224, -0.020788362537372578, 0.04856863998745128, 0.08830440867662642, -0.04060684254072462, 0.14283131953927833, -0.17420167694921637, -0.22286089949405685, 0.18208990707031739, -0.06093169522518646, 0.2471655659979593, -0.11963511279514301, -0.05504620610513088, 0.014181976789154423, -0.2634232389566324, 0.1692043350072672, 0.3184702313613609, -0.0610445102468167, 0.031226412097384484, -0.0990126910228799, 0.017911723678907667, -0.037470142604732797, -0.05842528867199877, -0.05825366891459539, -0.08610022580420529, -0.19542754475889498, 0.08834769585908207, 0.05017337433736675, -0.15278034611779379, 0.021019850341537655, 0.040936961784941155, -0.050342282525494796, 0.02132347738465047, -0.08720688247449987, -0.01682437936417891, -0.33249189671539087, -0.043901058069787405, -0.09388888643732962, 0.12118198273896505, 0.28125457006015486, 0.06272709747029098, -0.2163179514734601, -0.020935517784426143, 0.08190793154945217, -0.04121714200524314, -0.10119956492853541, -0.13420524705855755, -0.381181042319152, 0.4190678507987455, 0.048815841265299025, 0.17871346965149784, 0.04524831970727292, 0.04146998212342568, -0.5203960421582423, -0.04328351017032194, 0.028754200162435576, -0.17636554255931783, 0.10568164946470976, 0.12658641860613482, -0.08815037042443723, 0.317986984084406, -0.20734066293590014, 0.04101066908779649, -0.10420745979720604, 0.01959757515820914, 0.16615217055217688, 0.06968044032460917, 0.030061665267590798, -0.040660534550294614, -0.17324001633585676, 0.13634814549083232, 0.2768386389918155, 0.13396898719488268, -0.110083491709827, 0.08930070502242658, -0.03547361351665622, 0.21500841969542783, -0.012018804662369719, 0.29463427967728456, 0.2604412004026485, 0.09718819527432584, -0.1369181893156565, 0.04968751221921503, -0.15884368689202236, -0.08000447855549589, 0.2952966953343128, 0.09215971901871026, 0.2801258845113621, -0.08044203465630415, -0.35028615579695266, -0.09630661798082417, 0.010963921760349432, 0.18250328821730033, -0.2733813140650382, -0.017437105176772664, -0.2748325678480785, -0.047994561194695425, -0.04786623034037499, -0.10183277414974301, 0.24021745881178788, 0.014622325547254409, -0.24775267231598033, -0.1619527245731638, 0.1389609640273582, 0.026531297850709467, -0.18057659201055115, -0.1318294504247366, 0.04271289692969002, -0.053633019099705574, -0.3166700899805593, -0.07183357970098382, 0.14309365478653774, 0.03835786225435175, -0.06865957646021863, 0.03632284907658836, -0.010783866284204878, -0.08319076335754932, 0.21125488981204352, -0.02066398572814714, -0.08963841993705444, 0.021405952651066287, 0.07735722640908335, 0.034532006063199276, 0.0953827528077015, 0.1933118335066983, -0.12475397364076857, -0.32500084495260634, 0.011172875767908402, 0.0011853510047630281, 0.5337000069531279, 0.09244994958901225, -0.1816906269791989, -0.07569311525413058, 0.012629236304962856, 0.05004567701765304, -0.35432236692140934, 0.026948495872457165, 0.17483530814909717, -0.1491536101721167, 0.013860756123016512, 0.11280621017591641, -0.029477900462731688, -0.13382239362717938, -0.020320154639240202, 0.1268076866088762, 0.13226610922777687, 0.07671217680575132, -0.18518046928874501, -0.043255826356700645, -0.01911130032014178, 0.10843946585354518, -0.10504990589379143, 0.014642798275551068, -0.065902221725589, -0.3007479443207304, -0.14441219938963512, 0.23429141210816562, 0.06318067586206196, 0.05678227255054201, 0.13334683550158555, -0.3348211934091736, 0.03551652647162743, -0.12481466743104515, -0.07494575282829181, -0.02278123473150552, 0.07659615975402086, 0.046466112551385816, -0.2960853494280353, 0.11924345467159372, -0.15573830295711852, 0.36438663740051014, 0.11948413429360474, -0.03499768063306599, 0.1650362094129979, 0.06535660978312612, 0.03347387713290151, -0.25628420263065216, -0.08636535673011238, -0.11830793118247362, 0.01749636334714145, -0.052870686339676155, 0.006183822631680951, 0.1014079611121682, -0.09607808425226626, -0.12340936410127303, 0.08965693796000425, -0.030812540907110896, 0.046088752701563825, -0.002049267549642884, 0.18453226022010427, 0.19071497839788704, 0.03504663070544536, -0.0029935247153104554, 0.15029314845266556, 0.04554023190506286, -0.15910866299208237, -0.05348974268596249, -0.014341338076050715, 0.16824751956474007, 0.1893630197656521, -0.0482651826814228, 0.07961647346137103, 0.07370738823977548, -0.14780691428854237, -0.08495900849163718, -0.07169992327969403, -0.23899046895667514, 0.08998294717404898, -0.10382257585217418, -0.12034596911112053, -0.04894887932425568, 0.043815882091170946, 0.001987053731190329, -0.1164704257816282, -0.005466273816903696, 0.015731081337743712, -0.05829364918731396, -0.19639281848265552, -0.18104317917024543, -0.12994197166686383, -0.0813537129513559, -0.11328934945080482, -0.25079755789294544, 0.026570409292127273, 0.14025454128776743, 0.17649649746104443, 0.21207129415168813, 0.14626679964208505, -0.2260644271728083, 0.19611148485339921, 0.04075204993191673, 0.044360022775851146, -0.12520535338392558, -0.09272095948483394, -0.045042634438439165, -0.08426808436658609, 0.002787165527161609, 0.18937550619834126, -0.11619049317927627, -0.0775317851253912, 0.10766052648142813, 0.000211909138026698, 0.1797530155884675, -0.07509928132027935, 0.21077434236977124, -0.021940440207385708, 0.05743356111049147, 0.14140183189201797, -0.10144639059363189, -0.23044339751041054, 0.021766059013721178, 0.15384535142052003, -0.08462501022262375, 0.07974041759721608, -0.016589830905741676, 0.00015815550908150768, -0.24815477924622997, 0.21656884807682544, -0.02557349866010109, 0.23339062455698317, 0.041641822142688655, -0.1795665634172243, 0.1549544032802412, -0.4027480073446479, -0.10141180518882711, 0.20097203890961804, 0.09695920930375988, -0.19058083271288315, -0.1813039353443655, 0.00023261609125205105, 0.2437034391138042, 0.24941525926724864, 0.11240439362249786, -0.026979565229897803, -0.0628939327258595, 0.15833566189945522, 0.04047500761490702, -0.0002517565465931937, -0.036803436978979066, -0.09649844110852812, 0.13432231733501546, -0.04858386395341544, 0.231661976196736, 0.019591258842600604, -0.1302890034942605, -0.1836906189433295, -0.1371406789827368, -0.1665495155403702, 0.10951185411315895, -0.10969322675510075, -0.08676275915768414, 0.10603095539218534, 0.017494535417928794, 0.31654654870601273, 0.2223628160095802, 0.23390936265967777, 0.00710963667430909, -0.04077543803859187, 0.010021035917640664, 0.20359461797668887, 0.11867010892226784, -0.02007314207740261, -0.1527766803658536, 0.2022889800512499, -0.09624640395999631, 0.12475617585489816, -0.07457854564901348, -0.058820709897846817, -0.13594267634692517, -0.0568633680304258, 0.08938261054264802, 0.06444995841878746, -0.22954506425497237, -0.20506480666647067, 0.17817823689038415, 0.16535774706053374, 0.0006435828912764547, -0.07671194234893058, -0.17608940459276687, -0.0863097332897425, -0.19966388366256882, -0.011160355259803334, 0.002358683932733031, -0.14527140395878219, 0.4237095445075224, 0.032028616968736705, 0.12043694961768296, -0.3086621148940195, 0.3098857311440024, 0.05372816496866804, -0.13390988745982282, 0.17014756755000088, -0.3353361366650651, -0.0191309741880971, 0.04575136807119032, 0.06334880855170395, 0.1548524806855893, 0.18338079027576865, 0.122788772978197, -0.026167430705731617, -0.1433858392088716, 0.21693042137307184, 0.04353731703502955, 0.12091553906016565, 0.08212257160103936, -0.18503949853577847, 0.0032973266408252632, 0.030944475962339017, -0.0744547304552318, 0.012860848684365284, 0.06927325642905985, -0.005219949125753302, -0.09134737604537574, 0.018603085740972167, 0.15452542102151276, 0.1952522080252569, -0.19615332253720885, -0.14732485925257988, 0.11430101760242309, 0.09559475891046895, -0.023704487181812114, -0.13055814449059605, 0.06899997789626156, 0.20828223282899225, 0.2345222133716613, 0.09134689958258102, 0.17694679316718795, -0.14426124276635652, -0.035475429173713754, -0.0774594329017805, -0.21742268857272404, -0.001986763373455136, -0.16719439584684986, 0.31730575834889035, -0.14921742372006602, 0.15173176224262772, 0.0518510448826118, 0.024286361841987066, 0.007261339184013703, 0.17644627281141895, -0.11670595432905836, 0.08906790315807626, -0.0599808441568961, 0.12598640253531426, -0.13882386281113232, 0.06923101651427499, 0.1280417283250863, 0.18258489176672005, 0.025688016291493983, -0.2196771454742603, 0.11476053910133079, 0.10097748973614304, -0.1992321117354916, 0.02712901124779542, 0.11663043882981976, -0.16560001874398492, 0.09605124103132011, 0.12657958523098498, 0.2679207981562484, -0.2743260549152765, 0.06515887383460173, 0.046621553493833984, 0.25090378210934333, -0.02072804663989894, 0.09986917152386497, -0.0006832002867246468, 0.0769280060761012, -0.11909354331165453, -0.07370959187665299, 0.10920011901893392, 0.19207605962804383, -0.08026559738415504, -0.05169845266031474, 0.21447675730190183, -0.11984971072099766, 0.2607410088510224, -0.13756654207472335, -0.17968148638297615, 0.03217101199839885, -0.059095356520404756, 0.18803549063301844, 0.1582072626687956, -0.027238194062556287, 0.09363663402259664, 0.2695314507761042, -0.12102566274126957, 0.04769241988722128, -0.3468514400793643, -0.2248296790799392, -0.36590662836051296, -0.2569738244582331, -0.1385147035158008, 0.00963293530273452, 0.009729804840314552, -0.039453347961837526, -0.09499875604065308, -0.09796165831929483, 0.07947485223366361, 0.2682873646553428, 0.013267766577704435, -0.26872786540446253, -0.11435611251039009, 0.19102558616862114, -0.006636497214079587, 0.11730277387361983, -0.12595249101837624, 0.03628094750068283, -0.16295052874936336, -0.20695470903263607, 0.02691967096996877, -0.1186712584627677, -0.07725820850589334, -0.26457567373769053, -0.11611716241782857, -0.12407434714350414, -0.06600832213775386, 0.05613673686952213, 0.027671663670791106, -0.10037211150874978, 0.04792185207251518, -0.06550692314679328, -0.08055111211588306, 0.16380315269389287, 0.10255957392482568, 0.19182076520586858, -0.009883199415686933, 0.284939860591598, -0.0033442812582846365, 0.17700695651833, 0.2024487919745653, -0.08094952765734004, -0.04681682003291117, -0.00681219147565514, 0.3222608807139989, -0.07185387414384779, 0.2351620471709658, -0.061609148682385206, -0.25333854937235706, -0.13101887197984527, -0.08355223906265917, -0.23246285077890563, -0.2310539659158535, -0.05266149695198774, 0.15286409009373209, -0.09880711165977811, -0.3394535496596384, -0.18672347353977362, -0.16830204337456386, 0.25509710757383436, -0.17075159971413226, -0.1476604602938474, -0.013021032315788076, 0.11242306533438925, -0.2375969734509892, 0.14827645751682553, -0.1230575181266474, 0.11510210633322004, 0.09976449392607131, 0.05362561599800764, 0.05932247104285791, -0.19952797410462939, -0.18638066823044794, 0.22254133738064816, 0.034368226808052946, 0.09912732011932918, -0.30392518445180833, -0.1693034293889729, -0.1246930610811451, 0.01866085907390222, -0.3230254087444007, -0.07321523373721435, 0.1786857812732051, 0.08514498220906722, 0.15227274603270263, 0.05977202635351487, 0.0749706255393227, 0.1705009396633937, -0.004918302298207583, 0.1108967696742975, 0.11042777385451044, -0.3921131188204761, 0.22341804750397484, -0.17895655787900633, 0.01468397146280823, -0.1910388001688204, 0.2168042129001344, 0.1348896244813142, 0.025206285135750777, 0.07839432845639512, 0.050847199865495366, -0.032074104413214156, 0.12759933891806957, -0.20103449349092956, -0.33501060241220854, -0.14868170665110084, -0.21592892048532467, 0.08696971677743569, -0.0490938783116234, -0.03411460562910501, -0.1549823668625253, 0.12230107823466026, -0.15386805117636454, 0.09041067805515836, -0.004165206932666075, -0.006439175454551295, -0.05541232978195436, 0.1342533675154859, 0.03944957542195946, -0.05695626565182948, -0.16125222217492852, -0.112948280931701, -0.059869982174647424, 0.02412684383408981, 0.14331280800031285, 0.15996954252568818, -0.16959873623657784, -0.14298232539019032, 0.17759158106837233, -0.1481753082302766, 0.06272493223154825, 0.0343975201472283, -0.12371281027023576, -0.03529831348832332, 0.19598239648108634, -0.10494636952484497, -0.28868866653912795, 0.11740651055561611, 0.07294456048667916, 0.2940753707755106, 0.07820832656995443, 0.10562548247905097, -0.1304914093217119, 0.0645279971270389, 0.12742771913456122, 0.001289887415994787, 0.005983918097243406, -0.17761617035281607, -0.049966927533528445, 0.1327990750184467, -0.021509459592264007, 0.008752180277039166, -0.15548784829497572, 0.13268850553214295, -0.010704543259157526, -0.10759232975004744, 0.0882639931617157, -0.33499070995954383, -0.1915993943164749, 0.15671013844197593, -0.04711577829106291, 0.11062894537030576, 0.1070804988643055, 0.1306719429898563, 0.1092471470261207, 0.134284321726772, -0.09146459196178437, -0.044335974676322346, -0.014885826987415427, 0.0013253935305893487, 0.14737019555931083, -0.03456968412189693, 0.2945866496271493, 0.13515855918924102, 2.0586986608454557e-05, 0.03697972998095212, -0.06190923695332036, 0.25908087383688705, -0.10490078568238805, -0.12676433527653547, -0.17391759385858505, 0.08756421929545738, 0.003097647645727229, 0.05462373823025551, 0.042566343878463433, 0.2027596042244928, 0.1075156282656835, -0.1851960019226446, 0.06302227572098099, -0.1486892195137437, -0.056044599919879985, -0.004000940186035027, -0.2532149394287601, -0.05797553882744883, -0.2199638413950201, 0.1277443340000989, 0.04807166524219555, 0.10370706886437976, 0.07171338168851057, 0.001068898537385745, 0.09270138807025308, -0.02452662135858242, -0.3175372430425728, 0.01698500438111576, -0.1325725955311864, -0.043232808368751666, 0.12948113389012314, -0.1576535602705139, 0.22942456870343797, 0.0057007930027746555, 0.31000636392481157, -0.09955805502854215, -0.03341367051323129, -0.08234419088073869, -0.06020303110952919, -0.18777760243421374, 0.16674034524935474, 0.14332872307117941, -0.017439762273354396, -0.0799343462524032, -0.11955373899855934, -0.05390062652040429, -0.09470939337417668, 0.18085682456143787, -0.08015891951581709, -0.13915790347399612, 0.15762591747396176, -0.28358643161164787, -0.07556794520515983, 0.0024536708721852726, 0.025133918677396873, 0.08673621688834551, -0.17208047892569336, 0.06623686283955091, -0.07439802062666395, 0.029125471249271916, 0.1123701212977712, -0.21107857905872124, -0.050257960699910134, 0.2083813950900143, -0.2757108585026711, -0.08674228989490003, 0.24495284749082766, 0.08747983619684979, -0.22109344697766156, 0.06380978465172248, -0.08732731976396305, 0.22465817056885312, 0.08080289189214895, -0.33194997518041947, 0.08284090136381897, 0.025607909965413303, 0.023101488848834378, 0.13283826453542646, 0.029414092577196016, 0.0466399151326139, -0.1408596889259705, -0.15793245625936364, 0.14998992154029356, 0.006709437227963489, -0.17597517628693754, 0.0819388324543207, -0.1772679581147278, 0.05185849103178933, -0.13663798305694977, -0.19011569201173625, 0.19433377768441332, 0.004838343731586136, -0.09820464007620522, -0.1288979853619685, -0.09882053379516671, -0.08144952118318663, 0.09431458135566653, -0.07132969250706916, -0.03798394949292837, -0.08773851005961826, 0.05514554350289773, -0.052106284747379716, -0.08346460137875342, -0.13492809569835956, -0.09047550220540085, -0.1578747508489555, -0.01999620369339992, 0.032534576620795834, -0.21385335804163097, -0.12854449529204748, 0.05755519274861385, 0.3226571145833076, 0.012083343591348189, 0.007814166183339763, 0.01676617503526583, 0.029553337064050993, 0.0880349595410792, -0.29386677286770135, 0.15055985533885727, -0.030740008678014817, -0.002088893606663618, 0.013406760416143157, 0.3099580189306726, -0.09334927381412772, 0.13539064245774937, -0.09580702467248246, -0.017886035254159716, 0.061347359845138505, 0.23652012176302656, -0.1253828596987811, 0.01545101282092805, -0.244404072104874, 0.06090528033620422, 0.11740826189601951, 0.214556479109995, -0.21806361171805153, -0.052780616184570535, -0.17438551904530664, -0.038130216462709615, -0.028799785006674905, -0.0954870135875625, 0.013590605769802368, -0.10478064505250671, -0.2994403735155306, 0.13928612731369872, 0.10655213578636258, -0.22995841106633655, 0.06179090617008394, 0.3367691092701724, -0.019249814644999343, 0.15252719866854014, 0.19222759625984284, 0.002546725632217695, -0.10042228570336881, 0.07481450418804064, 0.08360035196256317, -0.22756602582371543, 0.1941835249430442, -0.0024221958101176494, 0.010415702688362182, -0.11840433012486457, -0.1945945403842091, -0.16182385224703819, -0.07970116040271354, 0.2903507193559087, -0.2152168691590852, -0.19950162733304222, 0.11985215947914668, 0.011951057425978157, -0.10364368116115096, -0.02446287359906431, 0.07647153169331672, 0.060606649921495157, -0.20931941818086525, -0.18115970470567086, -0.20201580980779804, -0.03215797947420175, -0.20693823156544044, 0.018449693177484322, 0.05364183788381908, -0.5264226007505601, -0.2994795966018403, 0.05127846359757493, 0.1796903202608524, 0.44393399671768174, -0.08286348615631615, -0.0629308077642836, -0.10792492520366138, -0.13162150318584886, -0.12128202146479117, 0.0025549286538683737, -0.013742034084594675, -0.05579249348623283, 0.00848511873464456, -0.24291520367213412, -0.17517975451026135, 0.03183660411088964, -0.09526419256344174, -0.03545770125602034, -0.1117581818877188, 0.06098031338501282, -0.24039548865537416, 0.15665785910526153, -0.011768017786042704, -0.02900303832726863, -0.05704427876799547, -0.14337375294803054, 0.012550798655904185, 0.005191140730549635, -0.2413738395189334, 0.10834367323784011, 0.17682340942629515, -0.26217489499051894, -0.0846572838390471, -0.050919570177394596, -0.32423164321000747, -0.16483286808697242, 0.06911116340369992, 0.22740310387787338, 0.15703464795440783, 0.3625379624954247, -0.11278993274097038, 0.0042120605481360185, -0.07151027784542542, 0.05829324424782213, -0.15652229964002368, -0.10406205911113099, -0.03290593323100493, 0.009789056729851997, -0.17838387135820358, 0.2681302861918556, -0.16809607589744555, 0.12091105472055534, -0.21108557426582888, 0.39287098030148954, -0.0495418836049242, 0.015014253629765316, 0.08783943767898607, -0.08706426284066962, -0.037550544405673826, 0.16613583975108848, -0.015228102792722057, 0.3133594532251938, 0.15317890798915887, 0.027646578841043677, 0.10192009479138102, -0.06204066661941004, -0.27139793286665564, -0.2161643081640275, 0.07550789262489997, 0.13192446286636422, 0.14387781118488924, -0.13246000823815138, -0.1304402396208218, -0.01032233810537665, -0.24529747628789217, -0.07133303314861776, 0.009512493206086946, -0.030889537983444033, -0.06003259948507784, 0.1664241648395887, 0.2524886236051673, 0.22440063958150702, 0.13258610760798434, 0.16042777886033271, -0.29502411631445974, -0.3171790070209661, -0.1835366269862646, -0.029904001384750304, 0.03695541303897138, -0.06505003495712003, 0.15318592295517974, 0.23772241742219913, -0.1623267181110754, 0.15044218710695464, -0.10341289745544224, -0.005791466587681944, 0.15338338346230876, 0.2030686753254123, 0.19922539988376015, 0.13360403821052783, -0.07576536988178632, -0.12267521943345873, -0.1918022569886083, 0.17039036020925424, 0.1095008674423129, -0.2676759751845012, 0.1850775308704284, -0.0873798703636349, -0.0028820079008586292, 0.12423135819609157, -0.057849500376726676, -0.06922408187624918, -0.0982650025650877, -0.053255823014794985, 0.13882504912949456, -0.20498344586875789, -0.020818762830872563, -0.12933260576937353, -0.042988998603835205, -0.20029680514233655, -0.14904357275048025, 0.07059139594990231, 0.14012747056094846, 0.24312832149501368, -0.1715623510460837, -0.18282584212611716, 0.005528474453856194, 0.14345413406921853, -0.06945800054034229, 0.011667569163770604, -0.15433703265057847, -0.3037562819112538, 0.04383896296097256, -0.06528281998121883, -0.1531290089710787, 0.15458723555167228, 0.1318161686278236, 0.1987103605131289, -0.04669241347505459, 0.2133468208145252, 0.15077085734915013, -0.0010351121358175522, -0.02565718960137448, -0.02611974492581473, -0.21276359959722804, 0.14231341891224877, 0.05765206131056791, 0.19100921275206795, -0.05998791378236791, -0.07167089033086899, -0.04864119508601216, 0.17978595151424423, -0.0389137869028276, 0.013036709928205263, 0.006962031687566015, 0.023993105488680902, 0.2532090419059079, 0.21471023760964073, -0.0025432425431053487, -0.07194530317751933, 0.10703570529084531, 0.10821877075202287, 0.08745650835669332, 0.1742934473404201, 0.2874590416560505, 0.22786177947483674, 0.17140115459745706, 0.15895131454754974, 0.1661782748704829, 0.018197252663944265, -0.1312075731635451, -0.05870098450509667, -0.1610848649767089, 0.10495510007466996, 0.09941486397616586, 0.045540890221131926, -0.26443772197160237, -0.06585166474361044, -0.09005867309618745, -0.18939677522550163, -0.04267252080786068, 0.002084519803886264, -0.12603382723145934, -0.15782908232574097, -0.1756469494882245, 0.08860348082237131, 0.01833482066184159, -0.07104974794203259, -0.00016017031403759354, -0.17168053218148585, 0.08646543880934689, 0.3299582312946165, -0.04493540251475383, 0.06359684192460467, -0.14783897689441136, -0.0837351203140054, -0.06697597348330399, -0.16001231975150643, -0.08399823804838115, -0.060195443123522555, 0.05735895156282219, -0.04041542508946516, 0.04959839802731949, -0.026059023739516535, 0.0370790311221307, 0.044541712465038324, 0.06435677657019043, 0.013370345619744099, 0.03718927552139123, -0.24781070149248016, -0.2598536704729482, -0.07602771960749015, -0.11698784305363519, 0.04351287356582397, 0.02055199345849118, -0.11437895779208886, 0.01882943159337098, -0.0874275993365151, 0.2139207540957267, 0.13186082332000224, 0.0030783234126536127, -0.09546807018678835, -0.14924267034622848, -0.029953442636353706, 0.05243376046908875, 0.15965046326340646, 0.043843095508172045, -0.10109997688086984, -0.07983614304159942, 0.007881298953683965, -0.06922384236352834, -0.12054192823447597, -0.054368965783051774, 0.021159399041766485, -0.19767358296068394, -0.0031488694476404146, 0.07555724922364554, -0.5107760631091831, 0.003633684603193158, -0.011320207554299582, -0.07879389225701015, -0.041270505225644065, 0.039389041436737195, 0.1862974907172807, 0.004956760636432586, 0.17023758303478514, -0.14769765064934265, 0.056193164412391194, -0.23365475464110566, -0.07561687276903872, -0.02866256049071262, -0.1287104848187807, 0.11868569374838106, 0.054945521301356465, 0.03140679059429647, -0.036356377398323356, -0.09687244514172111, 0.03776822069309838, 0.059912567193367516, -0.1381249802501791, 0.0971674978364749, -0.15086775056491117, 0.046479043802885436, 0.0914823017862782, -0.08586513218306184, 0.12847283257691197, -0.05775465476273294, -0.12261404318944981, -0.05118647885724817, -0.04395516783620527, 0.09406637815487587, 0.14763612347492033, 0.21428142868388614, -0.39752393190971885, 0.11063919818831781, -0.20487653319467722, -0.0769368151368602, -0.18812692453579752, -0.077613373911571, 0.10816373918596603, 0.0711747728587137, -0.15615631812948802, 0.18591416705749433, -0.06388223585500843, -0.10947945556252163, 0.00822759629271317, 0.20087133817839273, 0.04382673691834028, -0.05536770402004775, -0.09786716707419452, 0.01932645891183044, 0.20641044677543496, -0.232642479373867, -0.11802506191065866, -0.017673440579022332, 0.15973453560842374, 0.05616518082757982, -0.12256353606228362, -0.2218189133771631, 0.07793641138810802, -0.1643658238454839, 0.08157604553743097, -0.11457481436521375, -0.208418444532856, -0.15386967224770468, -0.00213573281502658, 0.06338382425847727, 0.14238602137339182, -0.21750344421475, -0.08696237851302724, 0.17961538653260448, -0.003280401745822013, 0.09037968631909135, 0.27641469294148274, 0.08786983902671676, -0.02872885526775628, -0.11432514408822812, -0.17016785175378668, -0.021072081323651834, 0.004648094678151561, 0.1734956365538281, -0.16974254061319768, 0.2520515980496672, -0.16306146459514526, -0.26437017357971543, -0.06839673627345079, -0.12395407668012155, 0.06857001985511309, -0.14081704864594516, 0.18824633740233887, 0.1580311160957696, 0.002738310246733307, 0.09561467777023974, -0.15534615116484937, 0.07894393992151104, -0.13389616760451425, 0.24438831907684175, 0.008884755629592523, 0.05208790033774555, -0.049826176126361164, -0.19013817873518393, 0.13934186878127572, 0.13028948501862953, -0.03882137438370961, -0.15721233794649644, 0.03259178958208731, -0.2782375861997804, 0.10526383651258951, -0.06308393614030641, 0.1866757130512332, 0.31252901677217665, -0.12326429548095598, -0.024569162209715854, -0.044642466888233936, -0.24486000857981513, 0.1590269453744835, -0.034828286452987495, 0.15108473007314943, -0.22404880974722777, 0.27156665190126855, -0.018812674984132194, 0.15638126332243743, -0.08981687431823755, 0.13815773736301995, 0.05420994603812675, -0.20451103451871866, -0.01033712191611263, -0.04604810605396095, -0.04303623725934118, 0.0401303241874873, 0.05855048154503237, -0.21339845342464028, 0.01053002505527853, -0.2082228405730664, -0.18389728611689496, -0.10280336373257302, 0.06561292954853967, -0.025208065931710908, 0.054085167217621494, -0.005354381456211103, -0.07994714014066819, -0.03151807415051742, 0.07077378798984398, 0.05881851787062106, 0.10738317498377681, -0.06955339398541538, 0.24172607841804386, 0.25158240427522227, -0.02251222848366791, -0.2522176274294168, -0.020144278532171166, -0.03798676953426605, -0.08633349504357876, 0.0624832680279202, 0.019075670132104, -0.17934697884223963, 0.0775629573932933, 0.07788460878871692, -0.1453195634772205, 0.08784913919295516, -0.031842732309676235, 0.12104440973915785, 0.14457203476033753, 0.0765137301116717, -0.09794459960103734, -0.1538698143157116, -0.01838613536816317, 0.11794618244771388, 0.2188234531385821, -0.06724272989728268, 0.06521112277153533, 0.09321440840237392, -0.14068956211892655, 0.005328200729791523, -0.000926122961437307, 0.00310815285448215, 0.17493456415826603, 0.10110008346444685, 0.0875061298041842, -0.07298704982594911, 0.2264501546694192, 0.10360264383697894, 0.09722382262848178, 0.23782778877470007, -0.0859368480101989, -0.11397730138604842, -0.21206269339657685, 0.053833451531363374, 0.24652211538712612, 0.2112716367818489, 0.046433973465023, -0.23555976579089005, 0.03570096030579523, 0.07912468161698082, -0.3089420426231934, 0.06406153194879724, -0.14400920395045275, 0.09184045761687364, 0.24860476207223925, 0.04191508673300411, -0.03834913472236275, 0.07767799611623409, 0.07906973952112982, -0.09468905862733386, -0.0663553566539996, 0.2094817728353887, -0.2609304865546689, -0.1634975389978817, 0.08818259631942327, -0.102220974985608, -0.03165638285951105, 0.2541740464745322, -0.045791546197087356, -0.04337263842056657, -0.08447494214859001, -0.13368941313825006, -0.0358497669963587, 0.3970193779856829, 0.2136334260465773, -0.04977716665508274, 0.22352643736728858, 0.02257061034864346, 0.03731061082587438, -0.19379814418332758, 0.16400895348456546, 0.059499045084774535, -0.041027472743415234, 0.07823048443846493, -0.16608908451045565, -0.10513943179948416, -0.16944667329026047, 0.13219757862399129, -0.0028324557993408537, 0.3554299691815776, 0.2924996344604977, -0.08383060037141964, -0.12292925657516496, -0.41764616479819405, 0.18087172554521996, 0.11018174791694506, 0.016271478396830488, -0.05238852061383243, 0.052658274084430204, 0.19494810807006147, 0.10470505123833612, -0.040392387968848135, 0.16034428744660434, -0.1209549357248541, -0.3363980245373174, -0.20963732910432722, 0.18761938901696756, 0.028219876109218806, 0.004594286717310689, 0.06207949488970685, -0.10744448485979069, 0.037130772610187976, -0.2978907020229651, 0.0773698044696417, -0.027154145689122552, 0.24156335094546835, 0.06343986961393933, -0.022250373579382438, 0.07891875638146499, -0.08353136587509756, 0.06808634228273655, 7.637557567200548e-05, 0.11554079403648491, 0.08864454498719535, 0.2781657955299335, 0.06903755444718539, 0.2015811407958197, -0.12757410390163712, -0.10704149949502977, 0.12097737542683597, -0.12828469731667422, -0.05617606417288991, -0.06072359176782488, -0.13723729388522973, -0.11688194255413438, 0.16985184943107207, 0.10876536333051975, 0.33336307801817566, 0.2220382903385175, -0.10942096545308055, 0.13014798476984896, -0.09643178811345693, 0.10454581785942728, -0.03566156840598962, 0.051534814262261835, -0.08293370040869166, 0.13567288514801593, 0.05644684453650582, 0.12117280158701756, -0.32341791675225845, 0.1284478699671765, 0.018035799728407565, 0.009241811341770882, 0.030322080845830105, 0.010584880453756867, 0.06003012823133783, 0.12131562199252288, 0.09590044474771837, -0.006632334931071442, 0.07793033865963025, 0.0037504688674433687, 0.08350514754983628, -0.2812697172427531, -0.07941507901229092, -0.018121828328953406, 0.19816813141969336, -0.2415472113007786, -0.041058799346757636, -0.2060614363853622, 0.0023882614301462416, 0.10661187743319404, -0.02579492242614669, 0.022069583150598232, 0.07407055258500443, 0.12238787484636707, 0.05221821570201789, 0.11954450857631885, 0.1657139619881424, 0.1268573813339933, 0.03167864045323959, -0.14957430818747255, -0.023054229237332736, -0.011887606091229417, -0.08082726205079724, 0.07630899949208521, -0.02954511534277802, 0.18208276465798107, 0.014557465651086626, -0.09677334983526402, -0.23171915743175642, 0.11906732029471359, 0.041161311627409575, -0.06505530456249903, 0.07558863886179311, -0.028279009115149047, -0.1057508786049019, -0.0022697000855401357, 0.01809600683762339, 0.010369178414319221, 0.06807533936155977, 0.01675073867579206, -0.13378576936667214, -0.1317225248876476, -0.06803840722111168, -0.008287661230240355, -0.08428723426059186, -0.014704706973457016, 0.16700150411388995, -0.03570852448051351, -0.28009674323748357, 0.0881614500763787, 0.13595673740488445, 0.1984085925101261, -0.2770102068212431, -0.12747244255099602, 0.05019623363620522, -0.05420262303216271, -0.13762230219511426, 0.12254072351321195, -0.055687376768790244, -0.1352727178021938, -0.17541409367889707, -0.2691120711707553, -0.16021122570395696, -0.26139197808051867, -0.08468259155306956, 0.0002358619996829436, -0.10475698715401027, 0.10417834550794014, -0.07205944055820832, -0.04492901881770473, 0.18824366110214485, -0.263582103249758, -0.14445484911880596, 0.08857904918327661, -0.12926428933278492, -0.09361607077586606, 0.026826767332291144, 0.3224652158108384, 0.23282889913177507, 0.022285428582474332, -0.02364047382361449, 0.35110125157215394, -0.22345532251765932, 0.025304893560124758, -0.17857411672104212, 0.16920771578566565, -0.1230108038265404, -0.12847693015948553, 0.08126168613914277, 0.1687560953659688, -0.09710101958163438, 0.028777418213246173, -0.005646940106800317, -0.29135012888543305, -0.12137834890986496, 0.24697897902747473, -0.1720424436274037, 0.15765993411500806, 0.010100962621215204, 0.06145023371288432, -0.0060647083917680766, -0.01629963743021778, 0.03561082227741653, 0.039117568705366104, 0.11830727793493237, -0.10897651420701586, 0.038599894400841855, 0.02125933490540032, -0.1915758248466251, -0.2130311664487187, 0.029304534748687383, 0.0221941651668173, 0.058953562189963435, -0.023383646049986873, 0.12133179011289195, -0.18155998658080139, 0.15329897926440803, -0.13121310056413463, -0.18213480092600887, -0.023509251716438046, 0.2382878745960358, 0.3040800585034543, -0.05557883225211731, -0.010949714948850053, -0.0561559889901918, 0.08734659372262094, 0.051910697531735286, 0.07020412658400892, -0.20083645486105786, -0.20380756841533468, -0.13551578227684263, -0.0006210745400402794, 0.1781050084777101, 0.04643257547895555, -0.06428200341113538, -0.042518133701744086, 0.23867035684961938, 0.06067368612973376, 0.42576467173263943, 0.27527965897590334, 0.21700528924960844, 0.04449789328979671, -0.03774860602817009, -0.18043163642667057, -0.145052800253975, 0.07822305368558832, -0.04191926416605089, 0.040752628549485914, -0.05436222636006815, -0.05529095392509673, -0.09704449342640928, 0.08789523276822753, 0.383608997865373, -0.04072329588705372, 0.023049469921074758, -0.24262544833412708, 0.22007232536183882, -0.1252624119351074, -0.0638126971613412, 0.017268441697926577, -0.08327224010051235, -0.059638634962780296, 0.2589082669716459, 0.18587908476662102, -0.12632825107487541, -0.12279339003327823, 0.11975852603188347, 0.03721750533671915, -0.04632299736443108, 0.04835631813811132, 0.14154708385822723, 0.25552206286755985, -0.08080172678216245, -0.16003886098364617, 0.3583621512887441, 0.106340089950644, 0.2550629393238354, -0.18786261868289886, 0.16753302686033095, -0.034087378089580844, 0.0708622217128502, 0.08897615549425186, -0.050755504003809376, -0.05047071040714452, 0.11718616219464964, 0.25734691536427556, -0.151338733901759, 0.21196675065495565, -0.06583599041673105, -0.10352576004556746, -0.18151903913467882, 0.05160123692207232, -0.25441176301610663, -0.08939513725467288, 0.10922530733334575, 0.13346022984719674, -0.14681361912323673, -0.07857416091428868, 0.2221416817421911, 0.3225661673714369, -0.2846864640987775, -0.19888508403709237, -0.025351461287341896, 0.2352500619220701, -0.20907851781706452, 0.14108188616851638, -0.14639748910549652, -0.1912809666851665, 0.08978993424635183, 0.14608410197860122, 0.028763677573848827, -0.1269113287985589, -0.12610915853009735, 0.033919002835363005, 0.08168949324980557, 0.10096689168995936, 0.13022401670582778, -0.05982606211077411, -0.008109098203346094, -0.1416829230592864, 0.06881558718142576, -0.015382624572468574, -0.2096632547652932, 0.1970215928208938, 0.09027022571498511, 0.01850223350098896, 0.034128225054146866, 0.19461496574372425, -0.03356286418117821, 0.07320267348586973, -0.20928904134472853, 0.34958473548010816, -0.019597967484624928, -0.05889138731518104, 0.03374017687174715, 0.4214862004805363, 0.2596682488406245, 0.21157810875366048, -0.3400468651333267, 0.18115746695531137, 0.082516758772966, -3.825712088782097e-05, -0.012808818365560068, 0.07835212877402922, -0.1511161938447988, 0.005630023291862658, -0.11593830625975489, 0.030855405817871353, -0.1143433619286945, 0.05550165778983218, 0.006299281395879337, -0.01492842216938796, -0.17501427249629098, 0.1611275998039315, -0.199366883587265, -0.04227809120133436, -0.013126291536661993, 0.020224182524320147, -0.06505009450167566, 0.14246075234021127, -0.19141780826343371, 0.07443245121378307, -0.16701037248497647, -0.12561392126993787, -0.06445770827121548, 0.15844838720670698, -0.196350487556108, -0.07861516792435248, 0.17951635251038842, 0.2724942324112138, 0.1492248575886656, 0.42929141682445027, -0.02890596054962521, 0.09193425320210828, 0.48072283275381783, -0.017185591443628984, -0.06123481119626967, 0.08599344561803872, 0.039677904938864555, 0.27946296612419574, 0.2835340866032454, -0.21888164942837807, -0.24205623716807728, -0.07733617990271478, -0.11251459553863646, -0.08749887148222298, -0.05914798350766422, 0.13430019309432517, -0.0004957296315936183, 0.11932102261341596, -0.13025053849286689, 0.0994973984875439, -0.10085728659526774, 0.11345684955121169, -0.11705001106232357, -0.08493099491659911, -0.07892760411404216, -0.020091917536712234, -0.09635453792146409, 0.08535513835240302, -0.02313951029319901, -0.038973695847801824, 0.08890395866439013, -0.08361322416302032, 0.1638838717628091, -0.2945965809605685, 0.22907684114936572, 0.047469123776047985, 0.012319066064162002, 0.053588766615392615, -0.1520699741741407, -0.01554091310547447, -0.3858137486979821, -0.1324014992912184, 0.13385659749480697, 0.08850658390756937, 0.022780860896520705, 0.015433735856502012, 0.2395299320704099, 0.16257780847490708, 0.3161990074721103, 0.03048567705510495, 0.021773685796845164, 0.20318160844742114, 0.04129752848467748, 0.15308072255925356, -0.1660590450608656, -0.1602351092306311, 0.18665481641824808, -0.16611232715489066, 0.029677396930303832, -0.029851255270661525, -0.21249963908684547, 0.09700759692785277, -0.10648219543984962, 0.06367574788090447, 0.19399050500939183, -0.12073770959357291, 0.0010654153558901128, 0.11498615305807702, -0.17705589810707373, 0.14454775743759826, -0.07446552196215635, 0.07050963268646258, 0.08217656454150848, 0.11456722502761062, 0.023830987547229943, -0.08289408598885986, -0.2311121501520078, 0.2024814724481506, 0.22388652316580082, 0.062109274915721005, -0.2191654444778934, 0.025297231346664388, 0.1477614077795846, -0.20325701666775217, 0.011971371551749056, 0.07295834562889633, -0.17514134830981484, -0.3729028018297645, -0.2698821556731681, -0.07445021556230694, -0.07978090202422244, -0.09486350195666685, -0.19505432144631463, 0.31415303115417087, -0.09327422488147606, -0.08416463798961166, 0.13360328504293695, 0.024283271223560898, -0.10166598409062054, 0.1446530924671554, 0.07317959545734043, 0.12377823088889049, 0.13018089606838648, -0.16771608330095697, 0.08246530322329823, -0.3759828530120442, -0.02026821912612354, 0.018421754695657752, 0.05794284969453846, -0.015628837626766662, -0.09607611291404848, 0.08917199370698635, -0.09279744862261537, 0.2143943944612014, 0.030189321917400955, 0.15479458799877685, 0.037378467929437297, -0.0666699328392238, -0.25779123951591576, 0.11281321077129018, 0.2674026721358477, 0.23110040531264875, -0.06869865613618704, 0.00526645792137804, 0.07325908585352794, 0.06977428850659749, 0.07079746019311571, -0.08788757588080429, -0.031568707208373264, -0.021768120734735604, 0.07716012633591832, -0.08873150164737065, -0.24072782786956096, -0.11530223799493067, -0.09787666389683085, -0.0067000790235470795, -0.03065811595435559, -0.24574147326463788, -0.14181052076422013, -0.056408928200031766, 0.21912434619192403, 0.3596813115693313, -0.0835295400813121, -0.10738264821583159, 0.05021125911706305, -0.0021129279949581815, 0.01238200802955242, -0.01742489914974695, -0.008922162911968776, 0.16169677839383026, -0.2067449960490181, -0.0706512092342814, 0.2745755868563379, 0.3263386146325238, 0.16992193612627143, -0.05141411099720871, 0.18148886507151368, 0.18809001747814763, 0.15582135820487, 0.20825245317995347, 0.08656442817087905, -0.006540347550236053, -0.13936000020118416, -0.007039234398568709, -0.09692485553567513, -0.14145663746252868, -0.1264998571575283, 0.34077318852227906, -0.21159670603526307, 0.05335081921425756, -0.013737119009871408, -0.13946079133645173, -0.22377361521370648, -0.0009169819396346505, -0.18666216273633468, 0.09781213464005013, -0.07491179862621557, -0.09834550350569085, -0.39230518922508406, -0.1306778160090791, 0.04186605940592724, -0.019442787883550867, -0.1407024559197382, 0.1136733551385853, 0.15430652279958806, -0.09947314342233915, 0.022037535552365393, -0.02854095936175219, -0.032568292809411495, -0.16350517393228634, 0.1456100016915377, -0.04593193404960327, 0.2052852496516076, -0.4149513458149801, 0.10749724057814168, -0.1315511075018995, -0.19700797179550814, 0.1302439248875707, -0.1139036381019519, 0.26144559056162364, -0.014483011405354854, 0.20937763917536245, 0.017931458729522277, -0.052190893082404995, -0.21896505753025086, 0.1291831973292959, -0.04467777887371152, 0.10813517566880737, 0.29016047895867814, -0.1677090938921469, -0.08551936369745186, 0.1696893752448275, 0.3029205217452804, -0.02479632444120904, -0.1442879178927233, -0.014558459277802957, -0.006372732230559255, -0.20744078952068462, 0.02144284533586924, 0.13004008151407717, 0.03834853871110087, -0.06778079614130036, 0.03443738867805256, -0.28797595195698117, 0.14849016685256278, -0.037075457188544894, -0.06652438887955342, -0.3613502723501081, -0.0023158950992232794, 0.06304177488759423, -0.14352190049452995, -0.09519662691604819, 0.047797646516835095, 0.09696131055786626, -0.28899898996166484, -0.05129916568520692, 0.014429577518361937, 0.07439645775574756, 0.21087544392423155, 0.322367712401389, -0.1699319212252586, 0.21941842455069857, -0.031455923433490775, -0.06340600212673679, 0.0050693982189884456, -0.0003179729790680415, -0.07766214642728864, -0.07424468351715813, 0.08063014599129534, -0.24484288750082822, -0.17538983563388338, 0.22921840538108898, -0.14131196533713236, 0.004690548544634542, 0.019133515243045292, 0.022212447556063563, -0.04533558456018449, 0.2871190332540677, -0.008370144600119016, 0.2107255445441179, 0.018398068667049607, -0.26123367220826577, -0.051479781396709154, -0.18806176348657141, 0.3403896327679678, -0.10160451864947802, -0.2313778643981088, 0.027959912070590544, -0.27995822018755395, -0.13497452949435965, 0.12718397667913592, -0.06460714091533634, 0.3574321010062546, 0.0054371885322373505, 0.09821537931981038, -0.3370389945437987, 0.10331577821165554, 0.01089136537193005, 0.04863712465378347, 0.16834699265668537, -0.04166080142699731, 0.01894776611537844, -0.10948002159400991, -0.038231669976241944, 0.1618266154883286, 0.1418588585497661, -0.11879370323981102, -0.03463679686879926, 0.0093004448330911, -0.24740578993767098, 0.05317322203272669, -0.1537508048484214, 0.08074864925063314, -0.10524777813463228, 0.08363903424902212, 0.24799822782886632, 0.18002418214358018, -0.06915116988152163, 0.2863401685818966, 0.030321149090707763, -0.1688882171368127, 0.2780114823319486, -0.08168488783567637, 0.2284066002036926, 0.06478886528324138, -0.04448816312781543, -0.32279863810405757, -0.01703602409730551, -0.10708432373887834, 0.03202147699022365, 0.019412727834176795, -0.1930453246444923, -0.14248043202495644, -0.246264505334798, -0.017608229032169073, -0.014680113876777505, -0.13061120193428105, 0.09437382785200098, -0.06577244035811665, 0.0069250080687665375, -0.01856954451760289, -0.2279544913368387, -0.016670530148696225, 0.21262918361021152, -0.26996258621323427, -0.09840637364623055, -0.07121057572053398, -0.010030052989026372, -0.050015495142705674, -0.12029030983918391, 0.22893824028140344, -0.1349821360669469, 0.020954708375106598, -0.0618814505512138, -0.06482379685446635, -0.17253861987507693, 0.03180181339567768, 0.004219347170377687, 0.27677951952120533, 0.15858069871714514, -0.06151932072257773, -0.013702841105233326, 0.25804932124559826, -0.14145226543753575, -0.16013989050356986, 0.06689675938682277, -0.06866850054079278, 0.07068251856158583, -0.08371109956091727, 0.044912630792643383, -0.04216782751518524, 0.14121288314086197, 0.13791370170383413, -0.0979126416771147, -0.21448277357157133, 0.030986204920258362, -0.009226724137748579, 0.16784705525089563, -0.12307468019378395, -0.09749445267546847, -0.30294136803748634, 0.04359596730172621, -0.1424200740864123, -0.030695832833837304, 0.008052594312991618, 0.15877929058644283, -0.15666510857332633, -0.25931852694507246, 0.1743998365299811, 0.09229143795571733, -0.16029162378834458, -0.05439614184349826, 0.15871188438280368, -0.13517561212777418, -0.1192970523113344, -0.11085546843844314, 0.22474600851153237, -0.08742994351117336, 0.015729310898341786, 0.0076545983716046475, 0.14864718838709357, 0.10396765730151049, 0.08238028475467736, -0.05827263395016149, 0.1554343141044003, -0.20022147303515678, 0.05112150215362811, -0.033342608613524775, 0.1197922384210559, -0.3112398112880661, 0.10274552363392027, 0.18142179210291018, 0.002798286081916145, 0.17119974578618305, -0.23295782178377697, -0.22094173370402634, -0.17001855840877939, 0.040222359755326155, -0.18358870526678894, -0.07225337639521365, 0.24216377653099083, -0.18114752573501836, 0.1790784352679481, -0.13302151249986247, -0.03522794577045158, -0.11427620547328914, -0.07890161925872935, 0.16085450160774625, -0.09577273214527397, -0.05304568940921576, 0.042354452551044613, 0.14489283765154443, 0.011329304232347468, -0.0594780005362464, -0.008052160488608259, -0.018785911655573768, 0.16397181427396967, -0.10840545663126074, 0.18258458375091297, -0.10016366698089713, -0.18850156490774106, -0.035351639022706265, 0.2832672735880152, -0.14745626192352812, 0.011137557306280294, -0.009081519972333758, -0.31812653552128967, -0.0714810877442822, -0.011437957232834615, 0.16280913975165032, -0.03410514749809488, -0.05840422302259086, -0.011372395250473833, -0.281956823286926, -0.010804193135228651, -0.0028829528593298354, 0.1529520695151068, 0.08219784325332663, -0.03995617737668239, -0.06841913360784296, 0.06777226468507082, 0.15118452029736185, -0.16682621826989866, -0.08531671034816292, 0.1113705403659029, -0.055705627853046065, -0.06690809306616596, -0.0729213798733109, 0.03731508128123983, -0.027820326255341244, 0.09592378970877447, 0.1207845485426732, 0.013110180105053226, 0.13602928220321495, 0.08245763017487974, -0.04265259251909523, 0.021513237533658507, 0.053686121788104696, -0.20934685732929825, -0.02203026989747353, -0.2595814675262478, 0.1611028669804358, 0.002842048981237229, -0.06621740157001174, 0.13390780049862566, 0.20450274368330357, 0.048703662896623874, 0.2684104220997991, 0.26958617163596094, 0.029830119415682765, 0.0827610688191973, -0.18686876521348414, 0.04812658907455892, 0.09284437766014457, 0.21776905006085875, 0.060417208539126584, 0.1790238661677195, -0.3397856458554554, 0.15777682893416126, 0.2478208062540039, 0.025774790033856045, 0.030072069255926343, 0.01248072743603881, 0.32582899122301034, -0.1392079192019737, 0.13168810177954474, 0.30524825955665136, 0.02438048011158287, 0.1912587320911158, 0.1378838821397433, 0.31477345838991505, 0.08168289829927297, -0.10097343392402053, 0.23481267699308678, 0.001289515303554588, -0.02426267840803356, 0.3422277336061836, 0.012086982922610224, -0.059933372276835206, 0.06004560360162626, 0.19989770030676893, -0.01083571476020107, 0.07926505371137806, 0.19818794898411596, 0.02395303560434061, 0.1857356262221194, -0.020047724911356906, -0.008377383677913396, -0.12372973528791421, -0.10968872529295848, 0.21231932602664483, 0.17602854182549, 0.06326644252238599, 0.2187668876614425, 0.28507607575450283, 0.0941072548424596, 0.15128341049916627, 0.029342167703533577, -0.2023470487968279, -0.041035666654053775, -0.14561833429273008, -0.005107045177276498, 0.1571436180977566, -0.0016356601284243423, -0.03243994106029293, 0.09341219762360303, -0.20768218101984134, 0.08256239879147746, 0.2649994812609646, -0.4189649759865384, 0.23560346241152522, 0.07957089985065573, -0.12130432309424939, 0.17028522641284746, -0.1850769828912185, 0.014743251054014722, -0.28215645656508986, -0.10865698107991487, -0.04459529440402868, 0.01040615393756777, 0.011534378743911165, 0.35595676101537804, -0.11025213776659537, 0.12160491117866398, 0.03633719194226942, -0.32611645815889745, 0.029005770038445393, -0.03310078999234583, 0.03883040268530033, -0.11359831951119422, 0.012429425219041841, 0.04740518701736155, 0.06031001483995357, -0.012304223632562096, -0.060603884537537775, 0.018880334677766657, 0.28396364035834987, 0.09868055858396413, -0.09408780544133458, -0.14008214910627742, -0.14377026629131, 0.3645664219679187, -0.13993345511611002, 0.07339949107866407, -0.12576611925061554, 0.2171702317211161, 0.13550721718593872, -0.14041165228983993, -0.01756702429869852, 0.189313482772368, 0.18824048354952985, 0.1921944809980074, -0.011340431874374236, 0.18801039238707962, -0.007431176373766153, 0.15251672927279303, -0.1676343035427213, 0.0360752495595635, 0.07670928403805788, -0.013344621841503914, 0.07665149921767757, -0.2134780232990572, 0.10494363701425145, 0.08778887379896992, 0.09775514472725945, -0.05998084896927581, -0.21983769959966568, -0.12092560094081632, -0.4052617882148107, 0.13589700535728944, -0.27494637610960293, -0.20773190006738762, -0.32021218671333646, -0.2814115039184949, -0.052213931806521015, 0.060364172588156004, -0.1345708336228257, -0.12705966685021658, 0.19879337870275016, -0.24683831175455453, -0.11816435361283259, 0.13058709578283792, 0.25346588801813313, 0.3855575905322999, 0.030361555411798045, 0.0720779279450706, -0.12990289519950432, -0.021641145961506136, -0.004974576925058389, -0.1579186599111989, 0.23584208863225362, -0.06382616562960751, -0.04766209597618879, -0.20153423346425697, 0.06406152404038513, -0.18590839422715552, -0.036479991581063485, 0.14850752102224166, -0.21683409465075995, -0.05287704508813555, 0.49745012616284784, 0.09244950826527738, -0.28832123028711937, -0.28334160467160546, 0.04020336973645544, -0.03377508685669294, -0.024687494619036136, 0.12051388543572349, 0.004129325120766961, -0.15834006145944046, 0.01930472612451093, -0.1319000648748974, -0.2593654244345913, 0.13336267869670784, 0.1577985631055885, 0.10293403523537989, 0.15704007253808036, 0.16715046974869122, 0.07134746521135119, -0.08923974437805349, 0.14742181739021504, -0.1794952007816806, 0.029885941714794275, 0.22765998604975515, 0.2033178288894135, 0.08914610126788239, 0.004806247517624467, 0.07973671956027883, 0.1454266677506764, 0.4235524978684423, 0.10588923777483017, 0.13193948528940388, 0.15944066290305794, -0.14050182698152017, -0.012895274916070459, -0.16911418845547876, -0.06348631611299652, -0.20810618380319762, -0.05710138080779833, 0.14571449190957592, -0.015452582458033479, -0.16728815647348494, 0.19922870051540228, 0.07251000962668126, -0.24902584405760236, -0.14348243651768305, -0.2462056551833894, 0.15500749919232723, -0.03504765467569265, 0.25487958694912705, 0.17064413818070917, -0.14228590576964842, -0.11972719639546821, 0.12174029688503908, 0.08614608433908966, -0.025820046267924144, -0.23998667285721006, 0.11220004141910857, 0.05366663433461107, 0.1729622818012739, 0.03193702064370815, -0.03473047485763898, -0.061630559377268516, 0.07560062254543858, -0.2556104770542329, -0.03363533090363662, -0.04897399780720113, 0.2585534135899816, -0.157248326524401, 0.2504618925624348, 0.1357301834969321, 0.1478065607340924, 0.19273917361118836, 0.22837110596268417, -0.26054266481603133, 0.007885703336936271, 0.01080281466706779, 0.012696923061492506, 0.04995083423124036, 0.1508079025214892, -0.19749632998263755, -0.12813906869313532, 0.0330845080107196, -0.08029898430908322, 0.040835707336479364, -0.06139757945911833, 0.0595097180578714, 0.1765359304226651, -0.1205459577296216, -0.09971212126396796, 0.1839894309142995, 0.2330052517628286, -0.16561432077881, -0.18903337639886097, 0.08482652743111779, 0.0674070467308049, 0.07577695183388317, -0.2713633741807616, -0.06129639347031965, -0.09836414080145743, -0.03619485411972374, 0.13361093939172303, 0.07380028036699504, 0.21381315623448574, -0.09404903380084809, 0.10497334456220202, 0.3666347459114382, -0.15960670781105182, 0.25807175519110087, 0.1401753749655312, -0.06948074571431427, 0.0035264990298741264, -0.10421274924247004, 0.3889729891494571, 0.0026276514279431474, 0.1239477658400629, 0.041062358775214546, -0.18915037314384647, -0.11461080179315936, -0.1668309106827801, -0.006655959872716041, 0.1377096866000148, 0.012635490212156996, -0.07569197866488657, 0.013936488048162006, 0.2015445850785591, -0.1146818970883034, 0.00471322381565886, 0.03711424989824196, -0.4028874649315396, 0.216464436412665, 0.00025660291520383387, -0.052515787661702576, -0.00011403209171283495, 0.2645763736511916, -0.15052657842246603, -0.11223564137503098, 0.24585250036356682, -0.04576005927131374, -0.04190677590479208, -0.24970602620436824, 0.1177357768084334, 0.04239610040500747, -0.07299731342030504, -0.2951414444225333, 0.13099389514154036, -0.14784231100830802, 0.15236373215809834, -0.2549600569492425, -0.1524173642099059, 0.03323096307248237, 0.2530375033062618, -0.11088510969117629, 0.1366517285115417, 0.21341298534560454, -0.13581203106920395, -0.115463340790747, -0.1451407169525945, 0.08885055469114282, 0.2204166694644744, 0.24686467332184775, -0.128812092463986, -0.14094747218724663, 0.03736449235141071, -0.029110225127342536, -0.25794862889574327, 0.026012512825324432, 0.150714700046821, -0.06556138633973549, -0.07009422898110253, 0.1768814278172679, 0.21989417139360828, 0.18169763029240618, -0.14338026551124794, -0.067824929625182, 0.18255523691382408, -0.03365910875852943, -0.1967145508518275, -0.12922944044688897, -0.14908862937903078, -0.16758510360610104, -0.137645477644047, -0.028050058581955757, -0.168664420283128, 0.3255932994363988, 0.17960726279367198, 0.02258087779259132, -0.010713513847823108, 0.07532535151525913, 0.09135203858693648, 0.013839242946418959, -0.043619044377328116, -0.10836001457279641, -0.18390107322997995, 0.12652740932240694, 0.13316778636950014], "policy_b1": [2.8451097304050753e-06, 5.435845298796684e-05, -2.939999477656448e-05, -1.304867979446531e-05, -0.00032420019726461834, 5.006809081786869e-07, 7.949875927140631e-07, 0.0001528445132939651, -7.979759651241045e-07, -0.00012359774221044033, -0.0001083145309569285, 2.279708030386462e-06, -2.1260159557087618e-05, -5.109105052352633e-07, 7.986257216847756e-05, -0.0002654584740817185, 5.280858792097243e-06, -3.3976117897560815e-05, 5.697025769095242e-05, -4.95907233538068e-05, 0.000488969199413282, -4.713735237371342e-06, 0.0007334831595877418, -1.0246532491786276e-05, 1.5333690953992774e-06, -0.00038043116712642623, -0.00023004314414231452, -4.1512238993419705e-05, -0.0015584044929388356, -2.1256678295799557e-06, -0.0004038497110311938, 5.791441503317144e-19], "policy_W2": [0.011262775873944876, 0.038430441777613164, -0.05882444072114952, 0.1330253145435536, -0.18227437583043474, 0.05392677537471939, -0.006927640827287847, 0.12140203749126256, -0.049277361266473925, 0.12558456000850976, 0.033254342016984455, -0.021533409290041182, 0.07810253758936142, -0.2958760403211235, 0.21327684470221162, -0.2187851397910124, -0.22375648107362026, -0.19014981263784875, -0.18003766538668192, -0.046585376324053886, -0.6342715623203734, -0.003739856966242586, 0.3308871468732009, 0.04899434864642486, -0.00318818418075602, 0.4237966140174807, -0.33640198708777713, -0.1167326024279202, 0.30299180901034045, -0.02581089388006752, -0.22753334563625408, -0.4570615678694968], "policy_b2": -1.2604447334100067e-18, "policy_temperature": 0.3}