{"type": "alphazero_linear", "value_weights": [0.0, 0.0, 0.0, 0.0, 0.0, 0.0, 0.0, 0.0, 0.0, 0.0, 0.0, 0.0, 0.0, 0.0, 0.0, 0.0, 0.0, 0.0, 0.0, 0.0, 0.0, 0.0, 0.0, 0.0, 0.0, 0.0, 0.0, 0.0, 0.0, 0.0, 0.0, 0.0, 0.0, 0.0, 0.0, 0.0, 0.0, 0.0, 0.0, 0.0, 0.0, 0.0, 0.0, 0.0, 0.0, 0.0, 0.0, 0.0, 0.0, 0.0, 0.0, 0.0, 0.0, 0.0, 0.0, 0.0, 0.0, 0.0, 0.0, 0.0, 0.0, 0.0, 0.0, 0.0, 0.0, 0.0, 0.0, 0.0, 0.0, 0.0], "policy_weights": [-1.9412370602590884e-15, -4.33784085041011e-15, -1.6456150678245735e-15, -6.713262758195497e-15, -9.531222960787593e-15, -7.709433692441915e-15, -2.2048340223634897e-16, -5.879627805009401e-16, -1.7035588045067061e-16, -4.651934454665504e-16, -5.7141791298675615e-15, -2.067183230147799e-15, -7.865427059661184e-15, -1.2792371328895811e-15, -3.772919476841034e-15, -7.10409688589305e-15, -7.499157544943458e-15, -4.8642086739403354e-15, -7.192972207154874e-15, -6.876550433119186e-15, -7.308136286489634e-15, -1.9095142134162203e-15, -7.070941054898558e-15, -1.2917583669391638e-14, -9.722674054746267e-15, -9.061328076764817e-16, -3.574918139293003e-16, -9.353715718640674e-15, -1.230241603034075e-14, -1.2917583669391638e-14, -3.9946662109834093e-16, -3.4475203741852266e-16, -7.923390676206448e-15, -3.666554906911423e-15, -1.2193371312640973e-16, -5.6044470279903235e-15, -9.731180049268824e-15, -9.749970111976892e-15, -7.650465513846157e-15, -7.913701846925306e-15, -1.267388971548657e-16, -8.665984596589732e-16, -1.3548190347378855e-16, -1.9316389444675557e-15, -2.2502312249457477e-15, -2.8036557171724877e-15, -3.9429382479228816e-15, -8.108954468260778e-15, -3.2675388995821037e-15, -3.2278617026674835e-15, -6.039176143154267e-15, -4.845433118871794e-15, 0.0, -5.518943924720704e-16, -2.230922576258431e-17, -2.3522740219962317e-16, -1.2497078025197526e-15, -2.4320823133194838e-17, -1.405126015541213e-17, -1.4974479989327014e-15, -4.599737881165114e-16, -7.100511178375136e-17, -1.1560719016205009e-15, -6.017842474337391e-15, -6.496031344672072e-16, -6.123184145376092e-16, -1.2900965018491922e-15, -6.9237274698195755e-15, -1.109655806470919e-14, -1.1124426587015116e-15, -0.27350588875550064, 0.16248451595566285, 0.03738223321093847, 0.05273278816581699, 0.47829885016924, 1.0068101367786833, -0.23186119401373687, -0.2308183310254558, -0.2243192497113274, -0.7772038607743214, 0.19643929362802312, 0.21767569124177882, -0.16305725393435494, 0.3665045316579236, 0.37831467602341723], "policy_bias": -1.2919578601389263e-14, "policy_temperature": 1.0, "benchmark_win_rate": 0.8, "benchmark_epoch": 6}