{"type": "alphazero_linear", "value_weights": [1.1742858708502322, 0.8878540525961003, -0.9405584695896528, 0.013677577959285033, 0.10797909689635653, -0.15881273580945016, 0.0026924173922341266, -0.008455983695247717, 0.021023968995409096, -0.022370470160769512, 0.4178690603667394, 0.4799311640839577, -0.3049014594011806, -0.1850001756940288, 0.3850359024218392, 0.0673704015825287, 0.19944356163576518, 0.18746816668019137, 0.05717703810432812, -0.05784562219203471, -0.005656043506673632, 0.040074358399290314, -0.09024938466635084, -0.10486573267336434, -0.006362107361534512, -0.09470926864944887, -0.019952545109662635, -0.10486573267336434, -0.10486573267336434, -0.10486573267336434, -0.03155516699768973, -0.01391861082136936, 0.06528480120254593, 0.3795603969445209, -0.1483587421228734, -1.0421400095452455, -0.09940684330664998, -0.05276389933606085, -0.011877697754086917, -0.10493295961206796, -0.18678985465606418, -0.21820502533904476, -0.15150625620279934, 0.035243332110700513, -0.14206534757485006, -0.14109771724125592, 0.09078435000947245, -0.11698254642825752, -0.032123853483901295, -0.07986607768377388, 0.13905238472415718, -0.14845922352098548, 0.0, 0.04661507337601473, -0.0006143794366589071, -0.0002887889724582858, 0.040100441916032174, -0.0021888121464684177, 0.07137476489153755, -0.2616145287466032, 0.03725365243830707, -0.09575432006815837, -0.07998239584880594, -0.1305344119356613, -0.19687773831495264, 0.5160012325055003, -0.1944549022756284, 0.864544529449093, 0.14240738878816778, 0.15734084052591496]}