{"type": "alphazero_linear", "value_weights": [0.8405250121860102, 0.625621621057949, -0.6611653445548493, -0.013098518321697877, 0.09551889996681852, -0.1300381203175963, 0.0038307602757465826, -0.008327989647321529, 0.006293459873684942, -0.009287948905918327, 0.35149905686057653, 0.36477381004467097, -0.3189871905120933, -0.16886633268445692, 0.4076771834034155, -0.0027265854030505744, 0.22989754509351834, 0.0813164234454273, 0.00893429331141732, -0.03724471099438412, -0.015874800077350856, 0.04999360915585501, -0.037176410723948144, -0.08017633979313142, 0.03339424514806886, -0.08495909747602835, -0.009680318429730606, -0.08017633979313142, -0.08017633979313142, -0.08017633979313142, -0.021508625742909883, -0.022740253134573955, 0.030253341279879987, 0.2631459401096308, -0.09205241651623058, -0.8975767883026016, -0.06099451427145976, -0.058920488628544994, -0.024626941608713867, -0.07003909923924678, -0.10364423304304794, -0.15043021322197114, -0.10795492807548636, 0.04863388789434913, -0.07021131090015507, -0.1308237970124408, 0.08059290644206969, -0.05772173827581831, -0.024579257539177377, -0.0768227333792709, 0.11015429216246136, -0.12188120096168792, 0.0, 0.03617922897276385, -0.00032580228884199257, -0.0005515529118025973, 0.044871124895229424, -0.0031870377509961396, 0.034192003154435636, -0.17903364235352281, 0.025227674213181263, -0.0666747684817331, -0.05884795364110572, -0.11632872320186924, -0.13497155920797235, 0.33948086949829365, -0.1543239621481186, 0.6943026776060157, 0.1035164764930343, 0.12342603282234338]}