{"type": "alphazero_linear", "value_weights": [0.0, 0.0, 0.0, 0.0, 0.0, 0.0, 0.0, 0.0, 0.0, 0.0, 0.0, 0.0, 0.0, 0.0, 0.0, 0.0, 0.0, 0.0, 0.0, 0.0, 0.0, 0.0, 0.0, 0.0, 0.0, 0.0, 0.0, 0.0, 0.0, 0.0, 0.0, 0.0, 0.0, 0.0, 0.0, 0.0, 0.0, 0.0, 0.0, 0.0, 0.0, 0.0, 0.0, 0.0, 0.0, 0.0, 0.0, 0.0, 0.0, 0.0, 0.0, 0.0, 0.0, 0.0, 0.0, 0.0, 0.0, 0.0, 0.0, 0.0, 0.0, 0.0, 0.0, 0.0, 0.0, 0.0, 0.0, 0.0, 0.0, 0.0], "policy_weights": [-1.895018288277018e-15, -4.236971017090771e-15, -1.6039339995055417e-15, -6.4582464810030234e-15, -9.18426649461356e-15, -7.432889417106147e-15, -2.1085771135342182e-16, -5.659649367552604e-16, -1.6368110836037633e-16, -4.480685367384043e-16, -5.46423149783145e-15, -1.9828539851718746e-15, -7.481966435296494e-15, -1.2682910277561664e-15, -3.67312083526808e-15, -6.8029673557817405e-15, -7.143556579602948e-15, -4.668831972005622e-15, -6.9217336225869075e-15, -6.6288501478399336e-15, -7.045555370200559e-15, -1.8226089040784784e-15, -6.749982517373341e-15, -1.242337829832059e-14, -9.311683368817812e-15, -8.958632446986987e-16, -3.403527459866496e-16, -9.000959699800794e-15, -1.1837041763440425e-14, -1.242337829832059e-14, -3.870191045378981e-16, -3.4014932814577883e-16, -7.643094056958164e-15, -3.5174554241512344e-15, -1.1572340308241274e-16, -5.2598810723613956e-15, -9.372245440180616e-15, -9.38464300505747e-15, -7.366344997974083e-15, -7.605481775160456e-15, -1.188762630000008e-16, -8.506390036799864e-16, -1.405126015541213e-16, -1.83757837326043e-15, -2.154558499784769e-15, -2.6897855481294584e-15, -3.7866009258692934e-15, -7.821758699879641e-15, -3.1469980230157877e-15, -3.087097621762804e-15, -5.787450693716016e-15, -4.637015339590427e-15, 0.0, -5.254933580643696e-16, -2.230922576258431e-17, -2.3522740219962317e-16, -1.194665026627009e-15, -2.0257233390719174e-17, -1.574261554448952e-17, -1.4588330543574558e-15, -4.393457575828022e-16, -7.100511178375136e-17, -1.1308604064026076e-15, -5.7922937279908874e-15, -6.405459805688063e-16, -5.704255202191257e-16, -1.2559918383114872e-15, -6.6728467632294365e-15, -1.0680884370784598e-14, -1.061499386748203e-15, -0.29813525148259573, 0.19493965452467632, 0.0050530006246431915, 0.07598201114048078, 0.4825410621732573, 1.0103440666232661, -0.24026633336905268, -0.2378521509227806, -0.20738586599044048, -0.7852201933214596, 0.22125747746257415, 0.24058479054424306, -0.16331830083228774, 0.36331140637033066, 0.37725500411941737], "policy_bias": -1.2427923273827945e-14, "policy_temperature": 1.0}