{"type": "alphazero_linear", "value_weights": [0.17652728732373077, 0.11502844635359824, -0.12224252683679378, -0.023098296643435046, 0.0794919241248824, -0.11762632016839344, -0.01056095293538183, 0.008159604611640853, -0.006944550854289955, 0.00599401197491096, 0.12753900350744324, -0.1416987926221098, 0.21164148374502753, -0.2634192224521952, 0.026927484141638758, 0.03673063636170343, 0.06674431441268676, -0.003381062143549656, -0.010350361058903787, -0.02057039948227886, -0.0047297114089163445, 0.03478363461029134, 0.1490156497111227, -0.024850254565528807, -0.017342469868476904, -0.004628305167930672, -0.004414020714108765, -0.024850254565528807, -0.024850254565528807, -0.024850254565528807, -0.004491592072467738, 0.001865716665455124, -0.00942856398033193, 0.09082490661563523, 0.005929982597829563, 0.13894168458074527, -0.026433373355757645, -0.010776102880837048, -0.01529623290192779, -0.009358977677264095, 0.0018231018469296232, 0.013351833609500862, -0.02075192787619501, 0.006429596771886319, 0.00990862748939418, -0.08314290064007156, 0.07747733690413167, 0.06441834507161619, 0.04345865322261503, -0.056174638601888954, 0.002891695275944218, -0.029101419566281202, 0.0, 0.021657258894542505, -0.0006601273334123843, -0.01569833722884488, 0.026735350584558254, 6.742070516317482e-05, -0.03669987007749013, 0.02361227646774491, 0.0034418011692997495, -0.0032246241857128615, -0.22262421776758773, 0.07477845874175347, 0.0019289790825096176, 0.015520364761533727, -0.08414483817883486, 0.004369718765389503, 0.031679060782569844, -0.025442490860602678]}