{"type": "alphazero_linear", "value_weights": [0.0, 0.0, 0.0, 0.0, 0.0, 0.0, 0.0, 0.0, 0.0, 0.0, 0.0, 0.0, 0.0, 0.0, 0.0, 0.0, 0.0, 0.0, 0.0, 0.0, 0.0, 0.0, 0.0, 0.0, 0.0, 0.0, 0.0, 0.0, 0.0, 0.0, 0.0, 0.0, 0.0, 0.0, 0.0, 0.0, 0.0, 0.0, 0.0, 0.0, 0.0, 0.0, 0.0, 0.0, 0.0, 0.0, 0.0, 0.0, 0.0, 0.0, 0.0, 0.0, 0.0, 0.0, 0.0, 0.0, 0.0, 0.0, 0.0, 0.0, 0.0, 0.0, 0.0, 0.0, 0.0, 0.0, 0.0, 0.0, 0.0, 0.0], "policy_weights": [-5.579954562100695e-16, -8.491861727688559e-16, -9.629016334278256e-17, -1.3927834580096356e-15, -2.0588083443477212e-15, -1.5709736266575915e-15, -4.3417130107066104e-17, -1.4086868996998165e-16, -2.5224742813186715e-17, -1.0358017781431523e-16, -1.0982968007278213e-15, -5.08078822070157e-16, -1.0743836376114775e-15, -8.892192537857113e-17, -1.4438276962902594e-15, -1.3382269891428993e-15, -1.0465760202915662e-15, -1.0922717367893937e-15, -1.4828864861298699e-15, -1.5836509824319008e-15, -1.6227937979398826e-15, -3.458474825968053e-16, -1.321893983163842e-15, -2.6071332592803183e-15, -1.995435067181364e-15, -1.948961825259942e-16, -9.818534874028737e-17, -2.0606086281738087e-15, -2.514499025663155e-15, -2.6071332592803183e-15, -4.9679083749857215e-17, -2.5847193444806017e-17, -1.6376461818568007e-15, -6.065677474187418e-16, -7.407269242420972e-18, -9.788177213199133e-18, -2.0028351027624218e-15, -2.00221929286911e-15, -1.5777331020426225e-15, -1.4871126384355795e-15, -3.246968666159589e-17, -8.876580026573317e-17, -2.6541269182445147e-17, -4.897131318352687e-16, -6.14569769315407e-16, -3.899980352394922e-16, -7.728372021186761e-16, -1.6835397313697725e-15, -5.979026003683248e-16, -2.9998617115780234e-16, -9.27704399032119e-16, -7.35315908368451e-16, 0.0, -1.5839722789694596e-16, -2.230922576258431e-17, -2.3522740219962317e-16, -2.2868859583802275e-16, -3.655929725621119e-18, -3.97251675998689e-18, -1.9033385978417522e-16, -7.109899691562506e-17, -7.100511178375136e-17, -5.827112338659131e-17, -9.509754095304907e-16, -4.586656304327729e-17, -1.7024787951473127e-16, -1.2689502226770335e-16, -1.3713434955740092e-15, -2.2483676517939434e-15, -1.7130301998679688e-16, 0.47098945291889605, -0.010318059818254595, 0.023063567916936784, 0.08107581573429923, 0.38896742782648147, 0.45656302571716206, -0.11444291538640103, -0.2722786274038616, -0.2569327648954409, -0.7666869226098229, 0.5935081703876941, 0.2413393834173222, 0.1338644426650889, 0.2064028337138009, 0.524803764323852], "policy_bias": -2.626544814976484e-15, "policy_temperature": 1.0, "benchmark_win_rate": 0.867, "benchmark_epoch": 3}