{"type": "alphazero_linear", "value_weights": [0.5464439267925972, 0.42131252108974415, -0.40216620214637483, 0.003385065332225755, 0.07677946329383332, -0.028269387409649436, -0.01066977204934143, 0.006730806976411473, -0.0054166595385612545, -0.000644209937036343, 0.24875693897965923, 0.2662384512651005, -0.37373514505605593, -0.14384773994732375, 0.46775432759546304, -0.0355160090531832, 0.24403498342682384, 0.044673077459680265, -0.017336829947595313, -0.022682797456969963, 0.006858403143405386, 0.017805604512570128, -0.05489776275540412, -0.04982855740791286, -0.0010270848610519257, -0.02218006212685875, -0.01269773288307782, -0.04982855740791286, -0.04982855740791286, -0.04982855740791286, -0.006660113306278963, -0.03396381728286674, 0.049418428604592786, 0.12585129562279773, -0.0654201989324279, -0.6993118448569335, -0.04285806138431184, -0.02996254125649212, 0.002686969839633518, -0.06466339583794083, -0.050275134717130375, -0.10883642989293153, -0.09076733673329178, 0.06519442818382183, -0.02685926230362077, -0.07567582191016797, -0.02280767805048754, -0.03678334660294136, -0.04392712942204996, -0.014498589563586387, 0.08420241123961819, -0.12272535695559444, 0.0, 0.014098882865391599, 0.0002907610535578677, 0.00210328427392461, 0.02236584902034384, -0.0016456468634659773, 0.012922412608247728, -0.1544449472836017, 0.01505573984815982, -0.029281898362883363, -0.0518232654497411, -0.19033859906958198, -0.11352407265978856, 0.20882617416959154, -0.11669565099981093, 0.47847089439083906, 0.10320014297950143, 0.04256010889110649]}