{"type": "alphazero_linear", "value_weights": [1.2277338096896881, 0.9323098137234413, -1.011854559961026, 0.005477822497512354, 0.09105451122496792, -0.1511583526092061, 0.009144747098196265, -0.013696816164036625, 0.03358246214507662, -0.02608713214546617, 0.43731792098234107, 0.5128684863520271, -0.26529461975936924, -0.19478428797370734, 0.3464424310884012, 0.1118936332314055, 0.17535682567249522, 0.23313705761591474, 0.07867830338658602, -0.07225944510098747, 0.0036245695489442063, 0.044709935317860695, -0.09248744461237486, -0.11363647664467134, 0.015475207423733081, -0.09462660652878119, -0.03516748891354143, -0.11363647664467134, -0.11363647664467134, -0.11363647664467134, -0.05306674561333353, 0.0073461075502486515, 0.08618039823526714, 0.4153098094598553, -0.18027396194265316, -1.0591608363294314, -0.11864816887366902, -0.041431049167292615, 0.010047258772110013, -0.13348147486319845, -0.22854567375129844, -0.23799748082549851, -0.1467182613911798, 0.022304762945389973, -0.18565775760496958, -0.13466076129434953, 0.08585524572762392, -0.15752584091004776, -0.04308156083276613, -0.07812659707789926, 0.18305984738051723, -0.17980497766324358, 0.0, 0.052454717078152004, -0.0009916528266448346, 0.004486411440812429, 0.04544655145356831, -0.0007159468552726643, 0.08106156520147222, -0.28331760956017793, 0.04668958706790915, -0.11788209732806709, -0.10415498424390338, -0.1648668114189931, -0.19593065529458847, 0.5709215411532241, -0.17011398626889368, 0.8907114745070008, 0.13667357251155998, 0.1718314579818471]}