{"type": "alphazero_linear", "value_weights": [0.28466623923753703, 0.18537467388774564, -0.198010428772562, -0.028613461233793283, 0.1293141847199472, -0.18101972074052256, -0.016137360462415568, 0.012657021154473567, -0.009638734811260541, 0.010071960665327243, 0.18403227493609256, -0.21065145249278644, 0.2768865842603953, -0.33615796207191045, 0.03320569511382326, 0.04762896547557416, 0.0204047566827771, 0.0015199328599665822, -0.006231834000328555, -0.031146714662514407, 0.00026477091133540195, 0.04845733284308868, 0.1410115922148595, -0.026065682697691512, -0.023495554379684015, 0.007531210600914979, -0.009789596344794342, -0.026065682697691512, -0.026065682697691512, -0.026065682697691512, -0.005467318164304156, 0.005602260005966184, -0.016067206733914083, 0.12483851100416432, 0.008830875798823034, 0.18226276157442126, -0.03399565990148109, -0.005874500791099742, -0.017210186310041065, -0.007433335560829495, 0.0018149193586367196, 0.025681808566495747, -0.03550985911029676, 0.008325413255292716, 0.01893191891245243, -0.12079772813139569, 0.12711415246234278, 0.10549256765158475, 0.06285799521476984, -0.07396755995404816, 0.021450251297525477, -0.04036011186518944, 0.0, 0.03412639559138582, -0.0008378620806784355, -0.027514317827030975, 0.035853183392975795, 0.00048233319189706783, -0.045013994670698255, 0.046061188259473425, 0.009855388574835039, -0.005827461806455159, -0.270104723097183, 0.08488013800528534, 0.006294979558345074, 0.032911698484118866, -0.13931516058511656, 0.01760984961122938, 0.06264891843383648, -0.03237714490508641]}