{"type": "alphazero_linear", "value_weights": [0.05677740537363666, 0.038787236818883644, -0.037404176904203626, 0.0005125047124376343, 0.0023355265502614775, 0.00011316448667259295, 0.0008668939267386268, -0.0007976531426963361, 0.00020809931570580351, -2.660060486971781e-05, -0.0013618148738320731, 0.0017536107057542093, 0.006398861991537032, -0.005514771921379865, 0.0008217373415408102, -0.005007736878342233, -0.02737020834170794, 0.006225518924450983, 0.0071971861325653315, 0.002152447478708636, 0.0006655055657132253, 0.00743992280789894, 0.0013340719060317679, 0.0017058274116979481, 0.002206671255092647, -0.0007933549552740604, 0.0005911822554377915, 0.0017058274116979481, 0.0017058274116979481, 0.0017058274116979481, 0.001010171549072216, -0.0008702534453463186, 0.0015859800270135072, 0.021535463230758927, 0.0010077171383102654, 0.00635356190585757, -0.003326769521107069, 0.006124257543506179, 0.013865604991745727, -0.012208935117300196, -0.0007562288478956167, 0.003269425390909687, -0.004840426285142179, 0.00010239580065156002, 0.0027545443798339363, -0.0012098007540886498, 0.002020857179997996, 0.0023689092332570866, -0.009437184989018193, 0.009726969330932752, 0.014796579322527446, -0.013097281403085664, 0.0, 0.003809267075572301, 0.0002993660538512049, -0.0027156475953414062, 0.0055851892472913636, -0.00010682353743517265, -0.006967049166490217, 0.004516954584119256, 0.001912077101376534, 0.0014794478675068023, -0.0005161597253687663, 0.0093938983799083, -0.0014793514457087905, -0.004532157746734433, -0.022959997404517776, -0.002559723078300461, 0.013567454046340573, 0.0030350183019327774]}