{"type": "alphazero_linear", "value_weights": [0.0, 0.0, 0.0, 0.0, 0.0, 0.0, 0.0, 0.0, 0.0, 0.0, 0.0, 0.0, 0.0, 0.0, 0.0, 0.0, 0.0, 0.0, 0.0, 0.0, 0.0, 0.0, 0.0, 0.0, 0.0, 0.0, 0.0, 0.0, 0.0, 0.0, 0.0, 0.0, 0.0, 0.0, 0.0, 0.0, 0.0, 0.0, 0.0, 0.0, 0.0, 0.0, 0.0, 0.0, 0.0, 0.0, 0.0, 0.0, 0.0, 0.0, 0.0, 0.0, 0.0, 0.0, 0.0, 0.0, 0.0, 0.0, 0.0, 0.0, 0.0, 0.0, 0.0, 0.0, 0.0, 0.0, 0.0, 0.0, 0.0, 0.0], "policy_type": "neural", "policy_hidden_size": 32, "policy_W1": [-0.28793580875863106, -0.34400497969042154, 0.08597989784346453, -0.08778026776587153, 0.37932776967625487, 0.23996156545245081, 0.15398551825368859, 0.0015410927165485327, 0.39587582134909516, 0.07992852479126296, -0.2469133950615834, 0.04154568366854851, 0.011192620052640916, -0.11076289856168033, 0.16835176782658492, -0.04730124127480479, 0.05095335015999444, -0.10280814673368849, 0.07930362092688319, -0.12290050664255467, -0.03170481555276915, -0.18761645002404803, -0.004545943983928298, 0.029088242296922664, 0.03785037143250731, 0.1333171401564214, 0.24549513180842886, -0.04901958839304989, -0.012824285951890097, 0.06376581416668857, -0.024002305456537074, -0.03328685871602117, 0.3203230482026467, -0.11126656912081623, -0.05540996935123677, -0.10656870726374608, -0.28350507942418357, 0.027031048577843005, -0.2040709657669292, 0.0789912912793588, -0.1420319976701597, -0.04366370231751582, 0.08941453535888164, -0.32538266983420516, 0.18274614094637173, 0.3813903101270195, 0.04566277528341044, -0.2779709601750285, -0.0020726550506408492, 0.1643307875659983, -0.02386839367091453, -0.06965707197170659, 0.024527036418270497, -0.09309381801299431, -0.004382331257905009, -0.04666418211942999, 0.10771893110720208, 0.046243870871293766, -0.059052277675744294, 0.10774665517206734, 0.2501364062840229, -0.14777825475578357, 0.2512340421571163, 0.05495201104568036, -0.018889242509692657, 0.03646195401112697, 0.29664221363079474, -0.10223629007566062, -0.4032341932646948, -0.14764448430335766, 0.013531741284672778, 0.07444655194798384, 0.05015029748366668, 0.09455579953552888, 0.03849956566402456, -0.25596552961076857, 0.2432538482633584, -0.05342679662120091, -0.2327900599494856, -0.366687275518071, -0.025061002030989845, 0.0601783158270669, -0.1993128852141228, -0.20292452022342808, 0.07706526523715516, 0.033924189017646225, -0.15770006829654123, 0.2017328536907006, 0.0408456072269572, -0.15796065711505167, 0.0021736349192171102, -0.06208971451082082, -0.0638626152815691, -0.05290071059396301, 0.1227926351483759, -0.15356703928037221, 0.013017942913576185, -0.11167731514237607, 0.19849405204364878, 0.14041554359184535, -0.06365207082042396, -0.08238149879939936, 0.11674651105797053, -0.15924683507954593, 0.13659991728279186, 0.150802506803265, 0.10934570448930298, 0.046683476898008155, 0.19372396153945573, -0.29637817652280846, 0.18395858110793384, 0.06055936961768309, 0.011587819268978469, 0.08776604114850804, -0.005623646633033269, 0.037991677565767955, 0.06372077369559248, -0.3237240588456934, 0.033190407511753305, -0.2405336169788092, 0.10104534036800411, 0.15975247915598262, -0.08123257443324394, -0.06196779717589682, -0.010967585180674757, -0.271193971714403, 0.15026076500394486, 0.31705421515552834, 0.1232255289728286, 0.06633800429272166, -0.10330342531143538, 0.07791959799502209, -0.09605160502783801, -0.15962348876624138, -0.05129053851414423, 0.11645558427609652, 0.3053425003680615, -0.030304177968550516, 0.32565156222789154, 0.19841732992924074, 0.0026946133660350102, 0.035923144025600345, -0.22833441937178942, 0.035468401829773046, 0.05895281422992016, 0.0007205214593099166, 0.08122335006658384, 0.022208999901790937, -0.01893495384580768, -0.08926416702336097, 0.29612868182750657, 0.19295844636201134, 0.011716098951076358, -0.18250138020202925, -0.09778792379809592, -0.010389872875407654, -0.2065493526714052, 0.32077555747682585, -0.2436875086098102, -0.06529698934693431, 0.08380071514526591, 0.22594894965283738, -0.13753697015151353, -0.09135426376959267, 0.04383270320891469, -0.14146052584468355, 0.04290127763798197, 0.046228730029018054, 0.31493435545691667, -0.27831803962783314, 0.012956019974848921, 0.05617012473264114, 0.10792701269965346, 0.05128888347313655, 0.060865298794688015, -0.31151452430682186, 0.11340418128775541, 0.037252383700808175, -0.06525503431776503, -0.047466856665769414, -0.2368812801759304, 0.12624007226912284, 0.22268285185487924, 0.07204044779842944, -0.13929315476741913, 0.08155745010333128, 0.19837946946027113, -0.023008415192153405, 0.1319401580646403, -0.09512780297487773, -0.12473125357360981, -0.1152090773697745, -0.08487260884569554, -0.36809897082732496, 0.32350347792211775, -0.03601692713464358, 0.0609755044963143, -0.240604378263319, -0.10087070191744303, -0.0967326516443767, 0.049271136325682044, -0.00172627356397538, 0.007341636104242329, -0.1477659127296123, 0.0852145584326597, -0.13040383818494555, 0.34499455452331057, -0.105450102462618, -0.13449908969403968, 0.17224511476543383, -0.03611471062173711, -0.12743399023964785, 0.16464962459313334, -0.047333589586853256, 0.012289660997094233, 0.28747693095760957, -0.14202877785944, -0.15686703869821125, 0.07197227744490901, 0.10138079815658914, -0.1582949260805226, 0.278863784298734, 0.003144333254564797, 0.09934724134955629, 0.04143063917822998, -0.3754097556768012, -0.04908391246753256, 0.14734193445539864, -0.1517339898227397, 0.19039702463916502, -0.05434482889762715, -0.1464439958217178, 0.22027212504294766, -0.3874724617612127, -0.036958233164241905, 0.09932521278767999, -0.1630352101166933, -0.03614278721998525, -0.025457668384258624, -0.14468782080641923, -0.1886024571778129, 0.14659059383457199, 0.1081958923006165, -0.20416409497679253, -0.10924215148062595, 0.06034352134114949, 0.021125559737889044, 0.18328066615386868, 0.03590930184428929, -0.18301582169818081, 0.048204064929987106, -0.1703098460773388, 0.11424440569352373, 0.16763234001383873, 0.29255778162295376, 0.1767092751294125, 0.1329383938764732, -0.10455941526898468, 0.40493967795409974, -0.032160475814967907, -0.039033283159725596, 0.2620262679617443, -0.02872729990766638, -0.004620528753236671, 0.19187775327959597, 0.44098221416107575, -0.10871195494779991, 0.24725523177018743, 0.17127708486408924, 0.04968985588324681, 0.18760027314718755, -0.06949225560738692, -0.26392310051407686, 0.05405073973804213, 0.01228510249952252, 0.18426451559817783, 0.2349653876696172, 0.09927726207133582, -0.010391293909907564, -0.008121728972516604, 0.10399011804427924, -0.05551742768645178, 0.19216651584447406, -0.10504252236456954, 0.17223566172454507, -0.029926716825536943, 0.1269128816673461, 0.1623952222182507, -0.0484725267845571, -0.22197309575125712, 0.18014257200315129, 0.08507246099392797, 0.18211776672281865, 0.18740241104811656, 0.006514468936429822, 0.15871082702920414, 0.28933408597266963, -0.10933666478914725, -0.18789158549649956, 0.048839251011973485, -0.18829164167287166, -0.018550378553243374, -0.02079101221631317, 0.04857014724318399, 0.08830437519741145, -0.040606599642983396, 0.14282999247927194, -0.17420129381009078, -0.2228634621496445, 0.18208994949936796, -0.06094015491957248, 0.24716565279543998, -0.11963512607443609, -0.05504034058616375, 0.01418264572912917, -0.26342353945625646, 0.16922894353363108, 0.318470292649929, -0.061038699161026264, 0.031226412097384484, -0.09901347526247697, 0.01789190852973536, -0.03746498380145701, -0.05841863706703603, -0.058165637919200444, -0.08610025798719338, -0.19542806788164221, 0.08831742919167733, 0.050173398836624014, -0.15276124095525498, 0.02104871332474703, 0.040936444295532275, -0.050339942779762295, 0.021323036137556216, -0.08723512613002395, -0.016737046858409106, -0.33249231018462444, -0.04389969130415432, -0.09392009444043276, 0.12120236024915015, 0.28111284168031947, 0.06272856194035101, -0.21650530032786694, -0.020931438829628595, 0.08190779323086958, -0.04112287427939769, -0.10111186993066829, -0.13418433117138856, -0.3807763867574336, 0.4190679669759398, 0.04894313895134768, 0.17871346965149784, 0.0452483008659876, 0.04145340280656732, -0.5203943251137183, -0.04327928188146765, 0.028792896859033017, -0.17636554255931783, 0.10568157840782094, 0.12657789505736788, -0.08815036268129359, 0.31798234793477115, -0.20733314688505627, 0.041010698303411953, -0.10420993080041159, 0.019597530373180832, 0.1661415139975414, 0.06975498794327684, 0.030061592677926158, -0.040660534550294614, -0.1732531449202132, 0.13636290050820554, 0.27676978700241955, 0.13396994774555085, -0.11017366784380049, 0.08930441314706232, -0.03547364215503803, 0.21503228733834695, -0.011945914139503239, 0.29465392764254544, 0.2605962056978062, 0.0971882002001001, -0.13686280232472633, 0.04968751221921503, -0.15884527092863515, -0.08001668569536187, 0.2952984183928226, 0.09215981878700456, 0.28016496192173124, -0.0804421414500993, -0.35028658322368933, -0.09633023842601382, 0.010963900963238784, 0.1825861277993183, -0.2733460637411591, -0.017436800655533335, -0.2748261844463535, -0.04799485517584942, -0.04790421253563756, -0.10184666827638553, 0.24021700762349948, 0.014618705260643197, -0.24782957594526772, -0.16194644448043324, 0.13874312376700318, 0.026532974386084353, -0.1809068720252164, -0.13183100256954491, 0.04271274499658612, -0.05349481485666339, -0.3166263775577874, -0.07183900076336858, 0.1437653220430347, 0.038357874078615656, -0.0684261362748069, 0.03632284907658836, -0.010783855543951596, -0.0831895042340824, 0.21125755302289165, -0.020654323582893437, -0.08961801171495089, 0.021405952651066287, 0.07735691203388342, 0.03452433101057086, 0.0953827528077015, 0.19330732384714883, -0.12474383026990464, -0.3250027990144372, 0.011173214165161805, 0.0011851206203307499, 0.5337003085212031, 0.09245287606826229, -0.18169210102070354, -0.07569297214202668, 0.012628770235715625, 0.05004906888147867, -0.35432236692140934, 0.026948769166910982, 0.17480435169242933, -0.1491536101721167, 0.013860585958807582, 0.112819340498059, -0.029490789697098514, -0.1338174405526385, -0.020286724250830293, 0.1268076866088762, 0.13226558405760416, 0.07671217680575132, -0.18518096212274085, -0.04327415350579718, -0.01910357881527588, 0.10843936432565437, -0.10492816633516198, 0.014642731781552872, -0.06590229050252966, -0.300796821848299, -0.1444119416033256, 0.23426656278618962, 0.06319376791926332, 0.0567821080806228, 0.13335062887273325, -0.3348211934091736, 0.03549545560527606, -0.1246589534145949, -0.07494585380736654, -0.022766162202032383, 0.07662604463616352, 0.046486652492859264, -0.2960853494280353, 0.11924390980393418, -0.15571260259169342, 0.3643953791336979, 0.11948381292456224, -0.034975140963348264, 0.16513167342597787, 0.06538334427725, 0.033565442566686025, -0.2562827737724229, -0.08637616700480025, -0.11830793118247362, 0.017495342270397878, -0.05289160421619272, 0.006189970640025349, 0.1014127421770299, -0.09598113973724642, -0.12340942219373002, 0.08965637216953645, -0.030853737480169795, 0.04608886479705266, -0.0020234044897439666, 0.18456751630174767, 0.19071427963747759, 0.03505025893635459, -0.0029938022138131584, 0.15025859358027585, 0.045618446918098146, -0.15910960863483645, -0.05348408197268519, -0.014383963667935205, 0.16826610598597472, 0.1891961560719333, -0.04826372430602866, 0.07935418935931685, 0.07371060934875297, -0.1478072229610936, -0.08486063966176129, -0.07161264596475296, -0.23897661961900538, 0.09051549225786834, -0.10382185938071699, -0.1201833491899001, -0.04894887932425568, 0.04381492906697742, 0.0019585721479437697, -0.11646143697816866, -0.005465245266305641, 0.015863695838922588, -0.05829364918731396, -0.19639376756753324, -0.18109935693779242, -0.12994173467766496, -0.08132609019289644, -0.11324562772848203, -0.25079899183165044, 0.02657274530877864, 0.1402540215806265, 0.1764491305378887, 0.21221384635857202, 0.14626516478269241, -0.2260580452445665, 0.19606700789443965, 0.040777536817369175, 0.04415207503235062, -0.12520399124940168, -0.093037901024942, -0.04503682874925888, -0.08426856414753854, 0.002906610376454354, 0.1894781059707105, -0.11616623789602953, -0.076921097498656, 0.10766136141210096, 0.0004014720677035576, 0.1797530155884675, -0.07510007587443834, 0.21076291672204264, -0.021935955527030964, 0.05743715909083468, 0.14146797508424017, -0.10144650706402822, -0.23044358204417387, 0.0217361940425161, 0.15384540764874663, -0.0846065987451002, 0.07976037369348578, -0.0165903250417667, 0.00016180912083612988, -0.24815503144968185, 0.21654729245581328, -0.025518524345055044, 0.233390067146268, 0.04164681604382994, -0.17958167225507163, 0.15496629656138122, -0.40282608849284085, -0.10141086657908394, 0.20085536271148716, 0.09696219716077938, -0.19058101504051264, -0.18124357604964167, 0.00028548076738451483, 0.24371425081992842, 0.2496918075305714, 0.11240495082517073, -0.02690163624081606, -0.0628939327258595, 0.15833467093833045, 0.04045867291844113, -0.0002453812927681465, -0.03679823582624071, -0.0964000138369527, 0.13432222291669962, -0.04858430197162333, 0.23162066148656346, 0.01959135216253021, -0.1302611012077185, -0.18365901940927612, -0.13714150652484713, -0.16654469990139495, 0.10951146477813463, -0.10972528913572373, -0.08668256000795545, 0.10603000883296088, 0.017500466848721533, 0.31651933801186605, 0.22237996880873265, 0.23378679102652924, 0.0071109815534935415, -0.040963458686706845, 0.01002496763043503, 0.203594323524468, 0.11876735734420536, -0.020001627067430285, -0.1527618072396018, 0.20272254138255066, -0.09624566813140174, 0.1248816000326024, -0.07457854564901348, -0.05882174114839272, -0.13595919374928148, -0.05685710139350762, 0.08938767993835046, 0.06454457976937901, -0.229545153338769, -0.2050652303293742, 0.17813751456276286, 0.16535785610168677, 0.0006692825582868606, -0.07668208384603403, -0.17609022791292234, -0.0863053368584715, -0.1996641916262626, -0.011190848441601706, 0.002439019235325967, -0.145272312575426, 0.42371473241120655, 0.032002493847710554, 0.12045402009499481, -0.3087810409977986, 0.3098870275537931, 0.05354809183147336, -0.13390596502651544, 0.17014728780165142, -0.3352476804707206, -0.01905792070179802, 0.045766604627108055, 0.06376035030064717, 0.15485311941058524, 0.18349917283697006, 0.122788772978197, -0.02616842104761359, -0.14340328707844835, 0.2169375461531864, 0.043542994350856984, 0.1210204913358709, 0.0821224768935421, -0.1850399073510488, 0.003251335817188836, 0.03094461274466024, -0.07442632489324427, 0.01289314660944437, 0.06927217942091997, -0.00521332093121609, -0.09134771180127554, 0.018571168069619868, 0.15461131153800137, 0.19525109262099985, -0.1961471209834329, -0.14734986881854786, 0.1143187333968508, 0.09547244715453117, -0.023703122239569212, -0.13074470075930536, 0.06900428246718994, 0.20828186411361804, 0.23461838995573578, 0.09142343889462436, 0.17696252207019256, -0.14381910735805806, -0.035474594189663936, -0.07733827010153271, -0.21742268857272404, -0.0019871131443349246, -0.16719442406807378, 0.3173058372667919, -0.14921742755492412, 0.15174035384294618, 0.05185097408892561, 0.024286222519483158, 0.007257675775357055, 0.17644627281141895, -0.1166916889848401, 0.08908029988827684, -0.059981009888070085, 0.1259885626242021, -0.1388237899326002, 0.0692190248268525, 0.12803780114631738, 0.18258489176672005, 0.025687686288288807, -0.21969014757784605, 0.11476036781566613, 0.10092948119034607, -0.1992320512754988, 0.02708314779822682, 0.11663014180096494, -0.16560011708319808, 0.09608300327369314, 0.12657203051519247, 0.26791717293764855, -0.27421771263289335, 0.06515887675383038, 0.04666179999065181, 0.25090378210934333, -0.02072889393343357, 0.09984638358102738, -0.0006809951430679861, 0.07692818728652448, -0.11900769124743733, -0.07370959187665299, 0.10919973804888164, 0.1920702859217062, -0.08026536039495619, -0.05166183310460548, 0.21450697695162116, -0.11984916326294458, 0.26073596555166006, -0.13756698302556586, -0.17970912256616112, 0.032262111549481484, -0.059096688235585, 0.18804108997891153, 0.1581556061731019, -0.027219215732201152, 0.09347296748405669, 0.26953319219587424, -0.12126090264068067, 0.04769651893748529, -0.34685179613149597, -0.22470601186528155, -0.3658121928548858, -0.2569522611700828, -0.13799038337267247, 0.009633415448085195, 0.009902742341869846, -0.039453347961837526, -0.09500082217100847, -0.09799093348479045, 0.07948696000788746, 0.26829702504099995, 0.01344899176880656, -0.2687280386922559, -0.11435692308926733, 0.19094541314323452, -0.006636260224880727, 0.11735625447411235, -0.12589400526643188, 0.036279133490172054, -0.1629400135792372, -0.20695523339822233, 0.026860919476430017, -0.11852651209370994, -0.07726023471476107, -0.26456407838272467, -0.11616464723422051, -0.12404413524547453, -0.06622616239810883, 0.05613914183169128, 0.027336127564883097, -0.10036492192037035, 0.04792120860615986, -0.06533304891189076, -0.08042482491449802, 0.16382941920017285, 0.10335623700351701, 0.19182220588836174, -0.009661094675135767, 0.284939860591598, -0.00334587435665171, 0.17698236594848318, 0.20245922155206986, -0.08094017193740805, -0.04667248106748499, -0.00681234932147766, 0.32226070435121085, -0.07191400873391449, 0.235162204418526, -0.06157031062663209, -0.25329197130151737, -0.13102066014939667, -0.08354053223627543, -0.2324628884973901, -0.2310682597881687, -0.052550882912258796, 0.15286336876217102, -0.09879858308884763, -0.33949636379171394, -0.18670137775366652, -0.1684749555380525, 0.2550994391785989, -0.17100934313407298, -0.1476556272321064, -0.013021605242794129, 0.1125190878114905, -0.237529192341682, 0.14829775240590015, -0.12248113700190483, 0.11510340566752889, 0.09991829419238026, 0.05362561599800764, 0.05932241307149766, -0.19952789226782966, -0.1863804870752432, 0.22254133738064816, 0.03437049436937643, 0.09912732011932918, -0.3039253200878784, -0.1693096605509342, -0.12469308187825574, 0.01866464272224974, -0.3230232768352328, -0.07321512051454783, 0.17868599909671157, 0.08514530981570011, 0.15225370828883036, 0.05977857826768704, 0.07497017948779508, 0.1705013769186244, -0.004919353448255539, 0.11089832556669336, 0.11041113857442154, -0.3921131188204761, 0.2234105646520796, -0.1789563489776435, 0.014683928156786121, -0.19099966043978026, 0.21681162337273874, 0.13489093218750228, 0.02525662044642998, 0.07839432845639512, 0.05086593516700762, -0.032074104413214156, 0.12759933891806957, -0.20103461202142278, -0.3350106396242107, -0.14868170665110084, -0.21592546136416552, 0.08696971677743569, -0.04909383299316981, -0.034115515591030494, -0.1549823668625253, 0.12230240700843135, -0.15386745345994993, 0.09041067805515836, -0.004165247216955931, -0.006439175454551295, -0.05541358988311105, 0.1342573507009396, 0.03944957542195946, -0.05695596834981143, -0.16125235791534984, -0.11294778358943099, -0.05987467974143195, 0.024126850485389196, 0.14331197825559813, 0.15996960177337902, -0.16959873656411434, -0.14297226769234883, 0.17759075264127142, -0.1481753888504255, 0.06273302118757182, 0.034397526055726844, -0.12371123782445127, -0.03529831348832332, 0.19598084625456913, -0.1049746329179098, -0.28867849297350096, 0.11741769813094963, 0.07311237785280598, 0.2940751974877172, 0.07820714541307927, 0.10556596436440094, -0.13049117233251303, 0.06457556985623436, 0.12747812802710995, 0.0012874834170095025, 0.005986811628452832, -0.17761670282038602, -0.050018412032121505, 0.13291713552103257, -0.0215111002791382, 0.00876281727370471, -0.1555474280739412, 0.132723112073896, -0.010901678973953954, -0.10759002942314952, 0.08794446487516573, -0.3349863569189971, -0.19159996913827598, 0.15681344649868303, -0.04697936902272691, 0.11066035693434538, 0.10781817765328652, 0.13067301593706246, 0.10945759022908687, 0.134284321726772, -0.09146664901132921, -0.04436596089589081, -0.01487370629218049, 0.0013350539162465432, 0.14754490481358748, -0.0345698574096903, 0.2945858243232801, 0.13508124996705279, 2.082397580731565e-05, 0.03702428886002783, -0.0618581728903419, 0.25907963031998105, -0.10489093385431597, -0.1267645023383111, -0.1739731802248623, 0.08771161081872927, 0.0030956214368594867, 0.05463633051377596, 0.04252345516026967, 0.20279043534567323, 0.10731952750659392, -0.18519365080700875, 0.06269637748623934, -0.1486813394143709, -0.056045043570641905, -0.0038527702504686638, -0.2530670374732186, -0.05794504004398394, -0.21923557880654607, 0.12774577468259207, 0.048281956112277445, 0.10370706886437976, 0.07171131555815519, 0.0010396233718901462, 0.09271349584447693, -0.024516960972925227, -0.3173560178514707, 0.01698483109332239, -0.1325734061100636, -0.0433129813941383, 0.12948137087932202, -0.15760007967002135, 0.22948305445538233, 0.005698978992263874, 0.3100168790949377, -0.09955857939412842, -0.03347242200677003, -0.08219944451168093, -0.06020505731839693, -0.1877660070792479, 0.1666928604329628, 0.143358934969209, -0.017657602533709377, -0.07993194129023405, -0.11988927510446735, -0.05389343693202484, -0.094710036840532, 0.18103069879634034, -0.08003263231443206, -0.13913163696771613, 0.1584225805526531, -0.28358499092915473, -0.07534584046460867, 0.0024536708721852726, 0.025133832047630266, 0.08673571702590359, -0.1720799493008142, 0.06623683172775587, -0.07439156675355668, 0.029125464640461292, 0.1123701161304297, -0.21108440513470123, -0.050257960699910134, 0.20838328322740707, -0.2757093104665803, -0.0867424395766723, 0.24495377948407052, 0.0874799247017346, -0.2210958337296186, 0.0638133819363912, -0.08732730422560966, 0.2246596113852741, 0.08080262369497486, -0.3319497319920746, 0.08283699892360218, 0.02560793003386989, 0.023095500662959977, 0.1328384657244282, 0.02941406262298839, 0.04664384896058096, -0.140857683908652, -0.15793257530881824, 0.1500126204859855, 0.006709574247626499, -0.17597093134590436, 0.0819388324543207, -0.17726802874920072, 0.05185843129911836, -0.13663759532825753, -0.1901151909502104, 0.19433771057554416, 0.004838343731586136, -0.09820468944432499, -0.1289010616093773, -0.09882051104199917, -0.08144664128471256, 0.0943168056306708, -0.07132998131028602, -0.037983286318285674, -0.08773855025810262, 0.05514350868825737, -0.0521056188231714, -0.08346482192210178, -0.1349275399942554, -0.09047589553320429, -0.15787459293603834, -0.019997594246149854, 0.03253459841787183, -0.2138589346456717, -0.12854452345171044, 0.05755512541338481, 0.32265940906038865, 0.012082091567157642, 0.007814378885298876, 0.016785957229831967, 0.029553434935028797, 0.0880378865838384, -0.29386677286770135, 0.1505591689800413, -0.03076835990318683, -0.0020804237135969967, 0.013415878916898164, 0.31006922756462446, -0.0933493363990084, 0.13539014477623434, -0.09585481325912622, -0.01788596418148652, 0.06135507498119434, 0.23655341953915746, -0.12538397031203485, 0.015454036705915601, -0.24440451739793775, 0.060870891850980755, 0.1175435207360985, 0.214555814073456, -0.21806047134035278, -0.05280744479141259, -0.1743571442359505, -0.03830484271169847, -0.028797992003930736, -0.09572305027255912, 0.013596896697083033, -0.10478090903381003, -0.2993398339046011, 0.1394051928480929, 0.10657995009703956, -0.2294911238246975, 0.06179134524933279, 0.33691174218163816, -0.019249814644999343, 0.1525267840172821, 0.19222388018020328, 0.0025474915742454115, -0.10042223369939855, 0.07482375173762035, 0.08360027143896633, -0.22756615355044882, 0.19417709147084858, -0.0024222010093953115, 0.010436486452667471, -0.11839502318597646, -0.19459447712638248, -0.16182152320415918, -0.07970122652773343, 0.29033764094882597, -0.21522046025177355, -0.19950179018497866, 0.11985200299282187, 0.011930190130377334, -0.10364212706990897, -0.024521702115978303, 0.0764719098058645, 0.0605058190963074, -0.2093196956889259, -0.18115977631654967, -0.20196788997125, -0.032144009270712835, -0.20694046950649578, 0.018641843320934607, 0.05364182886428014, -0.526348613131134, -0.2994795966018403, 0.05127843470399214, 0.17969050760939625, 0.44393399671768174, -0.08286337790872941, -0.06293068208215138, -0.10792492520366138, -0.13162151331198346, -0.12128318065822107, 0.0025549286538683737, -0.013740285079295839, -0.055792361773317256, 0.00848511873464456, -0.24291564468056442, -0.17517975451026135, 0.03183479138397169, -0.09526502116158944, -0.03545770125602034, -0.11175822989396754, 0.06098010896473912, -0.24039548865537416, 0.15665950716934668, -0.011767953237082194, -0.02900133983071237, -0.05704427876799547, -0.1433737570414297, 0.012550534553806876, 0.005191140730549635, -0.2413733217232735, 0.10834950046393967, 0.17682340942629515, -0.2621727117590315, -0.0846572838390471, -0.050920009586074705, -0.3242528125446403, -0.16482938780793116, 0.06911116854880488, 0.22740784315602822, 0.1570345880125919, 0.3625377475120667, -0.1128048632696969, 0.004212033251928292, -0.07148324028078097, 0.05831331457931952, -0.15652154952141423, -0.1040607985558295, -0.03290642202110578, 0.009762891735064758, -0.17836291392832174, 0.2681302861918556, -0.16809612550141617, 0.12085304260751067, -0.21107333857638938, 0.39262362474757884, -0.04954034782141621, 0.014671737260587408, 0.08783827758627766, -0.08706432970518148, -0.037461543167891555, 0.16621081558084808, -0.015231673435266432, 0.31386844002338793, 0.15317890798915887, 0.027857294154963463, 0.10192009479138102, -0.06204221145904427, -0.27142056861407043, -0.2161551743859487, 0.0755152186374728, 0.13206152464698928, 0.14387767994515155, -0.1324606234116712, -0.13050038794147883, -0.010322164901141172, -0.2452579312303181, -0.07128904732201391, 0.009511173492212508, -0.030882067829268625, -0.06003301108586745, 0.16637980196625166, 0.25259997501522813, 0.22439917492057607, 0.13259446978211226, 0.16039127134424552, -0.2950007255290157, -0.31734589100208954, -0.18353479182971374, -0.030159902116195222, 0.03696091989326365, -0.0650504971842052, 0.1533165659662128, 0.23782080835048977, -0.16230622503528966, 0.1510430945773478, -0.10341185880492389, -0.0056224024763728234, 0.15338338346230876, 0.20306733604507513, 0.1992024107327412, 0.13361347861236314, -0.07575753662445783, -0.12253225759769414, -0.1918023901764175, 0.17038980683850571, 0.10943854427333663, -0.2676757764384449, 0.18511768346790727, -0.08733527114565569, -0.002883454674317733, 0.12424038611193866, -0.05784990093113885, -0.0692678865431896, -0.09815280040547839, -0.0532573007768827, 0.13883392237047532, -0.20501814646134994, -0.020795297294336202, -0.12949963617044924, -0.04298713888676196, -0.20055112419770296, -0.14903785115382814, 0.07059089257121752, 0.14026133376220615, 0.24322877585129993, -0.17154230533281084, -0.18221990334319632, 0.005529622814516114, 0.14362043788927065, -0.06945800054034229, 0.011666337187107688, -0.15435407667909257, -0.30374912410096533, 0.04384468143679106, -0.06517580783713957, -0.1531291130516579, 0.15458675309900385, 0.13176866352106448, 0.19871050308478277, -0.04666041526601732, 0.21338153966695597, 0.15076976684568388, -0.001028774326908097, -0.025657495093086315, -0.026154476896460707, -0.21267913061674448, 0.14231220869053268, 0.057658959613670804, 0.19098131476392535, -0.05997028744546347, -0.07179859610016363, -0.04863978316741088, 0.17958843761135918, -0.038909571462409615, 0.01303632260892504, 0.0070653118312454175, 0.024066318989237164, 0.25322428490151344, 0.21518184561002296, -0.00254238024002143, -0.07181439939830911, 0.10703570529084531, 0.1082177792893293, 0.08743859082347387, 0.1743010878314878, 0.2874642421933616, 0.22796651349689315, 0.1714010743633076, 0.15895079871291815, 0.16613052635572645, 0.018197363504848248, -0.13117279526800915, -0.058665388550332404, -0.1610859184459034, 0.10496144636624322, 0.09941451037243547, 0.045502926649117155, -0.26434657092181296, -0.06585312908636015, -0.09005132363548748, -0.18942858216903555, -0.04265340234180959, 0.0019415960603431292, -0.12603240718472467, -0.1580456915525693, -0.17564278180051074, 0.0886030813409698, 0.018443392218455822, -0.07097623611792811, -0.00014346038583620553, -0.1711866758343329, 0.08646624036033626, 0.33009881047451123, -0.04493540251475383, 0.06359678366517027, -0.14783886969276655, -0.08373502057644558, -0.06697597731816209, -0.1600111849137434, -0.08399823804838115, -0.0601953945150146, 0.057358010882585395, -0.04041542508946516, 0.04960152186761999, -0.026058183209170718, 0.03707900817651007, 0.044542285205934035, 0.06435685217892098, 0.013369390877583206, 0.0371883968523841, -0.24781070149248016, -0.25985394589053623, -0.07602853822945209, -0.11698812554870162, 0.04351047736343661, 0.02055201232936947, -0.11438196448447616, 0.01882949240853309, -0.08742760863042351, 0.21392372708101556, 0.13185955825473417, 0.00307820559840127, -0.09545757692757612, -0.14924267034622848, -0.02994998863859281, 0.05243376046908875, 0.1596502341199256, 0.04384384816767465, -0.10109881279329447, -0.07983603479401268, 0.007883373167386326, -0.06922395276514343, -0.12054187736652998, -0.05437392661919035, 0.021159399041766485, -0.19766202434064897, -0.003148437332432662, 0.07555723936422105, -0.5107766663303785, 0.0036334031150369395, -0.011324313789147653, -0.07879860892836994, -0.04127070544510139, 0.039390420083839445, 0.18629614358725824, 0.0049567093478014804, 0.1702393919105889, -0.14769742683744608, 0.05619237065853579, -0.23365475149531512, -0.07561688925945043, -0.028662607012661812, -0.12871172830394098, 0.11868826902963173, 0.0549731650023215, 0.031406782074546884, -0.036341339049385246, -0.09687244514172111, 0.037768237643685774, 0.05991328980165209, -0.13812401419679637, 0.0971674978364749, -0.15086646741620688, 0.046479043802885436, 0.09148222377266339, -0.08586821499990216, 0.12847283257691197, -0.05775471425024909, -0.12261118453348213, -0.05118685210110854, -0.04395488869192034, 0.09406631609860945, 0.1476362148799679, 0.2142812869534162, -0.39752564138653795, 0.11063917046226365, -0.20487636633080372, -0.07693753351290598, -0.18812692453579752, -0.077613373911571, 0.10814614551913129, 0.0711747728587137, -0.15615647211017078, 0.18591416705749433, -0.06388668728425911, -0.10947945556252163, 0.008234073271079296, 0.20087133817839273, 0.04382673691834028, -0.05536770402004775, -0.0978676955290569, 0.019315701287861545, 0.2064139309807503, -0.2326395116642372, -0.11798099009559322, -0.017673453825855556, 0.15973459879922686, 0.0561473374302413, -0.12256331490738416, -0.22181148075705706, 0.0779456728462928, -0.16436603883926643, 0.08157858405859786, -0.11457484169195126, -0.2084326344930076, -0.15382244949090704, -0.002136165001394932, 0.06338618380589406, 0.1423802913244641, -0.21749456200129874, -0.08702402687672986, 0.17961602222643902, -0.0033697076365939048, 0.09038194536378076, 0.2764145343833909, 0.0878974080159342, -0.028686530774059953, -0.1143139913139375, -0.1700090906218718, -0.02107186640239837, 0.00469408475583639, 0.1734956365538281, -0.16974311510829934, 0.25204435302551326, -0.16305853233403728, -0.2643681413874984, -0.06835847497890056, -0.12395408426709265, 0.06857004236876516, -0.14083512576685775, 0.18824641556452, 0.1580408789123222, 0.0027481897316735475, 0.09561448606357807, -0.1553444830725469, 0.07894381687428888, -0.13390627963039164, 0.24442433877441197, 0.008884424175754975, 0.052089273687998476, -0.049831126752701176, -0.1901313093633795, 0.1392951183199039, 0.13028998026968008, -0.03888956720906578, -0.15721081032436074, 0.03259170882972694, -0.2782043760961078, 0.10529492660867719, -0.06307674936292793, 0.1868202783766504, 0.31252914196280535, -0.12322276195377227, -0.024569162209715854, -0.044643148065916835, -0.2448599059730456, 0.15902967245961983, -0.03482667517895408, 0.1511211433469033, -0.22404886729436682, 0.2715665692033654, -0.018835681211447467, 0.15638146653509022, -0.08979501743438273, 0.13817195872689447, 0.05420908814201562, -0.20450333604663282, -0.010336977258620572, -0.04606186270336521, -0.04303105110866679, 0.04012923552057807, 0.05855598607123199, -0.2134006464241808, 0.010529720081286276, -0.2082422086277046, -0.18389701821174465, -0.10284756702573002, 0.06561369455819427, -0.02520843253247187, 0.05412442241352456, -0.005360191811398186, -0.07994902299642424, -0.031342642486507644, 0.07077455918132068, 0.05884983964803404, 0.10738317498377681, -0.0695543273774988, 0.2417251523889358, 0.251585124698823, -0.022511106255114, -0.2521730641264777, -0.02014434275140121, -0.03798709595284121, -0.08635651172300869, 0.06248338469293778, 0.01910734419540857, -0.17932858852651934, 0.07756229789308254, 0.07788887750889655, -0.14531957926746344, 0.08783347982179596, -0.03183946127063844, 0.12104346849193916, 0.14457699230516463, 0.07649830028703407, -0.09794212678033838, -0.1539130846105709, -0.01838565012603395, 0.11786701494344733, 0.21882424309517542, -0.06724290895417855, 0.06526803511856182, 0.09322055758936532, -0.14069048829106157, 0.005561449319642926, -0.0009256056207713439, 0.0031737036810336188, 0.17493456415826603, 0.10109911025342287, 0.08748700012253018, -0.0729803947531272, 0.22645565505321685, 0.10370826861856043, 0.09722374393840733, 0.23782707678016515, -0.08597971460941954, -0.11397731199166747, -0.2120377152884232, 0.05386929484118721, 0.24652132962265255, 0.21127311903056845, 0.04643332171356231, -0.23559169874321126, 0.035793614080364466, 0.0791239664220042, -0.30893774546589725, 0.06402415715268321, -0.14398766918476064, 0.09170141513815172, 0.2486062735695593, 0.04170590803495179, -0.03834479001376674, 0.07767783395987304, 0.07917841309090912, -0.09459947055609912, -0.06633761597991368, 0.20995719283006092, -0.2609300166910394, -0.16335074808692868, 0.08818259631942327, -0.10222144927230713, -0.03166730791847509, 0.2541772732673433, -0.045788688397064764, -0.04332168594644737, -0.08447499276596564, -0.13368968019436886, -0.035868851330897907, 0.397019396250577, 0.21364347683768298, -0.04976195559170834, 0.22352620706265336, 0.022570428021002332, 0.037310330426476586, -0.1938133731021707, 0.16405848246778268, 0.05949879852380253, -0.041026667795203885, 0.0782139671527443, -0.16607751458791323, -0.1052103364665343, -0.16944593212289874, 0.13209099127887378, -0.002830026733844864, 0.35542993322432714, 0.29254398780743146, -0.08378027394439864, -0.12291811781205986, -0.417430299007637, 0.18087182695544163, 0.11025014769985045, 0.016271478396830488, -0.052389280967060255, 0.05264842601329584, 0.1949512730462015, 0.10470803214816693, -0.040325533068669206, 0.16034416836864931, -0.12095489894469247, -0.3364308440108602, -0.20963713611960721, 0.18763281438093854, 0.02823799579787972, 0.004593755197900433, 0.06208377700965909, -0.10744452078351893, 0.037117268046221286, -0.2978552231111563, 0.07736902373314562, -0.027149241024253788, 0.24155534315460936, 0.06344926978467988, -0.022317719326630455, 0.07891958081830709, -0.08361972394991038, 0.06808893067708602, 7.61714938713674e-05, 0.11558473176834622, 0.08869813798794189, 0.27816978443103113, 0.06926915975590266, 0.2015817092229207, -0.12752016532403015, -0.10704149949502977, 0.12097625627248733, -0.1282951465199875, -0.056170005488911025, -0.060719180030712, -0.13714949530810325, -0.11688201591956332, 0.16985149706211503, 0.10872246878973917, 0.3333632399987286, 0.22207113532880943, -0.10939107470975581, 0.1301466803104202, -0.0964225118264271, 0.10454569330473089, -0.035690546249024624, 0.051591165319951754, -0.08293529098858783, 0.13568232079563214, 0.056429076660336065, 0.12118309292433084, -0.32350679094866874, 0.1284489133925227, 0.01789147939242751, 0.009244751069059401, 0.03032156158306837, 0.010674666204736227, 0.0600693106555799, 0.12132340782503785, 0.09629662391928388, -0.0066311854441449495, 0.07802833079116225, 0.0037504688674433687, 0.08350469526248273, -0.2812789269041185, -0.0794104561728241, -0.01811915143159956, 0.19821763945210263, -0.2415472113007786, -0.0410591880610183, -0.20608592731407904, 0.0023882884861625526, 0.10663670338405018, -0.025773653064605474, 0.022068911644336615, 0.07407345838357356, 0.1223879154150185, 0.05219172799832057, 0.11960094276692572, 0.16571317871763358, 0.1268625702786103, 0.031654775282578686, -0.14956303295892684, -0.023142211062857975, -0.011886821626897269, -0.08096736003287619, 0.0763111566228794, -0.02954536819573757, 0.182155340222918, 0.014590886022896741, -0.09676184330735195, -0.2314137845744714, 0.11906767589591592, 0.04125340441912227, -0.06505530456249903, 0.07558863886179311, -0.028279009115149047, -0.1057508786049019, -0.0022697000855401357, 0.01809600683762339, 0.010369178414319221, 0.06807533936155977, 0.01675073867579206, -0.13378576936667214, -0.1317225248876476, -0.06803840722111168, -0.008287661230240355, -0.08428723426059186, -0.014704706973457016, 0.16700150411388995, -0.03570852448051351, -0.28009674323748357, 0.0881614500763787, 0.13595673740488445, 0.1984085925101261, -0.2770102068212431, -0.12747244255099602, 0.05019623363620522, -0.05420262303216271, -0.13762230219511426, 0.12254072351321195, -0.055687376768790244, -0.1352727178021938, -0.17541409367889707, -0.2691120711707553, -0.16021122570395696, -0.26139197808051867, -0.08468263006106871, 0.0002332566402646187, -0.10475645288112394, 0.10417873428720359, -0.07205082567964771, -0.0449290182782136, 0.18824364162873924, -0.2635850968013325, -0.14445485100945243, 0.08857949994548438, -0.12926242633171778, -0.0936160602901937, 0.02682662379899201, 0.3224651701726024, 0.2328263044962847, 0.022297322814263967, -0.023640501341905634, 0.35110154612281863, -0.22345828703350284, 0.02530739757488303, -0.1785891086882626, 0.1692078710795669, -0.12302984267979034, -0.12847643859515076, 0.08126169233641208, 0.16876131737412034, -0.09708822545587463, 0.028780002759850626, -0.005614990764371397, -0.29135011835320906, -0.12136655355208886, 0.24697897902747473, -0.1720424436274037, 0.15765993411500806, 0.010100962621215204, 0.06145023371288432, -0.0060647083917680766, -0.01629963743021778, 0.03561082227741653, 0.039117568705366104, 0.11830727793493237, -0.10897651420701586, 0.038599894400841855, 0.02125933490540032, -0.1915758248466251, -0.2130311664487187, 0.029304534748687383, 0.0221941651668173, 0.058953562189963435, -0.023383646049986873, 0.12133179011289195, -0.18155998658080139, 0.15329897926440803, -0.13121310056413463, -0.18213480092600887, -0.023509251716438046, 0.2382878745960358, 0.3040800585034543, -0.05557883225211731, -0.010949714948850053, -0.0561559889901918, 0.08734659372262094, 0.051910697531735286, 0.07020412658400892, -0.20083645486105786, -0.20380756841533468, -0.13551578227684263, -0.0006210745400402794, 0.1781050084777101, 0.04643257547895555, -0.06428200341113538, -0.042518133701744086, 0.23867035684961938, 0.06067368612973376, 0.42576467173263943, 0.27527965897590334, 0.21700528924960844, 0.04449789328979671, -0.03774860602817009, -0.18043163642667057, -0.145052800253975, 0.07822305368558832, -0.04191926416605089, 0.040752628549485914, -0.05436222636006815, -0.05529095392509673, -0.09704449342640928, 0.08789523276822753, 0.383608997865373, -0.04072329588705372, 0.023049469921074758, -0.24262544833412708, 0.22007232536183882, -0.1252624119351074, -0.0638126971613412, 0.017268441697926577, -0.08327249214812715, -0.059638662801838195, 0.2589083159057893, 0.18587908476662102, -0.126322138540179, -0.12279344806755416, 0.1197584484553516, 0.03721506152267614, -0.04632299736443108, 0.0483654479436266, 0.1415558769813313, 0.2555219592472248, -0.08080031890965694, -0.16003879404858692, 0.3583538853013443, 0.10633841576287335, 0.2550629393238354, -0.18786271473745222, 0.16752423343448938, -0.03408712158243135, 0.07082825885996667, 0.08897619000344106, -0.05078632709862644, -0.0504709293852465, 0.11718608930794995, 0.25736603515387807, -0.15134387263081447, 0.21196484126989165, -0.06576427122196819, -0.10352576427759567, -0.18149042484819367, 0.05160123692207232, -0.2544117607618694, -0.08939509769722281, 0.10922528297776427, 0.13346022984719674, -0.1468135634777184, -0.07857416091428868, 0.22214168829266237, 0.3225661673714369, -0.2846864640987775, -0.1988850851431858, -0.02535129340743624, 0.23525005590164444, -0.20907848880314076, 0.14108188616851638, -0.14639740964376918, -0.19128131769967582, 0.08978993424635183, 0.14608410197860122, 0.02876371044645139, -0.1269113289931606, -0.1261095098650717, 0.033919002835363005, 0.08168889802915415, 0.10096691476153827, 0.13022401564374447, -0.059825684628501984, -0.008109036898617628, -0.14168296751820778, 0.06881629244006311, -0.015382624572468574, -0.2096629933764991, 0.1970215928208938, 0.09027022403425972, 0.018502262881811223, 0.034128225054146866, 0.19461504820832676, -0.03356278530786938, 0.07320267348586973, -0.20928904134472853, 0.34958471886798886, -0.019597967484624928, -0.058891381561107785, 0.03374021827201514, 0.4214862004805363, 0.2596682488406245, 0.21157810875366048, -0.34004675133685697, 0.18115747344838856, 0.082516758772966, -3.825712088782097e-05, -0.012808838945369602, 0.078352115896396, -0.1511161938447988, 0.00563002071276749, -0.11593836368863084, 0.030855405817871353, -0.1143433619286945, 0.05550199998967184, 0.006299094445523745, -0.014928368697293262, -0.17501409546364427, 0.1611275998039315, -0.19936688845435221, -0.04227809120133436, -0.013126890740124575, 0.020226672717927458, -0.06504875344914876, 0.142460860587798, -0.19141468713738496, 0.07443230291897107, -0.16701028304131504, -0.12562206623043518, -0.06445770827121548, 0.1584720008218833, -0.19634935774159742, -0.07861519009091862, 0.17951937227040632, 0.2724937762901168, 0.1492191384748787, 0.4292801905749838, -0.028906411737913605, 0.09193466472182132, 0.4807128973939349, -0.01718627416820987, -0.06123343402474668, 0.08599406634544063, 0.03967200212831562, 0.279462833753905, 0.2835340621700207, -0.21886501163399105, -0.24205812499657212, -0.07733460566378884, -0.11244711996455858, -0.08749884417080567, -0.059121275083028134, 0.13430019309432517, -0.0004959170480540174, 0.11932149571275649, -0.13025031091184186, 0.09949740398090175, -0.1008564454783916, 0.11345672717848597, -0.11704992273680469, -0.08493290663809101, -0.07892760411404216, -0.020086953429590583, -0.09635400609051109, 0.08535512743699539, -0.023138452047427552, -0.038973817483259565, 0.08890258082979767, -0.08361537192878468, 0.16388380502298802, -0.29459668327374006, 0.2290744828373064, 0.04746886377680139, 0.012316801188470122, 0.053588858472052255, -0.1520712844018572, -0.015541063085218996, -0.3858137516410634, -0.13239894340012592, 0.133854239489442, 0.08850592028512047, 0.022791891285489266, 0.015433745440627887, 0.2395332976003061, 0.16257780847490708, 0.3161990074721103, 0.03048567705510495, 0.021773685796845164, 0.20318160844742114, 0.04129752848467748, 0.15308072255925356, -0.1660590450608656, -0.1602351092306311, 0.18665481641824808, -0.16611232715489066, 0.029677396930303832, -0.029851255270661525, -0.21249963908684547, 0.09700759692785277, -0.10648219543984962, 0.06367574788090447, 0.19399050500939183, -0.12073770959357291, 0.0010654153558901128, 0.11498615305807702, -0.17705589810707373, 0.14454775743759826, -0.07446552196215635, 0.07050963268646258, 0.08217656454150848, 0.11456722502761062, 0.023830987547229943, -0.08289408598885986, -0.2311121501520078, 0.2024814724481506, 0.22388652316580082, 0.062109274915721005, -0.21916544644973093, 0.02529801771094815, 0.1477625658709737, -0.2032476918994165, 0.011986686001171825, 0.07295834562889633, -0.1751414719651111, -0.3729052070239072, -0.2698821556731681, -0.07445405637779325, -0.07977502342885115, -0.09486433091195644, -0.1950543819813779, 0.314152818519328, -0.09327497928892789, -0.08416214850280673, 0.13360326848572235, 0.024283373726459806, -0.10166757976005882, 0.1446554349087829, 0.07317959545734043, 0.12377846580546885, 0.13017587470279718, -0.16771608330095697, 0.08246529769643005, -0.37596977973909756, -0.02027471118092848, 0.018426006806149847, 0.057964938812558243, -0.015628837626766662, -0.09607673761336674, 0.08917199370698635, -0.09279863231160616, 0.21439411672327108, 0.030189892017448677, 0.15479457265934446, 0.037401951050597404, -0.06667003742192541, -0.25779147034109784, 0.11279772146558321, 0.2674026721358477, 0.23117964679414804, -0.0686754263576787, 0.005266253066275938, 0.07327054558339087, 0.06977428476112978, 0.0707722773971662, -0.08790364007441193, -0.031569158396661655, -0.021771179497196508, 0.07712913903614081, -0.08873390255784075, -0.2408240596088757, -0.11530159596042973, -0.09798704695576661, -0.006700880333536616, -0.030658390297341374, -0.2456065901003348, -0.1418283428011761, -0.056419130618082944, 0.2195030897541235, 0.3596813115693313, -0.08342072811025118, -0.10738264821583159, 0.05021116060926754, -0.0021130407448638555, 0.01238294774954306, -0.017423505140377705, -0.008915199371218797, 0.16169677839383026, -0.20674512821507254, -0.07065678208938238, 0.27457562129297897, 0.3263417987312905, 0.16992610859080795, -0.05141473391176424, 0.18148975801639256, 0.1880899034623474, 0.15581860300727993, 0.20825488153784033, 0.0865641951236595, -0.006539943337955507, -0.13935988383805467, -0.007038810172394623, -0.09692755520359506, -0.14145659304871297, -0.12651344905945275, 0.34077324597804476, -0.21159682967399196, 0.053354451169916245, -0.013739432473930628, -0.13945990940169206, -0.22374297105580906, -0.0009168337054947336, -0.18665722684963076, 0.09781213464005013, -0.07491198150039244, -0.09835510939587966, -0.39230377610048284, -0.13067683718722067, 0.04188856860659236, -0.019442798452118246, -0.14070248992141288, 0.11367017759364058, 0.15430652279958806, -0.0994711104910695, 0.02203969325791843, -0.028540693357124034, -0.03256945781651688, -0.1635052082104273, 0.14560028325220817, -0.04589532576358446, 0.2052853550018096, -0.4149509514913752, 0.10748919707465478, -0.1315428888750241, -0.19705371640745223, 0.13024438249105524, -0.11396703832295003, 0.261447074909757, -0.01448300374160741, 0.2093853210007707, 0.01797385484430505, -0.05218025730192472, -0.21888496427107226, 0.12918320999807567, -0.044645409316879506, 0.10813517566880737, 0.290160358929228, -0.16770844549038777, -0.08551783162213426, 0.1696893752448275, 0.3029304038644371, -0.02479632444120904, -0.14428832071151054, -0.01457358781145934, -0.006372550668594768, -0.2074320636783883, 0.02145445451731047, 0.13003896210392402, 0.0383526337087051, -0.06778079614130036, 0.034430634151299065, -0.2879783270042151, 0.14848902958600524, -0.03707211130572493, -0.06652884141853063, -0.36134921204864845, -0.0023215328476438326, 0.06304193655615216, -0.1435464269018797, -0.09519632266303503, 0.047797231926997, 0.0969714233370488, -0.2890010934614619, -0.05129962716918886, 0.014539736674785635, 0.07439686316871545, 0.21087785708655224, 0.322367712401389, -0.1699330629619397, 0.21939710707689383, -0.03144809874605451, -0.06340118799664157, 0.005197522812726712, -0.00031807957116497515, -0.07766261781797774, -0.07429932381540473, 0.08063026567116333, -0.24482071385108795, -0.1753570639204031, 0.22921751100596244, -0.14130602052440983, 0.004690286361841408, 0.01909755615683755, 0.022343153409045798, -0.04533653951725482, 0.28712727044795106, -0.008388496130682162, 0.2107482472390308, 0.01828914853687211, -0.2612323902144083, -0.0516326983548533, -0.1880549520100695, 0.3403893250634936, -0.10150917109204181, -0.23128512703837908, 0.027985300802450836, -0.2795479954459389, -0.134973513621838, 0.12728914887772344, -0.06460714091533634, 0.357431447947423, 0.005406972528996437, 0.09822420622084314, -0.33702944168221644, 0.1034718203617941, 0.010891344295803865, 0.04863634482937025, 0.16828940295455283, -0.04166077257942366, 0.018986898815781993, -0.10943261167034858, -0.038232444004887754, 0.16183002136980956, 0.14185834154307428, -0.11883929078156137, -0.03449530366656294, 0.009299975395574861, -0.24740152181895148, 0.05312417726774219, -0.15371900802228258, 0.08053041304630369, -0.10524562787983262, 0.08333457814647259, 0.2480049704666056, 0.18002397912545667, -0.0689855188260873, 0.2864647288527174, 0.03034899776272138, -0.16820393344049686, 0.27801215527654544, -0.08147301339671459, 0.2284066002036926, 0.06478857206229775, -0.04448916744567984, -0.3227970481265881, -0.0170355619022645, -0.10706896856858474, 0.032021475731604944, 0.019412788275747234, -0.1930573512354895, -0.1424802604733646, -0.24625758295707526, -0.017603815778952203, -0.01468033453168992, -0.13060718367202165, 0.09437392119698049, -0.06578045634793805, 0.006931744225438744, -0.018570191679273353, -0.22795235780288953, -0.016672220154987975, 0.21262808281130507, -0.26997318602620934, -0.09840616919289391, -0.0712354946384035, -0.010029539303586318, -0.050015697561571495, -0.1202775517495703, 0.2289425294913912, -0.13498252460933138, 0.021028586776033767, -0.06188100515537037, -0.06480777034517195, -0.17253861987507693, 0.03179978026256097, 0.0042190678420496956, 0.2767911075433903, 0.15855370207647934, -0.06150105900101642, -0.013702841105233326, 0.25805063770456377, -0.1414759969720176, -0.16012974650349118, 0.06689260630290714, -0.06866850054079278, 0.07068676237646584, -0.08371606689968925, 0.044912630792643383, -0.04217458467416126, 0.14121854267890602, 0.13795910576522208, -0.09790651595036233, -0.21445858917327684, 0.030986204920258362, -0.009226724137748579, 0.16784752162671254, -0.12308070181062016, -0.09749448355724842, -0.3029408477407951, 0.04355019405198021, -0.1424200740864123, -0.03069202236812811, 0.008044234153313312, 0.15878450470185648, -0.15662540405523404, -0.2592255958690968, 0.17438569065039042, 0.09228644619437218, -0.16022858653716174, -0.05457908980594421, 0.1589456948794404, -0.13517561212777418, -0.11929061594022691, -0.11101577547378788, 0.22481466832627767, -0.08743415332196965, 0.015725526289241017, 0.007682294685471584, 0.14854906745376234, 0.10396751193667372, 0.08229885950310466, -0.05826122790844198, 0.15574200427088666, -0.2002190310595339, 0.05122974797383548, -0.03334123071847955, 0.12006100109396645, -0.31123979062871415, 0.10269491936994857, 0.1814194685108463, 0.00280056365371659, 0.1706526387104523, -0.23295592878488477, -0.2209402058478251, -0.17005624589993423, 0.040257902831456756, -0.18336538248452272, -0.07162371762254205, 0.24215575725341923, -0.18114847130122583, 0.1791172050717571, -0.13312385964833318, -0.035104245540719205, -0.11427620547328914, -0.07889789231670231, 0.16076138203230683, -0.0957342845613989, -0.05305199139517165, 0.042347204600245304, 0.144908779318568, 0.011284330104699024, -0.0594780005362464, -0.008067142813074187, -0.01877479300715001, 0.16414413758649252, -0.10840336642779523, 0.18268635276972767, -0.10016357220300999, -0.18834795002290536, -0.035351241164000284, 0.28316630462150255, -0.14745636241799506, 0.011138771284704743, -0.009306899457444794, -0.31812485543749935, -0.07147807350475106, -0.011505285833555826, 0.16282903979118402, -0.0339421152358554, -0.05805158694901922, -0.011384594783709028, -0.2819572604255888, -0.010753398243176303, -0.003025923834298906, 0.15315523274598095, 0.08219779673874099, -0.039950530768036695, -0.06854638028275131, 0.06783112718439951, 0.15113916343467146, -0.16683294466572746, -0.08529745470826282, 0.11128617922677769, -0.055705627853046065, -0.06697310672851141, -0.07288856841850543, 0.037575480753970915, -0.02781458658494436, 0.09601541291540393, 0.12081459517121139, 0.01317772970560164, 0.13602984133395907, 0.08227264432346594, -0.04265250904507324, 0.021515294694764965, 0.053278246415861145, -0.20931101529829974, -0.021994674526095364, -0.25960793553356204, 0.16113326125240346, 0.0030889868402147872, -0.0656773449906448, 0.1338986895088075, 0.20447840256060595, 0.04873034330351165, 0.2682935752027371, 0.2697466123611011, 0.029830082695647395, 0.08276617180606118, -0.18696238385164624, 0.04817048606832509, 0.09282985126925516, 0.2177412496145092, 0.06043450265779835, 0.1789640206459274, -0.3397856458554554, 0.15774405056942087, 0.24786313645328792, 0.025971481846462103, 0.030071979039815008, 0.0125531198160836, 0.32584456364538184, -0.13899557739081214, 0.1316890439965683, 0.30499482667749567, 0.024382024595298334, 0.1912595869571521, 0.1375934881114599, 0.3148916670152288, 0.0816921626193889, -0.10101281489405786, 0.23483537940596438, 0.0014737371126444148, -0.023860159140939162, 0.342214908977483, 0.01205586776801089, -0.05990920525649664, 0.05988162307333686, 0.20008422640108006, -0.01083571476020107, 0.07927291147418691, 0.19804977656602693, 0.02401455497757279, 0.18569365293421405, -0.020078417904841727, -0.008351680534026167, -0.12382212265947436, -0.10968872529295848, 0.21228946830991335, 0.1762050232648642, 0.06354216151937205, 0.21878105599180356, 0.28529056419828047, 0.09415664272815816, 0.15128341049916627, 0.02934377046050653, -0.20235516352559696, -0.041039659470245245, -0.14561504032586509, -0.00560446837658802, 0.15741033194155804, -0.0015422447953585784, -0.03245283747259318, 0.09344291888687997, -0.20743273227318615, 0.08312662490528157, 0.2650024139755509, -0.41896510621895, 0.23559899486370575, 0.0796084593433411, -0.12135571380262969, 0.17028516449444836, -0.185078565267946, 0.014777886445676004, -0.2821705732940158, -0.1086575768162055, -0.044589271190644944, 0.010403241149171601, 0.011547599713529979, 0.3559561441995325, -0.1102529737421184, 0.12160825272281636, 0.03627402273515607, -0.32611645815889745, 0.028971364436285358, -0.03310097317899186, 0.03865162581516616, -0.11359853678981542, 0.012445067215240826, 0.04740519557475532, 0.060310046128896615, -0.012266271249343094, -0.06061151941240571, 0.018881861457068664, 0.2840491883831014, 0.09867326155808546, -0.09411919743686777, -0.14021141874854687, -0.14376629602077223, 0.36457949375362136, -0.13995089030396174, 0.07345378000371844, -0.12581036365566534, 0.21717020358634284, 0.13550505242741762, -0.1403740763810805, -0.01758732420657546, 0.1893433818979605, 0.18824858314553838, 0.19218585288439968, -0.011315165400997518, 0.18801082858451126, -0.007421499339912732, 0.1524686509952381, -0.1677256384103318, 0.036068832225068494, 0.07667189880048131, -0.013347527691697387, 0.07662928098194213, -0.2134780307211401, 0.10496959069127328, 0.0877897856391772, 0.09775416663172565, -0.05986090946890969, -0.21984676668490885, -0.12093017504399693, -0.4052597083145873, 0.1358863864085362, -0.2749996972600668, -0.20791811632156268, -0.3201842156662819, -0.281409228849305, -0.052305613297568845, 0.06074613894113499, -0.13492583416549905, -0.12705966685021658, 0.19877580406704917, -0.246549613356438, -0.11830758653332811, 0.1306642942048452, 0.2535432538655013, 0.3854974927783789, 0.030559638179618077, 0.0720783248310023, -0.1298742693202824, -0.021712910322427316, -0.005615527091044293, -0.15792346667049528, 0.2354264082305576, -0.0638409042432926, -0.048193483075882504, -0.2015347609388924, 0.06423089224151486, -0.18590813058984673, -0.03648467705960903, 0.1496549003392739, -0.21687921570486843, -0.052926654156420665, 0.4980963748988869, 0.09237598240971147, -0.2886982889863891, -0.2846551593335219, 0.04022476301595439, -0.03375746857282911, -0.024776840014548867, 0.1207858212025649, 0.0038352834697166858, -0.15834006145944046, 0.019295150186164896, -0.13170495172239585, -0.25946906815312015, 0.13342617890804412, 0.15784181259633576, 0.10289372518256441, 0.15719867392962006, 0.16714987448042398, 0.07148206125909212, -0.08925830423632304, 0.14695701759933674, -0.1795028570234107, 0.029713224872066457, 0.22761154598876887, 0.2031301018651656, 0.08914526940677549, 0.004863875844025016, 0.07974754494051323, 0.14542143872853355, 0.4244350533131537, 0.10565301040763869, 0.1318717806018462, 0.15969557096194162, -0.14055341964802937, -0.01331806630757315, -0.1700671757796022, -0.0634961144226231, -0.2081090633581787, -0.057053071991417376, 0.1455861528507412, -0.015307983284542486, -0.16728815647348494, 0.19923363901983002, 0.0723965315734872, -0.24897766370141955, -0.14349079363451728, -0.24620716655127386, 0.15502729176799637, -0.035106084798726914, 0.25487955787615924, 0.1705949510483821, -0.1422739492118685, -0.11951180113406097, 0.12174825184576742, 0.0862293519995905, -0.025819335366881208, -0.2398697312215561, 0.11220063612694908, 0.05362816191159761, 0.17296119372313185, 0.03193890471653329, -0.03507619921131397, -0.061629692372826686, 0.07560569670798879, -0.25563535139444976, -0.0336104308396645, -0.04880693948298472, 0.25899514274264696, -0.15725795645394902, 0.2504451114427573, 0.13576268451846024, 0.14768695076168264, 0.19290727558833598, 0.22837106752828362, -0.260537649779174, 0.007786213642798861, 0.01084929527526872, 0.012674305491961288, 0.04992988516530775, 0.15082501886308586, -0.19756115811590028, -0.12813906869313532, 0.03304263821048221, -0.08026011245782484, 0.041043407910990086, -0.061395910397184776, 0.05958542771365824, 0.17655557123153282, -0.12038356752375237, -0.09971137786107515, 0.18376234431045352, 0.23300628792159095, -0.16561317195161945, -0.1893451429632093, 0.08491726084896507, 0.06742409436586774, 0.07574270038507702, -0.27133935023436023, -0.06110120253962554, -0.09793783660001805, -0.0361987060920195, 0.1335926203231379, 0.07381831792902002, 0.21377260416207752, -0.09394828260399972, 0.10497330131882832, 0.36663583988683657, -0.1596569371074723, 0.2580870645526319, 0.14018533044515624, -0.06947382676062096, 0.003532765165292372, -0.10423211402760865, 0.3889730577878529, 0.002582088478899497, 0.1239889195660855, 0.0411307588696504, -0.18914636971879992, -0.11461226318091351, -0.16681393195953137, -0.00668013653245066, 0.13771073556549476, 0.012529722168006121, -0.07569288871632851, 0.013937237124193301, 0.20145275710178467, -0.11455462058147962, 0.004733024760851765, 0.03730847011281493, -0.40287973454684994, 0.21660902392729423, 0.0003969583986786555, -0.05252276249082356, -0.00012745715335625257, 0.26460117909748143, -0.15061015529080218, -0.11211932039678026, 0.24585245620877308, -0.04575658285841145, -0.041982438050172204, -0.24967334439706834, 0.11771582054242345, 0.04238981063258092, -0.07298410233006311, -0.2951909330676102, 0.13099370846310207, -0.14788066423662877, 0.15243022310796833, -0.25481438737412715, -0.15241115073337003, 0.03330159609512395, 0.2530620164930082, -0.11092056018039485, 0.13665253463718857, 0.21333462054624486, -0.13581324339838602, -0.11546169047292894, -0.14539811292440113, 0.08895732795134555, 0.22045405461197293, 0.246935182406214, -0.12879551517672314, -0.14078386162556422, 0.03766434177567908, -0.02911608006687349, -0.25795085939578266, 0.02605335896654734, 0.15064454399168367, -0.06545397489118895, -0.07009422898110253, 0.1768832337893635, 0.2198155515555237, 0.18172402421682782, -0.14336799912635845, -0.06780734454912618, 0.18256581922785473, -0.033684109007612616, -0.1967144560135168, -0.1292780533351063, -0.14909173580503252, -0.16746703018603826, -0.13763836179024325, -0.02803539457069907, -0.1686681094754471, 0.3256661755903149, 0.17960789519535686, 0.022541098732637686, -0.010714567080681383, 0.07532641946535301, 0.09122083443149011, 0.013827608089275797, -0.04362773083170991, -0.10821971048729806, -0.1838872596759098, 0.12667162543478325, 0.13340977297225762], "policy_b1": [7.789793750363618e-07, 2.5083287492367966e-05, -1.729222055271308e-05, -3.3882941372709722e-06, -0.00014297500616249255, 3.273931148149593e-07, -1.5591284520677633e-08, 7.267148790733736e-05, -5.60986766263008e-07, -7.011714171791538e-05, -4.982877901258268e-05, 4.656975196042596e-07, -1.0744989430925826e-05, -1.0352760915023018e-06, 2.1111078629726494e-05, -0.00012071210502395965, 3.25464992435442e-06, -2.238076293173041e-05, 9.485441298999177e-06, -1.9378825324194495e-05, 0.00027112893905829964, -2.3087730682231504e-06, 0.0003979470536797317, -3.0569441123401196e-06, 8.899027400836219e-07, -0.0002065569322239165, -0.00010375594275728128, -1.5245732713424186e-05, -0.0007617414142474888, -6.849853364278984e-07, -0.0001817449704800264, 2.9274851925017877e-19], "policy_W2": [0.009788227017244234, 0.03831604274460605, -0.05911967088489171, 0.1330115635550372, -0.18341637940926436, 0.053926585175587516, -0.006428669649092216, 0.12042004964524652, -0.050379574832677305, 0.12567040121263406, 0.033797817282017716, -0.020566675577511646, 0.07861157558027818, -0.2958758602142234, 0.21326488584038172, -0.218879142912452, -0.22371800079085158, -0.19016088481222657, -0.18004326018501404, -0.04676296853544133, -0.6341444984241831, -0.003856185574940105, 0.33064497257867187, 0.049016276677181864, -0.0027468730969427923, 0.4248256728567378, -0.3365593395645741, -0.11675664145002379, 0.3040152499156432, -0.02588299632599593, -0.22776968789144658, -0.4584143985072719], "policy_b2": -6.3515690713725695e-19, "policy_temperature": 0.3}