{"type": "alphazero_linear", "value_weights": [0.0, 0.0, 0.0, 0.0, 0.0, 0.0, 0.0, 0.0, 0.0, 0.0, 0.0, 0.0, 0.0, 0.0, 0.0, 0.0, 0.0, 0.0, 0.0, 0.0, 0.0, 0.0, 0.0, 0.0, 0.0, 0.0, 0.0, 0.0, 0.0, 0.0, 0.0, 0.0, 0.0, 0.0, 0.0, 0.0, 0.0, 0.0, 0.0, 0.0, 0.0, 0.0, 0.0, 0.0, 0.0, 0.0, 0.0, 0.0, 0.0, 0.0, 0.0, 0.0, 0.0, 0.0, 0.0, 0.0, 0.0, 0.0, 0.0, 0.0, 0.0, 0.0, 0.0, 0.0, 0.0, 0.0, 0.0, 0.0, 0.0, 0.0], "policy_weights": [-1.159322731271273e-15, -2.4432973005916774e-15, -8.451876351567338e-16, -3.735389818640383e-15, -5.224037839586524e-15, -4.119414180323715e-15, -1.2843621671468247e-16, -3.5905507418012326e-16, -8.954200855310247e-17, -2.871676107394812e-16, -3.0517558965992168e-15, -1.1157004140005557e-15, -3.877297788390553e-15, -6.383955863942252e-16, -2.5441627971023524e-15, -3.776139393180654e-15, -3.6966436856023255e-15, -2.7078421571337653e-15, -3.9557711542337555e-15, -3.8716733145231465e-15, -4.0856333881383296e-15, -9.294995328978907e-16, -3.7807083852481584e-15, -7.0598561718870525e-15, -5.396412483538186e-15, -4.827735433643444e-16, -2.032575496802027e-16, -5.146230663832805e-15, -6.754093812011365e-15, -7.0598561718870525e-15, -2.1181459150374243e-16, -1.6571450548046233e-16, -4.223583288665041e-15, -1.9277635043835144e-15, -7.350023367713731e-17, -2.1674328998244687e-15, -5.2999093731346176e-15, -5.3222297998160295e-15, -4.178465947373165e-15, -4.301292800924351e-15, -4.1112946380650345e-17, -4.7181009099617025e-16, -7.729927808952657e-17, -1.1017207809694812e-15, -1.3500971690556648e-15, -1.4953987273563873e-15, -2.2142131904117183e-15, -4.401730294929311e-15, -1.7365737883315308e-15, -1.4896727562606397e-15, -3.1639352264304316e-15, -2.5951461856444744e-15, 0.0, -3.231331360302381e-16, -2.230922576258431e-17, -2.3522740219962317e-16, -6.158571916325914e-16, -1.471912869366321e-17, -4.501607420159817e-18, -7.685518887967636e-16, -2.1246405242786275e-16, -7.100511178375136e-17, -5.605619321589362e-16, -3.1741276274033576e-15, -3.1384889646988444e-16, -3.196119431076181e-16, -6.621959924846245e-16, -3.8353513488842825e-15, -5.987249973623146e-15, -6.784847548764124e-16, -0.19174229348760952, 0.1544406684566301, 0.025672425857733175, 0.163074902441718, 0.4461687742154053, 0.9086664482343529, -0.2419966444375222, -0.2620268553182611, -0.2652733037207616, -0.7369841222416925, 0.2514379098824177, 0.17770091845981625, -0.07035390585268116, 0.290848842259161, 0.28524157788813087], "policy_bias": -7.033228166530864e-15, "policy_temperature": 1.0, "benchmark_win_rate": 0.9333333333333333, "benchmark_epoch": 6}