{"type": "alphazero_linear", "value_weights": [0.0, 0.0, 0.0, 0.0, 0.0, 0.0, 0.0, 0.0, 0.0, 0.0, 0.0, 0.0, 0.0, 0.0, 0.0, 0.0, 0.0, 0.0, 0.0, 0.0, 0.0, 0.0, 0.0, 0.0, 0.0, 0.0, 0.0, 0.0, 0.0, 0.0, 0.0, 0.0, 0.0, 0.0, 0.0, 0.0, 0.0, 0.0, 0.0, 0.0, 0.0, 0.0, 0.0, 0.0, 0.0, 0.0, 0.0, 0.0, 0.0, 0.0, 0.0, 0.0, 0.0, 0.0, 0.0, 0.0, 0.0, 0.0, 0.0, 0.0, 0.0, 0.0, 0.0, 0.0, 0.0, 0.0, 0.0, 0.0, 0.0, 0.0], "policy_weights": [-1.941218184196039e-15, -4.277047466194544e-15, -1.5589612933908379e-15, -6.52035608665603e-15, -9.26557471187981e-15, -7.432250686501247e-15, -2.1078941932204978e-16, -5.817629524896683e-16, -1.6956932142068585e-16, -4.442294784895867e-16, -5.474344935696383e-15, -2.0103883835442998e-15, -7.542941965477076e-15, -1.2515509462129873e-15, -3.703374412689086e-15, -6.873499010029316e-15, -7.270746504861535e-15, -4.697108900635458e-15, -6.974449844613175e-15, -6.669743420460935e-15, -7.067780235716826e-15, -1.7776882396680574e-15, -6.871343771752664e-15, -1.2497867324379077e-14, -9.393943956048652e-15, -8.674831686317201e-16, -3.438221929386031e-16, -9.025870328915849e-15, -1.1905840896497712e-14, -1.2497867324379077e-14, -3.824857630283689e-16, -3.444699500360983e-16, -7.68104980661249e-15, -3.588813274335556e-15, -1.2717257802385963e-16, -5.333249033373479e-15, -9.428461390586706e-15, -9.4498240114695e-15, -7.404141632489258e-15, -7.646185299695701e-15, -1.1288279339050106e-16, -8.665637651894535e-16, -1.4131057435307077e-16, -1.8131559400548728e-15, -2.1758620475642585e-15, -2.676391708360885e-15, -3.860118383961404e-15, -7.917658143864495e-15, -3.1758375466940212e-15, -3.0539968489686923e-15, -5.818441570966012e-15, -4.690347464683552e-15, 0.0, -5.248788060149807e-16, -2.230922576258431e-17, -2.3522740219962317e-16, -1.1438506392069604e-15, -2.4403222498303723e-17, -1.7217130499069805e-17, -1.4487022692577478e-15, -4.631044218895634e-16, -7.100511178375136e-17, -1.095154105205597e-15, -5.765075916652818e-15, -6.458988222196376e-16, -5.575803545124731e-16, -1.2786820213772627e-15, -6.742686061216228e-15, -1.0739958871040365e-14, -1.0600010024051733e-15, -0.2753219808987285, 0.16555163325880037, -0.03028265459958721, 0.10608003989881148, 0.4914295498694805, 0.9520753281082076, -0.23572825522666765, -0.19896207270202185, -0.21484651978190858, -0.7599950679263888, 0.22527594624836744, 0.2108844612895532, -0.14364025597600757, 0.37541726518943497, 0.3652401881925261], "policy_bias": -1.2505482760438896e-14, "policy_temperature": 1.0}