{"type": "alphazero_linear", "value_weights": [0.0, 0.0, 0.0, 0.0, 0.0, 0.0, 0.0, 0.0, 0.0, 0.0, 0.0, 0.0, 0.0, 0.0, 0.0, 0.0, 0.0, 0.0, 0.0, 0.0, 0.0, 0.0, 0.0, 0.0, 0.0, 0.0, 0.0, 0.0, 0.0, 0.0, 0.0, 0.0, 0.0, 0.0, 0.0, 0.0, 0.0, 0.0, 0.0, 0.0, 0.0, 0.0, 0.0, 0.0, 0.0, 0.0, 0.0, 0.0, 0.0, 0.0, 0.0, 0.0, 0.0, 0.0, 0.0, 0.0, 0.0, 0.0, 0.0, 0.0, 0.0, 0.0, 0.0, 0.0, 0.0, 0.0, 0.0, 0.0, 0.0, 0.0], "policy_weights": [-1.9885314837483855e-15, -4.384457207018327e-15, -1.595576969160019e-15, -6.722540276185472e-15, -9.568089208622463e-15, -7.672408836893446e-15, -2.243834341518752e-16, -5.98385948668546e-16, -1.7904191109839705e-16, -4.625964943310366e-16, -5.665155844436431e-15, -2.0562371250143634e-15, -7.869503659829636e-15, -1.2966884510579034e-15, -3.794985159455427e-15, -7.0908235746777216e-15, -7.563220882911132e-15, -4.856516918359345e-15, -7.22251165943616e-15, -6.88822892846684e-15, -7.312971142479359e-15, -1.9056327696387286e-15, -7.142793301273515e-15, -1.296117727034287e-14, -9.717643356665854e-15, -9.126380207113965e-16, -3.661827785439445e-16, -9.360880126596404e-15, -1.233421351165534e-14, -1.296117727034287e-14, -3.993696030033535e-16, -3.5634918054552587e-16, -7.9461806058721e-15, -3.728844490125099e-15, -1.3754622441020092e-16, -5.572515105606277e-15, -9.761827165079395e-15, -9.771212926435251e-15, -7.667883407829607e-15, -7.922756608749659e-15, -1.0545384010463042e-16, -9.464130867886671e-16, -1.355512924128278e-16, -1.8746601966714645e-15, -2.262407350958753e-15, -2.793470431921539e-15, -4.038258988476432e-15, -8.159451745471179e-15, -3.277790531865013e-15, -3.1425297998772318e-15, -6.068572788923105e-15, -4.893740666690259e-15, 0.0, -5.421332440802131e-16, -2.230922576258431e-17, -2.3522740219962317e-16, -1.2465983106890648e-15, -2.2920033926343558e-17, -1.6557935578198617e-17, -1.5557347077255192e-15, -5.181359491847679e-16, -7.100511178375136e-17, -1.1375464101497786e-15, -6.0719311523183484e-15, -6.677117502026027e-16, -5.817712809080422e-16, -1.3220501082766853e-15, -7.000986657839675e-15, -1.1137015255122627e-14, -1.1083932144092553e-15, -0.30728967878848606, 0.20892020952491575, -0.0066619128746332286, 0.09625934860728193, 0.48624884501339377, 1.0075291199262604, -0.2592330573291535, -0.2548239653687651, -0.22749864876366718, -0.7434502599471475, 0.2178485659762468, 0.21203411835710204, -0.171233275908762, 0.39846526644753766, 0.3621266511756378], "policy_bias": -1.2953822042805059e-14, "policy_temperature": 1.0}