{"type": "alphazero_linear", "value_weights": [0.0, 0.0, 0.0, 0.0, 0.0, 0.0, 0.0, 0.0, 0.0, 0.0, 0.0, 0.0, 0.0, 0.0, 0.0, 0.0, 0.0, 0.0, 0.0, 0.0, 0.0, 0.0, 0.0, 0.0, 0.0, 0.0, 0.0, 0.0, 0.0, 0.0, 0.0, 0.0, 0.0, 0.0, 0.0, 0.0, 0.0, 0.0, 0.0, 0.0, 0.0, 0.0, 0.0, 0.0, 0.0, 0.0, 0.0, 0.0, 0.0, 0.0, 0.0, 0.0, 0.0, 0.0, 0.0, 0.0, 0.0, 0.0, 0.0, 0.0, 0.0, 0.0, 0.0, 0.0, 0.0, 0.0, 0.0, 0.0, 0.0, 0.0], "policy_weights": [-1.5080950969855117e-15, -3.266180728656027e-15, -1.191126190736024e-15, -5.010881033023984e-15, -7.0933976938084935e-15, -5.642973401341186e-15, -1.5563539332791918e-16, -4.630891854212011e-16, -1.2185195750634024e-16, -3.589834135218855e-16, -4.1831208635878166e-15, -1.549021327873511e-15, -5.539561864775831e-15, -9.607072082307178e-16, -3.0255659089206777e-15, -5.1498869461359206e-15, -5.219644161336172e-15, -3.6087195192428396e-15, -5.326274532884554e-15, -5.164617960422305e-15, -5.44456519982195e-15, -1.3386384015157066e-15, -5.2469660560827984e-15, -9.525834981927075e-15, -7.27190876959053e-15, -6.552050568764384e-16, -2.608330218478734e-16, -7.002332741423706e-15, -9.081294743973216e-15, -9.525834981927075e-15, -2.700617946799032e-16, -2.413910209089787e-16, -5.8013403109180326e-15, -2.6577091222224007e-15, -1.0472525624471988e-16, -3.608443838870593e-15, -7.168951259658542e-15, -7.22602221249989e-15, -5.658520272964776e-15, -5.780174616923541e-15, -6.888153242234905e-17, -6.858055789926684e-16, -9.187095528773187e-17, -1.4072740041753092e-15, -1.733087164974187e-15, -2.0088222087391137e-15, -2.9229051676523966e-15, -6.023594194688663e-15, -2.391891250715213e-15, -2.1997467693987437e-15, -4.325437087816374e-15, -3.5165282629956475e-15, 0.0, -4.2494665510888316e-16, -2.230922576258431e-17, -2.3522740219962317e-16, -8.795048023202315e-16, -1.5599500857721443e-17, -1.186550857568136e-17, -1.1333642357946813e-15, -3.5098782062183046e-16, -7.100511178375136e-17, -8.632863575473046e-16, -4.381234958161849e-15, -4.493845018325284e-16, -4.342275901488648e-16, -9.70369617991903e-16, -5.1113818522047695e-15, -8.166161965592669e-15, -8.030495852710525e-16, -0.24088835720501856, 0.20268726661924077, 0.05983905731268929, 0.12697013635238916, 0.4724167382754643, 0.9938367427233409, -0.24946875248956785, -0.2608244586644529, -0.27281837373217416, -0.8317499991919104, 0.2429488923173101, 0.22441742523731698, -0.12968932513455367, 0.32757534499933955, 0.33323485945343434], "policy_bias": -9.516137877696512e-15, "policy_temperature": 1.0}