{"type": "alphazero_linear", "value_weights": [0.0, 0.0, 0.0, 0.0, 0.0, 0.0, 0.0, 0.0, 0.0, 0.0, 0.0, 0.0, 0.0, 0.0, 0.0, 0.0, 0.0, 0.0, 0.0, 0.0, 0.0, 0.0, 0.0, 0.0, 0.0, 0.0, 0.0, 0.0, 0.0, 0.0, 0.0, 0.0, 0.0, 0.0, 0.0, 0.0, 0.0, 0.0, 0.0, 0.0, 0.0, 0.0, 0.0, 0.0, 0.0, 0.0, 0.0, 0.0, 0.0, 0.0, 0.0, 0.0, 0.0, 0.0, 0.0, 0.0, 0.0, 0.0, 0.0, 0.0, 0.0, 0.0, 0.0, 0.0, 0.0, 0.0, 0.0, 0.0, 0.0, 0.0], "policy_weights": [-1.8052861504734172e-15, -4.0441738499707495e-15, -1.5225754684822269e-15, -6.1718902558126965e-15, -8.74861355504124e-15, -7.0384946307725935e-15, -2.0415198867923482e-16, -5.540608288881756e-16, -1.5900505873989427e-16, -4.2500613351428623e-16, -5.175703615689636e-15, -1.8814203667228095e-15, -7.0656501482968666e-15, -1.1855273707173119e-15, -3.574623236302111e-15, -6.495131560895162e-15, -6.7825606242521695e-15, -4.445120114014059e-15, -6.591387359615e-15, -6.332923403257722e-15, -6.704611166517869e-15, -1.6917110073899579e-15, -6.47482067961391e-15, -1.1825800755316178e-14, -8.903260073633874e-15, -8.35182617509031e-16, -3.1398494915180223e-16, -8.56162363227495e-15, -1.1265346294697573e-14, -1.1825800755316178e-14, -3.638822979396931e-16, -3.2382985775321997e-16, -7.243877806622924e-15, -3.3413202760179414e-15, -1.2616643840779316e-16, -4.9083545387850944e-15, -8.907205971523121e-15, -8.930182071585875e-15, -6.999914165831556e-15, -7.217245189404035e-15, -1.1143863609675028e-16, -8.103587245678046e-16, -1.2750217548429537e-16, -1.7288392057555907e-15, -2.0760079253332606e-15, -2.536338622180646e-15, -3.634045663033751e-15, -7.469100318527605e-15, -2.992691646616728e-15, -2.9074918238907652e-15, -5.489324378211518e-15, -4.388779899953911e-15, 0.0, -5.055292573657044e-16, -2.230922576258431e-17, -2.3522740219962317e-16, -1.1023907481311144e-15, -2.0612851703294402e-17, -1.6826817716975018e-17, -1.3667886267221235e-15, -4.242878157102376e-16, -7.100511178375136e-17, -1.054226828446986e-15, -5.4296150908684224e-15, -6.031995525353694e-16, -5.236248407712859e-16, -1.2109584168751274e-15, -6.366265568133353e-15, -1.0154994512594134e-14, -1.0006226714312453e-15, -0.27374807246049077, 0.18436935515182729, 0.012226448437202013, 0.06524917984822162, 0.475863109791012, 0.9586161715977302, -0.23619249362097558, -0.22635719147616318, -0.20197364177542662, -0.7580528654929402, 0.20612325824760233, 0.21635355524949756, -0.1733183853290646, 0.3503103802043293, 0.350041941513216], "policy_bias": -1.1829964091658754e-14, "policy_temperature": 1.0, "benchmark_win_rate": 0.8666666666666667, "benchmark_epoch": 6}