{"type": "alphazero_linear", "value_weights": [1.2033001032364352, 0.906867710232214, -0.9630242902650602, 0.021142598291767775, 0.10840515580905645, -0.16085551932956266, 0.011089715629723064, -0.008103898587442177, 0.017136894806889923, -0.015514357721745642, 0.4289854980382947, 0.48528745349980257, -0.282745312728818, -0.2106140517856745, 0.39798314291096876, 0.06531834874377841, 0.17533849990872408, 0.18681469375669604, 0.052441904241624065, -0.05076630438589848, -0.0007456556642109573, 0.06588493394394235, -0.06519407687398261, -0.09537622160352499, -0.0050789885712250495, -0.07025073443174482, -0.02666077848538601, -0.09537622160352499, -0.09537622160352499, -0.09537622160352499, -0.031623239494314864, -0.006981940247396778, 0.07534927579452569, 0.3953877934886478, -0.15205286948587954, -1.0275364614008937, -0.08091859893146955, -0.04914734368053246, -0.023199211067542896, -0.08451013345677734, -0.184681119739545, -0.21967285925670016, -0.15288849367528165, 0.036499095970715774, -0.14200453499392207, -0.1322780931534198, 0.09517220262784, -0.11882043290230049, -0.058965716986850374, -0.050951184821742976, 0.16776968022981117, -0.14985063909652033, 0.0, 0.04926019325711269, -0.0003744206762369853, -0.0006314891943049515, 0.04560799026113983, -0.006242891925460622, 0.05654092417039069, -0.2694258318239891, 0.0400509673027477, -0.10368345460880433, -0.08725070107856756, -0.1300076577106721, -0.1900884809678405, 0.5303127578788288, -0.15047302060942455, 0.8846289877901737, 0.1294886444801254, 0.1868448139860437]}