{"type": "alphazero_linear", "value_weights": [0.0, 0.0, 0.0, 0.0, 0.0, 0.0, 0.0, 0.0, 0.0, 0.0, 0.0, 0.0, 0.0, 0.0, 0.0, 0.0, 0.0, 0.0, 0.0, 0.0, 0.0, 0.0, 0.0, 0.0, 0.0, 0.0, 0.0, 0.0, 0.0, 0.0, 0.0, 0.0, 0.0, 0.0, 0.0, 0.0, 0.0, 0.0, 0.0, 0.0, 0.0, 0.0, 0.0, 0.0, 0.0, 0.0, 0.0, 0.0, 0.0, 0.0, 0.0, 0.0, 0.0, 0.0, 0.0, 0.0, 0.0, 0.0, 0.0, 0.0, 0.0, 0.0, 0.0, 0.0, 0.0, 0.0, 0.0, 0.0, 0.0, 0.0], "policy_type": "neural", "policy_hidden_size": 32, "policy_W1": [0.07435048965623269, -0.021221319710201116, 0.09875772481819035, 0.23446781417504958, -0.03609140820365319, -0.03591379242265364, 0.2433706217201119, 0.11664387734634778, -0.07166042000092707, 0.08321635065672077, -0.07030544452368158, -0.06997101391073851, 0.03786974036766114, -0.29318343311629635, -0.2689907610203656, -0.08629089389770689, -0.15535523956446684, 0.04793463718762523, -0.13936330606817, -0.21669364655264609, 0.22432243545164918, -0.03697386636527092, 0.010354880077892724, -0.21817435467901136, -0.07948386641302158, 0.01689570010712856, -0.1764003200924943, 0.05669463649276152, -0.09134897398404086, -0.04482009603969737, -0.09246071568614414, 0.28283540007507324, -0.006478733055408853, -0.16230651700317086, 0.1270389098132457, -0.18564109095547265, 0.03169600360115966, -0.30059979911065593, -0.2031330221396412, 0.029125388218528517, 0.11382247660606165, 0.026273853026414225, -0.018271409751808795, -0.044551335687402424, -0.2252139501523446, -0.10940928447101515, -0.07324779968288977, 0.1621071625047165, 0.05271805658878011, -0.27100432827266274, 0.047629565217613634, -0.05949211228853564, -0.10393444779217227, 0.09070925094820287, 0.15815802106835858, 0.1443948283441158, -0.12506361881357222, -0.047610581761852684, 0.05077310657757672, 0.1473757049538872, -0.07197742437776436, -0.028471512309733032, -0.16530317000167769, -0.187701055069233, 0.12293082534269523, 0.2079925644771197, -0.009293636380916136, 0.15429414770456334, 0.0553911047910784, -0.09895874318720083, 0.05434519928436912, 0.2364546747327222, -0.005462079463267232, 0.24000538080629966, -0.4035332070067799, 0.1254562167838214, 0.013812391835364396, -0.04525703010624, 0.01778946557431986, -0.3048826500508491, -0.03369565566412264, 0.054571605376017795, 0.22442243412646803, -0.07987433451617175, -0.12336280786432802, -0.07658183016568296, 0.1404241095582534, 0.05146243437544606, -0.08360866017178879, 0.07868806509055443, 0.014627419227780917, 0.1476535760636065, -0.10727837348354416, -0.050131115376461026, -0.055306196434020835, -0.2268387591675715, 0.03940385741257253, 0.039519610961091294, 0.009273421203266952, -0.03681128809958192, -0.2174078411415223, -0.06453034446409646, -0.05403043992319222, -0.1282335974185974, -0.02318981981309678, 0.06198627020842743, 0.2794645770641861, 0.027671283626055875, 0.04112510587300329, -0.01122376163914002, -0.2731442140932509, -0.0041295990018883405, 0.009264424066675006, 0.3769575018138664, -0.028139339274097893, 0.04610424019373743, -0.004537124635474474, -0.18214622716191947, 0.17547998927485445, 0.12379810716789241, 0.11498290832684846, -0.13769706970264445, 0.21361899120421413, -0.21844865833119767, 0.09198262700411917, 0.33599967032350175, -0.1385034175361558, -0.10523786008889961, 0.0034976084351075964, -0.07799232353150069, -0.22577110845636567, 0.011626918971011842, -0.16352995504894963, 0.07263957921241591, -0.1405996314147279, 0.25086650831073604, -0.11849468607659724, -0.04938714260700434, 0.11087879170605594, -0.1809819569556931, 0.035639391699503434, 0.2009087088598023, -0.22977879840499324, 0.028256783551296592, 0.03988814595069245, 0.11843236188785942, -0.1962122255109457, -0.20303940484418206, 0.08096744240703443, 0.0408306577897357, 0.038483873846215516, 0.06000312981362969, -0.09908952699303024, 0.03733739067632229, 0.04387504451983244, -0.11248585684766832, 0.2890117033823113, 0.07430460486621748, -0.16181075025060476, 0.08217091523684503, -0.1616001775297101, 0.12018131538166156, 0.188022315319575, -0.12539058828019323, 0.14718680661964947, 0.06331630459322031, 0.12882323728631304, 0.30168435896981577, -0.03537988543141656, -0.11564423789379569, -0.14187791672056954, -0.11628112601445131, -0.010178867209164423, 0.052518544755933025, 0.05438346722367883, 0.12673194260128154, 0.0020033397775596987, 0.22160425023013505, -0.03921745547161388, 0.41700927971254403, 0.09649734103859806, -0.13839786618782315, -0.16422023900854116, 0.0823937416792775, -0.020149679945697798, 0.11012459590761033, 0.07218480803895894, -0.01467657620627117, -0.1262793669293091, -0.23078712790723774, -0.05341423803765253, 0.11084089144019241, 0.032703803121079365, -0.19110364950022243, 0.02687435941627301, 0.05900354924938546, -0.13560552118644054, 0.023579959403104103, 0.00893234757660222, -0.17564186916409522, 0.05495762326050619, 0.08602041960235816, 0.16597744866079778, 0.16167941402135447, -0.21113457373194966, -0.1438163826748134, 0.07994295481259724, 0.07879580593216237, 0.07900505313269246, 0.5909497556117752, 0.08878950070324355, 0.17418062056684977, 0.14632154709740372, 0.09959276186221584, -0.04835243301960021, 0.11693849071837112, -0.11882073355130335, -0.036187752844483445, -0.07450868896945569, 0.012334971137714644, 0.3551451532461322, -0.28643761733610806, 0.10561414984403097, -0.2484330270228932, -0.07268720927116218, 0.16698876211083585, 0.01056868159707004, -0.1653642047114783, -0.10972966658349055, 0.10424504471557296, -0.11222194766176109, 0.03257463157594739, 0.007080150141360251, -0.09994523909033916, 0.32788900621467576, 0.09714617544386868, -0.3105518641833459, 0.02869581477097539, -0.09917706873417717, 0.1307440033119891, -0.1215637074758564, -0.017668041818989528, 0.0777798123919552, 0.13279310583128612, -0.1840388791366198, -0.05153092526154572, -0.07282892035638437, -0.09950026201272626, 0.2691890546166957, 0.062472282885756215, -0.1936061335606152, 0.14045458296521818, 0.3257036964744387, 0.15834844242423954, -0.23211082288570614, -0.07557635106724839, 0.1941550270985836, -0.10856650981469261, 0.0682977101109188, 0.11875718018794675, -0.1422086055193527, -0.009131025221017126, -0.49715984584440115, -0.15772306317510593, -0.03865047582013425, -0.19141145768176546, 0.250211994015584, -0.2193377636028577, -0.06742912339377656, 0.020066934850425818, 0.22182637388215443, -0.22022766840999755, 0.1784219272511856, 0.0015243140891593148, -0.15012098467992568, 0.07087338332377266, 0.030538685339374785, -0.09219252672489486, 0.010715656770638704, -0.058749246320839166, 0.017451199786022897, 0.10160075035689092, 0.2432001201624428, -0.19003250230398844, 0.32737404294671824, -0.29944610787239095, -0.0230342147061204, 0.08931434496287513, 0.04300055007653222, -0.09557239639647895, -0.031349246338062395, -0.07553929537313334, -0.09043351555617718, 0.13032226337158895, 0.054678059394686666, -0.10689884753380312, 0.13810490587825416, 0.047122923917530764, 0.12389298773968384, 0.09688464992837043, -0.12712480567948833, -0.08593566608538558, 0.11529061138644457, 0.09363016775817702, -0.0031993093826953953, 0.017918588437413535, 0.19554334613273863, -0.09079968754915951, 0.08392820663344513, -0.031338118740702435, -0.03338206774874391, 0.16891585260944922, 0.12567805520773145, 0.12511533382491233, 0.20010793643267152, 0.0030095191365833384, 0.10470579068055023, -0.04759475460817416, 0.0501989105193746, -0.02122302293983139, 0.005783327626020796, 0.09084059679390577, -0.11499522053925008, 0.32140402106512933, -0.15464113857245154, -0.18625224210422542, 0.1784551106193449, 0.12990999694652255, 0.0970805409217597, 0.0963978586841271, -0.0125831861864428, -0.13393847057206634, 0.013087636393328226, -0.10374145751538683, 0.1609496641617, -0.022674559622759688, -0.12661468503801596, -0.05047379874246931, 0.06180726378676366, -0.08683471968934334, -0.12558086126259604, 0.034338819924992645, 0.037639613852956576, -0.07173950203651612, -0.06450871961394132, 0.037106817690937245, -0.22286861429494578, -0.21812806816120706, -0.10732799016437727, -0.031581678798064165, 0.06173679858551258, 0.2092262346999687, 0.12642564947209015, -0.02468160505107786, 0.0041652445465559535, -0.15346959131948207, -0.002886306160646336, -0.04427813951981241, 0.05066814744134133, -0.11193702715024331, 0.08026250235376603, 0.23511141666339055, -0.01777130805471174, 0.06592387960730917, 0.10564191367276471, -0.06177223749317169, 0.03546522299460085, 0.0018418935753816838, 0.014982829566831876, -0.11879947950283287, 0.006203992552513441, 0.07631353422932766, 0.22266065422820963, 0.14655451611262002, 0.3302638711766522, -0.11689293130172913, 0.14379753006646936, 0.027945678808526973, 0.33588607265023884, -0.1245126765669644, -0.12776922176265745, -0.09056227673560062, -0.32057633068389424, -0.08807439092878769, -0.11682013185332837, 0.02253965792533277, 0.05724243862674784, 0.28810194046278553, 0.14492491131923319, -0.08850479322400027, -0.1415754448051132, 0.08038724932829562, -0.2027077964570379, 0.28095282126111687, 0.1634635950743522, -0.07172689615345408, -0.2696849871614356, 0.20843208911266353, -0.016897048535541248, 0.1901103988151374, -0.24452133223489658, -0.0945039026803438, -0.023301432112812236, 0.006486340811478596, -0.06749529723780807, 0.09548474799659382, -0.16363774025568634, -0.017443374839147815, -0.009719356658119642, 0.08187274659074824, 0.10710717743148859, -0.1743240804503019, -0.23384510201891356, 0.19762357132603556, 0.07099597275012336, -0.12561304997957162, 0.22367163059957434, 0.017614340427463477, 0.18200301606960761, 0.010415011986077994, 0.31610430184487104, 0.2692556787803452, -0.033276856959228, 0.14719030420911194, 0.10168725952531386, 0.2099384974517914, -0.14878982774190996, 0.0963378218340109, 0.16961848359842113, -0.2693264436671845, -0.16344057062160433, -0.31326506548856614, -0.04132512195503513, 0.11006595764281346, 0.2532474122690732, 0.011831053909469157, 0.249818220749148, -0.2125793382617076, -0.26129496948026404, 0.0008619806713961912, 0.08582588857823889, -0.0051175106791773875, -0.3172613696366522, -0.016953433215098918, -0.1971518949978147, 0.10237082282229788, 0.05943943977462531, -0.15118497100031533, -0.0790179294325633, -0.16282382013818547, 0.001314426346148359, 0.14675245797907677, -0.1512034732268606, 0.07732139271418628, -0.0816277780480611, -0.120059869184289, -0.015831588467712376, -0.15886434183007517, -0.083105405004531, -0.1668801070663339, 0.3026493143290718, 0.004843667238246034, -0.09617551351478604, 0.032879344703555566, -0.017230336275674836, -0.033595534794077786, 0.09467570627943697, 0.11591087690781338, -0.08164715426480047, -0.09578730949499419, -0.042139155600881745, -0.3531942570946928, -0.2307181640820338, 0.2094838137054397, 0.252579424638868, -0.03851362147771756, 0.08849072124066844, 0.04793668044700729, 0.4734805319314886, 0.15723378275241678, -0.026935665324653423, -0.1471370139778868, -0.23854423811825132, 0.03175782679586452, -0.11644924817233446, -0.21816716481683732, -0.09648893499828255, -0.15811026864661146, 0.26036611426542405, 0.13521229862763282, -0.009514019632267822, 0.23149474089914285, 0.01165881986216788, -0.1323246907633728, 0.24241342679710237, 0.0825994148303988, -0.15908741689545555, -0.03106419950275218, -0.13761543006707264, -0.21263104818538514, 0.1421178057624586, 0.28746714378106897, -0.21447932585333274, 0.09368241460715901, -0.09271199929653773, -0.07332999377575687, -0.09144980496927961, -0.1357805751261656, 0.010415612255915986, -0.12610214072447457, 0.0573680761207612, -0.02421034255001908, -0.047000818560290085, -0.14013075116518847, -0.07241472514478754, 0.1158597920328384, 0.0763293111202599, -0.14995150800717091, 0.023666627996009985, 0.12066967692587345, -0.25386799757474826, 0.08332261280432254, -0.10930280809132815, 0.09158298473277124, -0.11449678007302157, -0.27732559376803073, -0.23222803247472404, 0.007296389237422458, 0.039852755999750675, -0.14094432689575767, 0.09853989591575577, -0.2550740755378467, -0.010568045673101573, -0.19356287103300937, -0.09992851570144315, 0.01880632717832282, -0.12654062166999616, -0.057649612937094044, 0.15400012175326258, -0.09394979749263352, 0.13221921536002645, -0.1718085010130718, 0.10101015884893946, 0.1951563008211462, -0.38456593901825104, -0.12253470038840024, 0.09474266899578022, -0.030903664712344524, 0.056526118398994386, -0.09265066632203706, 0.012558338105722357, -0.019973909857948793, 0.18026152103171783, 0.039009156656056095, 0.04553890834571287, -0.058664186385845314, -0.07432688467286709, -0.06588466339263115, 0.07115132785374943, -0.06462331167423087, 0.044476777375572554, 0.3177137559672746, 0.13170377613561626, -0.050239052741590476, 0.18496339531310074, -0.06499566923006193, -0.3125696277520984, -0.1504066494492386, -0.2879596025202272, -0.05321504287972575, 0.0021115207274893496, 0.2554717442668025, 0.05145737289084725, -0.032957518515401636, 0.13608065878939038, -0.35038841770511814, 0.028558073663662416, 0.11772606631941795, -0.21761837919417001, 0.1758374868982925, 0.05147951962585386, -0.0637071772197294, 0.09715532617160537, 0.351735081453131, 0.02938224890109006, 0.038052247033694524, -0.08039482018203871, -0.12577385755582526, 0.12801076867810776, -0.1310382459414842, 0.02591243147048624, -0.07339909376192218, 0.07349635846619884, 0.04994823217870273, 0.15655820718389155, -0.07855340154393277, -0.0407268323218153, -0.1541764866353546, -0.06807229149341147, 0.06445659378968169, 0.11569816279504114, -0.1398512075640406, 0.13226420291662483, 0.2052598728228767, 0.06566683857721786, 0.2887543965479354, -0.1050503741726482, -0.2067584663952718, -0.28055120924302623, 0.2289630085872181, 0.10900248710758945, -0.008013562417311722, 0.042511307818669956, -0.17264657876871523, 0.3754747638517231, 0.024013160167726928, 0.01825526621987738, 0.11131277109215926, 0.06510846360823383, 0.03904207025087947, -0.12060356951466743, 0.07267757658923639, 0.30318317491397584, 0.20630599989675458, 0.24440961187719376, -0.07954665443742766, -0.15336664611489473, -0.019607000593256683, 0.009228456287717856, 0.16367395567378476, -0.2595322336555597, 0.2410740941423719, -0.02313117753759507, -0.06420663467209027, -0.15616490629912394, -0.2563709612803036, 0.1284762229434283, 0.012101394843493714, -0.1847627146560819, -0.21434049018049428, -0.06006593419316844, 0.255462245018353, -0.030550576492436057, -0.23022476452335963, -0.03821310653606657, -0.041837774873197155, -0.4125154576219698, -0.005851860066833437, -0.03352596562583786, 0.10672535770418212, 0.27594341696452523, 0.1792055618036918, -0.04026307177507647, -0.16937016593467868, 0.40989604444522865, 0.008984343956382573, 0.0021653596801923312, -0.004975474936825714, 0.03016164222544321, -0.022460232701784114, -0.08728096771262128, -0.08918286330849508, -0.00492063587611622, -0.0756542305841293, -0.10596826217026907, 0.017640965432120966, -0.040020178156364355, 0.22761975773592744, -0.4038048184276602, 0.1683021146977536, 0.20422017719670568, -0.3365171813025715, -0.0525647090261577, -0.05718085405699588, -0.21592655672807406, -0.1183286819193443, -0.17056708309717616, 0.26878240834730616, 0.1436576308385995, 0.18465091887441767, 0.11065137914677625, -0.17318366810506117, -0.08385822269623748, 0.07565830073815917, -0.18768180434566417, 0.10940523552579609, -0.033936657967390885, -0.057390729153698646, 0.10906613797120243, 0.06742228463547144, -0.0620037869260576, 0.17778662164018375, -0.1659118732206669, 0.09168944527285813, 0.09109268820884701, -0.04566219374952556, 0.049081285976593475, -0.19030009092345254, 0.14178196408043436, -0.02920968947601346, -0.07936796730141774, 0.16090045560340455, -0.10294173110953447, -0.21797683454267833, -0.2386874787408726, 0.09243350342002662, -0.18016091938514692, 0.2690095342449905, -0.31935339301971033, 0.2602162369033228, 0.03261503718830973, 0.0037458544597075926, -0.083445413893683, 0.061274948920183474, -0.021524102776025702, 0.17061375486851735, 0.014574321615606622, 0.02263571502676473, -0.05514859241239568, -0.008598324526076227, 0.04722777892160499, -0.26422684358711707, -0.2159052180129822, 0.11362073333058692, 0.027407636762141748, -0.025071543454009266, 0.0028851839432159233, 0.058163462744688005, -0.09903056610099589, -0.11545017017107348, 0.028210022524802612, -0.15029210150408578, 0.06434228529339867, -0.25936725689416257, 0.1713507271825113, 0.06234451346331199, 0.02444010782204352, 0.14973099884999896, 0.2723276294605452, 0.15620620008717573, -0.283240667232233, -0.19628708732770106, -0.09498519208441986, 0.008651872260320787, 0.08248922912302366, -0.11136956681305792, 0.012237649304395337, -0.1076607832538613, -0.09216688010618178, -0.21512805170898533, -0.11172447402517129, -0.20750571352114755, -0.14963941764310587, 0.15935695712981665, -0.14647372521138188, 0.40324875474889593, 0.07694111338171321, 0.019954235070677416, -0.13149449716641168, 0.12110621267671033, -0.08785620285322103, 0.021389389881656985, 0.3907721475265961, -0.02014305456018459, 0.18076326280246213, -0.106384617157737, 0.01906195158345133, 0.2393127994324951, -0.10532941415167986, 0.27799421569826815, 0.11957918400798051, -0.08531722592912079, 0.09624661390836507, 0.14917507115514528, 0.09729922865030811, -0.2321083404673444, -0.11025774694560518, -0.03797566983802508, -0.02479944025766021, 0.10265172233129334, 0.02820099923205262, -0.20340207289668583, 0.07587485277257616, 0.09350786771708726, 0.08586982987867083, 0.16410943749588103, 0.12834851027039562, 0.07002629621045489, -0.010068635622257087, -0.2590219239499595, 0.06598782877627322, 0.04191192777684333, 0.04319182459538014, -0.193181145264007, -0.1667816638023395, 0.15677426487067442, -0.0034037413182095456, 0.10544693333517503, 0.022645474037791217, -0.01947440405179518, 0.14373769141438525, -0.0792727779613389, 0.015317431816717344, -0.07095789524908952, -0.0666486788453701, -0.047425493332378534, 0.0346893901736249, -0.07354521252597335, 0.19323384688567205, -0.1372639992877405, -0.02877653382035457, -0.06671632619181324, 0.22165869719076178, 0.030165045526347977, 0.15872611735611103, -0.22786745532514785, 0.0409719173613884, 0.136369423100435, 0.011538392130452393, 0.1634304192686384, -0.0792359172108904, 0.2151574588747468, 0.3526282619613697, -0.05581939089017467, -0.06795859325369052, 0.2228918551336144, 0.24208884729551383, -0.08025177988128933, -0.06394651078404942, -0.043303905989842975, -0.2044110254900673, -0.1411404951594833, -0.15402816239463796, -0.11792892908346253, -0.004540609852421469, 0.03561464844903418, 0.23792903207733057, -0.15314051914419083, 0.15073546524504122, -0.03349314736195562, -0.007658820158728619, 0.1035125848567095, -0.1728025567632517, 0.058083347817427, 0.025514277236630002, 0.07553857564157672, 0.04646763256836145, 0.37662584888474127, -0.09782484798176655, -0.08158132744744903, -0.09541304793113362, -0.08530074015559608, -0.09785778492804051, 0.1824930548952653, 0.21792480948635323, -0.0874757873091925, -0.12750343770034503, 0.07252295080068083, -0.08486986218770068, 0.09670965935178355, 0.03134757994510124, -0.232316239331422, 0.2377332745224376, 0.2743803123568433, -0.09957663168840711, -0.060198657967964905, 0.06261052874120432, 0.050900951799281675, 0.10006752183594879, 0.3083421224980814, -0.02520738665306431, -0.11092672794156623, -0.20933949413768238, -0.11218105308565068, -0.024172021433268125, 0.26916590136466456, -0.07624057023410942, 0.03561560946342772, 0.01798232132646585, 0.18228039210508093, 0.38761373996564424, -0.08347862819573777, -0.07086740085694755, 0.15981286346517642, 0.10545366447525202, 0.28325255303103974, 0.08972946746506218, -0.045807682768241285, 0.08959408271559267, 0.17301231967187056, 0.12340283776674899, 0.07172018859763872, 0.16530980618570498, 0.18138134152414304, 0.23355502629691363, 0.07420843970760668, -0.04046780396376581, 0.021622661673331486, 0.20257049393177648, -0.12419271533774857, 0.055730456291248495, -0.06034345072823426, 0.00518987759389057, 0.20345568330277794, 0.03240933034858835, 0.007077493626939463, -0.2246621940460762, 0.12119576001244295, 0.1003800346080901, 0.3326407511786442, -0.01948082845895735, 0.033404753709186615, 0.03830641691332262, 0.2400580457715343, -0.017933270130242256, 0.042293120646429934, 0.09424387757069301, 0.021955315777998995, -0.06831001372992213, 0.0426744702116715, 0.16633642113744754, -0.1562789414024232, 0.01865005035256032, -0.1122091922178826, 0.1870347421197766, -0.2321790186388313, -0.06025035934636566, 0.02626810217374949, 0.22530736328191756, -0.011092546708548723, -0.06830820804368268, 0.2891652571231605, -0.22297864336841103, -0.3372903777226731, 0.06835273816594657, -0.07236191466274808, -0.15356600308939006, 0.10861137123978355, 0.020986257761252753, -0.07831604294269627, -0.1947540608854159, 0.1344727557930976, 0.12962934907654455, -0.015379642878305627, 0.28331389068990354, -0.1664078268012901, -0.23484746271537754, -0.10667407447108351, -0.0057229739928886985, 0.028928235568212172, -0.036832346190336956, 0.06768641355883509, -0.191534775160359, 0.22413731934816244, -0.014528309865665714, 0.16597721842665505, 0.05704445031946479, 0.0715404681800015, 0.11182725217398672, 0.03635973962838422, 0.09777016180495486, 0.2038556765115262, 0.030218421428983754, 0.10881897474912576, -0.013795595029733343, 0.22090384552685033, -0.10360295382794983, 0.27490756255066123, -0.006147412450490274, -0.21949480062567078, 0.01876212965091431, -0.10334502571465785, 0.12877943573616593, -0.10014177770402043, -0.0671340245006857, -0.28989198830411933, -0.06937327428738001, -0.37192978728083753, -0.24337492370254257, 0.11663081831754903, 0.12044868479976092, 0.06417087576937577, -0.14831934374998143, -0.0064442576610565065, -0.0006035134385450635, -0.17761901403522423, 0.23054172726635025, 0.13397796284544372, -0.03361007091785313, 0.004082178230618888, 0.03243606685611483, -0.31548261869510275, -0.03923391050199576, -0.10467664073982431, -0.15300766449779107, -0.04299828471558423, 0.27571216678322324, 0.09830053364318625, -0.08654369494533981, 0.08710080155552628, 0.21498927165184914, 0.14182815979825564, 0.008349955300900812, -0.10053647897029079, 0.10778934726694929, 0.06050314757842167, 0.13915125164315711, 0.09747007992761746, 0.16099403731992426, -0.08221827728647392, 0.2048559177625103, 0.030342422965135944, 0.318364279506343, -0.10601415610794915, 0.26630865381488245, 0.03211521674940987, -0.0984894314980891, -0.07401660420783852, -0.04931290406666765, 0.0642622206756636, 0.0806186038825141, -0.08804503821285965, -0.002907893030407884, 0.3259641596770073, 0.25140188592033474, 0.0664208096022702, 0.013537103229299751, 0.019559991600249585, 0.0935107943137721, -0.15689071979096353, -0.03709304777969854, -0.24596819653837515, 0.06352615323809091, 0.09926476962372609, -0.08150162830263162, 0.25230820891091177, -0.18602186010939023, -0.22435232232469757, 0.045985224013703405, 0.1603582601464249, 0.2583109477380824, -0.07172091043940965, 0.1622856974406138, -0.006226436221289492, -0.025923075351852773, 0.12859871237144166, 0.10008161551139848, -0.23553024893164115, 0.24278085540383135, 0.21193140340058025, -0.09620079709655392, 0.05672094406132685, 0.07861827477335279, 0.04160132780894042, -0.06806404382759888, -0.12310524496835556, -0.004106238346482932, 0.17972027681223351, 0.08371489414091117, -0.055552031640552196, 0.11789643583914955, -0.43694837832855765, 0.1763888124546574, -0.2668125708092513, -0.05561675531756186, -0.1717395862111673, -0.20200126274394367, 0.18027804782842663, -0.07328083912214371, 0.053205019834418214, -0.013993916523300048, 0.07324438828064943, 0.011806060009088017, -0.19785484668949577, 0.14352300921358274, -0.07609678945647655, -0.23907139086456006, -0.06785008519945643, 0.23023135877781362, 0.13113268259632171, -0.057948740137935335, -0.052985356071790835, -0.04966992348967476, 0.31700498412869066, 0.05934108603030557, 0.06642197455140775, 0.16258619882324174, 0.032940267274948865, -0.03964671469469701, -0.030118691962728646, -0.010983131825593047, -0.005685354832851028, 0.11136166989654102, 0.007968151675359357, 0.11140918341799358, -0.01321183867448446, 0.011941657276622846, -0.30650999314539523, 0.1395725663991505, 0.052320266754945846, 0.15256243777890335, -0.4432660212300107, 0.32029918865092827, -0.02140066427044609, 0.1699874843359874, -0.15951428756002944, 0.09092215296258085, -0.1615988024172082, -0.09491096868196167, 0.29366240006028227, -0.029251936198410416, 0.03342621412253531, 0.12966238812126435, 0.07597804025286571, 0.02302084564519153, 0.05629854982150553, 0.368667121505574, -0.008838320004852544, 0.03161654001121036, 0.16005667778088933, 0.16894491490749844, 0.18199463305563562, 0.08785969441544866, -0.17335385032304462, 0.2496591093276549, -0.1758417107570197, 0.04620750394737821, -0.10211732200067708, -0.00991033792058346, 0.0504298516703687, 0.041224516551507044, 0.07454203231210683, 0.23907177610287889, 0.07008981466541442, -0.06446287537561991, 0.1479643444270971, 0.18245644405447267, -0.19076603335743098, 0.05596523324206261, 0.10679326009087758, -0.045148599071558784, 0.20729545164221455, -0.02307590681920073, 0.015814106370978805, -0.03592613386715172, 0.002188113976089613, -0.168278290643973, -0.2228896549936532, 0.24443519673197764, -0.12752912412798992, -0.13539247770161375, -0.3293938826401134, -0.10922507936997299, -0.20371293006151844, 0.26453633138817095, 0.15544599455275585, -0.10620431815661158, 0.3455012001626705, 0.15118562161198446, -0.04558805039159924, -0.3811148242095898, 0.3513842316437785, -0.2256370437010045, -0.24601775491953928, 0.15801344072024864, 0.37473537697141107, 0.2344955307458947, 0.0863804880515654, 0.091270474047133, 0.1292145480732125, 0.11529593701571286, 0.042714455510729894, 0.01694924777230323, -0.01585796485552877, -0.11552779414403908, -0.03299118056320889, -0.25901948894337196, -0.013108349904295968, -0.1530615953628421, -0.17325722391624088, 0.030919298043036548, 0.2146734892843147, 0.15949298915405005, -0.26484768082281623, -0.16320440803903086, 0.14353544245682914, -0.13830373069786459, -0.03388127916519796, 0.08364735500523715, -0.14854320418998515, 0.01761676547599824, -0.20141932401478768, -0.08982212112642748, 0.04897457299947316, -0.25544318551476025, 0.07578867476373359, -0.0017963265954116289, 0.08526340826994454, 0.056024964084203266, 0.20909592717749753, 0.019243637675618267, -0.06764089301081956, 0.01855516745992163, 0.08286808929750633, 0.008477070824498395, -0.0007664239646348436, -0.10755614343206495, -0.09116177678938342, -0.21123455155150805, 0.27000739410649527, -0.19211140130510976, -0.11051909144094234, -0.10652608544984062, 0.13840586708471578, -0.027128763231117608, 0.1665069085066752, -0.11209318741130608, 0.042197790146674005, -0.11818056258043254, 0.32938879242823993, -0.1826837300988334, 0.04751898296368187, 0.09773969985009301, 0.06590009267824612, -0.026577262019904988, -0.019941254758811398, -0.003012932758385959, -0.017782991183979562, 0.1488649563176213, 0.33945243672664915, -0.06765080028845974, -0.21021791191800585, -0.013510224400090719, 0.39435797887821344, -0.12360961123346555, 0.25112061695399424, 0.2580901278448261, -0.08990310040194509, 0.08737958903284544, 0.25798424406168535, -0.05810224751260846, -0.02961878892680213, -0.090377123140614, -0.15891448671433656, -0.09694177112877919, -0.18688971625007594, 0.019607639918974948, -0.1373855515203386, 0.026446100966661834, -0.23932257591121228, 0.06124215960265532, 0.1279345668516496, -0.30625406339271427, 0.05737209867967734, 0.18984589555906167, -0.18208667839554596, 0.2584921315282378, 0.06422010416984893, -0.11947740989870394, -0.003922020013976194, 0.08700212306016257, 0.012058431133336267, 0.10022571068414891, -0.14127271784547757, 0.025997611356564004, -0.2182223775124205, -0.018915633044671237, -0.13890692064699278, -0.11201911159867702, 0.18484485051602081, 0.16748666466440512, 0.10199223612375584, -0.16781736590784158, -0.04708527340136741, 0.18484282899086057, 0.018780762463207454, 0.35818920179686814, 0.06122095541306411, 0.0449514892373168, -0.06657625093954524, 0.02049613282957298, -0.023413300087120805, 0.10911233136798928, 0.14706214048038374, -0.12065053370597015, -0.20420219695814107, -0.2819156449740966, 0.078179351314221, -0.16926200035282804, -0.330238341922682, 0.06010124312935768, 0.38237854262273835, -0.000813116650228399, 0.1286100818283926, 0.0134668745524585, -0.015130511210400542, 0.14097989690491888, -0.04458160166546991, 0.04212966587068151, 0.04934619086826983, -0.10260062135503015, 0.1518963399055354, -0.026835791696547664, -0.11571048333526893, 0.08145288631020504, -0.1377116288213235, 0.00420617612417727, -0.0013557793920880277, 0.1666420348197336, 0.0728122229976004, -0.0035644904287397794, 0.12479184328292028, 0.2128277611191167, 0.08556419507802086, 0.0013993708540798793, -0.2021339729690413, -0.16363258481192663, -0.04682274785412179, -0.09667878141381483, -0.03016437637560762, 0.008569271507247424, 0.0812511594875486, -0.01784746992672841, 0.07417318534628561, 0.007739014410167539, -0.3018826974444108, -0.1428333935525755, -0.022118298135697934, -0.18551913978874018, 0.09202731929824366, 0.22808268008942398, 0.18693730271394435, -0.031322264549477986, 0.23100296826721547, 0.0228578538603035, -0.05200936961788476, -0.10910007123367303, -0.04618143429269969, -0.060511948961802405, 0.026728303492031133, 0.02354841811095608, 0.00046751024697366914, 0.06839129870915797, 0.18017719436950974, 0.1362111496133521, -0.22790228925493844, -0.3906465332044704, 0.14331813206070115, -0.20966962113717835, -0.034476961743309296, -0.1756281994985031, -0.2782435923825462, 0.08480716125526307, 0.11644908581098866, -0.08861849650629057, -0.4039522500709839, -0.0812856973455288, 0.05984392304726683, -0.22129520383901707, 0.02807064756413986, -0.0023484236600442923, 0.08885925970618505, 0.02478052952011164, -0.14891040932646127, 0.1835456896858376, -0.024974355231302287, -0.004188325168143495, -0.13837219549968605, -0.06729450515907974, -0.13573971951653951, -0.02650497842761728, 0.2603578668548461, -0.20939632649313406, -0.24787011411603432, 0.22650864420204425, -0.0344238319381555, -0.10710663475324969, 0.1593720388030828, -0.08783031930501888, 0.2805212263967774, 0.10365586837554183, -0.07484363319760204, 0.3323461658226776, -0.08588556010360089, 0.11507703752654364, 0.04590938611871316, 0.19697564235801662, 0.24195825100996732, 0.00611974735490713, -0.1154789426600061, 0.07568512787124496, -0.10391067884905082, 0.30883950556893885, 0.020482898920244644, -0.050061841013945126, 0.028234891106166286, -0.2066788197820191, -0.14973160010908323, 0.18414860625478735, -0.09708367986479415, -0.15608389388516108, 0.08269828887631057, 0.18162202768452088, 0.10881005345221972, 0.1542192931321944, -0.11548464715729843, -0.21351620702918656, 0.21984453065841988, -0.053259593406486505, -0.03867601778670251, 0.20679400250521077, 0.08594194443495477, 0.06966647261307383, 0.3320931683730698, -0.09842555691394334, 0.1460078985285433, 0.00941621589653565, 0.04120017483256953, 0.23102900367417228, 0.08198697042816952, 0.08276204122309895, 0.16442836142463746, -0.0509855581467276, -0.1286528818256472, -0.16026641436799444, -0.30210368821536115, 0.3162586383621997, -0.16935586455963397, -0.033631017574343725, -0.043532755783947746, 0.04716577876739523, 0.12785770707439714, 0.1332862159387049, -0.08897056792301196, -0.02593917426364121, 0.04245700756467451, -0.03703473843611957, 0.2467973904474055, 0.08014832877852125, 0.10471632069685728, 0.09899206165471199, 0.179812054577704, 0.031789634278847956, -0.19921159886980533, 0.06108233523917749, -0.09991539049043582, -0.08070874912038789, 0.0826115270142593, 0.19115507105908797, 0.003227253901516788, 0.04555385168323329, 0.26112305417641835, 0.037555527532964476, 0.39926254142845535, 0.09777117623293954, -0.270204539044177, 0.11557962205711712, 0.057792434548917165, 0.2018187560521991, 0.10323137675234223, -0.020859299936001604, -0.1907973082970363, -0.03196641184145624, -0.12460662936243619, -0.09293412865483923, 0.09106260129336269, 0.2554967156449499, 0.05857349565524281, -0.18204963067126678, 0.06809135101557733, 0.186334986802142, -0.10511544589076374, -0.022716686760157458, 0.0019381883451203017, -0.11524204701549495, 0.09943793572753372, -0.018732082506182083, 0.06434711724725675, -0.13766488400733914, -0.07143213315430566, 0.11139925077863785, -0.05720171992379652, 0.2556747718853598, -0.062458630480670116, 0.03439451418155759, 0.14339132687695433, -0.2036363097746843, -0.2700695401810572, -0.2339941753244041, 0.1929983901308219, -0.08692915906297437, 0.392225753088253, -0.0859404114173126, 0.02780082319548921, 0.2366359275743239, 0.31162909977569936, 0.3045138489231895, 0.18678023328502683, 0.1558856871475285, 0.08965844285588416, 0.11980324017044834, -0.08462624053926106, -0.11785909046585322, -0.009042654776706405, -0.034410381764395655, -0.07017025158790595, 0.11497199494884786, 0.14729208305964842, 0.013174535456912181, 0.2266375234004997, -0.17546911235308382, -0.024817289066220653, -0.1089269781575581, -0.28629880830936316, -0.02406034622468873, -0.013351156451178162, 0.23240669728492422, 0.0972265512302102, -0.14273973965960965, 0.2842665539147393, 0.18732196400639248, 0.08807035236124143, -0.04374474976642624, -0.14757154503292869, -0.05623934854859022, 0.16231709085320475, 0.28915356438338946, 0.24176412664006566, -0.07411578384351972, -0.1701752999677509, 0.020647019946925308, -0.27325051270708434, 0.05145505196696649, -0.021686558980482717, -0.05456295262447113, -0.25690237037443997, 0.07435634913875572, -0.08200271257389256, -0.17478642764075009, -0.4400596704246649, -0.004508763253117339, 0.27184828265695815, 0.25472066475688854, -0.06523978106834152, -0.09177865171153908, 0.07190435372248023, -0.15861494469713763, 0.04907375869051553, 0.11765456591379357, 0.18830325257612138, -0.00909408214382887, -0.031219835439065098, -0.13466273071649937, -0.1274236414752217, -0.03736173054051435, 0.05620417918369238, 0.14047025816055242, -0.12499525623034842, 0.22897501723317587, -0.03901908058985652, -0.0019424129920936016, -0.11408899845942018, -0.37222030592803895, 0.13437895391009347, 0.11393218188759097, -0.04258392642189513, 0.01808205170748495, 0.07235531921382288, -0.2432128315095211, -0.0815670176899899, 0.12492421899332376, -0.19203569070746335, 0.04441990636177437, -0.20809038719083922, 0.0723419265983287, -0.006999773742641223, -0.2470591881780665, 0.17867451664626338, -0.11376299079109164, -0.11813388986393075, 0.02949877018149931, 0.17633891748080588, -0.14581107116636968, 0.009201223933912631, 0.06579704296547233, 0.10545402733649507, 0.027533696545549543, -0.05668367641658705, -0.1264835056008693, 0.008498012155499933, -0.16442068120523975, -0.44464634826192895, 0.07268569315675114, 0.13829552946694418, -0.362420174212338, -0.15626884116208675, 0.09672791449604053, 0.3158837519844754, 0.00816485291061639, -0.12149278397831172, -0.0351682778278324, 0.21041233501830914, -0.09008191989503359, -0.12305309857475516, -0.07450644977735726, -0.14623875306742912, 0.01973987032700334, 0.24584172980894164, 0.0514937124925954, -0.038768769812417364, -0.05175341165262468, -0.2370555083575828, 0.1368090005320237, -0.011669512422423532, -0.00976131361580513, 0.4896568400201675, 0.04585502637477127, -0.11653588847311327, -0.061826941445623965, 0.17594661130195516, 0.017972372600939184, -0.2255045478874632, 0.14113182905739002, -0.09359136470914214, 0.2852706739379557, 0.1672774692146402, -0.06986874562687743, 0.19304246634166286, 0.01309692368738576, 0.13129285105237007, 0.08487907613137105, -0.14947288936213216, -0.10493015591471072, 0.1576451326530331, -0.04416249860048636, -0.06223003063187572, -0.1465724494454756, 0.06497084905783009, 0.3174099144988155, -0.15925127870799421, 0.004917197136588744, 0.21656453788517366, -0.021645759323370418, 0.07001399943211452, -0.16108826619704159, 0.06600413251253057, -0.01596696176461824, 0.1512925331885911, 0.18213670595917653, 0.3965499038528355, 0.08632955044369127, 0.049988195539176376, 0.0302807399433045, -0.05558495762656213, 0.05192654108633789, -0.039563249230327446, 0.01929417767259587, 0.2026099982161633, -0.15554760168579157, 0.17395242084428464, 0.2029569403755035, -0.017596800603330954, -0.3128595876906141, -0.10386659856999361, 0.1989498815876683, -0.00350780062920462, -0.15328596508944373, -0.07742893836604642, 0.12894522585058815, 0.08386510100761078, -0.036650510954992686, -0.05626829618327902, -0.060092956882452274, -0.141491263373319, 0.24778731953164876, -0.0494417030147909, 0.18670359427008176, 0.23335922975920573, 0.15313390137285177, -0.06620753366601931, 0.06192936884647311, -0.0037114365971528764, -0.13862153750724615, 0.04975444257763007, -0.1808564480554968, 0.18218170178513501, -0.07126904004815149, 0.030856482644610616, 0.04345437584819645, -0.039714210053895284, 0.0899947209810611, -0.07284689554101398, 0.13365090440540786, -0.20646385808984696, 0.019385742563469824, 0.29741813162771613, -0.1540207969532513, -0.10399228026757455, 0.07961727275440227, 0.027683707345975524, 0.053766093100959145, 0.07503778153799087, 0.09732081605172732, 0.17203820842458314, 0.06289235604895138, -0.03700553571209891, 0.1026014290108872, 0.29222716149265776, -0.020501326859926037, -0.14942267353039873, 0.17017487031703463, -0.018467274468612734, -0.33327229482553533, 0.12995245026846627, -0.08298554603203895, -0.013965718406547327, 0.051019410268258784, 0.028959022513874503, 0.10883182452372984, -0.06674783796212119, 0.07976819860004669, -0.03983589069004606, 0.11330439117195355, 0.09445819547632588, -0.14333568955444284, 0.1667444688248333, -0.08082358605244878, 0.12338879584432763, 0.05633930204532798, 0.28196450463451794, -0.034278116935518854, -0.053582750527798505, -0.0029788315626210343, -0.04650565575204765, 0.12270548638030575, -0.24793072955469087, -0.16162750496985076, -0.1637934911680351, 0.145770530335917, 0.2623961132448918, -0.016021778746141677, -0.025896070208724073, 0.010745511300167068, 0.17822399588037852, -0.14224947724440953, 0.036564132836948704, 0.14958848785001266, 0.07686433689187916, 0.02908049249206434, 0.15355346104429224, -0.4146569050904023, 0.10398132737678606, -0.10033062980303217, -0.2808062678642284, 0.07841489920868473, 0.21070960215420062, -0.021083639697703067, 0.14616428329368905, 0.24731219523142386, 0.20169866984566703, 0.25155907539588274, 0.11383716058265618, 0.011570992003775338, -0.24573033821111612, -0.03774426269286845, -0.12934812311445323, 0.33300741142279816, -0.02697965203411555, 0.018898754652281097, 0.08459399505687303, 0.006688309959153408, 0.26000896046393923, -0.09551005215569726, 0.029851420947129403, -0.11388978889588085, -0.20248221011933332, -0.09384109479666765, -0.00568118532703553, -0.06585195516780633, -0.10621252982132746, -0.21571925156818608, -0.012747812916864243, -0.23081356897741975, 0.1165872627429147, 0.012645680837998259, -0.22357819390631772, -0.04743050726621085, -0.11537552584505198, 0.04895913496480233, 0.20561571227691877, -0.2876383264537489, 0.01764419510209111, -0.024563249553173322, 0.10283782339889266, 0.032389764522193165, -0.11468647212391736, -0.04912047875055757, -0.1221070899008914, 0.16535464201038813, -0.003941810809399458, 0.29157153165130034, -0.009304944078160607, -0.11079461105299554, -0.23143265438302413, -0.27681621739298645, -0.24290861865142674, 0.042410609348957795, 0.07808852486322929, -0.24253372467554932, 0.13680564892965139, -0.07865772685279196, 0.02248309541968608, 0.24731565456609234, 0.13574970470723147, -0.04110341245646543, -0.13519997951634322, -0.33031459067977564, -0.1090255071669054, -0.032281038264511196, -0.15193226465019594, -0.01958884216853248, 0.01178044053926588, -0.031160285953099012, -0.10097753381476393, 0.025870445720803645, 0.06778865513613373, -0.16745787168585446, 0.2164321478365512, -0.015122729155576378, 0.0028913773085129965, 0.10863513344690245, 0.0356834898136139, 0.14620448555985846, 0.044042836432365534, -0.09395451581444188, 0.05518395054897137, -0.17543959156842734, 0.016671560620046662, -0.005052593933823028, -0.0319171937278279, -0.019716754205445657, -0.28868423139308025, -0.08420585169836224, 0.014241757713646053, 0.02452085118109341, -0.15765081190253544, 0.19415523457923292, -0.1328065290582242, 0.14870794619799835, 0.06565389957633974, -0.09912865422488683, 0.2723127883022013, -0.1830735495950278, 0.14099181410236178, 0.15352883985691304, -0.10286677460829641, 0.21317365343623984, -0.038355384456141936, 0.044283581232186495, 0.03993154723397926, -0.020602020480812614, 0.1243722249668677, 0.12171561354176846, -0.2682125610707784, 0.2001146779638417, -0.25501462981252476, 0.1583863563399042, 0.17285074040688178, -0.16728300824445017, -0.06301327128870086, -0.1692677542704144, -0.03295976122212198, -0.04725030226702496, 0.11959446628733783, 0.20121209040777602, 0.21408812367539484, -0.08623263884699515, -0.03210735099420648, -0.2582276308643957, -0.12358400667428485, 0.14866419027389982, 0.24781909244893457, -0.18934047375102975, -0.09088378699844422, -0.003981379311190052, 0.04297476000990922, -0.12416120409072327, 0.06502659112786528, -0.07310398025474028, -0.0022294959187257627, 0.0838132419075362, -0.00029039984189038303, -0.06714746980893359, -0.016819871294754422, -0.020437616238116203, -0.05696711721290291, -0.03981793415957892, 0.24522128185940612, 0.07391975634732843, -0.04607860936641288, 0.10455495550116833, -0.050065531085571456, 0.18165186093123317, 0.056621248346836565, -0.016419834334270137, 0.06867447045605463, -0.24878106899254665, -0.17285047113018, -0.18133570472616156, 0.027713944388231573, 0.26583554281929567, 0.3416281617542411, 0.06772376846705237, 0.07753627004878748, -0.2786284892198021, -0.08251258179851084, -0.12288136908841808, -0.09522236946402035, -0.02392033259308392, -0.07496664332511134, -0.3036207653321707, 0.11472342403781659, -0.16519770703650646, 0.03766442353281279, 0.31774772137674445, -0.1410274495824055, -0.38877885822970065, -0.0451086458355843, 0.16884635605398252, 0.30039678667711484, -0.19009289161997617, 0.07756422849610002, -0.07148412876367297, -0.01592244747293867, 0.40578319569747806, -0.23053450663209976, 0.03893444341464454, 0.07173830723545654, 0.1646200216011941, 0.015011473541887749, 0.04734982634940175, -0.06038096103706464, 0.04129505311889059, -0.05211789923485919, 0.09256210672827392, -0.05678730186876637, 0.05767325968691301, -0.004812600053128379, 0.17266548429740458, -0.00788084401217216, -0.27114616462987523, 0.1931118656820036, -0.13893299280596036, -0.10028317852611567, -0.09137027154857544, 0.21082917936003143, -0.3275974699411574, 0.48130865382487803, 0.1619917197575068, 0.034243286257074006, -0.008420355314091528, 0.04380199556770481, 0.07993653149401476, 0.09897155293646702, 0.08522583461437683, 0.013741049239974353, -0.030270331866033215, -0.023204262462044142, -0.02989756541339083, 0.17391239393982608, 0.0910474449768846, -0.4510350272784449, 0.10061058635122595, 0.029871168682132902, -0.0028697922357751766, -0.05959601020806299, 0.17243101994945204, 0.14534392449092923, -0.11855402237654322, 0.06243897057095314, -0.14904533931418595, -0.21162376607419436, -0.09613403383361953, 0.13228511998561754, 0.14132710954773745, 0.078690781043279, 0.11124879635577793, 0.07920918181232817, -0.09839878490519299, 0.06625206152298616, 0.1233205800444762, 0.11562888406918584, 0.18298509186222536, 0.10864885045382269, 0.05354854024891137, 0.16263189675703127, -0.000595711374215293, -0.13488334516541403, -0.015985872746353786, -0.11458758574621618, -0.10356761962714267, -0.02216815213471279, -0.10842356754022647, -0.047020705346917914, -0.29046723038428546, 0.03259977851500293, 0.00017716866680422027, -0.12114394608388378, 0.1267719039716557, 0.14372734157684264, -0.24661644519512194, -0.11783213457595701, -0.11602890696245662, -0.14420160156363185, 0.1292215251606068, -0.03263380849049014, -0.04099712492768142, -0.30790815102193364, 0.10308087089782957, -0.18924044003930388, 0.008579640837424202, 0.04253805168285694, 0.20647241495259325, -0.21192463735355108, -0.4631681166109517, 0.028201232808322343, 0.2626893365617457, 0.19114370568358455, 0.030710477428108465, -0.07511681727442719, 0.13694364268684123, -0.14909631480006683, 0.07309933798158084, 0.07646865661065685, 0.1501052983835248, 0.42331252619319376, 0.06098844034664341, -0.07856128314787314, -0.0037638314016229693, -0.2655325342426872, -0.12864148428081423, -0.059568176996281905, -0.08206636847758564, 0.021821808879889916, -0.12489350525083581, 0.17193896463634312, 0.009762218986962438, -0.011363253993903793, -0.054090130881001154, 0.02370029664779549, 0.1276215172297803, -0.13282344058247925, -0.1010246278955773, -0.04659013284502092, -0.20419644243652516, -0.1264686199109532, -0.07219603729158845, 0.1341251776467197, 0.03993742100881425, 0.027081994735653706, 0.13236060981316577, -0.020707531228921654, 0.06497942817183153, -0.015778105853566968, 0.040704726269559614, -0.08951484758922662, -0.36782551502209193, -0.020492018839187894, 0.21838340193356906, 0.1413643735876623, 0.14811111233840593, 0.1936829626996729, 0.017796912040074164, 0.030607766501613752, -0.09499527451323168, -0.04984762318340175, 0.09530256484439424, 0.18454995082044326, -0.019854216617854564, -0.07371445930545553, -0.0014673336962934133, 0.09215132243599469, -0.21718307390032499, -0.3522281357344936, -0.0845869870807443, -0.18724978378245935, -0.07762884792692701, -0.012956644149416384, -0.06926795576843081, 0.2227983492753046, 0.04744862179915733, 0.047916810718099015, 0.09505600702457527, -0.17478281190388198, 0.15946139140865617, -0.011585097370473361, 0.10284703182495693, -0.1645066934978347, -0.23760891231046663, 0.12536372340697727, 0.05781812328498585, -0.1368319403105118, -0.13342779074828331, 0.1731569780533209, -0.18106456570270407, 0.251996967475296, -0.13838200723779776, 0.0975543022775192, -0.04999517523258067, 0.09325653082872058, -0.08022613683823701, -0.0284316184053978, 0.001258939137908107, -0.1543708719228138, 0.11790694312847373, -0.07928102137106728, -0.035156987366539355, -0.15252575435353144, -0.38652797105500475, -0.035803458965738895, 0.3723357587863125, 0.12035280378346139, -0.002872895113208965, -0.047343506223175416, 0.0073984868607917765, 0.08443454917187611, -0.1685406646967789, 0.17102173901575513, 0.10973637947161413, 0.1100694019797296, 0.07890347673911625, 0.0030254356624155017, 0.10327775511172488, 0.08802252453365074, -0.054283184549627744, -0.08033805393467512, 0.016962704330267274, 0.23773937576814402, -0.19016117174519248, -0.22799341226305372, 0.02617420927221376, 0.007670297143903117, 0.027735516878012113, 0.027615560444762564, -0.04173289842857943, 0.22804368864114008, -0.23215493964522196, -0.12684710980375422, -0.016270282379077912, -0.2520582393672208, -0.026674002570793685, 0.2566983853791716, 0.004735726954126559, 0.035342105158067134, -0.20126834145680123, -0.08458654964317246, -0.05607847285916357, -0.04877363860980949, 0.2142446984049533, 0.08542837469160176, -0.1704635148722386, 0.036836727520657406, 0.07545076172706087, 0.174720256488748, 0.24312996160474654, -0.16033969906487433, -0.12427808933559122, -0.18638828433249077, -0.035683853123391326, 0.07277123703224994, 0.15047858644420287, -0.014188999510378351, -0.046816534612156686, 0.024156422984536585, -0.11532678987824434, 0.3019532206108092, -0.2521341605739379, 0.027587378545567774, 0.32320384483489906, 0.002575317225067112, -0.02959014775533306, -0.05483784391670061, -0.029283269711178027, 0.2171825762067322, -0.33863140944667564, 0.235209646997857, -0.23369307307065573, -0.02547353656863971, -0.06726556447665008, 0.09022969318375669, -0.2288488773784407, 0.07060594461310307, 0.3105149215295651, -0.21126508140695605, 0.014675207422101938, -0.10226377327437638, 0.06623905515396841, -0.0034125732673825136, -0.09830475176587056, 0.07944297807373894, 0.2809141042747357, -0.027262212971127058, 0.10877775635398934, -0.20072098990407755, -0.14314123205393367, 0.07430562604884926, 0.2502823560186539, 0.03269646468027241, -0.04929919695288954, -0.00016665314642035645, -0.19020769085671504, 0.09212878527348366, 0.13518291602212817, -0.06934851591709673, -0.07330442350801265, 0.039664082480653624, -0.06673812775313907, -0.01015262152367822, 0.32160247940383613, -0.03701060650268559, -0.05575805534281214, -0.0993120558039835, 0.1178322397175461, -0.027858131447019055, -0.09957656748622958, 0.20246860891772267, 0.21812540392783167, -0.09217376926249408, -0.2858178709235402, 0.15417463730641845, -0.10495623335069729, 0.12298017881971111, -0.3063823234167412, 0.13717731966705965, -0.18628440197382165, 0.11245393132759761, 0.0027937164757946883, -0.14626271079806158, -0.06035393860329884, 0.09955030865800038, 0.016243467610504804, 0.08527126561851242, 0.29105575516955795, -0.22074706094135724, 0.24699576001396534, 0.016007856294570133, -0.13304032016870734, -0.1908837075201055, -0.029153453087130538, 0.13556501748534552, -0.007698999230811524, 0.25086856073127367, -0.22114904404207608, -0.013582526146044356, -0.1674124141634314, 0.047407252972168065, 0.13154356756059835, -0.06298547872723012, -0.39970477996052906, 0.03825883851522611, 0.07185016208602422, 0.06795292817179711, 0.18999159770020957, -0.15649203627525243, 0.0815787825777505, 0.17653419821116303, -0.2727381907022053, 0.04863906894672124, -0.07046941176946098, -0.014796675614714325, 0.07625083828556786, -0.07435805570687594, -0.10364888787965275, 0.012792977117752399, -0.13842772233246978, -0.19594845563177496, 0.10413493757271847, -0.17621696087267688, 0.07738771640146687, 0.04641927699941442, -0.26472666769991937, -0.09349547634849063, 0.1873523082835915, -0.1759230547919322, -0.0739853969325846, 0.0915685700014928, 0.07604219294717933, -0.02328171379305466, -0.08360607552355297, 0.2160497533959677, 0.23999076505487435, 0.13674257112046292, 0.003316313702077785, -0.13673212391811124, -0.1274323974419834, 0.0664752638956039, 0.06379569117365397, 0.22744179346106794, 0.09777629288687002, -0.23049713337029182, 0.14866751453778035, -0.14952192534286468, -0.08094480176594573, 0.042493381800810984, 0.30602153217663036, 0.47951003800276265, 0.10071454832409035, -0.03867440470979677, 0.0816865402257285, 0.1361577238928627, -0.05710743673449107, 0.26485532160241426, 0.03529312393174765, 0.08016224866961603, 0.09706954177840316, 0.052204788958943996, 0.12710649773897278, -0.08720028277583326, -0.10104530067257844, -0.16304015250243714, 0.0702854602962284, 0.11907307867177372, 0.06654565866306937, 0.25246050548685234, -0.0040878356665289654, 0.09950688641039938, -0.16750789549040404, -0.06305552612798337, 0.10876593740756277, 0.13489148185794614, -0.04613495092413912, -0.01045699137624849, -0.23789543458902673, -0.05339461695769692, 0.12131230379160836, 0.08624641079259987, 0.07812985130522997, -0.00782700473499314, -0.03349503952962179, -0.046069785169954386, 0.10672739234179919, 0.06457991258701123, 0.1120771425463613, -0.0527265290914832, -0.330337922502509, 0.15037972256371307, -0.0694846491313044, -0.09033146090249458, 0.12067087424981743, -0.08611663988924023, 0.2092112232282301, 0.0701600427486933, 0.09058764891659189, -0.20212155234753348, 0.23138935851199807, 0.06775283256809042, -0.039495809069801574, 0.026243302195081118, -0.27249597401885056, 0.08301212796283332, -0.15978278171191462, -0.2225522126920526, -0.2311292806696239, 0.15923917146348285, -0.07754608695163777, 0.22771560968365187, -0.022725041724051587, -0.2611620145609582, -0.171267030926608, 0.1715581927962776, -0.0729776730528047, -0.01717139628380611, 0.0246487208749423, 0.07697208747276856, 0.22646460187601183, 0.2846885830201325, -0.05517308668822431, -0.22599580477714143, -0.06330947975327988, 0.11237030233868764, -0.15301546159875884, -0.19384773620864248, 0.108135070485685, -0.03966064517825548, -0.012872450195958608, -0.11412693678946459, -0.032406155049012515, -0.11033233316877718, 0.15851887035194498, 0.187754964207969, -0.2831846794479056, -0.10847926517813193, -0.22955710868798523, -0.12428561737374634, -0.003888821928536545, -0.22273477651691634, -0.11547670836687457, -0.16110432372592864, 0.09235089414409044, 0.0003362995999055924, -0.110709486909207, 0.012929221498183985, -0.10896834842481694, 0.010753120812516176, 0.25669583275448526, 0.20561802833652182, -0.15894112776991196, 0.1755754055967543, 0.12412659565858637, -0.1936410110563779, 0.12616576921039738, 0.286998061741013, -0.1510585743888106, -0.1729663558238374, 0.22373291754291397, 0.01679281054749489, 0.07081925485462814, 0.05791707939790389, 0.07051711060436952, -0.17879154276095907, 0.17762522189361613, 0.1816660119578587, -0.035170531610553994, -0.009623080621629154, -0.23486116972435495, 0.05940213492711617, 0.09696752196351366, -0.009959594560191808, 0.19234541356932183, -0.05748483432207243, 0.1552280908049812, -0.10784900101908004, -0.0036127350265183255, -0.03164784153852157, 0.024579094705810465, -0.04099658142470109, -0.020039576468190413, 0.12670984884668082, -0.057301546264280495, -0.23789652393670083, 0.26829831031592305, 0.2069020684986952, -0.19683380687048105, 0.12162078540773585, -0.07945663900694452, 0.03064261344504591, 0.04782298768072532, -0.04252159557877863, -0.12424319762583398, -0.10228178264797241, -0.13646974867564973, -0.11929005861033168, -0.005771051841045748, -0.11275081999755827, 0.10478129756709252, 0.2333260212168956, -0.08911555415680579, 0.034534881904511004, 0.07860514605119638, 0.07018923268502064, 0.01637921634340143, 0.11169141036829883, 0.08656199035057706, -0.18968401086941428, 0.1317151814535579, 0.14872635000538298, -0.08763051352040217, -0.04052928338804163, 0.10424503534797386, -0.03210835169829464, 0.129189529907943, 0.31857197379228736, -0.12060658407516393, -0.19658327908240375, 0.04137852179251384, 0.066549492362285, -0.044495682286943526, 0.2532769795723703, -0.20876551474958055, 0.12800064403137154, -0.08063485186237468, 0.2581107805244427, 0.2750737320915223, -0.13999367225014106, -0.09880758841228493, 0.12232040041622397, -0.05947725019596023, -0.02149602510520968, 0.008539385319604595, -0.28176874808968916, -0.008081304583118116, -0.10558413332062375, -0.09281073872994805, 0.22779064716274605, -0.2228699841457041, 0.10764763398139188, -0.0422913110115328, -0.029291944335987342, 0.15271150798514743, 0.007381163690614352, 0.08917370686604449, 0.1484996767070036, -0.08015456592616102, -0.11759235390015285, -0.16682817446162382, -0.1125061968995401, 0.42379482977406197, 0.1256772100132816, -0.20513945563753902, -0.17687435099264612, 0.01792434766757302, 0.10251642294023712, 0.09546751079273728, -0.04513480587455687, -0.017763380315913537, 0.02631040251195587, 0.0009435347968183104, -0.34640045248929713, -0.03561022045887394, -0.14978733326014768, 0.04153151881371224, 0.47116129703752274, 0.05126729387675124, -0.047593530997079296, 0.12787112924248364, 0.08010463342095611, 0.01912475592464711, 0.074497678362773, 0.3005025966745143, -0.15380611186137955, 0.12343732926230792, -0.21985554119530168, 0.08496540306976472, -0.14092127979995234, -0.11228811800469168, -0.09833046039437714, 0.15375360963611603, 0.16604712934897808, -0.1907066118353718, -0.036539862582694205, -0.12529599818843648, -0.15017140962548006, -0.08148504984235148, -0.01231472147693288, 0.3922661427927137, 0.05784764491310846, -0.2154974515477226, -0.12283696286920645, 0.13220164870482276, 0.3048457944344386, -0.24313644322331673, -0.28808175522923746, 0.29122907680368965, 0.08710303623540198, -0.14357522419867214, 0.0901291281190478, -0.4277610118627254, 0.010053496401319108, -0.03667788955656278, 0.10347523256150373, -0.15552453954848805, 0.010766511223320117, -0.14278874515523116, 0.05148998500876468, -0.1384603175301241, -0.06259942490818368, -0.15426970165031967, 0.10801307195710888, 0.13153668081601144, -0.0390745789674554, 0.0240314297750646, -0.20911914860580286, -0.04545691671587692, -0.014075507578219576, 0.41522688094551147, -0.17495466216239924, 0.22217618279428106, 0.1538858560182426, 0.030730799993853464, 0.2739818450747978, 0.05949218118822218, 0.05968112024980544, -0.007734921976447665, 0.19212678646004627, 0.14473085467069224, -0.09831237506299452, -0.201891402598019, -0.032191474342518005, -0.11914382456478394, -0.011136275008679211, 0.21066196788034144, -0.06729565266346083, -0.006169436191493202, -0.008217099795259707, 0.08546197952498479, -0.28152136212873863, -0.093135278143989, 0.03241278869072457, 0.23352685918165178, -0.023982576641366066, -0.2878505011630694, 0.07396582896093523, -0.09579087588937293, -0.11967783213938991, -0.0948152185256724, -0.06872940193145943, -0.03973098631972638, -0.36806834437726993, 0.12086379863956644, 0.19937134846224538, 0.11624379094868194, -0.1444097012903151, -0.010602023951872125, 0.020138418763092913, 0.09184515374398707, 0.1321822079074892, -0.11304997970249131, -0.008954014506188943, 0.07700872222580257, 0.2194609674864688, 0.1318867003955673, 0.11377483453829192, 0.07353721765226896, 0.21017862818340394, 0.06235137459245153, -0.1362648033933745, 0.2075487425046125, 0.12445675788443714, -0.06808407931778757, -0.07355524472584468, 0.05678358471614535, 0.08853973453696738, 0.02995242314415257, 0.04215046593787754, 0.25380807662096255, 0.1771582415578859, 0.028186406075347455, 0.13224265294637746, -0.13896469638624293, 0.05290762578224157, 0.2731239912956829, -0.03377155096052158, -0.1448954221623496, -0.09314671315713378, -0.16123176675843937, -0.11426763927749603, -0.056814658367108646, -0.21107493872248617, 0.001732034588663013, 0.13169882332856173, -0.13608695466289628, 0.2320043893540381, 0.08506368254851278, 0.15696239178484306, -0.07465104729133104, 0.12693049174366414, -0.16725081106153414, 0.1260621225462148, 0.005398965081084268, 0.12284141133295014, -0.18031526086803512, -0.13729706594851313, 0.11829962397349539, -0.11735358507656303, 0.07086535286028824, -0.22218176293878886, 0.13035126511307854, -0.15557581096193254, 0.09285188883551478, 0.07395621342098, -0.07157327452496406, 0.07190793145723447, 0.03005495677644864, -0.07821958810914875, -0.14308968005037898, -0.2827463378791344, 0.06574996815640456, -0.2371898219365984, 0.01471195489544413, -0.032726934799057854, 0.10180234224195665, -0.05795945706674676, -0.04602435877459606, 0.10838117052405011, 0.06503624614135517, 0.04384986071847002, 0.11596234642153538, -0.22383004594408315, 0.11618603573254213, 0.09704200805252669, -0.1434364352103282, -0.044876459932579514, -0.006832906816841928, -0.020635601411149503, 0.035793304023212714, 0.21367533703404334, 0.1656805674256479, -0.1979608340673862, 0.10361530285534809, 0.1876697691845775, 0.06013307118023563, 0.17306191442008362, 0.2961948829200435, 0.1614829307085994, 0.040852545459615, 0.1593000841358779, 0.009392167767122449, -0.0017788359311992998, -0.057215389038431014, 0.23624165691756338, -0.12524366270429999, 0.23148051730489996, 0.05830674043660566, -0.21025083127854946, 0.05420245338945121, -0.32278281658852337, 0.0925459603514952, 0.13697184128812118, -0.0937948051556224, 0.015182852327508538], "policy_b1": [-0.014833060642483863, -0.0010069170584375532, 0.016855511715980355, 0.0006089349664285474, -0.0008634503716950419, -8.940523341611188e-06, 0.00085760261037927, 0.004649687853527127, 0.0030839601508552508, -4.554770079871796e-05, -0.016411064582449023, 0.00820966920371082, 0.0016356688841556468, 0.0006439107822605652, 0.029893041236222502, -0.00016675982680905074, 5.270607413553214e-05, -0.0022643166270739355, -0.0008425835744426207, -0.0005402214511085941, 0.0012696017122493864, -0.008398332038968628, 0.00017157589433578263, 0.013683580906586038, 0.00044260894289486856, 0.002673938655907131, -0.001926894341734787, -0.005408138575985469, 0.004472782027007408, 0.0014777226531447999, 0.02442894102820902, -0.032315618519726204], "policy_W2": [0.4830353382774145, -0.07624445703588233, -0.2458611417499171, 0.35004869315124826, 0.49044245586697827, -0.0006045343332737226, 0.31305040461318545, 0.32932796882242843, -0.1895362935338575, -0.1353851032557021, 0.26582938369971926, 0.3934470136498329, 0.14958329625289254, -0.2600726543731024, 0.5203234295234688, -0.1928550022712901, -0.08868015864165084, -0.003498975001423954, 0.3799737308321043, 0.123673534378708, 0.12823901971031518, 0.1426440844464447, 0.015261217005974452, 0.15922391278863735, -0.6318620698250871, -0.1599021719378035, 0.07095747404460173, -0.28267017080482904, 0.1793373237207393, -0.04331311989181909, 0.4930364157865197, 0.3341948033296948], "policy_b2": -2.42726921380719e-16, "policy_temperature": 0.3}