{"type": "alphazero_linear", "value_weights": [0.1537512299693088, 0.1328452630106856, -0.13953693150312152, 0.008458833329324586, 0.04085790385372402, 0.043433511863763236, -0.00034248348752958726, -0.005572722159250413, -0.00016141704277619718, -4.184791599934005e-05, 0.09717023040830484, 0.1271098223646613, -0.4606784218038383, -0.027836378571644636, 0.4670113093518061, -0.1471488561548201, 0.10100913742638436, 0.04380821159417209, 0.04041741707041359, 0.004234583344882561, -0.011724648682850771, -0.00011658113726919421, 0.12112149086976745, -0.02150349102367722, -0.007550457569907672, -0.04217268354416502, -0.022528328672672047, -0.02150349102367722, -0.02150349102367722, -0.02150349102367722, 0.005409553649035129, 0.0012366592043311577, 0.11275142864400285, -0.022936379779965772, -0.041668182163803566, -0.5948163715133535, -0.04000358212919937, 0.011081452905273959, 0.06960446986918624, -0.0966323148052894, -0.04524477944284204, -0.04548461842303954, 0.0026629946650797848, 0.07909555117369367, -0.038481966950745815, -0.061506185733293924, -0.042254270363856844, -0.050365102062981955, -0.10607561014470172, 0.0918885952148552, 0.09870297227793345, -0.09246096348519224, 0.0, 0.012890572549857236, 0.0011557017842757488, -0.01333638249859724, 0.011235834574243944, 0.0014746018225796687, -0.05685022768882389, -0.04640998979802495, -0.0031366429576367523, 0.004568932002232295, -0.06112923072259988, -0.1983161057660472, -0.012022568017581893, 0.12811332542230658, -0.21305552692013827, 0.35410190897673377, 0.20077741985151715, 0.013783907782398736]}