{"type": "alphazero_linear", "value_weights": [0.0, 0.0, 0.0, 0.0, 0.0, 0.0, 0.0, 0.0, 0.0, 0.0, 0.0, 0.0, 0.0, 0.0, 0.0, 0.0, 0.0, 0.0, 0.0, 0.0, 0.0, 0.0, 0.0, 0.0, 0.0, 0.0, 0.0, 0.0, 0.0, 0.0, 0.0, 0.0, 0.0, 0.0, 0.0, 0.0, 0.0, 0.0, 0.0, 0.0, 0.0, 0.0, 0.0, 0.0, 0.0, 0.0, 0.0, 0.0, 0.0, 0.0, 0.0, 0.0, 0.0, 0.0, 0.0, 0.0, 0.0, 0.0, 0.0, 0.0, 0.0, 0.0, 0.0, 0.0, 0.0, 0.0, 0.0, 0.0, 0.0, 0.0], "policy_type": "neural", "policy_hidden_size": 32, "policy_W1": [-0.28793575729902576, -0.3440056649636308, 0.08598073246993614, -0.0877797604396692, 0.37932954625775733, 0.23996149671646297, 0.15398552955921832, 0.0015409938104632267, 0.3958758271391119, 0.07992706640581934, -0.24691252443176384, 0.04154582453052111, 0.011193591376482907, -0.11076295212773493, 0.16835203338683868, -0.04729586564369019, 0.05095321106105646, -0.10280785867486891, 0.07930451552996912, -0.12289968203241539, -0.031712795764677754, -0.18761647748819352, -0.004562764659198603, 0.02908821382016993, 0.03785033604917486, 0.13332422384442677, 0.2454954939904806, -0.04902011125855826, -0.012813198741521105, 0.06376589942276668, -0.02399766215373151, -0.03328685871602117, 0.32032309916646134, -0.11126962550830816, -0.05540784203423661, -0.10656785644132767, -0.2834880053688415, 0.027030965938152702, -0.2040709120442912, 0.07898721730819849, -0.1420318723765523, -0.04365923880575335, 0.08941899962930056, -0.32538275917582316, 0.182747960437186, 0.38139059531693065, 0.045662040046633025, -0.27796043511621105, -0.002073045871927683, 0.16433171162440652, -0.023866613124385525, -0.06965525167907868, 0.024497228057046523, -0.09309364805938122, -0.004428243505981302, -0.046663919565199656, 0.10771885525005517, 0.0462645484367221, -0.05904765282835508, 0.10774659168755726, 0.2502001050109563, -0.14777810412393516, 0.25124492880036836, 0.05495201104568036, -0.018889268735283835, 0.03645992553342055, 0.29664308900812175, -0.102236200242523, -0.40321978408153397, -0.14764446383906926, 0.013531778049016615, 0.07444262633594766, 0.050150414092249136, 0.09456245062539283, 0.03850272398974949, -0.25596583024533875, 0.24325421076845313, -0.05342643108221023, -0.23279119352664357, -0.36668481390568763, -0.025061184203875916, 0.06017880779725664, -0.1993124465721874, -0.20292393684597484, 0.07704742719344422, 0.033924400167476214, -0.15772074953242687, 0.20173315896005878, 0.04084558444480762, -0.1579506050813064, 0.0021777164935497533, -0.06208899369709448, -0.06381554736971463, -0.05290068784622846, 0.12279655683761415, -0.15356703928037221, 0.013017784029226247, -0.11168012800019136, 0.19850152112538808, 0.14041605524607248, -0.06360286605196168, -0.08238163042494237, 0.11674679627275361, -0.1592743061904177, 0.1366001807896015, 0.15084174727813754, 0.10936196355270499, 0.046683298068720555, 0.1937320420777744, -0.2963777724875317, 0.18395554363282945, 0.06058335804437816, 0.011586248300878189, 0.08776920296295818, -0.005621291015903143, 0.037991493632831885, 0.06362933120399848, -0.3237234548227608, 0.03306196164885086, -0.24053209709994608, 0.10104497849150162, 0.15980287775209437, -0.0812317081412995, -0.06196773243360817, -0.010728741166527705, -0.2711935732453785, 0.15030780825044862, 0.31705421515552834, 0.12322525398299787, 0.0663180555517062, -0.1032923608957459, 0.07792226106505176, -0.0959667159172363, -0.1596235540080893, -0.05129051920734357, 0.11642653683014216, 0.3053428274993262, -0.030277792947449964, 0.32567399888999954, 0.19841781847989154, 0.0026954350500646923, 0.03592396082433321, -0.22835025044083535, 0.03555392865873292, 0.05895098239420911, 0.0007229197281949213, 0.08121310597293445, 0.0222242837746352, -0.019128158994662112, -0.08926253448470024, 0.2958602360976879, 0.19296203666464393, 0.011715788155932237, -0.18240732363714324, -0.09770413292918277, -0.010373189772457948, -0.20614780468138097, 0.32077568505218196, -0.2435718655659887, -0.06529698934693431, 0.08380073585608201, 0.22593008415088706, -0.1375275419607303, -0.09135169664947873, 0.043898042419423924, -0.14146061871368562, 0.042901397628624036, 0.04620265106752223, 0.3149345788703488, -0.2783054404280391, 0.012974210057516162, 0.05617033315775652, 0.10793010373786238, 0.05128933868152879, 0.060854843959515556, -0.3114244834939389, 0.11340174353922271, 0.03725595966476358, -0.0652559463752778, -0.047453497140813594, -0.23703981137334526, 0.12624148129950655, 0.22246239882723665, 0.07204369985079762, -0.1392935176082395, 0.08163438196873232, 0.19844878636754873, -0.02299415179190067, 0.13226093773267156, -0.09512738041369223, -0.12464658757589842, -0.1152090773697745, -0.08487261428176046, -0.3680988820054087, 0.32350363798499393, -0.03601691970342036, 0.06097634860763643, -0.24060438122772457, -0.10087068240335885, -0.09673380738233446, 0.04927113829776803, -0.0017249738091911627, 0.007342116528259113, -0.14776595542325252, 0.08521516448455523, -0.13040384227504323, 0.3449951158592876, -0.10545031656612185, -0.13449921563792774, 0.17224537836135714, -0.03611404112256474, -0.12743430756440904, 0.1646482029515244, -0.04733357301839346, 0.012287971794161474, 0.2874769504637559, -0.1420287976638782, -0.15686626646609822, 0.07197116939886138, 0.10138015955485342, -0.1582892312548677, 0.2788638419429782, 0.0031446581243517614, 0.09934724134955629, 0.041430603157107664, -0.37540965465955733, -0.04908322143000939, 0.14734191915003378, -0.15173003901045418, 0.19039701695052721, -0.054344790095330234, -0.14644619866610167, 0.22027212504294766, -0.3874676094620039, -0.03695649694064158, 0.09932517602302555, -0.1630343286551869, -0.03614265538020265, -0.02545764276524698, -0.14468789048403674, -0.18860261519782986, 0.1465904483127563, 0.10819547727604144, -0.20416444934235975, -0.10924850975225375, 0.060343572348387595, 0.02111652096318908, 0.18328071174661179, 0.035909265854300876, -0.18301007626297722, 0.04820407753009416, -0.17031020655008605, 0.11426885479527449, 0.16763235267322363, 0.2925623411924078, 0.1767092751294125, 0.13293841302478357, -0.10455943707647895, 0.4049399886319085, -0.03216042738912441, -0.039031861165356944, 0.26202623197971603, -0.028727269532431043, -0.004621458990079146, 0.1918777597558641, 0.4409834561036683, -0.10871140806942015, 0.24725522768420033, 0.1712775516224859, 0.049689922375608396, 0.18760010747495337, -0.06949172776310882, -0.2639233055914698, 0.05405077255336746, 0.012285802919957182, 0.1842642472644855, 0.23496350947825048, 0.09927727415770835, -0.0103931708291149, -0.008121699930645, 0.10399009810692743, -0.05551565022716475, 0.19216455202503238, -0.10504296587978375, 0.17224239208854514, -0.02992670913119015, 0.12691337043774786, 0.1623952222182507, -0.04847256017180591, -0.22197306409581177, 0.1801429724830683, 0.08507247431182006, 0.18212046827138395, 0.18740239783122511, 0.0065145029275384195, 0.15870939975415876, 0.2893341004669163, -0.10933385822687006, -0.18789041085325905, 0.04883925501941703, -0.18829127843489912, -0.018550352639205056, -0.020790545199733196, 0.04857025518968634, 0.0883043979176477, -0.04060617062334054, 0.14282966683426093, -0.17420147187678248, -0.22286719913631348, 0.18208997707840913, -0.06094518778218325, 0.24716575642038138, -0.1196351521048747, -0.05503537084488993, 0.014180732121660971, -0.2634240439330256, 0.1692437983701312, 0.3184703201880416, -0.061036747033205975, 0.031226412097384484, -0.09901372449651681, 0.01787753980885695, -0.037457589853886974, -0.05841657270281707, -0.058108986120439965, -0.08610028131187637, -0.19542801558671935, 0.08829899094213409, 0.050173596713070895, -0.1527422648720916, 0.021064993413928586, 0.04093659464902782, -0.050339098983189584, 0.021323580786417405, -0.08724447244353076, -0.016679255481902185, -0.3324936662758687, -0.04389839300362143, -0.09392652265943131, 0.12121261530014234, 0.2809720475787417, 0.06272972513712008, -0.21668462113221595, -0.020929178887969795, 0.08190755034811947, -0.04105478797534279, -0.10105805093572523, -0.13417179922600442, -0.3804909058481252, 0.41906801335027516, 0.04901980401616253, 0.17871346965149784, 0.04524830619419856, 0.04144016064811942, -0.5203919601711504, -0.04327792957219503, 0.028820985910983397, -0.17636553383017683, 0.10568144313659511, 0.12657266161628028, -0.08815036280713355, 0.3179790730621499, -0.20732902731718766, 0.04101101766471064, -0.10421236508398377, 0.019597749495121407, 0.16613319816762967, 0.06980700788077951, 0.030061145029806807, -0.04066048552216967, -0.17326017285224335, 0.13637364792572715, 0.27670346236796356, 0.13397072334688484, -0.11027525558452665, 0.08930610450169503, -0.03547368172748602, 0.21505967995146744, -0.011887075826705585, 0.2946682659655554, 0.26071701753244075, 0.09718820163238391, -0.1368170086854797, 0.04968751221921503, -0.15884579885738687, -0.08002852867124521, 0.2953049590271406, 0.09215981878700456, 0.2801932898185239, -0.08044229598429879, -0.35028595268196056, -0.09634804998732845, 0.010964041996862302, 0.1826528133081264, -0.2733276739588032, -0.017435291346556615, -0.274819202777923, -0.047994648171480435, -0.04791001918489121, -0.10185579609117872, 0.2402167776543487, 0.01461344235190093, -0.24785875881750835, -0.16194529652923714, 0.13851790346142281, 0.026534414901990207, -0.1811991424721011, -0.13183244351889004, 0.042712361927775264, -0.053404114032388365, -0.3165754277296032, -0.07184369030630117, 0.1442366303756781, 0.03835776278787534, -0.06827996745619345, 0.03632284907658836, -0.010783790240968844, -0.08318783516844701, 0.21126093781302677, -0.02065138465446715, -0.08960058122907937, 0.021405952651066287, 0.07735660791364066, 0.03451920310144766, 0.09538274259915967, 0.1933051521933172, -0.12473592512211337, -0.325004042949706, 0.011173417340584597, 0.0011856493065015633, 0.5337012160827378, 0.0924544924345986, -0.18169602996667084, -0.07569184346206109, 0.012629750726150451, 0.050050309235316635, -0.35432236692140934, 0.026948947062234857, 0.1747745824908571, -0.1491536101721167, 0.013860481345336163, 0.11283138356143628, -0.02951484494336249, -0.13381620048211482, -0.02025707844844441, 0.1268076866088762, 0.13226446957556712, 0.07671217680575132, -0.18518079459260925, -0.043282440249424015, -0.019098768819828832, 0.10843936432565437, -0.10487089266411781, 0.014642637893901597, -0.06590222741852574, -0.3008193460629426, -0.14441159443966672, 0.23425237353123002, 0.06319931359658235, 0.056782013875602035, 0.13335190263128274, -0.3348211934091736, 0.03548985452803009, -0.12456357317867886, -0.0749453169149206, -0.02275641653929677, 0.07664971195493125, 0.046495040168399546, -0.2960853494280353, 0.11924416408045199, -0.15569885511677267, 0.36440096156090457, 0.11948368317014435, -0.03495351228002581, 0.16516417553255133, 0.06539659228476691, 0.03358738906231996, -0.256282082796431, -0.08639595847008867, -0.11830793118247362, 0.017495210916866344, -0.05290676812149272, 0.006198419209257176, 0.10141421164124306, -0.09592484517495331, -0.12340950302008277, 0.08965653481458906, -0.030876500829272537, 0.04608914035747695, -0.0019972072645724225, 0.18458609565651826, 0.1907148491791745, 0.03505317201744336, -0.0029935251863173885, 0.15025058408233607, 0.04566713475247771, -0.15911139051986697, -0.053481005378558065, -0.014393226249990586, 0.16827381349679293, 0.18902591340978592, -0.048262531794221866, 0.07911761253627554, 0.0737122608601752, -0.14780752794657082, -0.08478748312521729, -0.07156068018769739, -0.23897108713068696, 0.09087208550432659, -0.10382160004636813, -0.12008338981784063, -0.04894887932425568, 0.04381482738445603, 0.0019376684036115912, -0.11645239346205298, -0.005465514692065091, 0.0159442860597627, -0.058293615478867716, -0.19639366478330286, -0.18113114041932052, -0.1299412566889244, -0.08129736709942274, -0.11322166315543708, -0.25079843095438503, 0.026574740326479943, 0.14025512987484187, 0.17643633024557925, 0.21230229349025104, 0.14626152210695872, -0.22605239372022895, 0.19606033933516678, 0.04078809776468587, 0.043943057622645755, -0.1252028386503622, -0.09331654444305326, -0.045033519585370274, -0.08426900865152451, 0.00299987699597044, 0.18953994605277882, -0.11615620492483196, -0.07650463449717547, 0.10766164974872776, 0.0005140025047924401, 0.1797530155884675, -0.07510022320382996, 0.21075588992299676, -0.02193043220900745, 0.05743843320223496, 0.14150552609529538, -0.10144664296017926, -0.23044341519166245, 0.021719461246815605, 0.15384555681054338, -0.08458866852388365, 0.0797711061130937, -0.016590263169746138, 0.0001645669939794686, -0.24815473757633147, 0.21654119811070854, -0.0254850223490724, 0.23338910412147637, 0.041648013538026045, -0.1795845220525176, 0.15497129767788104, -0.4029049705738236, -0.10141012265722109, 0.20074547306380042, 0.09696382947655866, -0.19058121464189795, -0.1812002122073776, 0.0003150886027954957, 0.24371948704339208, 0.24987553984235247, 0.1124051306301314, -0.026855518413707487, -0.0628939327258595, 0.15833453632526454, 0.04044840491007105, -0.00023755150641756532, -0.03679662245199391, -0.09634280952471344, 0.1343221002985282, -0.04858410059573257, 0.23159699500393327, 0.019591605972258973, -0.13023338716345476, -0.18364160297558224, -0.13714135664417357, -0.1665407496504318, 0.10951184731838569, -0.10973200527905744, -0.0866352700730268, 0.10602817293098407, 0.01750363521678169, 0.3165161106686503, 0.2223864290910579, 0.23366063817124086, 0.007112020663399586, -0.04113593495876813, 0.010027335762071316, 0.20359400108613268, 0.11883589633736913, -0.01996572580218091, -0.152755977910907, 0.20301378561796216, -0.09624537481733274, 0.12495381335172134, -0.07457854564901348, -0.05882189353101147, -0.13596982869056184, -0.056849402148979954, 0.08938925491438907, 0.06459995120566431, -0.22954527434919653, -0.20506507754278588, 0.1781144824992228, 0.16535810423391506, 0.000693106536328259, -0.07666586068320244, -0.17609006360327265, -0.08630186891459046, -0.1996637296478025, -0.011197806589138923, 0.0024883941547352325, -0.14527404098914026, 0.4237175557292244, 0.03199909701937552, 0.1204609248272394, -0.30890230339555375, 0.3098880400055488, 0.053381321584385064, -0.1339036846133571, 0.17014699326432417, -0.3351830358258631, -0.0190204726183587, 0.04577317455856755, 0.06403285367922684, 0.1548533669454408, 0.18356788249564265, 0.122788772978197, -0.026168475466675, -0.14341425631786797, 0.21694569336970837, 0.04354473976801016, 0.12107767137636023, 0.08212234661302052, -0.18503970740307882, 0.0032255574794675885, 0.0309449007550661, -0.07440000498802203, 0.012910487754407, 0.06927224980414032, -0.005208065156975135, -0.09134731409297889, 0.018565409906068104, 0.15466471866282602, 0.19524926571735585, -0.1961436653257931, -0.14735145603020142, 0.11432524300623832, 0.09534928452259178, -0.02370205160332506, -0.13091776724917653, 0.06900684257041478, 0.20828152641402345, 0.2346873968143898, 0.09146041725209134, 0.17696854354980612, -0.1435315151010784, -0.035474209197083544, -0.07726999161952372, -0.21742268857272404, -0.0019873573793127977, -0.1671951604883345, 0.3173066639717135, -0.14921742755492412, 0.15175208661256437, 0.05185091538158147, 0.024286206665310416, 0.007254646137094608, 0.17644627281141895, -0.1166759151181293, 0.08908824666883151, -0.05998102746042454, 0.12598912520183542, -0.13882386717384723, 0.06921831699089076, 0.12803371897750337, 0.18258489176672005, 0.025686708588856667, -0.21969304617445068, 0.11475952440595359, 0.10088243368544654, -0.19923197626319822, 0.027034346601448375, 0.11662967364524791, -0.16560023075933128, 0.09610757305878447, 0.1265668526168707, 0.26791366020114343, -0.2741297113176477, 0.06515883823301613, 0.04668734298183546, 0.25090378210934333, -0.020729239220690712, 0.09982953799331386, -0.0006750571162024764, 0.07692818943998035, -0.11894760863199058, -0.07370967089844949, 0.10920029276658999, 0.19206297157104094, -0.08026506637448255, -0.051623445044328434, 0.2145243142426132, -0.11984801190966804, 0.26073266634756126, -0.1375667930206612, -0.1797194199060573, 0.03231906890503176, -0.05909840744432476, 0.1880449541027325, 0.15814016578973855, -0.027209708739652866, 0.09329995812958054, 0.2695346891376575, -0.12147850144158985, 0.04770011426543639, -0.3468522297872228, -0.22461734315098011, -0.365725544567378, -0.2569385936279665, -0.13759984313822987, 0.009633767642172966, 0.010013088896826573, -0.039453347961837526, -0.09500111726664587, -0.09800939413866523, 0.07950169542778758, 0.2682999639694263, 0.013552023822514987, -0.2687282871141067, -0.11435653358377741, 0.1908999494581531, -0.006635782236140171, 0.11740657907412926, -0.12586216465896563, 0.036279304658859264, -0.16293155497683448, -0.20695449770768254, 0.02685041931146511, -0.11843864330625074, -0.07726385673743316, -0.2645584669487658, -0.11616918229725859, -0.1240333592649002, -0.06645138270368918, 0.05614101451943883, 0.027027835391346906, -0.1003607804425088, 0.047920591169459695, -0.06520867634091601, -0.08036542822600441, 0.16383921773528085, 0.10387913763418026, 0.19182278557361337, -0.00953583180384781, 0.284939860591598, -0.003346216111990118, 0.17696538785918373, 0.20246905406115506, -0.08093793013495212, -0.046595496065033284, -0.0068125268250004015, 0.32226121318299394, -0.07194739899747517, 0.235162204418526, -0.061532147715021336, -0.25326807610795526, -0.13102048574619515, -0.08353438571337374, -0.2324624327291816, -0.23105955778807696, -0.05249059214271003, 0.1528619408191097, -0.09879652574830398, -0.3394985862858361, -0.18669502334500382, -0.1686370274064696, 0.2551012226599165, -0.17123609492161687, -0.14765166896106452, -0.013022066814980603, 0.11257322236339257, -0.23751338666278204, 0.14830523142952207, -0.12210003362107232, 0.11510382180931943, 0.1000024885321801, 0.05362561599800764, 0.059322448337288565, -0.19952790397142986, -0.18637854457878045, 0.22254147759726634, 0.034376029464596204, 0.09912743249741764, -0.3039254075214968, -0.16931729803968834, -0.12469284154370697, 0.018667294656998068, -0.32302119316896877, -0.0732151920586113, 0.17868655550668996, 0.08514544457599658, 0.1522424408403694, 0.05978947857739866, 0.07496915411373183, 0.17050412409831295, -0.004919398749253535, 0.11089975528377063, 0.11039264029716014, -0.3921131188204761, 0.22340585547244268, -0.1789561417775164, 0.014683904701638295, -0.1909628037521085, 0.21681392061732388, 0.13489278346993655, 0.025294106407771123, 0.0783944172135354, 0.05087765486833302, -0.032074104413214156, 0.12759934486368063, -0.20103449037551718, -0.33501011593023616, -0.14868133661846863, -0.21592008134863347, 0.08696971677743569, -0.049093802282497295, -0.03411647346274139, -0.15498220909307153, 0.12230361686380035, -0.15386658313422993, 0.09041066934336914, -0.004164833376497877, -0.006438878496045845, -0.05541206310323973, 0.1342596291357169, 0.03944966877337935, -0.05695577883083923, -0.1612532023837478, -0.112947251902155, -0.05988086600022182, 0.024126864578859493, 0.1433053742256125, 0.15996918769127394, -0.16959880557068358, -0.14295697912844552, 0.17759393682941624, -0.14817529670102392, 0.06275152641119246, 0.034397566605282294, -0.12370608189736504, -0.03529831348832332, 0.19598033203836623, -0.1049944956369881, -0.2886649673626468, 0.1174232947955721, 0.07321555585925932, 0.29407494906586645, 0.07820716710936633, 0.10553373419281269, -0.1304908234089477, 0.06462112138060154, 0.12750712121832053, 0.0012864971705867357, 0.005990654425038364, -0.17761653540594557, -0.0500363322828154, 0.13299091796035317, -0.021511385931276328, 0.00876605202641522, -0.1555636085576681, 0.13273920425796776, -0.01108930681736573, -0.10758801589013711, 0.08766020800368111, -0.3349841391313904, -0.191600537465407, 0.15688063801270774, -0.046877824686161265, 0.1106761458817176, 0.10831488783078767, 0.13067353337158322, 0.10959618702993112, 0.134284321726772, -0.09146695082763139, -0.044385141692349014, -0.014859044126970736, 0.0013379928446728346, 0.14764459885962986, -0.03457000428605459, 0.29458608561129207, 0.1350393660007016, 2.1301964547871426e-05, 0.037065844294676485, -0.0618314404371778, 0.25907998351641487, -0.10488342478338555, -0.12676448118723785, -0.1739881575601628, 0.08780253137253159, 0.0030919994141873856, 0.054642235987710557, 0.04251550571392601, 0.20280161300651658, 0.10712229216589715, -0.18519174411419273, 0.06240405278465694, -0.14867680793015267, -0.05604552349381514, -0.003759734319033366, -0.2529840210318619, -0.05793075426113672, -0.21877131802411606, 0.12774636043030346, 0.048409074356158745, 0.10370706886437976, 0.07171102046251779, 0.0010211627180153535, 0.09272823126437704, -0.02451402204449894, -0.3172529857977623, 0.01698458267147164, -0.13257301660457368, -0.04335844507921972, 0.12948184886806258, -0.15754975507000443, 0.22951489506284858, 0.005699150160951084, 0.3100253376973404, -0.09955784370358862, -0.03348292217173494, -0.08211157572422173, -0.06020867934106903, -0.18776039564528899, 0.16668832536992478, 0.14336971094978335, -0.017882822839289728, -0.07993006860248653, -0.12019756727800353, -0.0538892954541633, -0.09471065427723217, 0.18115507136731507, -0.07997323562593844, -0.13912183843260814, 0.15894548118331636, -0.2835844112439031, -0.07522057759332072, 0.0024536708721852726, 0.025133842764524496, 0.08673570286850428, -0.17207956667736632, 0.06623663940920367, -0.07439093016449405, 0.029125431144157603, 0.11237017236029871, -0.21108811590925083, -0.05025791542197781, 0.20838638512098676, -0.2757086661025393, -0.08674229363609406, 0.2449551741956474, 0.08747982109797428, -0.2210947160932799, 0.06381645270796614, -0.08732777730059653, 0.2246607056432404, 0.08080320417987298, -0.33195062077820076, 0.08283219156721834, 0.02560793827139392, 0.023089204154464808, 0.13283858069569848, 0.029414031777322505, 0.04664551929745941, -0.1408634729554653, -0.157934468120974, 0.15002298775676362, 0.006709693354943934, -0.17596922554360464, 0.0819388324543207, -0.17726800238874776, 0.051858703114368895, -0.13663687064046717, -0.19011514213837002, 0.19433961989196924, 0.004838316165707544, -0.09820467388659927, -0.12890294436065733, -0.09882051104199917, -0.08144377745453156, 0.09431832338861465, -0.07133008147162852, -0.03798253085131814, -0.08773863496069699, 0.05514550342671609, -0.052105305119719426, -0.08346514542457523, -0.1349271909976492, -0.09047593666244341, -0.15787504031624097, -0.01999955966771655, 0.03253461914643061, -0.21386433278242248, -0.1285445456302698, 0.05755507555081473, 0.3226604829449957, 0.01207870362035786, 0.00781392327512931, 0.01679917746794647, 0.029553507560083393, 0.08803898583516596, -0.29386677286770135, 0.1505591397693232, -0.030788773381965433, -0.0020709488207485247, 0.013418776325002043, 0.31013548650295414, -0.09334937872298048, 0.1353900583729129, -0.095881612983408, -0.01788580422960556, 0.06136452529129947, 0.2365717652821343, -0.12538375916662625, 0.015456350382422334, -0.24440387330093463, 0.06085875670781294, 0.11763244499932939, 0.2145538140854394, -0.2180584026973536, -0.05281096709450724, -0.17434142762004637, -0.0384809531054499, -0.028796570257962072, -0.09595611237750225, 0.013599878240759405, -0.10478119277001635, -0.29925775371739566, 0.13947630497240648, 0.10659549987273388, -0.2291691941391358, 0.061791489053376086, 0.3370045130126723, -0.019249814644999343, 0.152526667257735, 0.1922205764971273, 0.0025494130284610442, -0.10042223369939855, 0.07482963531795613, 0.08360012080636656, -0.2275659430127448, 0.19417360850949497, -0.002422165750989432, 0.01045358303620921, -0.11839010561575246, -0.19459387793822672, -0.16181831517811054, -0.0797012397065328, 0.2903362944819737, -0.21522172829314642, -0.19950184767726634, 0.11985015816490392, 0.011923589820630803, -0.1036416949322599, -0.024590335187604857, 0.07647223657572225, 0.060411042897039025, -0.2093200929072976, -0.18115991058892605, -0.2019338265041373, -0.03213107160802103, -0.20694223262223443, 0.01877410662098298, 0.05364180100119191, -0.5263032726864949, -0.2994795966018403, 0.05127838863776385, 0.17969043540672777, 0.44393399671768174, -0.08286337790872941, -0.06293138465385915, -0.10792492520366138, -0.13162149858898786, -0.12128492290539025, 0.0025549286538683737, -0.013739432132547361, -0.055792361773317256, 0.00848511873464456, -0.24291539515308874, -0.17517975451026135, 0.031834983838951086, -0.09526572205891372, -0.03545770125602034, -0.1117578890352031, 0.060979474498041766, -0.24039566878938373, 0.15666154463547102, -0.011767916819618581, -0.029001887881584667, -0.05704427876799547, -0.14337376723223272, 0.01254861234060674, 0.005191140730549635, -0.24137338596786, 0.10835488930501713, 0.17682340942629515, -0.26217185963079115, -0.0846572838390471, -0.05092001824022652, -0.32427302622190607, -0.16482412752240164, 0.06911116854880488, 0.22740964051911589, 0.15703450294406085, 0.3625379471894789, -0.11281337272067961, 0.004212170111593405, -0.07146654965978042, 0.05832293432435071, -0.15651961038686477, -0.10405893207652248, -0.032906066156819735, 0.009753561936805656, -0.17834608173838878, 0.2681302861918556, -0.16809613328991338, 0.1208260368230977, -0.21106380796093188, 0.39236579805411026, -0.04953896208394591, 0.014348183274690732, 0.08783630257545844, -0.08706450478728132, -0.03738638337034397, 0.16629587215324737, -0.015232053873512114, 0.3142356841269342, 0.15317890457902525, 0.02801339021540476, 0.10192009479138102, -0.06204243443249075, -0.27143492810176756, -0.21614402898720403, 0.07551746026934346, 0.13214011492204508, 0.1438774947937154, -0.13246035208588766, -0.1305344808358669, -0.01032180413881236, -0.2452208895015913, -0.07126511124442117, 0.009511334202789561, -0.03087608098008013, -0.060032425680015024, 0.16637126362180557, 0.25266777264253704, 0.22439650883270096, 0.13259863890972845, 0.1603873934307286, -0.2949920427589321, -0.31751781077345564, -0.18353336209672844, -0.03039550725648032, 0.0369640931599931, -0.06505095232183117, 0.15341059478234825, 0.23786835702783943, -0.16229821285712612, 0.15143837334995275, -0.10341144585447021, -0.005526274754398304, 0.15338338346230876, 0.203067269745179, 0.19918805851020785, 0.13362458275065228, -0.0757551010423062, -0.1224536352195666, -0.19180257060403058, 0.17039009567687302, 0.10940317910855359, -0.2676753627680569, 0.18515493042992645, -0.08731124720763139, -0.002883344163224007, 0.12424749558613216, -0.057849346041950786, -0.06927548481842717, -0.09808457230522587, -0.0532599975980817, 0.13883867853111587, -0.20502032239833287, -0.0207867207250006, -0.12966922860388988, -0.04298569668255107, -0.20078636262930089, -0.14903447092081154, 0.07059042601154993, 0.14035469546690182, 0.24327588492197688, -0.17153543267942656, -0.18182371766482494, 0.005530153837603539, 0.14371383499105528, -0.06945800054034229, 0.01166616166106602, -0.15436477645323624, -0.3037404267152474, 0.0438464141534241, -0.06511521153898084, -0.1531292629753471, 0.15458698716179453, 0.13174169526814197, 0.19871078528172176, -0.046630285625332, 0.21340045241770006, 0.1507698554897543, -0.0010236520135211266, -0.02565708053597754, -0.02616039537326047, -0.21262805778994642, 0.14231005373742064, 0.05766222997745749, 0.19097876978925132, -0.05996413702846698, -0.07193108513703116, -0.048638685228174876, 0.17940731442784316, -0.03890716193306125, 0.01303595384565374, 0.0071389757963519224, 0.02410020959306222, 0.25322981991378785, 0.2154907395522796, -0.002542033748046192, -0.0717409587530768, 0.10703570529084531, 0.10821768785525124, 0.08742704238110358, 0.17431016167324037, 0.28746577160060216, 0.22802574949743648, 0.17140095637929975, 0.15895104976290786, 0.16610388250808586, 0.01819759284911537, -0.13113988028689186, -0.058645729639121985, -0.16108577268930904, 0.1049666310210658, 0.09941504540758127, 0.045496546884821736, -0.26429278767500763, -0.06585563630006426, -0.09004858534229285, -0.18943255105278647, -0.04264624731835028, 0.0017973304452225235, -0.12603126229104544, -0.15823694893630502, -0.1756405452289495, 0.08860269509548672, 0.018520735575725977, -0.07094194778994867, -0.00013590530135550784, -0.17086048188239308, 0.08646657717844833, 0.3301785567364748, -0.04493540251475383, 0.06359680441045935, -0.14783897476625887, -0.08373477643927238, -0.06697597731816209, -0.1600104330292449, -0.08399823804838115, -0.06019536862480831, 0.05735800744160639, -0.04041542508946516, 0.0496032139943839, -0.026057925343315795, 0.03707905465122197, 0.04454320740774538, 0.06435673861375729, 0.01336905488634098, 0.037188503674284244, -0.24781070149248016, -0.25985391157204146, -0.07602867873683583, -0.1169883154039867, 0.04350594921820642, 0.020552029428847422, -0.11438416803799688, 0.018829510740301588, -0.08742761850863093, 0.21392694658835115, 0.13185910202648438, 0.0030782130692781793, -0.09545241563719793, -0.14924267034622848, -0.029949326711873097, 0.05243376046908875, 0.1596500686626366, 0.0438446311394993, -0.10109812875378754, -0.07983603479401268, 0.007883637927243439, -0.06922408321224668, -0.12054167821947549, -0.05437817177202477, 0.021159399041766485, -0.19765514446892454, -0.0031483213555066926, 0.0755571961295421, -0.510775804063879, 0.0036334060092473334, -0.011323634065722002, -0.07880193264854043, -0.0412708372738111, 0.039389456371381956, 0.1862933740739234, 0.0049559009935228205, 0.17023990124132649, -0.1476972616516281, 0.05618974783469361, -0.23365482406580587, -0.07561694426831987, -0.028662754482385096, -0.12871181449105154, 0.1186880677923604, 0.05499694790785962, 0.031406782074546884, -0.03633492456258436, -0.09687244514172111, 0.03776831479138511, 0.05991406319919609, -0.1381229979701586, 0.0971674978364749, -0.15086126250554627, 0.046479043802885436, 0.09148211512767854, -0.08587037104140291, 0.12847283257691197, -0.05775526308663754, -0.12260862338330229, -0.05118708313636981, -0.043954808823820524, 0.09406714750590855, 0.14763667260018135, 0.21428210138305884, -0.3975294251140501, 0.11063948667380424, -0.2048761719962604, -0.07693778769307548, -0.18812692453579752, -0.07761334531504595, 0.10812406050856076, 0.0711747728587137, -0.15615656975400888, 0.18591416705749433, -0.06389559260243749, -0.10947967925139584, 0.008241669863148966, 0.20087133817839273, 0.04382673691834028, -0.05536770402004775, -0.09786776229112801, 0.01930748985008405, 0.20641739535725573, -0.23263845787964715, -0.11795667217989553, -0.017673449741531278, 0.15973468793305262, 0.05613959963338698, -0.12256329234976833, -0.22180722809095707, 0.0779497683685807, -0.1643656081731813, 0.08157951167539335, -0.11457471199004654, -0.20843990773211457, -0.1537882422844611, -0.002136904425471969, 0.06338777123156875, 0.14237854802976105, -0.21748943243080787, -0.0870850594867648, 0.17961654145573186, -0.003451417328567956, 0.09038285745735769, 0.27641443382024483, 0.08792391617721963, -0.02865576821771391, -0.1143073914483882, -0.16990797225279242, -0.02107172804079982, 0.004724013746822578, 0.1734956365538281, -0.16974325580122887, 0.2520392521864413, -0.16305538074993484, -0.2643675401066042, -0.06833777395872218, -0.12395406522209694, 0.06857010904943095, -0.14084336516438986, 0.18824644211763836, 0.15804849466769355, 0.002752497225071716, 0.09561488937331707, -0.15534310141482555, 0.07894401193745644, -0.13390961592287104, 0.24444878439778736, 0.008883640704961872, 0.05208985420712661, -0.04983345011667834, -0.1901279942440891, 0.1392460630824882, 0.13029036732407762, -0.03895488119944945, -0.15721037162239154, 0.03259165862061997, -0.2781777053162363, 0.10531260725171039, -0.06307309714400008, 0.18691072291994137, 0.3125291980914572, -0.12319746381714272, -0.024569162209715854, -0.044643196185759786, -0.24485863118298137, 0.159032614239641, -0.03482642991551307, 0.15113594988345705, -0.22404898499385337, 0.27156685157902216, -0.018849153353168814, 0.1563815918448633, -0.08977478675697563, 0.13817989216432966, 0.0542088352990843, -0.20449711972843151, -0.010337127927125664, -0.04605743748462082, -0.04302960097566971, 0.04012790031728705, 0.058558532538770205, -0.21339685372618694, 0.010525993040011516, -0.20826899764318288, -0.1838968168286331, -0.1028818312409678, 0.0656140865328279, -0.02520868315652847, 0.054149919621618164, -0.005380169056099636, -0.0799542285124802, -0.031239526470216574, 0.07077490378574265, 0.05885827877961649, 0.10738317498377681, -0.06955458565161717, 0.2417254867354877, 0.25158905447074226, -0.02251087686915057, -0.25214526532170206, -0.020144465918450545, -0.03798690211920549, -0.0863706802291771, 0.06248358284192308, 0.019136455435501853, -0.1793186313904038, 0.07756231535121641, 0.077892600030415, -0.1453194457703757, 0.08783285611862789, -0.03184195061818987, 0.12104253340706939, 0.1445784855228051, 0.07649475591682962, -0.09794416609569691, -0.15396545478396706, -0.018385304385066203, 0.11779831758346004, 0.21882487964814734, -0.06724308851768379, 0.0653024831254379, 0.09321347891464363, -0.1406932412067058, 0.0057138165408629265, -0.0009255125860868569, 0.003206286298330559, 0.17493456415826603, 0.1010988862590069, 0.08747502099127684, -0.07297179455073301, 0.22645736678339548, 0.10377289049438332, 0.09722367069716716, 0.23782710743109323, -0.08600414422372266, -0.11397700126403328, -0.21201268083812388, 0.05388922539728557, 0.24652141412016665, 0.21127475438999557, 0.04643399218956873, -0.23560124095527132, 0.035847760295995984, 0.07912256779212053, -0.30893587713993137, 0.0640174724916068, -0.14397837864075388, 0.09156247863738806, 0.24860744760596093, 0.04150821418581729, -0.03834205508399754, 0.07767756108393671, 0.07925438439968294, -0.09455052839039299, -0.06632820439007067, 0.2102791385939982, -0.2609299126475243, -0.16326339679080631, 0.08818259631942327, -0.10222155063586773, -0.031674556441935335, 0.25418143307071983, -0.04578771547154841, -0.04328931774364606, -0.08447501205297525, -0.13368970279568956, -0.03588059715988908, 0.3970195189543452, 0.21365260936128977, -0.0497534428842079, 0.22352633919924797, 0.02257014303564188, 0.03731063864658671, -0.19381966886747806, 0.16408949114100124, 0.059498276262255095, -0.04102629851554393, 0.07821038258021606, -0.1660717549423759, -0.10528181738805627, -0.16944534499701064, 0.13199128053671752, -0.002828801206027173, 0.3554298277389604, 0.29257832334795836, -0.0837480554322392, -0.12291228678921, -0.4172846892734414, 0.18087182406375193, 0.11029304644665355, 0.016271478396830488, -0.052389232302341514, 0.05264276772368998, 0.19495532424591422, 0.10470944600212681, -0.04028684675559739, 0.16034396572212203, -0.12095482006044754, -0.33645106221098947, -0.20963674418210493, 0.1876467096191758, 0.02824754747128303, 0.004593732405070979, 0.06208764151137227, -0.10744452831965011, 0.0371153685183213, -0.29783097926656776, 0.0773677524162913, -0.027146494079616862, 0.2415584999120326, 0.06345238012903427, -0.022384315997943115, 0.07892019610478854, -0.08371069224237021, 0.06809064240782856, 7.599741006267461e-05, 0.11561632173202045, 0.08872614626839051, 0.2781671575837917, 0.0694229511628903, 0.20158196089865374, -0.12748965313660005, -0.10704149949502977, 0.12097611758514097, -0.12830111996440535, -0.05616285678608192, -0.060717931720335766, -0.1371050269589457, -0.11688214742719417, 0.16985189805074985, 0.10869813846091161, 0.33336347926700866, 0.22210364044209635, -0.10937475255663959, 0.13014651283984083, -0.09641494725745119, 0.10454585905659113, -0.03569107223307819, 0.051624381576195845, -0.0829376975941112, 0.13568600347428575, 0.056430694976179106, 0.12118404892346629, -0.3236025714070225, 0.12844972593173706, 0.01776193280764721, 0.009246527011658364, 0.03032116497197683, 0.010734156502247922, 0.06007773442928422, 0.12132339486726067, 0.09655127342360272, -0.006630670870828839, 0.0780777419271194, 0.0037504688674433687, 0.08350459956421377, -0.2812855192576212, -0.07940469488428749, -0.018118629852551676, 0.198246622061986, -0.24154721536863574, -0.04105897499230127, -0.20610055732047192, 0.0023882884861625526, 0.10666221760625616, -0.02576086572552818, 0.022069086094142182, 0.07407555536211069, 0.1223885091404968, 0.05218862765031504, 0.11962842947668305, 0.1657114593772776, 0.12686434509502617, 0.031648736974465755, -0.14955854041233402, -0.02323748154328296, -0.011886159379439825, -0.0810832909508099, 0.07631192613090135, -0.029545633906764086, 0.18220242514399207, 0.014604540233475155, -0.09675453884273197, -0.23120371304660503, 0.11906782780873132, 0.04130687656551213, -0.06505530456249903, 0.07558863886179311, -0.028279009115149047, -0.1057508786049019, -0.0022697000855401357, 0.01809600683762339, 0.010369178414319221, 0.06807533936155977, 0.01675073867579206, -0.13378576936667214, -0.1317225248876476, -0.06803840722111168, -0.008287661230240355, -0.08428723426059186, -0.014704706973457016, 0.16700150411388995, -0.03570852448051351, -0.28009674323748357, 0.0881614500763787, 0.13595673740488445, 0.1984085925101261, -0.2770102068212431, -0.12747244255099602, 0.05019623363620522, -0.05420262303216271, -0.13762230219511426, 0.12254072351321195, -0.055687376768790244, -0.1352727178021938, -0.17541409367889707, -0.2691120711707553, -0.16021122570395696, -0.26139197808051867, -0.08468263771783398, 0.00023137354561322146, -0.10475573354814677, 0.10417888748977013, -0.0720447109947872, -0.044929013925337435, 0.18824363983128437, -0.2635866465972069, -0.1444548280278464, 0.08857982554736918, -0.12926146825925103, -0.09361599000439152, 0.02682638803967766, 0.32246530445887384, 0.23282439638311922, 0.02230556506002111, -0.023640592644881737, 0.3511020286063112, -0.22345916735158353, 0.02530897343412243, -0.1786023244534497, 0.16920799944694911, -0.12304910332989492, -0.12847606180773635, 0.08126168384260436, 0.16876611527857946, -0.09707948839371015, 0.02878172330703968, -0.005590758510938315, -0.29135011175728903, -0.12135796814423454, 0.24697897902747473, -0.1720424436274037, 0.15765993411500806, 0.010100962621215204, 0.06145023371288432, -0.0060647083917680766, -0.01629963743021778, 0.03561082227741653, 0.039117568705366104, 0.11830727793493237, -0.10897651420701586, 0.038599894400841855, 0.02125933490540032, -0.1915758248466251, -0.2130311664487187, 0.029304534748687383, 0.0221941651668173, 0.058953562189963435, -0.023383646049986873, 0.12133179011289195, -0.18155998658080139, 0.15329897926440803, -0.13121310056413463, -0.18213480092600887, -0.023509251716438046, 0.2382878745960358, 0.3040800585034543, -0.05557883225211731, -0.010949714948850053, -0.0561559889901918, 0.08734659372262094, 0.051910697531735286, 0.07020412658400892, -0.20083645486105786, -0.20380756841533468, -0.13551578227684263, -0.0006210745400402794, 0.1781050084777101, 0.04643257547895555, -0.06428200341113538, -0.042518133701744086, 0.23867035684961938, 0.06067368612973376, 0.42576467173263943, 0.27527965897590334, 0.21700528924960844, 0.04449789328979671, -0.03774860602817009, -0.18043163642667057, -0.145052800253975, 0.07822305368558832, -0.04191926416605089, 0.040752628549485914, -0.05436222636006815, -0.05529095392509673, -0.09704449342640928, 0.08789523276822753, 0.383608997865373, -0.04072329588705372, 0.023049469921074758, -0.24262544833412708, 0.22007232536183882, -0.1252624119351074, -0.0638126971613412, 0.017268441697926577, -0.0832726526976052, -0.05963922107902391, 0.25890888392768524, 0.18587908476662102, -0.12631401345399135, -0.12279351961818555, 0.1197584296223053, 0.037213677842724995, -0.04632299736443108, 0.04837541611221788, 0.14156148362839732, 0.2555219775588642, -0.08079979000753008, -0.16003883066038646, 0.35835260660127266, 0.10633588571117779, 0.2550629393238354, -0.18786312063514982, 0.16752238478433745, -0.034087940866903504, 0.07079638929064477, 0.08897624324995991, -0.05081987520926531, -0.050471293171737534, 0.11718600749263985, 0.2573793752288922, -0.1513486765615873, 0.21196246981129233, -0.06570678767453839, -0.1035257801365834, -0.18147139031892007, 0.05160123692207232, -0.2544117701453619, -0.08939513146096065, 0.10922528297776427, 0.13346022984719674, -0.14681343349316, -0.07857416091428868, 0.22214168838256373, 0.3225661711312531, -0.2846864640987775, -0.19888502389632826, -0.025351171226167854, 0.23525005151170345, -0.20907848729250317, 0.14108188616851638, -0.14639737273604145, -0.19128148788215837, 0.08978993424635183, 0.14608410197860122, 0.028763627335241994, -0.12691136992098276, -0.12610977832832823, 0.03391900127789269, 0.08168861708913368, 0.10096693788904294, 0.13022401784362644, -0.0598254844428146, -0.008109095121618736, -0.1416830103756698, 0.06881720579432192, -0.01538262599674795, -0.20966277415338339, 0.1970215928208938, 0.09027022737538991, 0.01850228290657417, 0.034128502323109725, 0.19461513968503014, -0.033562464980596736, 0.07320267348586973, -0.2092890584414599, 0.34958469582849894, -0.019597967484624928, -0.05889137283666067, 0.03374032696318099, 0.42148617265090316, 0.25966828831625055, 0.2115780217626747, -0.3400467056359555, 0.18115754679098356, 0.082516758772966, -3.8219029125526915e-05, -0.012808829264058392, 0.07835215943087354, -0.1511161938447988, 0.005630029856467144, -0.11593869533602873, 0.030855405817871353, -0.11434336284681819, 0.05550231173269272, 0.006298303867886214, -0.014928398561025876, -0.17501293128719564, 0.1611275998039315, -0.19936688845435221, -0.04227809120133436, -0.01312705608612102, 0.020229018421377518, -0.06504717780098143, 0.142460860587798, -0.19141472270737736, 0.07443230781340816, -0.1670099124447087, -0.12562895705153368, -0.06445770827121548, 0.1584861530616002, -0.19634850650951965, -0.07861523978386128, 0.17952313546220455, 0.27249407757075067, 0.14921927676865065, 0.4292726226246934, -0.02890654356662332, 0.09193213697226414, 0.4807066635905919, -0.017187741998886886, -0.06123457864496187, 0.08599451826961124, 0.039666201559365614, 0.2794629871405164, 0.2835339575946278, -0.21886015065473885, -0.2420581246381145, -0.07733437647717768, -0.1124021060336174, -0.0874988198888934, -0.05911071185121867, 0.13430019309432517, -0.0004959640674369988, 0.11932206809376429, -0.13025011456270952, 0.09949740398090175, -0.10085686708988276, 0.11345651053352432, -0.11704990984244505, -0.08493425785449792, -0.07892760411404216, -0.020083308469453425, -0.09635368969863638, 0.08535507990831133, -0.023137593927945718, -0.038973766694223276, 0.08890326521558196, -0.08361682898735615, 0.16388380502298802, -0.2945969688530599, 0.2290742121206948, 0.04746848722275998, 0.012315484702869488, 0.05358890930796238, -0.15207343104556847, -0.015541143015537742, -0.3858137690946151, -0.13239153717672655, 0.13385292908906501, 0.08850500127843744, 0.02280117839831788, 0.015433743312066175, 0.2395358839467024, 0.16257780847490708, 0.3161990074721103, 0.03048567705510495, 0.021773685796845164, 0.20318160844742114, 0.04129752848467748, 0.15308072255925356, -0.1660590450608656, -0.1602351092306311, 0.18665481641824808, -0.16611232715489066, 0.029677396930303832, -0.029851255270661525, -0.21249963908684547, 0.09700759692785277, -0.10648219543984962, 0.06367574788090447, 0.19399050500939183, -0.12073770959357291, 0.0010654153558901128, 0.11498615305807702, -0.17705589810707373, 0.14454775743759826, -0.07446552196215635, 0.07050963268646258, 0.08217656454150848, 0.11456722502761062, 0.023830987547229943, -0.08289408598885986, -0.2311121501520078, 0.2024814724481506, 0.22388652316580082, 0.062109274915721005, -0.21916544131267968, 0.025299236957598767, 0.14776467355892625, -0.2032448084150684, 0.011994700893988599, 0.07295834562889633, -0.1751416435177661, -0.3729071369858964, -0.26988216588170993, -0.07445559589510842, -0.07977090859416608, -0.09486486301035225, -0.19505425476475557, 0.31415269538571766, -0.09327260643584197, -0.08416125299709824, 0.13360246237553763, 0.02428380763418668, -0.101666994892184, 0.14465626868038106, 0.07317959545734043, 0.12377859781258521, 0.13017133167515116, -0.16771608330095697, 0.08246528860492236, -0.3759581572378077, -0.02029133555379159, 0.018427559824492713, 0.05798408656754657, -0.015628837626766662, -0.09607785209540382, 0.08917199370698635, -0.09279894559731666, 0.214393778416868, 0.030193576663425762, 0.15479457265934446, 0.03741787137521698, -0.066670240886015, -0.2577908803253801, 0.11278596339223768, 0.2674026721358477, 0.23124318932656382, -0.06866287092949586, 0.005266670611424697, 0.07328202199219953, 0.06977478344248672, 0.07077333194730141, -0.08791532748496272, -0.031569388365812405, -0.02177692329537068, 0.07712353598585313, -0.08873825494282053, -0.2409323754752859, -0.11530111881134425, -0.09807507677919748, -0.006701612212171806, -0.03065875047229451, -0.2455171678487473, -0.1418343053628467, -0.05642623240218226, 0.21974994947881782, 0.3596813115693313, -0.08336950480575994, -0.10738264821583159, 0.05021119505362095, -0.002112535864623561, 0.012384324367285102, -0.01742333907628244, -0.008910785505858393, 0.16169669987438473, -0.20674515839945837, -0.07066036394953482, 0.27457562129297897, 0.3263447048818866, 0.1699291215858913, -0.05141499393687854, 0.18149056496260113, 0.18808992962860593, 0.15582028691917377, 0.2082569755530687, 0.08656323810353206, -0.006539589965967374, -0.13935912930003322, -0.007039335629476281, -0.0969315201893345, -0.1414565227276061, -0.12652675912219621, 0.3407731496134736, -0.21159691150432627, 0.053355437239176275, -0.013747146786816706, -0.13946059550801532, -0.22372390813085136, -0.0009167221396152646, -0.18665630310205933, 0.09781213464005013, -0.07491203427871691, -0.09836299651683623, -0.39230226313971206, -0.13067640304423714, 0.04190529382501561, -0.019442792301296984, -0.14070248693958762, 0.11366902455293709, 0.1543065360149986, -0.09947049317861856, 0.02204013502142055, -0.02854025289923334, -0.03257100760591547, -0.16350508469851294, 0.14559283007254153, -0.04586820205061927, 0.20528534415495603, -0.4149510349892678, 0.1074841088238169, -0.13153668151465728, -0.1970997659145327, 0.13024476723275746, -0.11402622058656914, 0.26144772721595677, -0.014483005745544666, 0.2093928413357508, 0.01801326870670403, -0.05217246718759979, -0.21882387876459153, 0.12918319953486823, -0.04462015990604414, 0.10813517566880737, 0.29016030300994017, -0.16770764041197694, -0.08551496289103702, 0.1696893752448275, 0.3029376216603659, -0.02479632444120904, -0.14428825640282122, -0.014583341373114457, -0.006372449911978649, -0.20742689981884568, 0.021461852701209125, 0.13003796215172372, 0.03835633229497182, -0.06778079614130036, 0.03443420596463298, -0.2879798612981738, 0.14848833554869573, -0.037072847448896135, -0.06652589884740719, -0.3613494896935365, -0.0023347070028401306, 0.06304210037029173, -0.1435679257113841, -0.09519626215490692, 0.04779699348856116, 0.09698088063891308, -0.2890034795936689, -0.05130152654078265, 0.014593304808772446, 0.07439699324055793, 0.210878609355297, 0.322367712401389, -0.16993315928761998, 0.2193846789999574, -0.03143971130748197, -0.06339971853242841, 0.005269537731321278, -0.0003181761751370145, -0.07766240229133758, -0.07432825909277713, 0.08063059014875915, -0.24479754048545327, -0.175339614809495, 0.2292175805598906, -0.14130162431078347, 0.004690654207111308, 0.01909142692653114, 0.02242515605349492, -0.045338350157844334, 0.2871313202348551, -0.0083853864143366, 0.21075711403863212, 0.018176538384081935, -0.2612314177861133, -0.05177413422196737, -0.18805048063667018, 0.34038899561468083, -0.10143840969095942, -0.23123917690968407, 0.027997304990431956, -0.2792871276691324, -0.13497331530981677, 0.12734525911792013, -0.06460714091533634, 0.3574314263595658, 0.005387087506762695, 0.0982356012451023, -0.33702654017770256, 0.1035598024039426, 0.010891350888379968, 0.04863651718103571, 0.16825741528422078, -0.04166043788792485, 0.019027960734645882, -0.1094074098314797, -0.038231647341713706, 0.1618333081148301, 0.14185877367088312, -0.11885034094935777, -0.03440937892281042, 0.00929892212713545, -0.24739811521795552, 0.05311676313326076, -0.15370493114591177, 0.08030963444772304, -0.1052440078813283, 0.08305998483505532, 0.24800898771907853, 0.18002360918108307, -0.06887822688122412, 0.2865377034705566, 0.030362912923445125, -0.16774338484289145, 0.2780124235950533, -0.08134907725049795, 0.2284066002036926, 0.06478854052229985, -0.04448932164538042, -0.3227947172938559, -0.017035745558944246, -0.10706486928475549, 0.0320213573224829, 0.019413092088770168, -0.1930667902713782, -0.14248018835121296, -0.24625032368053984, -0.017601650234517104, -0.014680244013494693, -0.13060349830223528, 0.09437390631134697, -0.06577983211175484, 0.00693414422044968, -0.018571290632720387, -0.22795076702800626, -0.01667207944634061, 0.21262547223508366, -0.269985952117183, -0.09840598440557516, -0.0712583250341225, -0.010029373675376619, -0.050015838060055884, -0.12027087547181711, 0.22893788313869137, -0.1349847515952686, 0.021075686455211802, -0.06188077046597551, -0.06480162591531573, -0.17253861987507693, 0.031798305388639335, 0.0042187427582542035, 0.27680042222965806, 0.1585313178965744, -0.061490897752433785, -0.013702841105233326, 0.258051592121713, -0.1414957136853923, -0.16012116638019375, 0.06688649450622924, -0.06866850054079278, 0.07069018600316429, -0.0837210756690442, 0.044912630792643383, -0.04217902539537326, 0.14122593625270746, 0.13799676634853023, -0.09789719193442467, -0.2144378998226548, 0.030986340898745083, -0.009226625362112561, 0.16784794125446986, -0.1230911292151243, -0.09749463991541596, -0.3029405512086258, 0.04351287491350283, -0.1424200740864123, -0.030689607536098628, 0.008039571685903761, 0.15878886580508703, -0.15659446747039038, -0.2591483146116557, 0.17437691730501656, 0.09228296923906379, -0.16018122414591396, -0.05470467373363982, 0.1591101216824838, -0.13517561212777418, -0.11928641770644483, -0.11112511801622711, 0.22486283211942254, -0.08743519156426613, 0.015723235034208766, 0.007700757231738855, 0.14848239296706642, 0.10396813644818673, 0.0822429452541244, -0.05825355189292669, 0.1559532973362365, -0.2002179390874764, 0.05129967459285433, -0.033340643638440554, 0.1202088308311207, -0.31123976250508095, 0.10265969353648406, 0.1814165808621523, 0.002801906360524544, 0.17027806779342683, -0.23295437038095612, -0.22093944456245312, -0.17007815182248576, 0.04028225026247633, -0.18321668223309504, -0.07119010611416592, 0.2421500209275343, -0.18114917049541598, 0.17914606514789427, -0.13320561208754342, -0.03499921534415799, -0.11427620547328914, -0.07889485897278217, 0.16068777764708592, -0.09570295092019716, -0.05305421780796262, 0.042339024684566844, 0.1449210776546161, 0.011245614477355325, -0.0594780005362464, -0.008078224939173468, -0.018770399200941527, 0.16428168303507973, -0.10840251285078484, 0.18277479281453335, -0.10016352614093411, -0.1881830163239937, -0.03535090037360693, 0.2830795015628638, -0.14745640541375366, 0.011139426669401065, -0.009487992307808009, -0.3181236106223789, -0.07147575415415361, -0.011566386332830596, 0.16284492841729128, -0.03381439375458174, -0.05776934113106356, -0.011391496854560285, -0.28195659196268635, -0.010720532855491969, -0.0031155501664263804, 0.15328223684533482, 0.08219757823883714, -0.03994741929762711, -0.06862611462349821, 0.06786903983741249, 0.15111156222400032, -0.16683697646335469, -0.08528681415003898, 0.11123193636704898, -0.055705627853046065, -0.06702450937267852, -0.07287018017433675, 0.037739535953181, -0.0278105569447872, 0.0960661909278156, 0.12083254401613118, 0.013211660180733272, 0.13603022628447117, 0.082143841133154, -0.04265228042605363, 0.02151628433469716, 0.05302271873980889, -0.20928843991569657, -0.021973491838512917, -0.2596291629350134, 0.16115246778112224, 0.003246381738288521, -0.06533586326872023, 0.13389068512217397, 0.2044556151037812, 0.048753923803649346, 0.2681794654155438, 0.2699032251624965, 0.0298300873664647, 0.08277097790206943, -0.18705415431680675, 0.048214236619638993, 0.09281207406073498, 0.21771398506933168, 0.06045061705384727, 0.17890571952352113, -0.3397856458554554, 0.1577125606845813, 0.24790747336409813, 0.02616349608446599, 0.03007233260390936, 0.012627794213355385, 0.32585785258510747, -0.13878051848380532, 0.1316901689309874, 0.3047521461787539, 0.02438233768450997, 0.19126025760870358, 0.13731379673931143, 0.3150265851903078, 0.08170607266894779, -0.10107029233503437, 0.23485745915190862, 0.001652275510368382, -0.023466132077927145, 0.34220806840902457, 0.01203699547050447, -0.05989868428804725, 0.059784037227600936, 0.20019748995433956, -0.010835751817558456, 0.07927724364635974, 0.19796531557187574, 0.024051964193395392, 0.1856724554611273, -0.020097859416049274, -0.008336838578739951, -0.12387907587579854, -0.10968872529295848, 0.21227431095609414, 0.17631265697030052, 0.0637063748261634, 0.2187906262452049, 0.28541932781910667, 0.0941873324267682, 0.15128341049916627, 0.029344850682667102, -0.20236743762691484, -0.04104297853919823, -0.14561333020081718, -0.0058930489851117766, 0.15756293775561686, -0.0014803844640120989, -0.032458932400268786, 0.09346137936334539, -0.20729242301962467, 0.08346354411482625, 0.2650055739586631, -0.4189651633854628, 0.2355917228864786, 0.07965331439358703, -0.12141679859475425, 0.17028514448921067, -0.1850804372892116, 0.014819659508751823, -0.28218764062732526, -0.10865780836992099, -0.04458220767830689, 0.010399189690571093, 0.011564867918598475, 0.3559557392044879, -0.11025501022944086, 0.12159801657206241, 0.03619855610735824, -0.32611645815889745, 0.028936290841868, -0.033100989743882536, 0.03845536337362027, -0.11359876761499899, 0.012460696123311181, 0.047405115951839265, 0.06031004415927867, -0.01219910409712316, -0.06061487293437759, 0.01888207102204023, 0.28414533231498934, 0.09866452265346083, -0.09416491632007729, -0.14036627597886409, -0.1437630609592185, 0.3645899326820417, -0.13996452195158537, 0.07350095995651411, -0.12585116671376861, 0.21717022605617373, 0.13550338413432028, -0.14034015317238968, -0.017605246726118476, 0.18937122036630447, 0.18825563475779775, 0.1921787528263076, -0.011291924270014209, 0.18801153883495916, -0.007408850447720113, 0.1524304334523011, -0.1678037596369537, 0.03606331867136498, 0.07663428147734667, -0.013350774683014618, 0.07660497113840559, -0.21347803370203514, 0.10500007338263058, 0.08779034387944751, 0.09775346481402998, -0.05975850595189823, -0.21985507192735032, -0.12093366424583621, -0.40525890367805684, 0.13587727532540703, -0.2750489455800614, -0.2080795597396162, -0.3201715872477641, -0.28140775702284826, -0.05233758307115112, 0.060931354366527045, -0.13511145104119418, -0.12705966685021658, 0.19876763395132294, -0.246393769568901, -0.11837804157003236, 0.13069600823585392, 0.2535836492898065, 0.38546941906989435, 0.030658045254483474, 0.07208003507936495, -0.12985980482966986, -0.02175093843438855, -0.005926852730828629, -0.15792729600859892, 0.23523112566100607, -0.06384632071474765, -0.04854144087263342, -0.2015351271260977, 0.06432229794669173, -0.18590810141569505, -0.03648617763985868, 0.1501976032178079, -0.21689707223547217, -0.05294858764590743, 0.498411139873352, 0.0923398726855621, -0.28886539566020586, -0.2852896040468439, 0.040243176028256965, -0.03374229029034535, -0.024861735206139893, 0.121042552214425, 0.0035493215471521784, -0.15834006145944046, 0.01928681438830194, -0.13152332602568742, -0.25957029525261627, 0.13349313490646725, 0.15788035167962244, 0.10285734015785601, 0.15734811220295933, 0.16714797015568478, 0.07161597117776197, -0.08927377589915206, 0.1465115272296182, -0.179513125720303, 0.029543391251175635, 0.22756830539314915, 0.2029115600475782, 0.08914436343893115, 0.0049342804528632505, 0.07975704299021075, 0.14541736061919142, 0.42526393489895353, 0.10542901980035937, 0.13180434372682198, 0.15997922670906067, -0.14060322416236035, -0.013714330426168516, -0.17098199699616362, -0.06350245480886399, -0.2081112458711411, -0.05701638922837496, 0.14549338476860907, -0.015206311272726859, -0.16728815647348494, 0.19923691009261066, 0.07231516067543052, -0.24894209022135683, -0.14349847354603154, -0.2462081458603921, 0.15504122258902356, -0.03514796911906959, 0.2548798766453184, 0.1705616588252718, -0.1422620289655161, -0.1193557206827068, 0.12175940387782834, 0.086291017599259, -0.025818713125432907, -0.2398057996271561, 0.11220110204986192, 0.05359358798107428, 0.17295971997658632, 0.0319399825421333, -0.03532194625105835, -0.061628782726648255, 0.07560912064343053, -0.25564948416501965, -0.03359242350497911, -0.048689704676393976, 0.2593154428244227, -0.15726541787218223, 0.25042977520192505, 0.13578834871373277, 0.14758338792619646, 0.193051012690412, 0.2283710050921882, -0.2605334949187958, 0.007700711992685733, 0.010890067112424072, 0.012653886883373204, 0.04991016952472381, 0.15083903264472912, -0.19761635036401504, -0.12813906869313532, 0.03300588989095998, -0.08022435862964103, 0.04122164636649322, -0.06139453924614676, 0.059650781518179485, 0.17656996813777998, -0.12022971254037572, -0.09971051771848014, 0.1835578309759519, 0.23300654035505314, -0.16561243155257202, -0.18960822126424334, 0.08501482941695816, 0.0674396707177259, 0.07569790335564577, -0.27131875119252, -0.06093400868252648, -0.09757062948841462, -0.03620317515577451, 0.13357808545358665, 0.07384257230629195, 0.21371029084512583, -0.0938443169126136, 0.10497332268722834, 0.3666380006567293, -0.15971263740589514, 0.2581112228336511, 0.14018639649516623, -0.06947683949418923, 0.0035423130424015238, -0.1042634864950586, 0.38897424863839947, 0.0025486836663607066, 0.12402021412855972, 0.041236047219417954, -0.18914246165365817, -0.11457657150653822, -0.16680057259185666, -0.006671086038793541, 0.13771168879773682, 0.012405263067194113, -0.07569467594848303, 0.013938044945892885, 0.20129245604102775, -0.11444541815235978, 0.004753852225298484, 0.03738996464521718, -0.40286792179027425, 0.21674791065369187, 0.0006142044338535243, -0.052526879157244015, -0.0001364645636541646, 0.264618711886136, -0.15066671659783143, -0.11204367742881233, 0.24585238385098254, -0.04575444803286484, -0.04203120040316324, -0.24965065253037347, 0.11770260719678306, 0.04238467926163104, -0.07297538310955104, -0.2952254410163596, 0.13099383676110743, -0.14790936882378694, 0.1524687931933768, -0.2547157655472355, -0.15240617436247014, 0.033351462108286954, 0.2530779040326188, -0.11096378792562765, 0.1366531500680626, 0.21326555646483963, -0.13581458446324166, -0.11546072556402716, -0.1455708425161652, 0.08903005828533576, 0.2204802097504466, 0.24697994029029813, -0.12878427606518555, -0.14067686882715486, 0.03786826278787345, -0.029121647937527216, -0.2579525972240416, 0.026095209022286285, 0.1505644315278253, -0.06535251272558748, -0.07009422898110253, 0.17688571897487831, 0.2197426605495886, 0.18175490932301963, -0.1433673560367164, -0.0678005671153412, 0.18257778598303084, -0.033716981870379345, -0.1967138185459994, -0.1293139869642946, -0.1490888381822595, -0.16733215444400754, -0.13762805342812479, -0.02798747373588599, -0.1686690653614542, 0.325727028625213, 0.17960842229191024, 0.022490320803115405, -0.010715881591878198, 0.07532736252782818, 0.09103781418736354, 0.013823807180317976, -0.043629908653790454, -0.10816871009719661, -0.18387174301286965, 0.12680696081115556, 0.13368788343871943], "policy_b1": [4.83883737647279e-07, 6.622633617575235e-06, -2.5568006525963362e-06, -4.4936571097945803e-07, -3.9942952454067606e-05, 7.897126406126328e-08, 3.7391420539549636e-07, 2.7207802825914142e-05, -8.299802570723762e-08, -1.9792541701009447e-05, -1.7988171546350687e-05, 6.368662068148935e-07, -2.286387028164529e-06, -2.9958555170142195e-07, 1.0610913664819222e-05, -3.2843317564772605e-05, -3.6737274774682773e-07, -1.6769328972797654e-05, 4.950378260938458e-06, -8.602844749870937e-06, 4.590863347794766e-05, -4.360853206856259e-07, 8.965488014354147e-05, 1.0845337491969257e-06, 2.7246603992188216e-07, -8.21843612491674e-05, -4.435925426367177e-05, -5.447197605432887e-06, -0.00023884078358423784, -1.0530008476887162e-07, -5.6482099192067394e-05, 3.6713328737267774e-20], "policy_W2": [0.009023341410317529, 0.038221233207639704, -0.05933034709536528, 0.1328744829799774, -0.18421768917381856, 0.05392622736226652, -0.006278782154279727, 0.11981943928987153, -0.05135404620926748, 0.12574351579333065, 0.03408763249659264, -0.020167865427926656, 0.07903917795610357, -0.2958761972370418, 0.21327951230689596, -0.21893660764761985, -0.2236047951826466, -0.19016557369205261, -0.18008797683527147, -0.04681697870624424, -0.633989150129267, -0.003948349959730088, 0.33042626753272497, 0.04902898327627718, -0.0023987828311006565, 0.42558198218924387, -0.33664167926750443, -0.1167541494573487, 0.30462345483667386, -0.025906144008780028, -0.2279076014522162, -0.45931521886130117], "policy_b2": -8.59249426976514e-20, "policy_temperature": 0.3}