{"type": "alphazero_linear", "value_weights": [0.0, 0.0, 0.0, 0.0, 0.0, 0.0, 0.0, 0.0, 0.0, 0.0, 0.0, 0.0, 0.0, 0.0, 0.0, 0.0, 0.0, 0.0, 0.0, 0.0, 0.0, 0.0, 0.0, 0.0, 0.0, 0.0, 0.0, 0.0, 0.0, 0.0, 0.0, 0.0, 0.0, 0.0, 0.0, 0.0, 0.0, 0.0, 0.0, 0.0, 0.0, 0.0, 0.0, 0.0, 0.0, 0.0, 0.0, 0.0, 0.0, 0.0, 0.0, 0.0, 0.0, 0.0, 0.0, 0.0, 0.0, 0.0, 0.0, 0.0, 0.0, 0.0, 0.0, 0.0, 0.0, 0.0, 0.0, 0.0, 0.0, 0.0], "policy_type": "neural", "policy_hidden_size": 32, "policy_W1": [-0.2879358131880981, -0.344004563865419, 0.08597959135832228, -0.08778028065313864, 0.3793265113253121, 0.23996156545245081, 0.1539855370228168, 0.0015427342681825504, 0.39587582134909516, 0.07992890676136478, -0.2469140709393133, 0.041545741077413545, 0.01119254808190635, -0.11076305610393067, 0.16835401050013094, -0.04730495294143339, 0.050953368386461875, -0.10280849770668878, 0.07930386379328071, -0.12290092277185367, -0.03170356262217439, -0.18761644358472346, -0.004541206923174952, 0.029088252543787874, 0.037850385339745614, 0.13331471032281836, 0.24549401149038233, -0.04901955635457184, -0.012833974696242714, 0.063765763405688, -0.024005936216626694, -0.03328685871602117, 0.32032307985912506, -0.11126518493653459, -0.055410481879088556, -0.10656903543992945, -0.28351350965559796, 0.027031048577843005, -0.20407090222126342, 0.07899553779622387, -0.1420319976701597, -0.04366453413050253, 0.08941186437673693, -0.3253825073127185, 0.18274567372691233, 0.38139004922414854, 0.04566728699019859, -0.27797857869611986, -0.0020726550506408492, 0.16433015463986672, -0.02386616983853974, -0.06965852222428745, 0.02453644157793642, -0.09309387433932519, -0.004367026008502048, -0.04666430588757078, 0.10771894125836358, 0.04623459617952748, -0.059056627795014416, 0.10774600489165197, 0.250101294964487, -0.14777835714710633, 0.2512254620433105, 0.05495201104568036, -0.018889204209013983, 0.036462714457923394, 0.29664216083064265, -0.1022365989209439, -0.40324073596975124, -0.14764448430335766, 0.013531776676647077, 0.07444833613747126, 0.05015029748366668, 0.0945543947674065, 0.038497908498444505, -0.2559654532025769, 0.24325348899999766, -0.05342682121070342, -0.23278891225291623, -0.3666893265393854, -0.025061029370690175, 0.060178209360420065, -0.1993110256813334, -0.20292534628207903, 0.07707279100098496, 0.03392412303232873, -0.15769186863805654, 0.20173271455226244, 0.040845596517261856, -0.157966287056522, 0.0021709652769666904, -0.06209041284895183, -0.06388319348500916, -0.0529007368437872, 0.12278950117454218, -0.15356703928037221, 0.01301844199949853, -0.11167395002588107, 0.19849229113360295, 0.14041446689753478, -0.06368556349795311, -0.08238149879939936, 0.11674665698101448, -0.15922927902284437, 0.13659981251285225, 0.15079010892837955, 0.10933472778954931, 0.04668380820989072, 0.1937213464926393, -0.2963783635453055, 0.18397194613031723, 0.06054246495262771, 0.011587867244699483, 0.08776380258268016, -0.005615038558741987, 0.03798813621768645, 0.06375128539775676, -0.32372435960065216, 0.03323695346901164, -0.240534424754478, 0.10104541024940997, 0.15972531779056112, -0.08124959422864687, -0.061969509107209185, -0.011103450273452073, -0.2711942271116578, 0.1502296041962216, 0.31705421515552834, 0.1232259911302586, 0.06634876754668521, -0.1033059535802445, 0.07791702944261877, -0.09610121693420859, -0.15962348876624138, -0.05129027520550065, 0.11647461747488218, 0.305342445710754, -0.030310896589441798, 0.32563702374600645, 0.19841769381047636, 0.002694992781847889, 0.035923288249417325, -0.22831832163952537, 0.035419115357351094, 0.05895284149989467, 0.0007182435770475001, 0.08124188333355091, 0.022199297104927518, -0.01887530823308957, -0.08926487536637277, 0.2962230700793742, 0.19295691184792862, 0.011716121204987648, -0.18254678525446458, -0.09784012395416568, -0.010399930265206804, -0.20675076791770383, 0.32077540152974143, -0.24374647016130666, -0.06529698934693431, 0.08380094808516518, 0.22595883872992706, -0.13753951052437757, -0.09135683140282408, 0.043792025820738725, -0.14146052584468355, 0.04290143962436159, 0.046244767804689356, 0.3149342022510273, -0.27832076077015216, 0.012944616378476615, 0.0561706725222682, 0.10792651036897465, 0.05128903967452422, 0.060879500950148865, -0.3115624126317939, 0.11340408010834296, 0.03725059653768383, -0.06524369495125872, -0.04747528148062917, -0.23683159697722417, 0.1262394789811533, 0.22275867134515243, 0.07203892062043413, -0.1392930716098417, 0.08152331480512867, 0.19833325787247724, -0.023018294214326194, 0.1317835321916785, -0.09512795585523785, -0.12477437229259358, -0.1152090773697745, -0.0848725939414053, -0.3680989644338621, 0.32350345217674226, -0.036016942656871706, 0.06097448244159082, -0.240604378263319, -0.10087069833791434, -0.09673231384312261, 0.049271126933870854, -0.0017268853671210602, 0.00734140217936819, -0.14776588485120162, 0.08521433284925749, -0.13040383818494555, 0.3449949318192096, -0.10545007207183185, -0.13449913034623956, 0.17224494470324275, -0.03611458550629617, -0.1274339853764004, 0.164650048964483, -0.04733359598617335, 0.012290535172739522, 0.2874769066502931, -0.14202877154122598, -0.15686709589175551, 0.07197253786039048, 0.10138096420866934, -0.15829821552620596, 0.27886376722871786, 0.0031436545665702, 0.09934724134955629, 0.04143067833779538, -0.37540974558806656, -0.049083879102655444, 0.1473419114863062, -0.15173639087288102, 0.19039702463916502, -0.05434480542174833, -0.14644238804842488, 0.22027212258330975, -0.38747380359243183, -0.03695921829552455, 0.09932521918309559, -0.16303547510413083, -0.036142770880880935, -0.025456447223717413, -0.14468837824100808, -0.1886024506655207, 0.14659026295078076, 0.10819705152699446, -0.20416415188093512, -0.10924014733222928, 0.06034349962732109, 0.021128992592070343, 0.1832806528412624, 0.03590931230187109, -0.18301931338819005, 0.048203664387074935, -0.1703098313558845, 0.11423282695075596, 0.16763231783582574, 0.2925552107467637, 0.1767092751294125, 0.13293840080920702, -0.10455942273910855, 0.40493962995892324, -0.03216050748307326, -0.03903391792745473, 0.2620262679617443, -0.028727296705882515, -0.004620217627543597, 0.19187775081995806, 0.44098178003945715, -0.10871206875719906, 0.24725526385365285, 0.17127691159917424, 0.04968980700528547, 0.18760055524624636, -0.06949261125272269, -0.26392310494562665, 0.05405060121225238, 0.012285190910725457, 0.18426454026881992, 0.23496577428094606, 0.09927725766876612, -0.010390422019573341, -0.008121737211288364, 0.10399012673108302, -0.05551845224484764, 0.1921668302819935, -0.10504244463767727, 0.17223331856185548, -0.029926720174824038, 0.12691234498976564, 0.1623952222182507, -0.04847248222260044, -0.2219729731911921, 0.18014254261319448, 0.08507242621013172, 0.18211575582378017, 0.18740241104811656, 0.006514470978248368, 0.15871156577203768, 0.28933408597266963, -0.10933763657387835, -0.1878921895849555, 0.048839266564639494, -0.18829186567774064, -0.01855040464216116, -0.02079038127657584, 0.04856935349181889, 0.08830439405681799, -0.04060668394028264, 0.1428307229091734, -0.17420143334414556, -0.22286249800417662, 0.18208993505533577, -0.06093795731983514, 0.24716559296102264, -0.11963512540520971, -0.05504332330024729, 0.014182961614296318, -0.26342351655335716, 0.16922070057317717, 0.3184702890470716, -0.061040840792345466, 0.031226412097384484, -0.09901321690207619, 0.017899325699532356, -0.03746632995017878, -0.058420760140543114, -0.05819749606254531, -0.08610025798719338, -0.19542791075760815, 0.088328064811676, 0.050173347181664024, -0.15276626300755916, 0.021038942324691966, 0.040936687200444515, -0.05034057242348293, 0.02132320832365467, -0.08722456343914205, -0.016770204681619712, -0.3324923483504167, -0.04390103983733359, -0.0939070142862981, 0.12119597629494902, 0.2811585279958599, 0.06272805468684282, -0.21644354386342537, -0.020932373470427323, 0.08190781133467856, -0.04115549281270509, -0.1011467442112164, -0.13419130139083604, -0.3809119329079749, 0.4190679448664623, 0.04890324342896969, 0.17871346965149784, 0.045248317048136144, 0.04145908621477371, -0.5203948134583931, -0.043280615833146574, 0.028778987486832074, -0.17636554255931783, 0.10568160698566499, 0.12658057495329575, -0.08815038850877359, 0.31798438861150957, -0.20733599870195987, 0.041010764995425844, -0.10420871044149974, 0.019597547640064925, 0.16614608751149257, 0.06972887272902663, 0.030061502930268505, -0.040660534550294614, -0.17324706674591075, 0.13635850971809801, 0.27679005373837184, 0.1339696199059425, -0.11014224099796506, 0.0893036302197438, -0.035473641451488236, 0.21502417993601097, -0.01197338018530727, 0.29464713990111496, 0.26054534319098027, 0.09718819527432584, -0.13688051154867736, 0.04968751221921503, -0.15884478148811196, -0.0800118424457151, 0.29529893830171067, 0.09215970367927788, 0.2801497997609265, -0.0804421414500993, -0.350286407293849, -0.09632377026344982, 0.010963900963238784, 0.18255854508881703, -0.27335743034886556, -0.01743706523185419, -0.27482713180126367, -0.04799504644403701, -0.04789264747603869, -0.10183965699986652, 0.24021700762349948, 0.01461951281479365, -0.2478017956967279, -0.16194837083802682, 0.13881176019944935, 0.026532394060154913, -0.18080065600905218, -0.13182972369358265, 0.0427127169088856, -0.053536924285275414, -0.3166403354114293, -0.07183742099880071, 0.14354534507328806, 0.03835788259836524, -0.0685000379535339, 0.03632284907658836, -0.010783812739204528, -0.0831898851811669, 0.21125601865092447, -0.02065730379586241, -0.08962618972837344, 0.021405952651066287, 0.07735698864229129, 0.034525938945959456, 0.0953827528077015, 0.19330781950115614, -0.12474727708772809, -0.32500177706905287, 0.011173158910350135, 0.0011851896971476147, 0.5337015314037286, 0.09245124395781355, -0.1816918821163434, -0.07569294441597252, 0.01262947951311965, 0.050047670080915076, -0.35432236692140934, 0.026948651036619826, 0.17481677461804465, -0.1491536101721167, 0.013860636057510983, 0.11281181203711188, -0.029486181826128683, -0.13381937749639541, -0.020295944856405224, 0.1268076866088762, 0.13226606829819013, 0.07671217680575132, -0.18518081779106152, -0.04326770149125915, -0.01910604933470812, 0.10843936432565437, -0.10496859171465901, 0.014642731781552872, -0.06590225181238273, -0.30077817642836696, -0.1444122329039299, 0.23427832288944633, 0.06318924660929956, 0.0567821794291374, 0.1333492082334449, -0.3348211934091736, 0.035503705101242226, -0.12471496383487907, -0.07494591097801404, -0.022770322274135547, 0.07661641609266467, 0.046480342630518874, -0.2960853494280353, 0.1192437914925667, -0.15572094374133533, 0.3643923101970004, 0.1194839269019735, -0.034985372263072814, 0.16509139082113866, 0.06537451539698998, 0.033533732212091466, -0.2562830819893263, -0.08637267417134686, -0.11830793118247362, 0.01749566134791209, -0.052883898020940456, 0.006188484845406506, 0.1014112383348453, -0.09601482029662183, -0.12340942219373002, 0.08965656214626704, -0.0308401828816394, 0.04608871914675051, -0.00203026202829714, 0.18455617476469063, 0.1907145865075981, 0.035049756409099984, -0.002993842781855337, 0.15026983644685363, 0.0455915447802242, -0.15910952776798012, -0.053485510476874075, -0.01436766404202933, 0.16826012024810238, 0.18925010204297174, -0.04826421232274829, 0.07943822863659891, 0.07370985974451427, -0.14780717822928277, -0.08489391940201237, -0.07164494451108787, -0.2389814407512862, 0.09034267994065967, -0.1038220115230726, -0.12023424325475952, -0.04894887932425568, 0.043815175435181666, 0.001968723601394611, -0.11646391603211735, -0.005465932004200439, 0.015814755032523695, -0.05829364918731396, -0.19639344688539412, -0.1810797652231543, -0.12994202597826926, -0.08133269554942073, -0.11326078389434673, -0.25079831064749286, 0.02657244312381622, 0.14025429997815778, 0.17646340865218355, 0.21216458567014723, 0.14626538368705255, -0.2260612811241149, 0.19608319178164313, 0.04076868384786295, 0.0442206205933127, -0.12520444269167297, -0.0929332770213964, -0.04503831179898451, -0.08426844406540393, 0.002863321113931847, 0.1894408462231406, -0.11617432749539176, -0.07712275365147295, 0.10766102757392558, 0.0003409798586819563, 0.1797530155884675, -0.07509980731016885, 0.21076708625162982, -0.021937143963415187, 0.057436014176840966, 0.14144539665506958, -0.10144650706402822, -0.23044350079631143, 0.021745872416807928, 0.1538453323823285, -0.0846120735936986, 0.07975377312265841, -0.01659012582055088, 0.00016105570041402225, -0.24815503436122974, 0.21655491001069607, -0.025537684419202324, 0.23339009441313263, 0.04164593863753184, -0.17957477180638434, 0.15496277382188514, -0.4028017905637084, -0.10141118211264064, 0.20089416914345895, 0.09696141896273172, -0.1905809758516944, -0.18126529928891594, 0.00026454420072619675, 0.24371064646849824, 0.2496002835839097, 0.11240487867350689, -0.026926272746357623, -0.0628939327258595, 0.15833500612973625, 0.040464721959817346, -0.00024724214576915266, -0.03679990587720456, -0.09643468053949245, 0.13432222291669962, -0.048584144404217613, 0.2316345369898231, 0.019591231240097963, -0.13026922981326672, -0.1836695742135221, -0.1371411402728427, -0.16654575534247817, 0.10951145514031353, -0.1097140438264722, -0.08671058037240756, 0.10603004671758985, 0.017498735904435354, 0.31653055542364544, 0.2223745567820722, 0.23382610464889086, 0.007110524477218848, -0.040901330137180864, 0.010024036099543774, 0.20359438002342858, 0.11873366430707197, -0.020029639683204262, -0.15276698848335937, 0.20257819508847405, -0.0962458305967672, 0.1248420798974639, -0.07457854564901348, -0.058821395036162995, -0.13595308907675174, -0.05685886601717847, 0.08938603982550017, 0.06451109355657456, -0.229545153338769, -0.2050650776479845, 0.1781511820833654, 0.16535771867375096, 0.00066212436961408, -0.07669206457479816, -0.17608985797394913, -0.0863062583412645, -0.19966422085818486, -0.01117987885394513, 0.0024107105444171797, -0.14527223420985555, 0.423712997364384, 0.03201298060943495, 0.12044861025235988, -0.30874405007750977, 0.3098865855436895, 0.05360722996760244, -0.1339069422807715, 0.17014734383810284, -0.33527838390275644, -0.019086457596033037, 0.045761369256743595, 0.0636244373177009, 0.15485297618826907, 0.18346198819819148, 0.122788772978197, -0.02616810159426411, -0.1433968376816973, 0.2169355277144137, 0.04354118928198756, 0.12098332689474335, 0.0821224768935421, -0.18503975166089381, 0.003266617961885828, 0.030944443375494454, -0.07443434341913686, 0.01288232482248904, 0.06927269959956052, -0.0052147760725916046, -0.09134771886525721, 0.018582261327311743, 0.1545811798520132, 0.19525116365654774, -0.19614890470920945, -0.14733976546359567, 0.11431313295415929, 0.095511735684698, -0.02370359231121085, -0.13068356996100722, 0.06900313635090312, 0.208281940167578, 0.23458527360242407, 0.09139304731124057, 0.1769569176114899, -0.14396523867756622, -0.03547476694121754, -0.07737645432021034, -0.21742268857272404, -0.001986966487417046, -0.16719431669930124, 0.31730587512378955, -0.14921742755492412, 0.1517370624119595, 0.05185097408892561, 0.02428629211201905, 0.007258804755904929, 0.17644627281141895, -0.11669647682115565, 0.08907586855503438, -0.05998102615179594, 0.12598838504821003, -0.1388238523846819, 0.06922234967218421, 0.12803949637315432, 0.18258489176672005, 0.025687822094458607, -0.2196856618604322, 0.11476027872495594, 0.1009436092641201, -0.19923206527431678, 0.027096159793340405, 0.11663039664758887, -0.1656001033052301, 0.09607129799298453, 0.12657457419296309, 0.2679184787089434, -0.2742563691373469, 0.06515887675383038, 0.04664875433158314, 0.25090378210934333, -0.0207286229713919, 0.09985471760663554, -0.0006813222500497544, 0.07692818042638454, -0.11903831009438673, -0.07370959187665299, 0.10919979427484328, 0.19207260396683717, -0.08026565169556049, -0.051673396417757034, 0.21449700356613438, -0.1198495263789276, 0.2607373225535471, -0.13756684352897122, -0.17969980803222507, 0.03223298636259803, -0.05909627193162255, 0.18803731928872366, 0.15817483843336064, -0.027225528973787244, 0.0935296926905882, 0.2695326028787609, -0.12117939367355066, 0.04769585068934154, -0.3468517357999387, -0.22474669257042473, -0.3658483800005668, -0.2569591503192497, -0.13816149811288844, 0.009633205446578481, 0.009846497569052598, -0.039453347961837526, -0.09500014559405885, -0.09798001916769015, 0.0794834750253761, 0.2682939297203043, 0.013385226215082268, -0.2687280386922559, -0.11435663186087221, 0.19097213466111915, -0.006636551525485037, 0.1173409275208751, -0.12591334000192553, 0.036279962207750135, -0.1629424368282474, -0.20695535558959305, 0.026881956914520548, -0.11857714334792381, -0.07726007298104845, -0.26456740317462324, -0.1161457862517755, -0.12405377026597209, -0.06615752596566266, 0.05613832506410321, 0.027446425357020767, -0.10036671198110558, 0.047921344594574006, -0.06539291810117447, -0.08047445750200931, 0.1638202331407238, 0.1030953290736009, 0.19182190619120795, -0.009731019279823436, 0.284939860591598, -0.0033453670592300646, 0.17699167182907835, 0.20245621040036973, -0.08094307599669408, -0.04672278830933345, -0.00681234932147766, 0.3222607573732402, -0.07189500945450449, 0.23516201642784168, -0.061581769261954016, -0.25330741761813297, -0.13101983880660573, -0.08354333997576503, -0.23246292241587688, -0.23106369122889767, -0.05258674846639725, 0.15286359743335498, -0.09879909322124249, -0.3394801759035582, -0.18670843935104575, -0.16842222111106023, 0.2550986559499437, -0.170922421175811, -0.14765669695714032, -0.013021477437713667, 0.11248949278954329, -0.23755943444644995, 0.14829150925010065, -0.12267448219598638, 0.11510321558201118, 0.09986718774481486, 0.05362561599800764, 0.05932244436733053, -0.1995279715743832, -0.18638046657811683, 0.22254133738064816, 0.03436898407007702, 0.09912732011932918, -0.30392524729365444, -0.16930576570906763, -0.12469308187825574, 0.018664054563615497, -0.3230245152008565, -0.07321520968898301, 0.1786859724924053, 0.08514481253642878, 0.15226456380339465, 0.059775304167787154, 0.07497017948779508, 0.1704997792909882, -0.004918341118736151, 0.1108976506989922, 0.11041877871317254, -0.3921131188204761, 0.22341555454550022, -0.17895653657913874, 0.014683951737787129, -0.1910176013846326, 0.21680916904925826, 0.1348905936499492, 0.02523617731295259, 0.07839432845639512, 0.050857216825978914, -0.032074104413214156, 0.12759933891806957, -0.20103453838142898, -0.33501057440886395, -0.14868170665110084, -0.21592634508862701, 0.08696971677743569, -0.049093846339668845, -0.03411538390684765, -0.1549823668625253, 0.12230169985599482, -0.15386761803612656, 0.09041067805515836, -0.004165153169085984, -0.006439175454551295, -0.05541305160280251, 0.13425643196680095, 0.03944957542195946, -0.05695626565182948, -0.16125242464717313, -0.11294809716563553, -0.05987348544281975, 0.024126850485389196, 0.14331214931689817, 0.15996981047699044, -0.16959873064601547, -0.14297619179439452, 0.17758932327898755, -0.1481753888504255, 0.06273059709395182, 0.0343975201472283, -0.12371169659263875, -0.03529831348832332, 0.19598134307392617, -0.10496385032893256, -0.2886814663756915, 0.11741424717858163, 0.07305245100867902, 0.2940751974877172, 0.07820761006841744, 0.10558695789162602, -0.13049146363311734, 0.06456005389311133, 0.12746159957771636, 0.001288559885342735, 0.005986456754747031, -0.17761641800188455, -0.049999297841242296, 0.13287497273930254, -0.021511203169538726, 0.008759063858926818, -0.15552494530622163, 0.13271215170506595, -0.010842036281604238, -0.1075908293184609, 0.08804680687448284, -0.33498702447588535, -0.19159984652446116, 0.1567771641872226, -0.0470344411383002, 0.11065023015691886, 0.10758081158664591, 0.13067276372596923, 0.10938828060223932, 0.134284321726772, -0.09146594895600034, -0.04435479512398129, -0.014877201476181445, 0.0013319585955508925, 0.1474847427328424, -0.0345698574096903, 0.2945861032158902, 0.13510723618575335, 2.0532675203005783e-05, 0.037012472966021275, -0.06187438446221598, 0.25908018864957383, -0.1048932498229264, -0.1267648804597547, -0.17395313325297462, 0.08766021903247266, 0.003095783170572115, 0.05463200879332278, 0.042540680995547774, 0.20278071614201323, 0.10737770374865971, -0.18519444081083053, 0.06280354282577955, -0.14868363865045345, -0.05604497350283217, -0.003902158479032704, -0.253124655563155, -0.057955117938593814, -0.21946733761684542, 0.12774547498543828, 0.04821710965503152, 0.10370706886437976, 0.0717119921351048, 0.0010505376889904426, 0.09271001086196556, -0.024520056293620876, -0.317419783405195, 0.01698483109332239, -0.13257311488166848, -0.04328625987625367, 0.1294810795787177, -0.1576154066232586, 0.2294637197198887, 0.005699807709841958, 0.3100144558459275, -0.09955870158549915, -0.03345138456867951, -0.0822500757658948, -0.0602048955846843, -0.18776933187114644, 0.16671172141540783, 0.14334929994871146, -0.017588966101263197, -0.07993275805782211, -0.11977897731232968, -0.05389522699276007, -0.09470990085211786, 0.18097082960705665, -0.08008226490194334, -0.13914082302716518, 0.158161672622737, -0.28358529062630855, -0.07541576506929633, 0.0024536708721852726, 0.025133866624330654, 0.08673596401648195, -0.172080011608681, 0.06623683339938029, -0.074393931549261, 0.029125464640461292, 0.11237013615740024, -0.21108231715197098, -0.050257960699910134, 0.20838320108439984, -0.275709875820738, -0.08674234654264505, 0.2449534427758711, 0.08747983006183438, -0.22109489072601826, 0.06381176673713806, -0.08732727637060546, 0.22465938083909398, 0.08080308281753273, -0.33194992740962137, 0.08283793708900566, 0.025607919764316176, 0.02309746377795906, 0.13283834652058277, 0.029414069495822797, 0.046642629797436164, -0.14085898626743992, -0.15793273524185153, 0.15000427094088428, 0.0067095593621460175, -0.17597179810178865, 0.0819388324543207, -0.17726799204973, 0.051858536807680586, -0.13663762204623853, -0.19011535176705432, 0.19433607469056688, 0.004838343731586136, -0.09820468407548096, -0.1289001158353322, -0.09882053686947917, -0.08144753327664014, 0.09431598922960976, -0.07132986111600484, -0.03798349562487327, -0.08773853174181988, 0.05514390875641183, -0.0521056939815053, -0.0834647323848347, -0.13492780380116698, -0.09047563955663383, -0.1578747003617855, -0.01999730563327201, 0.032534592011621004, -0.2138574947088766, -0.1285445125502147, 0.057555153943462715, 0.32265916691583635, 0.012082293190384036, 0.007814322525715539, 0.016780069159063195, 0.029553399999520936, 0.08803713162903398, -0.29386677286770135, 0.1505594031589216, -0.03075817350660971, -0.0020831407715623624, 0.013413014276765948, 0.31002988262388004, -0.0933493363990084, 0.13539032175498367, -0.0958394667999711, -0.017886082354787163, 0.061354497240145155, 0.23654213992296405, -0.1253833646968208, 0.015453662416771532, -0.2444043675014417, 0.060884023282503266, 0.11749555451307585, 0.21455575486099218, -0.21806120395708342, -0.05279559455893168, -0.17436595493800408, -0.03825222468423274, -0.028798600284397513, -0.09564479295213192, 0.013595355323035723, -0.10478085379951123, -0.2993751113881692, 0.13935892341098285, 0.10656981382575272, -0.22964617183302546, 0.06179124804508911, 0.3368673382723414, -0.019249814644999343, 0.15252689331885527, 0.1922253304824692, 0.0025474541221084286, -0.1004222895382269, 0.0748208858649655, 0.08360027143896633, -0.2275661097323245, 0.19417882597397226, -0.0024222010093953115, 0.010429871052908955, -0.11839820842555104, -0.19459458308514901, -0.16182185513699568, -0.0797014764297012, 0.2903420848515916, -0.2152188407074365, -0.19950179018497866, 0.11985208879690736, 0.01193798366682835, -0.10364259842724388, -0.024502663612030635, 0.07647177917708078, 0.060538195663429294, -0.20931934514767667, -0.18115977279231915, -0.20198286209764793, -0.03214762691152947, -0.20693996650346996, 0.018578075182877518, 0.053641830994217536, -0.5263718596334074, -0.2994795966018403, 0.0512784481516759, 0.17969046131923935, 0.44393399671768174, -0.08286348615631615, -0.06293099222326107, -0.10792492520366138, -0.13162151010752093, -0.1212830457699365, 0.0025549286538683737, -0.013740219727737172, -0.05579237320279134, 0.00848511873464456, -0.24291564468056442, -0.17517975451026135, 0.03183479138397169, -0.09526513498410878, -0.03545770125602034, -0.11175831633803275, 0.06098010896473912, -0.24039548865537416, 0.15665950716934668, -0.01176795836854032, -0.029000237847323983, -0.05704427876799547, -0.14337375718256387, 0.012548880975541708, 0.005191140730549635, -0.2413733217232735, 0.10834780511106397, 0.17682340942629515, -0.2621730044815905, -0.0846572838390471, -0.05091990735364856, -0.3242450837061042, -0.16482965717789283, 0.06911116340369992, 0.22740572626476546, 0.1570345880125919, 0.36253785094579255, -0.11280136285732437, 0.004212033251928292, -0.07149088499989904, 0.058306723629904036, -0.15652186193731704, -0.10406006323898298, -0.03290606711718808, 0.009772320147375203, -0.1783675378287715, 0.2681302861918556, -0.1680959826661286, 0.12087469334199465, -0.21107702009229384, 0.39269864033532254, -0.04954086447273375, 0.014781076978015619, 0.08783946979302726, -0.08706435799160606, -0.03748677616004732, 0.16618428173606048, -0.015230907087546786, 0.3136974962086055, 0.15317890798915887, 0.027792741436255583, 0.10192009479138102, -0.06204170113985203, -0.2714121463838699, -0.21615778718419656, 0.07551286591152549, 0.13201320010819875, 0.14387767994515155, -0.1324604031438846, -0.13048026886993075, -0.01032237926540576, -0.24526918418949556, -0.07130364287190806, 0.009511774180178236, -0.030883757700474114, -0.0600330895072867, 0.16639571362255384, 0.25256092250932616, 0.2243992950277353, 0.13259194414667558, 0.16040580002656968, -0.29500816769273486, -0.3172934598228512, -0.18353541587531366, -0.03007577653673382, 0.03695954700421176, -0.0650504006134061, 0.15327146803776753, 0.23778221897638985, -0.16231334532080455, 0.15084570461952126, -0.10341208027232843, -0.005675602543719776, 0.15338338346230876, 0.20306777090308178, 0.1992109677247751, 0.13361081391955448, -0.07575997505917262, -0.12258257348282507, -0.1918023901764175, 0.17039001113726276, 0.10945902547330078, -0.2676760215949073, 0.1851064342774722, -0.08735017039923751, -0.002882784447833114, 0.12423843913850963, -0.05784996399460282, -0.0692528111262403, -0.0981922782202393, -0.053257215261608065, 0.13883142551734695, -0.20500419529221958, -0.020802683894331302, -0.129446174879272, -0.04298776933384463, -0.20046813479337616, -0.14903934247974635, 0.07059099815557858, 0.14021599225613388, 0.24318889280848044, -0.17154947518720098, -0.1824187015164081, 0.005529380727654958, 0.14356852360636455, -0.06945800054034229, 0.011666741082523238, -0.15434770261720235, -0.3037511910809938, 0.04384285422581725, -0.06521346448405069, -0.1531291130516579, 0.15458692446184844, 0.13178454553762556, 0.19871032830441324, -0.04666963221437862, 0.21337006318897883, 0.15077026679563138, -0.0010302632868169639, -0.025657573827432903, -0.026142038145507807, -0.21270867444012792, 0.14231230584577703, 0.05765697330623701, 0.19099234097565498, -0.059975907922951606, -0.07175817923035023, -0.04864026254152818, 0.1796534315241476, -0.03891062396209649, 0.013036405318707195, 0.0070297670791463415, 0.02403753016531592, 0.25321895412363166, 0.2150273418345324, -0.002542560073649495, -0.07185564505683388, 0.10703570529084531, 0.10821808500258168, 0.08744501809914192, 0.17429887227567914, 0.287462441790045, 0.2279304922757849, 0.1714010743633076, 0.15895098352760553, 0.1661466942911558, 0.018197227387772897, -0.13118331721297338, -0.05867732902244493, -0.16108545958247567, 0.10495990561518961, 0.09941444004190464, 0.045516095176874535, -0.26437757203316714, -0.06585291867148536, -0.0900538722816306, -0.18941624699057824, -0.042659387435125616, 0.0019878183453787223, -0.12603289270115098, -0.1579752084157456, -0.17564372787542737, 0.08860316545825572, 0.01840560533990894, -0.0710043901258429, -0.00014922957374311684, -0.17134755249860542, 0.08646606716905635, 0.3300556202654546, -0.04493540251475383, 0.06359680778696786, -0.147838886182246, -0.08373498723938344, -0.06697597731816209, -0.1600114164773877, -0.08399823804838115, -0.060195428131739746, 0.057358356362465716, -0.04041542508946516, 0.04960047042939846, -0.026058554101492805, 0.037079003239502015, 0.04454227500167411, 0.06435677657019043, 0.013369841977885974, 0.03718845393725383, -0.24781070149248016, -0.25985397713104097, -0.0760279164257752, -0.1169880043801, 0.04351086135134479, 0.02055200823097582, -0.11438125833366469, 0.018829492246712556, -0.0874276083616606, 0.21392253906423025, 0.13185980591060925, 0.0030782310598206505, -0.09546079273061792, -0.14924267034622848, -0.02995097515422896, 0.05243376046908875, 0.15965032613120658, 0.04384355981706533, -0.10109913541173929, -0.07983614304159942, 0.007883509393503582, -0.06922395276514343, -0.12054190805819545, -0.05437190512044368, 0.021159399041766485, -0.1976674419482846, -0.0031484588565865324, 0.07555724632048083, -0.510776993689643, 0.0036335086530798755, -0.011322616411672256, -0.07879557072456171, -0.04127070544510139, 0.03938990847067965, 0.1862966209602512, 0.0049569154624758555, 0.17023814858936137, -0.14769749009737665, 0.05619450611402888, -0.233654690732031, -0.0756168850466442, -0.02866442576572461, -0.12871111263544988, 0.11868759106246882, 0.05496539754537761, 0.03140679059429647, -0.036346286111389264, -0.09687244514172111, 0.037768237643685774, 0.059912993074513886, -0.1381244893244365, 0.0971674978364749, -0.15086738465298133, 0.046479043802885436, 0.0914822416571137, -0.0858675430104588, 0.12847283257691197, -0.05775466854193949, -0.12261225829633243, -0.05118652785881434, -0.043954917253832985, 0.09406631609860945, 0.14763612347492033, 0.21428177510547156, -0.3975254224821778, 0.11063919818831781, -0.2048762893632687, -0.07693755554516173, -0.18812692453579752, -0.077613373911571, 0.10815275081975746, 0.0711747728587137, -0.15615642372594066, 0.18591416705749433, -0.06388570415305418, -0.10947945556252163, 0.00823255278009855, 0.20087133817839273, 0.04382673691834028, -0.05536770402004775, -0.09786751616044968, 0.019319473628401754, 0.20641314271418704, -0.2326404183707585, -0.11799605630186409, -0.017673453825855556, 0.1597345718037641, 0.056152859676955935, -0.12256355332449216, -0.22181501432526093, 0.07794265264420008, -0.16436584956877237, 0.08157795589924736, -0.11457482137505573, -0.20842785802056174, -0.1538371016064504, -0.0021360959625843583, 0.06338541974200759, 0.1423830033558635, -0.21749723329782325, -0.08700557645022017, 0.17961580222977563, -0.003339280804745426, 0.09038132219029221, 0.2764145770925855, 0.08788690418097515, -0.02870289955180039, -0.11431792821961696, -0.17006263858499354, -0.021071899258276173, 0.004678549463334505, 0.1734956365538281, -0.16974289523749958, 0.25204710351463605, -0.16305934557917157, -0.2643687505404238, -0.06837263436490304, -0.12395408426709265, 0.06857003737642942, -0.1408283278053005, 0.18824632865407512, 0.15803835500261432, 0.0027449199677831077, 0.09561461382634448, -0.15534474146978114, 0.07894384009274498, -0.13390152449340165, 0.24441068340029104, 0.008884538727120202, 0.05208875289500832, -0.04982945731429489, -0.1901335901417587, 0.1393092006250797, 0.13028980449534183, -0.03886727993879418, -0.15721136805463526, 0.03259173278777157, -0.2782161453455589, 0.10528234526924708, -0.06307895336824484, 0.1867688984471295, 0.3125291315617286, -0.12323682164137102, -0.024569162209715854, -0.04464297401953829, -0.24485974967982327, 0.1590288152427564, -0.03482713703034949, 0.1511093874642072, -0.22404886729436682, 0.27156658605450057, -0.018829116743605594, 0.1563812417432346, -0.08980204500200725, 0.1381677474644998, 0.054209478845614084, -0.20450560643043642, -0.010337194795859726, -0.04605781191519159, -0.04303198575350952, 0.040129415068074034, 0.05855521711455032, -0.2134005398242513, 0.010529791517329232, -0.20823447519045887, -0.18389711097275419, -0.10283419268722901, 0.06561349163838219, -0.025208335196032435, 0.05411134131186846, -0.005358272248519066, -0.0799485216881122, -0.031393882793095226, 0.07077443423869433, 0.05884049488616476, 0.10738317498377681, -0.0695539922121001, 0.24172589358409258, 0.25158423155004545, -0.022511531545225425, -0.2521900141398364, -0.02014434275140121, -0.03798698900717891, -0.08634882956040406, 0.06248327308008804, 0.019097299845835587, -0.17933447815181497, 0.07756254828568593, 0.07788755047331009, -0.14531984791041042, 0.08783822361321615, -0.03184059320656127, 0.12104371046490793, 0.14457589053881884, 0.07650370757077737, -0.09794306229380063, -0.15389798750900183, -0.018385821860944496, 0.117894640135977, 0.21882408929080574, -0.0672428699606867, 0.06524921881498198, 0.09321787492199198, -0.14068993851089184, 0.005481854249805509, -0.0009257253049694741, 0.0031526616748915695, 0.17493456415826603, 0.10109946946082905, 0.08749417521619869, -0.07298236053467115, 0.22645384197897714, 0.10366990558909978, 0.09722374393840733, 0.2378273432363118, -0.08596400332634166, -0.11397732384311658, -0.2120431776507431, 0.053856733050013095, 0.24652164259486872, 0.2112732987496456, 0.046433432672580606, -0.23557937571020957, 0.035758366593800356, 0.07912395608487767, -0.308939750263993, 0.06403981642590323, -0.14399463138734228, 0.09174455510603417, 0.24860575497642792, 0.04177438785869765, -0.03834580774952204, 0.07767784812494326, 0.07914001951041073, -0.09463476729109371, -0.066343837918104, 0.2097957784926038, -0.2609301612860603, -0.16339655810656611, 0.08818259631942327, -0.10222125082787559, -0.03166327301728711, 0.2541764486950037, -0.04578962798968152, -0.043340356533543865, -0.08447499276596564, -0.1336896042888597, -0.03586155877933275, 0.397019370423097, 0.21364113491768486, -0.04976729205362356, 0.22352632404446576, 0.02257052011535637, 0.03731039383498033, -0.19380764858163968, 0.16404049775461152, 0.059498912228174904, -0.04102758207189103, 0.07822051188921585, -0.16608118224519433, -0.10518820314713634, -0.16944618692119034, 0.13212658676570527, -0.0028306837712252174, 0.355429931974303, 0.29252854655923277, -0.0837995431393038, -0.12292174441304475, -0.4175056844524277, 0.1808717919261681, 0.11022843411269324, 0.016271478396830488, -0.05238903183252625, 0.05265210955236244, 0.19495069229775938, 0.10470732285149513, -0.040346506769104604, 0.16034416836864931, -0.1209549181855939, -0.3364211081451337, -0.20963737453671522, 0.18762991400305976, 0.028232488391429906, 0.004593888283545532, 0.062082811918631596, -0.10744449944998884, 0.03712223161866671, -0.2978689166989295, 0.07736912016240374, -0.027150367441296275, 0.24155937294871352, 0.06344665169935, -0.02229949893445367, 0.07891932838827437, -0.08359326324107655, 0.06808809845030114, 7.620684972459564e-05, 0.11557554743915728, 0.08867509004202352, 0.278168003561635, 0.06919603199846681, 0.2015816816894747, -0.1275359896361961, -0.10704149949502977, 0.12097657594992264, -0.12829118164345482, -0.056171877413772026, -0.0607205652438909, -0.13717938777763375, -0.11688201591956332, 0.16985164108237674, 0.10873580468904101, 0.33336305323658055, 0.22206115317367822, -0.10940041891094573, 0.1301472895744601, -0.09642482405467909, 0.10454552708532859, -0.03568044474756236, 0.05157246570090384, -0.08293519876549184, 0.13568093597629224, 0.0564361295823739, 0.12117963172422434, -0.32347818633700387, 0.1284485662756527, 0.017938529746937163, 0.009244051789924575, 0.030321678198740088, 0.010644808167626836, 0.06005319005780313, 0.12132021791667308, 0.09617305514538058, -0.006631368270713969, 0.07799738910642952, 0.0037504688674433687, 0.0835048246412364, -0.28127574204415523, -0.07941203111503313, -0.018120249778008964, 0.19820079375817634, -0.2415472113007786, -0.04105905765365844, -0.20607697018078963, 0.0023882614301462416, 0.10662945345756351, -0.025780893280300803, 0.022069236152950873, 0.07407257835876614, 0.12238762205275376, 0.05220031684013304, 0.1195818421554933, 0.16571339756047976, 0.12686026909574774, 0.03166210929049742, -0.14956673605057078, -0.023113451903750314, -0.011887082815596868, -0.08092185390750847, 0.07631090727415911, -0.029545307896097918, 0.18212682085465803, 0.01457928622008827, -0.0967656718883526, -0.23150779836389376, 0.11906753804829244, 0.041226535946756335, -0.06505530456249903, 0.07558863886179311, -0.028279009115149047, -0.1057508786049019, -0.0022697000855401357, 0.01809600683762339, 0.010369178414319221, 0.06807533936155977, 0.01675073867579206, -0.13378576936667214, -0.1317225248876476, -0.06803840722111168, -0.008287661230240355, -0.08428723426059186, -0.014704706973457016, 0.16700150411388995, -0.03570852448051351, -0.28009674323748357, 0.0881614500763787, 0.13595673740488445, 0.1984085925101261, -0.2770102068212431, -0.12747244255099602, 0.05019623363620522, -0.05420262303216271, -0.13762230219511426, 0.12254072351321195, -0.055687376768790244, -0.1352727178021938, -0.17541409367889707, -0.2691120711707553, -0.16021122570395696, -0.26139197808051867, -0.08468261980720876, 0.0002341292842084778, -0.10475657292891784, 0.10417858437953888, -0.07205383911601128, -0.0449290182782136, 0.1882436584997522, -0.26358434232685785, -0.14445485100945243, 0.08857960382593087, -0.12926304815095427, -0.09361607388709806, 0.026826798851337347, 0.32246519727017575, 0.23282722305898468, 0.022293148158893397, -0.023640501916970782, 0.35110150328381884, -0.2234568351420084, 0.025306594899074063, -0.17858528373059412, 0.1692078176472538, -0.12302391885013887, -0.12847654627922037, 0.08126168675275464, 0.1687594335596978, -0.09709317910850847, 0.028779098469023656, -0.005625195714024021, -0.29135011827656543, -0.12137009908412834, 0.24697897902747473, -0.1720424436274037, 0.15765993411500806, 0.010100962621215204, 0.06145023371288432, -0.0060647083917680766, -0.01629963743021778, 0.03561082227741653, 0.039117568705366104, 0.11830727793493237, -0.10897651420701586, 0.038599894400841855, 0.02125933490540032, -0.1915758248466251, -0.2130311664487187, 0.029304534748687383, 0.0221941651668173, 0.058953562189963435, -0.023383646049986873, 0.12133179011289195, -0.18155998658080139, 0.15329897926440803, -0.13121310056413463, -0.18213480092600887, -0.023509251716438046, 0.2382878745960358, 0.3040800585034543, -0.05557883225211731, -0.010949714948850053, -0.0561559889901918, 0.08734659372262094, 0.051910697531735286, 0.07020412658400892, -0.20083645486105786, -0.20380756841533468, -0.13551578227684263, -0.0006210745400402794, 0.1781050084777101, 0.04643257547895555, -0.06428200341113538, -0.042518133701744086, 0.23867035684961938, 0.06067368612973376, 0.42576467173263943, 0.27527965897590334, 0.21700528924960844, 0.04449789328979671, -0.03774860602817009, -0.18043163642667057, -0.145052800253975, 0.07822305368558832, -0.04191926416605089, 0.040752628549485914, -0.05436222636006815, -0.05529095392509673, -0.09704449342640928, 0.08789523276822753, 0.383608997865373, -0.04072329588705372, 0.023049469921074758, -0.24262544833412708, 0.22007232536183882, -0.1252624119351074, -0.0638126971613412, 0.017268441697926577, -0.08327237402629406, -0.05963860347270636, 0.2589083343698318, 0.18587908476662102, -0.12632406935841786, -0.12279344806755416, 0.11975849338077293, 0.03721565843923259, -0.04632299736443108, 0.04836266959325209, 0.14155273614148445, 0.2555219426026826, -0.08080044849813374, -0.16003886098364617, 0.3583562702556321, 0.1063393481597962, 0.2550629393238354, -0.18786264199279812, 0.16752673861813536, -0.03408721792733884, 0.07083844921509991, 0.0889761872381029, -0.05077720806408459, -0.050470775952406954, 0.11718609783614578, 0.25735830200347015, -0.1513420527194195, 0.21196571850910154, -0.0657900587341298, -0.10352576427759567, -0.18149985832485196, 0.05160123692207232, -0.2544117607618694, -0.08939511277495056, 0.10922528297776427, 0.13346022984719674, -0.14681361912323673, -0.07857416091428868, 0.22214168856573158, 0.3225661673714369, -0.2846864640987775, -0.19888507643529377, -0.025351359377323936, 0.23525005965658075, -0.20907848880314076, 0.14108188616851638, -0.14639730729761388, -0.19128103322687892, 0.08978993424635183, 0.14608410197860122, 0.02876378866748174, -0.12691135060740433, -0.12610929468453747, 0.033919002835363005, 0.08168898645181485, 0.10096691476153827, 0.13022401427693345, -0.059826021849447346, -0.008108964756287461, -0.14168295196467615, 0.06881600674972677, -0.015382624572468574, -0.2096630948119068, 0.1970215928208938, 0.09027022496212693, 0.018502268722843957, 0.034128225054146866, 0.19461499946016245, -0.0335628439114007, 0.07320267348586973, -0.20928904134472853, 0.3495847194081837, -0.019597967484624928, -0.058891381561107785, 0.03374020588526089, 0.4214862004805363, 0.2596682488406245, 0.21157810875366048, -0.34004675133685697, 0.18115751539591743, 0.082516758772966, -3.825712088782097e-05, -0.012808838945369602, 0.07835210095511813, -0.1511161938447988, 0.00563002071276749, -0.11593836368863084, 0.030855405817871353, -0.1143433619286945, 0.05550199998967184, 0.006299110258694598, -0.014928368697293262, -0.17501409546364427, 0.1611275998039315, -0.19936688845435221, -0.04227809120133436, -0.013126700513827146, 0.020225836186665954, -0.06504912646174986, 0.14246075234021127, -0.19141617759027227, 0.07443230291897107, -0.16701028220185932, -0.12561943581227344, -0.06445770827121548, 0.1584626057094678, -0.1963495914036508, -0.07861518313465884, 0.17951807339599235, 0.27249392641521547, 0.1492212083293875, 0.42928637623344, -0.028906411737913605, 0.0919342898280466, 0.4807154295546513, -0.017186032393656382, -0.06123394792374575, 0.08599384949596392, 0.039676544463026917, 0.27946319620393, 0.2835340664676737, -0.2188702512737406, -0.24205717867625226, -0.07733509648944294, -0.11246751628383177, -0.08749883565105608, -0.059130135434214366, 0.13430019309432517, -0.0004958351782540798, 0.11932144841022431, -0.13025029128281906, 0.0994973984875439, -0.10085671691993499, 0.11345672717848597, -0.11704993817865443, -0.08493243906838714, -0.07892760411404216, -0.020087924991718697, -0.09635410730624483, 0.0853551257854618, -0.02313848273139383, -0.038973817483259565, 0.08890327291304351, -0.0836147644070199, 0.16388380502298802, -0.29459667714840004, 0.22907480553971454, 0.047469002569564246, 0.012316459316739367, 0.05358884040083036, -0.15207100075302465, -0.015540965686926388, -0.3858137474833732, -0.1323996284095908, 0.13385453742291425, 0.08850581702547029, 0.02278824002420318, 0.0154337482805445, 0.2395324229853264, 0.16257780847490708, 0.3161990074721103, 0.03048567705510495, 0.021773685796845164, 0.20318160844742114, 0.04129752848467748, 0.15308072255925356, -0.1660590450608656, -0.1602351092306311, 0.18665481641824808, -0.16611232715489066, 0.029677396930303832, -0.029851255270661525, -0.21249963908684547, 0.09700759692785277, -0.10648219543984962, 0.06367574788090447, 0.19399050500939183, -0.12073770959357291, 0.0010654153558901128, 0.11498615305807702, -0.17705589810707373, 0.14454775743759826, -0.07446552196215635, 0.07050963268646258, 0.08217656454150848, 0.11456722502761062, 0.023830987547229943, -0.08289408598885986, -0.2311121501520078, 0.2024814724481506, 0.22388652316580082, 0.062109274915721005, -0.21916540759349815, 0.025297765124745936, 0.14776197126065607, -0.20325046291344132, 0.011980149588696774, 0.07295834562889633, -0.17514142567192745, -0.37290482724354374, -0.2698821556731681, -0.07445383600306567, -0.07977705979768744, -0.09486397364517139, -0.19505432656519447, 0.3141528621819916, -0.09327306806592243, -0.08416321564804545, 0.13360335063888573, 0.024283373726459806, -0.10166650904780461, 0.14465468334026862, 0.07317959545734043, 0.12377837701727529, 0.13017817999808245, -0.16771608330095697, 0.08246529912464791, -0.37597725115084873, -0.020273696202726357, 0.018424241033040852, 0.05795777442593635, -0.015628837626766662, -0.09607625337278078, 0.08917199370698635, -0.09279830238023125, 0.21439480899830238, 0.03019037938960675, 0.15479457265934446, 0.037393823257182816, -0.06667003742192541, -0.25779134268704434, 0.11280175660279404, 0.2674026721358477, 0.2311533678877757, -0.06868320347887813, 0.005266076067425629, 0.07326828829194315, 0.06977386278502697, 0.07078227619425526, -0.08789748725725537, -0.031569158396661655, -0.02177107801383702, 0.077139951200314, -0.08873320429866809, -0.24079549661217348, -0.11530184752524625, -0.097948922712139, -0.006699993903723175, -0.030658342442148604, -0.2456492901432298, -0.1418250818988624, -0.05641638675128868, 0.2193782687496408, 0.3596813115693313, -0.08345789073395263, -0.10738264821583159, 0.05021120159914519, -0.00211288412702277, 0.012382830684313376, -0.01742401740352063, -0.008917894852449955, 0.16169677839383026, -0.20674509039819824, -0.0706553638592994, 0.2745755868563379, 0.3263407625398073, 0.16992478634634908, -0.051414450384183644, 0.18148969860094297, 0.18808996370894088, 0.15581929463979202, 0.20825480675741562, 0.08656415475395125, -0.006540064417877473, -0.13935958657880365, -0.007038997872058601, -0.09692709553514085, -0.1414566119096365, -0.1265094358577333, 0.34077328156443776, -0.21159677922015305, 0.05335379424604289, -0.013739497880836662, -0.1394602901913077, -0.22375158879991558, -0.0009168534383347084, -0.1866587584137761, 0.09781213464005013, -0.07491193146008007, -0.09835181659830103, -0.3923040774700566, -0.1306772559122466, 0.04188062941324205, -0.019442798452118246, -0.14070249974544333, 0.11367118136808775, 0.15430652279958806, -0.09947252136538576, 0.02203895351860685, -0.028540775752334015, -0.032568926950314214, -0.1635051720923196, 0.14560314708448907, -0.045906623359449984, 0.2052853550018096, -0.4149510489560466, 0.10749251468537703, -0.1315454659470894, -0.1970405940199826, 0.13024422967000704, -0.11394441705383525, 0.26144681114101403, -0.014483006354840105, 0.2093828114586591, 0.017957859426693874, -0.05218398271949793, -0.21891290207426028, 0.12918320361071448, -0.0446564705997558, 0.10813517566880737, 0.29016038715248776, -0.16770861402323448, -0.08551841158954643, 0.1696893752448275, 0.30292659864757654, -0.02479632444120904, -0.1442882576509394, -0.014569986731929024, -0.006372735001729917, -0.20743266073990033, 0.021451019712649236, 0.13003957618478043, 0.03835187288633943, -0.06778079614130036, 0.03443362684172795, -0.2879779329013072, 0.14848903261329868, -0.0370741719398421, -0.06652829577334045, -0.3613494144797666, -0.0023188986088095546, 0.06304186745019229, -0.14353656934435047, -0.09519649086208275, 0.04779736186104703, 0.09696906652603975, -0.28900075948101195, -0.05129941310563884, 0.014518475026082599, 0.074396745605917, 0.21087777203225608, 0.322367712401389, -0.1699326969586589, 0.21940474973514162, -0.031450501175897885, -0.0634027356569894, 0.005152561145439784, -0.00031807957116497515, -0.07766243264450198, -0.07427979685522498, 0.08063016625013404, -0.2448261665755263, -0.17536805322820578, 0.2292179114510505, -0.1413075583821643, 0.004690225266156045, 0.019110581348192646, 0.022297076480687093, -0.045336447216269685, 0.28712478070819325, -0.008380828030080638, 0.2107407733185503, 0.018323466753095204, -0.2612328079655204, -0.05158136321673827, -0.18805699330687628, 0.34038939305570015, -0.10154278653040934, -0.23132138814410577, 0.02797625543159372, -0.2796849521538881, -0.13497376148117532, 0.12725646058120857, -0.06460714091533634, 0.3574317517138815, 0.005418010218428379, 0.09822126596770153, -0.33703251068236795, 0.10341695194631297, 0.010891344295803865, 0.0486366046521332, 0.16831029001622197, -0.04166083524298697, 0.018976588034567934, -0.10944882417253525, -0.03823205834266674, 0.16182960154316892, 0.14185820560567267, -0.1188233661657857, -0.034545892469796564, 0.009300055146868373, -0.2474040985430405, 0.053143783786724436, -0.15372911668375905, 0.08059953717665837, -0.10524636845862526, 0.0834342399278054, 0.24800344074169162, 0.18002398569272898, -0.06904219147902425, 0.2864161588921737, 0.03033844361594736, -0.16843825719568767, 0.2780119056786236, -0.08153953137943531, 0.2284066002036926, 0.06478865173541358, -0.04448867483724725, -0.32279721572037595, -0.01703567861481512, -0.10707464051055521, 0.032021475731604944, 0.019412834702684702, -0.193053796080828, -0.14248044846404892, -0.2462600964011465, -0.017605147769720792, -0.01468019271487166, -0.13060860163942262, 0.09437380834662638, -0.06577826502208611, 0.006929685100475338, -0.018570095148603607, -0.2279528038552251, -0.01667093604642536, 0.21262817793535638, -0.2699684667946865, -0.09840622956464595, -0.0712264357652698, -0.010029787136788499, -0.05001565312655182, -0.12028271137240729, 0.22894108848043626, -0.13498231036277103, 0.021005672102568734, -0.061881068655965744, -0.06481248376698816, -0.17253861987507693, 0.031800414264032045, 0.0042192058113915435, 0.27678732788465776, 0.15856262929890186, -0.061507316317523736, -0.013702841105233326, 0.25805020299937836, -0.14146790915319435, -0.16013312097559868, 0.06689316448486066, -0.06866850054079278, 0.07068537572558346, -0.08371409761499808, 0.044912630792643383, -0.042172567266438164, 0.14121640631673135, 0.1379440911194868, -0.09790962413414543, -0.2144676069518132, 0.030986204920258362, -0.009226724137748579, 0.1678473616617681, -0.12307759954542433, -0.09749445267546847, -0.3029410236159451, 0.043561961265806484, -0.1424200740864123, -0.030693781622015023, 0.008045812938487266, 0.15878278980149785, -0.15663926002599712, -0.2592563534650949, 0.17439018104628834, 0.0922885501816676, -0.16024946641398474, -0.05451757138042157, 0.15886798801380703, -0.13517561212777418, -0.11929265633454283, -0.11096247350012224, 0.22479141180694606, -0.08743227568980935, 0.015726740625603385, 0.007673344944214065, 0.1485818166527527, 0.10396765730151049, 0.08232642978920386, -0.05826369099540293, 0.15563853659920168, -0.20021919675141062, 0.05119419397983386, -0.03334152313773373, 0.1199627549385148, -0.3112398103158025, 0.10270847962178291, 0.18142078073821982, 0.002799734852925196, 0.17083165052839294, -0.23295712676705935, -0.2209405800473676, -0.17004311709935904, 0.04024593461670387, -0.18343753734758997, -0.07183567514061091, 0.2421581481327406, -0.18114807516795534, 0.17910506068642032, -0.13309189720910738, -0.03514265688082177, -0.11427620547328914, -0.07889893588077942, 0.16079046640775785, -0.09574641852202832, -0.0530507553856328, 0.04234938064967421, 0.14490393602492369, 0.011298871588755042, -0.0594780005362464, -0.008063064601639726, -0.01877928490094173, 0.1640901629778088, -0.10840391386783083, 0.18265251101439117, -0.10016354690162578, -0.18839565125990407, -0.0353513602377415, 0.28320219083375836, -0.14745636241799506, 0.011138421975937994, -0.009236159635292684, -0.3181257058379528, -0.07147805023812404, -0.011486341639743346, 0.1628228044518477, -0.03399291688374755, -0.058162158602631506, -0.011381059437343398, -0.28195707040638684, -0.010769221835050897, -0.0029825781500812747, 0.15309421938810056, 0.08219779673874099, -0.03995224769032365, -0.06850752188475522, 0.06781299212529024, 0.15115141100316967, -0.16683135299595414, -0.08530274932043753, 0.11131236015338351, -0.055705627853046065, -0.0669523868467042, -0.07289966317462522, 0.03749548842428013, -0.027816350700339606, 0.09598695546709184, 0.12080616200120588, 0.013156610619134238, 0.13602961837422933, 0.08233115181246026, -0.04265262568505228, 0.021514678609889284, 0.05340498407413694, -0.20932203003271782, -0.022005407045709496, -0.25959997472384877, 0.16112397586903784, 0.003014656096368875, -0.06584261564673372, 0.13390164876569055, 0.2044871435847896, 0.04872123912055736, 0.2683335750957223, 0.26969181936648146, 0.029830082695647395, 0.08276443708796215, -0.18693105115238137, 0.048155360104568355, 0.09283463555873563, 0.21775074197510713, 0.06042881837906845, 0.17898479917695506, -0.3397856458554554, 0.1577546824140274, 0.2478490595732336, 0.025904205853664673, 0.030072166469000763, 0.012528244288677375, 0.32583922418842565, -0.13906188535855143, 0.13168871561128626, 0.30508184580504855, 0.024381940944977747, 0.19125930877820307, 0.13769077744827954, 0.3148485358044081, 0.08168863246700532, -0.100998199377933, 0.2348276492480825, 0.0014091581115438093, -0.02399798203005692, 0.3422191506579306, 0.012066366736841904, -0.05991786907145465, 0.05993852852763569, 0.20001941770498707, -0.01083571476020107, 0.0792702821676381, 0.19809804421766525, 0.023993040189457183, 0.1857080460100758, -0.02006819143455142, -0.008360447539413217, -0.12378993090664762, -0.10968872529295848, 0.21230005221215606, 0.17614278951467224, 0.06344645225083075, 0.21877593596994832, 0.2852172012682038, 0.09413985598564206, 0.15128341049916627, 0.02934325038987283, -0.20235011735781433, -0.041038620170241985, -0.1456161185456848, -0.0054346977745004296, 0.15731277060126378, -0.001575368859154893, -0.03245216607832033, 0.09343192825371244, -0.2075172292245723, 0.08293055807472872, 0.26500153484921335, -0.418965095428952, 0.2356003075350371, 0.07959665277412006, -0.12133841582264221, 0.17028516449444836, -0.1850780356250045, 0.014767108987613114, -0.2821661088085341, -0.10865754989076691, -0.044591038502799996, 0.010403821277630645, 0.011544006689468537, 0.35595638238100236, -0.11025365673950349, 0.12160731249394999, 0.03629388024389092, -0.32611645815889745, 0.02898280238899855, -0.03310118711756138, 0.03871020020665599, -0.11359847099545031, 0.012441151894683491, 0.04740519557475532, 0.0603100302367467, -0.012275384092695947, -0.06060997149192586, 0.01888130181781397, 0.2840207458319368, 0.09867555855866239, -0.09410955980747528, -0.14017073848742, -0.1437674888519565, 0.364575447103364, -0.13994528158131453, 0.07343611243288099, -0.12579856754819013, 0.21717020358634284, 0.1355056963334702, -0.14038592100706387, -0.01758065904690825, 0.18933295698128053, 0.18824604082868843, 0.19218865244183436, -0.011323678197531054, 0.18801032284683386, -0.0074244628904394806, 0.15248428177485884, -0.1676960847818272, 0.03607288740849566, 0.07668424409753227, -0.013346362843764862, 0.07663778929717778, -0.2134780295087265, 0.10495935926285382, 0.08778943738992452, 0.09775448818321615, -0.059898279787810565, -0.21984407209432053, -0.1209284533053107, -0.4052602452684315, 0.13588979770502985, -0.27498048749468224, -0.2078573690368423, -0.32019313863795634, -0.2814103428567363, -0.05227503188785129, 0.06061753297221856, -0.13481006646719362, -0.12705966685021658, 0.19878158101756296, -0.2466467211926644, -0.11825895352160178, 0.13064002700623448, 0.25351741408050255, 0.3855174617194658, 0.03049167110333661, 0.0720783248310023, -0.12988414007429216, -0.021686897406325532, -0.005399184837168077, -0.1579218503550501, 0.23556719888778352, -0.06383527376543999, -0.04802475261691702, -0.20153455393123834, 0.06417094363000705, -0.1859082377611865, -0.03648312790043019, 0.14927068213702296, -0.2168605070869192, -0.05290990358462705, 0.49787943502275317, 0.09240082923947474, -0.2885694432963058, -0.2842119797700329, 0.040218182961713596, -0.03376347249016258, -0.024747432290077098, 0.12069814687217156, 0.00392964670106049, -0.15834006145944046, 0.019298090525565338, -0.13176743320107773, -0.25943558134754957, 0.1334104203871659, 0.157827926388393, 0.10290613085523771, 0.15714791239928855, 0.16714987448042398, 0.07144101446519102, -0.08925314222809966, 0.1471068604590672, -0.17950133529042148, 0.029772621381190825, 0.22762615606840342, 0.20319629957857785, 0.08914554876617414, 0.0048451474830314865, 0.07974402818151335, 0.14542304636678083, 0.4241505690372726, 0.10573418235927101, 0.1318941787937684, 0.15962368291349535, -0.14053634984315416, -0.013185464819065965, -0.16975933574549976, -0.06349300144240486, -0.2081076917652605, -0.0570694080031996, 0.14562965892239188, -0.015356304253294489, -0.16728815647348494, 0.19923204086740304, 0.07243506633543081, -0.24899411041660685, -0.14348831744324878, -0.2462066788462039, 0.15502077765114125, -0.03508551616786785, 0.25487958694912705, 0.17061078497398088, -0.14227748089165704, -0.11958497385191325, 0.12174481034644855, 0.0862013734301219, -0.025819498189759357, -0.2399139310259763, 0.11220042322126347, 0.05364072962010803, 0.17296184301425263, 0.03193821788400174, -0.03496443924254083, -0.06163021560507441, 0.07560368006103872, -0.2556279699746161, -0.033618872945710816, -0.04886372082956842, 0.2588452460889314, -0.15725492525139131, 0.2504511475723761, 0.13575190175412868, 0.1477267104931802, 0.19285154227343668, 0.22837106752828362, -0.26053931137082387, 0.007818830627783175, 0.010833737059227412, 0.01268123192322077, 0.04993683773737309, 0.15081962859246348, -0.19753943546097935, -0.12813906869313532, 0.033056104117703385, -0.08027316475077284, 0.04097440914212872, -0.06139635157730069, 0.05956001592175414, 0.17654939616642007, -0.12043424361519839, -0.0997116532002321, 0.18383944470405145, 0.23300620194075222, -0.16561353566135578, -0.18924235523502334, 0.08488486116660279, 0.06741852644545192, 0.07575498861906203, -0.27134730668104845, -0.061166667075993005, -0.09807960773217446, -0.03619736542185651, 0.13359930067352274, 0.07381197658737354, 0.21378733942260508, -0.09398473481534474, 0.10497330131882832, 0.3666354817815641, -0.1596394250140211, 0.25808148482179843, 0.1401823564295147, -0.06947589280087936, 0.0035306456771326466, -0.10422474465044748, 0.3889730377566112, 0.0025971859091055206, 0.12397438663134809, 0.04110597510387099, -0.18914751161585944, -0.11461248348609644, -0.16681959649661043, -0.006674881069134222, 0.1377103875990666, 0.012565177103003537, -0.0756923935391838, 0.013936968099423961, 0.20148407599111123, -0.1146015782590362, 0.004726066586254526, 0.03724103996985926, -0.402882618175841, 0.21656070518054707, 0.00034610838998172365, -0.05252057658815185, -0.000122814639722767, 0.2645930576208008, -0.15058267984991866, -0.11215746546362931, 0.24585245620877308, -0.04575767810751875, -0.04195745931068214, -0.24968417435224965, 0.11772162292006387, 0.042391851889330215, -0.07298833215344605, -0.29517417901095694, 0.13099377781316207, -0.14786829715607552, 0.15240715325391926, -0.2548624012546066, -0.15241306228490376, 0.03327816237843474, 0.25305411160509084, -0.11090939741873367, 0.13665226186584128, 0.2133613754055775, -0.13581284192514345, -0.11546221520419005, -0.14531390317659693, 0.08891841010128478, 0.2204412266489605, 0.24691012942478888, -0.12880106047051423, -0.14083641981175618, 0.03756564674661982, -0.029114362286138635, -0.2579498874035555, 0.026040266258040477, 0.15066637588951795, -0.06548783973907019, -0.07009422898110253, 0.17688277319106627, 0.21984054354032892, 0.18171575061886677, -0.1433725839313202, -0.06781336749763928, 0.18256270901340116, -0.0336759153680667, -0.19671443178604328, -0.12926382400567343, -0.14908992218241693, -0.16750384561038642, -0.1376415595522649, -0.02803895733878018, -0.16866657523349696, 0.3256372057745, 0.17960768796569937, 0.022553521496972383, -0.010713995828752423, 0.07532604599728102, 0.09125604296582936, 0.01383217245503595, -0.04362459937874301, -0.10827010371926112, -0.18389154560451706, 0.12662605116751358, 0.13333435308985306], "policy_b1": [1.4555563246447994e-06, 3.599760459266439e-05, -2.0777203064079394e-05, -6.483614832921583e-06, -0.00020674055988678506, 3.273931148149593e-07, 2.756371106006308e-07, 9.93930057919694e-05, -8.522873705728768e-07, -8.544409495516384e-05, -6.916351450623472e-05, 1.29441509768915e-06, -1.316823844112838e-05, -1.1574674622279629e-06, 4.2148516720256125e-05, -0.0001713433592378369, 3.4163836369829842e-06, -2.5705554830284444e-05, 2.8346423744016875e-05, -2.9013845821743298e-05, 0.0003397653715044803, -3.1255406562871095e-06, 0.0005082448458174022, -4.847004847572685e-06, 1.0258911542256704e-06, -0.0002664261215076203, -0.00015338853026856773, -2.4431792162472487e-05, -0.0010226493441636002, -9.846824902311287e-07, -0.0002516695751676952, 3.898081546842158e-19], "policy_W2": [0.01028787505166698, 0.038363761347136004, -0.05902439012137557, 0.13302482493114218, -0.18304214608326982, 0.053926585175587516, -0.006591315756026047, 0.12074516348341008, -0.05001759223141361, 0.12564196557017365, 0.03362536787684074, -0.020891028193213475, 0.0784404500467811, -0.29587591319548623, 0.21327299186031184, -0.21884684486468783, -0.223726958532847, -0.19015822462947, -0.18004099031343868, -0.046697091389196206, -0.6341838925462666, -0.003815750636531994, 0.3307269656364333, 0.049010418442266133, -0.0028918393105683135, 0.42449197966359525, -0.3365006509473369, -0.11674607437631879, 0.30368408130098457, -0.025865739124519848, -0.22768523873670096, -0.45796047061523937], "policy_b2": -8.377783333130321e-19, "policy_temperature": 0.3}