{"type": "alphazero_linear", "value_weights": [0.04202206872280663, 0.027154233786082237, -0.028578834346111043, -0.00028902101299211713, 0.0033221088343017677, -0.003259764616056626, 0.00042478781571050347, -0.00031053056913570433, 7.769228373724854e-05, -0.00022549234896402425, 0.00385598130590476, -0.0035038550382381307, 0.012453875498983432, -0.013060250810743867, 9.642782731263579e-05, 0.0005868999509334787, -0.008765975555343133, 0.00017991223909029155, 0.00044505538577846996, 9.120510138292042e-05, -0.0008276280111198385, 0.005800777667164339, 0.00526561999187164, -0.0005099474844478024, 0.0009911294928313637, -0.0020928708475714815, -0.0005572358731167513, -0.0005099474844478024, -0.0005099474844478024, -0.0005099474844478024, 0.00045016886203923375, -0.0005375384525407573, -0.0010235783467538102, 0.01593635225622716, 0.0008707297732304767, 0.00896738157971721, -0.0006760312527271437, 0.0001006950525794685, 0.000324596639735335, -0.0007315114159301771, 0.0004649144743635839, 0.0017868004081496433, -0.0026660246637245405, 0.00042064445010418756, 0.0005979335503036224, -0.004221722689657027, 0.0032923187431769725, 0.0024251516337286012, 0.0023501916155469695, -0.0008398506413399572, 0.002248263747533109, -0.0016836782597131012, 0.0, 0.0018084488051160268, 3.654608993310492e-05, -0.00330527177428114, 0.004985335557683563, -1.865811162874061e-06, -0.005691437659347393, 0.003319715604030927, 0.00038783550501803456, -0.00067988496822347, -0.00899929275037468, 0.0088602367817091, -0.0012670156712204098, 0.00038483305525958706, -0.007587511967081658, -0.0035968063798692755, 0.006447819626829882, -0.00043337170268836967]}