{"type": "alphazero_linear", "value_weights": [1.1900925332903878, 0.9183672645975933, -0.9786933913043294, 0.03468330120213837, 0.09734855067696535, -0.14786412432075993, 0.014758651919496369, -0.015500838107193302, 0.03329383155398692, -0.02836209961483729, 0.4208849307086254, 0.4833604317149346, -0.2630145517014124, -0.20410779106000643, 0.36011270613435203, 0.11531701575821425, 0.20853082559096117, 0.2452628673665363, 0.0756621694083586, -0.06487772487654753, 0.00909951533550029, 0.03769846170478323, -0.07847493785419225, -0.1070096366270538, -0.012933123287149632, -0.09164996423085607, -0.035711415551130735, -0.1070096366270538, -0.1070096366270538, -0.1070096366270538, -0.04025809752680309, 0.00722198843146326, 0.08138888390933988, 0.3980952573466726, -0.17397523171360452, -1.0892047752475975, -0.10682882950088575, -0.041096459236389604, 0.013117733388631989, -0.12139809931005396, -0.23263977478848985, -0.23593389424862632, -0.1419051714588258, 0.013890714215986663, -0.15751200522225048, -0.13495091460217779, 0.09027871952314034, -0.1432664056758879, -0.02373685370243284, -0.05160708629133839, 0.17854728828863303, -0.1793512865134639, 0.0, 0.040833619709268056, -0.0007822300762561087, -0.00017249132281670293, 0.03528602751418642, -0.0066758194471104, 0.07495834433422803, -0.28770980163030907, 0.0418327860033685, -0.11253476536320503, -0.12319360967368985, -0.12697708880313374, -0.20524149325645033, 0.5589822110102343, -0.13214041501511956, 0.8860036577156839, 0.1306131595261105, 0.16083910313508512]}