{"type": "alphazero_linear", "value_weights": [0.0, 0.0, 0.0, 0.0, 0.0, 0.0, 0.0, 0.0, 0.0, 0.0, 0.0, 0.0, 0.0, 0.0, 0.0, 0.0, 0.0, 0.0, 0.0, 0.0, 0.0, 0.0, 0.0, 0.0, 0.0, 0.0, 0.0, 0.0, 0.0, 0.0, 0.0, 0.0, 0.0, 0.0, 0.0, 0.0, 0.0, 0.0, 0.0, 0.0, 0.0, 0.0, 0.0, 0.0, 0.0, 0.0, 0.0, 0.0, 0.0, 0.0, 0.0, 0.0, 0.0, 0.0, 0.0, 0.0, 0.0, 0.0, 0.0, 0.0, 0.0, 0.0, 0.0, 0.0, 0.0, 0.0, 0.0, 0.0, 0.0, 0.0], "policy_weights": [-9.135938982360887e-16, -1.7689755910099694e-15, -5.384104620476103e-16, -2.645289586336571e-15, -3.647685214900709e-15, -2.8975668027974286e-15, -9.362760950550417e-17, -2.664650932037212e-16, -6.217786380305888e-17, -2.0323244175421823e-16, -2.090168316204436e-15, -8.379061333663181e-16, -2.6115221096745403e-15, -3.781003288239046e-16, -1.947556699244421e-15, -2.610224921067445e-15, -2.4313537294595988e-15, -1.9364129502554814e-15, -2.7515728482830854e-15, -2.779527722181598e-15, -2.908863778524481e-15, -6.478194716774715e-16, -2.54865573090515e-15, -4.937179137742795e-15, -3.7555548948464845e-15, -3.2338715039159586e-16, -1.452830911130578e-16, -3.694457934022569e-15, -4.7703334338233395e-15, -4.937179137742795e-15, -1.297781276025795e-16, -8.868529537583736e-17, -3.0158167629856732e-15, -1.3486217351199637e-15, -4.8173270927875963e-17, -1.1932447217810625e-15, -3.7390166580120835e-15, -3.7392554396770435e-15, -2.94888052914312e-15, -2.9306789884340503e-15, -3.3167912860676535e-17, -2.9830304892897107e-16, -4.253541963095138e-17, -8.579941828445986e-16, -1.0306344761808312e-15, -1.0263535091305496e-15, -1.5183698123720612e-15, -3.026387293743384e-15, -1.183663766661981e-15, -8.958022864506354e-16, -2.1345083210834168e-15, -1.7209011248375885e-15, 0.0, -2.4257150819516907e-16, -2.230922576258431e-17, -2.3522740219962317e-16, -4.3927535220422637e-16, -9.523631883112668e-18, -8.413408858487518e-18, -5.249273238305816e-16, -1.42041597667869e-16, -7.100511178375136e-17, -3.3884800889651133e-16, -2.1673288164159196e-15, -1.7252971626206808e-16, -2.664906344234565e-16, -3.7933198249184735e-16, -2.6723415147422753e-15, -4.2359814200282645e-15, -4.588113693210818e-16, -0.037733230976688466, 0.1656475152815975, 0.016091767019426242, 0.1585194165628765, 0.39419680373725907, 0.8914860948666316, -0.25368356888269566, -0.30668880082766065, -0.25937095384154696, -0.7684650429392068, 0.2826993436456291, 0.20065093899626385, -0.021232799553154887, 0.2737746190175394, 0.2494033838726389], "policy_bias": -4.926840185825978e-15, "policy_temperature": 1.0, "benchmark_win_rate": 0.8, "benchmark_epoch": 6}